0 1 14 100 0.5
1 1 14 100 0.5
0 2 14 100 0.0128548
2 2 14 100 0.487145
11 2 14 100 0.5
3 3 14 100 0.5
6 3 14 100 0.421727
7 3 14 100 0.0761987
10 3 14 100 0.00207421
5 4 14 100 0.500001
11 4 14 100 0.499999
0 5 14 100 0.499984
4 5 14 100 0.5
6 5 14 100 1.63203e-05
0 6 14 100 0.000128964
6 6 14 100 0.0198736
8 6 14 100 0.500002
12 6 14 100 0.479995
6 7 14 100 0.00164907
7 7 14 100 0.497472
9 7 14 100 0.000792941
10 7 14 100 0.483702
11 7 14 100 8.56607e-05
12 7 14 100 0.0162983
0 8 14 100 0.500001
7 8 14 100 0.499999
9 9 14 100 0.500001
11 9 14 100 0.499999
0 10 14 100 0.495672
4 10 14 100 0.00432782
11 10 14 100 0.5
0 11 14 100 1
1 12 14 100 3.24298e-05
11 12 14 100 0.999968
0 13 14 100 0.406022
12 13 14 100 0.12481
13 13 14 100 0.469168
1 14 14 100 0.500002
13 14 14 100 0.499998
0 15 14 100 0.5
2 15 14 100 0.5
0 16 14 100 0.000594404
1 16 14 100 0.0115701
2 16 14 100 0.4913
13 16 14 100 0.496535
2 17 14 100 0.5
14 17 14 100 0.5
3 18 14 100 1
3 19 14 100 1
5 20 14 100 1
9 21 14 100 1
13 22 14 100 1
14 23 14 100 1
4 1 21 100 0.5
7 1 21 100 0.498707
17 1 21 100 0.00129357
1 2 21 100 0.5
8 2 21 100 0.5
0 3 21 100 0.558197
2 3 21 100 0.441803
0 4 21 100 0.5
8 4 21 100 0.5
1 5 21 100 0.520098
9 5 21 100 0.479902
0 6 21 100 0.5
5 6 21 100 0.5
0 7 21 100 0.499989
1 7 21 100 0.5
12 7 21 100 1.09283e-05
0 8 21 100 0.5
11 8 21 100 0.5
0 9 21 100 0.557813
6 9 21 100 0.102455
10 9 21 100 0.339732
2 10 21 100 0.5
3 10 21 100 0.49998
11 10 21 100 2.02718e-05
0 11 21 100 5.9307e-06
4 11 21 100 0.0361401
7 11 21 100 0.499994
16 11 21 100 0.46386
2 12 21 100 0.500001
9 12 21 100 0.499999
2 13 21 100 0.5
6 13 21 100 0.497945
11 13 21 100 4.84387e-05
17 13 21 100 0.00200599
0 14 21 100 0.0138772
2 14 21 100 0.500002
7 14 21 100 0.484241
13 14 21 100 0.00187975
0 15 21 100 0.941594
6 15 21 100 0.0462816
10 15 21 100 0.0121247
0 16 21 100 0.00303535
4 16 21 100 0.460501
15 16 21 100 0.5
16 16 21 100 0.0364637
0 17 21 100 0.000120803
2 17 21 100 0.5
6 17 21 100 0.00235639
17 17 21 100 0.497499
18 17 21 100 2.3756e-05
0 18 21 100 0.996174
5 18 21 100 0.00162979
13 18 21 100 0.00219667
0 19 21 100 0.5
3 19 21 100 0.0151792
11 19 21 100 0.484821
2 20 21 100 0.5
11 20 21 100 0.5
0 21 21 100 0.00298901
1 21 21 100 0.381835
3 21 21 100 0.00134932
12 21 21 100 0.552997
18 21 21 100 0.0608301
13 22 21 100 0.5
20 22 21 100 0.5
10 23 21 100 0.5
19 23 21 100 0.5
0 24 21 100 2.37956e-05
9 24 21 100 0.499999
15 24 21 100 0.499628
17 24 21 100 0.000348901
0 25 21 100 0.5
10 25 21 100 0.5
0 26 21 100 0.5
14 26 21 100 0.5
0 27 21 100 0.499943
12 27 21 100 5.72265e-05
14 27 21 100 0.5
0 28 21 100 0.0150525
8 28 21 100 0.0304595
9 28 21 100 0.454482
13 28 21 100 0.5
18 28 21 100 5.47767e-06
0 29 21 100 0.0141699
5 29 21 100 0.48583
21 29 21 100 0.5
0 30 21 100 0.262778
5 30 21 100 0.00262293
13 30 21 100 0.734599
19 31 21 100 1
20 32 21 100 1
21 33 21 100 1
3 1 24 100 1
0 2 24 100 0.185925
2 2 24 100 0.814075
3 3 24 100 1
0 4 24 100 0.0523769
1 4 24 100 0.947623
3 5 24 100 1
0 6 24 100 0.34173
6 6 24 100 0.630626
12 6 24 100 0.0276431
4 7 24 100 1
5 8 24 100 1
0 9 24 100 1
10 10 24 100 1
4 11 24 100 0.00225196
10 11 24 100 0.997748
0 12 24 100 1
11 13 24 100 1
0 14 24 100 0.0129055
13 14 24 100 0.987094
8 15 24 100 0.998598
14 15 24 100 0.00140201
9 16 24 100 1
15 17 24 100 1
16 18 24 100 1
17 19 24 100 1
19 20 24 100 1
19 21 24 100 1
0 22 24 100 0.999385
20 22 24 100 0.000615107
14 23 24 100 0.00349015
21 23 24 100 0.99651
22 24 24 100 1
0 25 24 100 0.994624
7 25 24 100 0.00375081
18 25 24 100 0.00162492
22 26 24 100 1
0 27 24 100 1
22 28 24 100 1
23 29 24 100 1
24 30 24 100 1
0 1 25 100 0.096678
15 1 25 100 0.903322
0 2 25 100 0.0644015
9 2 25 100 0.000369974
17 2 25 100 0.935229
0 3 25 100 1
0 4 25 100 0.87356
1 4 25 100 2.5807e-05
9 4 25 100 0.000184111
16 4 25 100 4.65688e-05
17 4 25 100 0.125678
24 4 25 100 0.000505471
2 5 25 100 1
2 6 25 100 1
1 7 25 100 0.988428
16 7 25 100 0.0115719
2 8 25 100 1
2 9 25 100 1
3 10 25 100 1
4 11 25 100 1
5 12 25 100 1
6 13 25 100 1
7 14 25 100 1
0 15 25 100 1
8 16 25 100 1
13 17 25 100 1
0 18 25 100 0.941219
15 18 25 100 0.0587807
11 19 25 100 1
0 20 25 100 0.100166
10 20 25 100 0.116856
14 20 25 100 0.782978
12 21 25 100 0.999914
15 21 25 100 8.62042e-05
17 22 25 100 1
17 23 25 100 1
18 24 25 100 0.996706
19 24 25 100 0.00329427
19 25 25 100 1
20 26 25 100 1
0 27 25 100 9.92487e-05
15 27 25 100 6.02016e-05
20 27 25 100 0.999841
0 28 25 100 1
0 29 25 100 0.146513
1 29 25 100 3.68757e-05
16 29 25 100 5.32535e-05
22 29 25 100 0.853397
9 30 25 100 0.000951685
23 30 25 100 0.999048
0 31 25 100 1
0 32 25 100 0.000318614
17 32 25 100 2.25084e-05
24 32 25 100 0.999659
25 33 25 100 1
0 1 26 100 0.0163339
1 1 26 100 0.983666
2 2 26 100 1
3 3 26 100 1
0 4 26 100 6.2112e-06
3 4 26 100 0.333333
4 4 26 100 0.333327
5 4 26 100 0.333334
0 5 26 100 0.331315
4 5 26 100 0.666665
19 5 26 100 0.00201928
3 6 26 100 0.333333
5 6 26 100 0.333332
6 6 26 100 0.332996
9 6 26 100 0.000338442
4 7 26 100 0.333334
7 7 26 100 0.666666
3 8 26 100 0.331104
8 8 26 100 0.666666
11 8 26 100 0.00222988
0 9 26 100 7.54463e-05
4 9 26 100 0.333334
6 9 26 100 9.0598e-05
9 9 26 100 0.333243
10 9 26 100 0.333257
0 10 26 100 0.00108192
5 10 26 100 0.332253
9 10 26 100 0.333309
10 10 26 100 0.333335
14 10 26 100 2.11368e-05
0 11 26 100 0.333333
6 11 26 100 0.333333
10 11 26 100 0.333333
0 12 26 100 0.6639
10 12 26 100 0.333333
11 12 26 100 6.35624e-06
23 12 26 100 0.00276037
0 13 26 100 0.0735924
7 13 26 100 0.333333
12 13 26 100 0.593031
19 13 26 100 4.30164e-05
3 14 26 100 6.90761e-05
8 14 26 100 0.333333
13 14 26 100 0.333333
14 14 26 100 0.333233
21 14 26 100 3.11647e-05
0 15 26 100 0.333333
14 15 26 100 0.333333
15 15 26 100 0.333333
12 16 26 100 0.333333
15 16 26 100 0.333333
16 16 26 100 0.333333
0 17 26 100 0.00443135
2 17 26 100 0.333334
16 17 26 100 1.74471e-05
17 17 26 100 0.328867
18 17 26 100 0.333351
0 18 26 100 0.666545
1 18 26 100 0.000122071
20 18 26 100 0.33331
23 18 26 100 2.3387e-05
0 19 26 100 0.325399
11 19 26 100 0.00363729
15 19 26 100 0.333333
17 19 26 100 0.00429747
18 19 26 100 0.333333
2 20 26 100 0.333334
20 20 26 100 0.333332
22 20 26 100 0.333334
11 21 26 100 0.000262902
14 21 26 100 4.20176e-05
18 21 26 100 0.333333
21 21 26 100 0.333028
22 21 26 100 0.333334
0 22 26 100 0.0141151
2 22 26 100 6.43639e-05
11 22 26 100 0.000497625
13 22 26 100 0.332836
18 22 26 100 0.245859
22 22 26 100 0.406284
23 22 26 100 0.000343633
0 23 26 100 0.666668
19 23 26 100 0.333332
0 24 26 100 0.0088626
17 24 26 100 0.324467
21 24 26 100 0.333331
22 24 26 100 0.333339
0 25 26 100 0.314364
14 25 26 100 0.333333
16 25 26 100 0.00243935
17 25 26 100 0.00112728
18 25 26 100 0.0154037
22 25 26 100 0.333332
0 26 26 100 0.305857
2 26 26 100 4.57704e-06
9 26 26 100 0.089686
13 26 26 100 0.000182062
14 26 26 100 0.178372
18 26 26 100 0.000308936
19 26 26 100 8.68151e-05
21 26 26 100 0.0933038
22 26 26 100 0.00795886
23 26 26 100 0.324079
24 26 26 100 0.000161355
0 27 26 100 0.356863
20 27 26 100 2.3387e-05
23 27 26 100 0.30978
24 27 26 100 0.333333
21 28 26 100 0.333334
24 28 26 100 0.333331
25 28 26 100 0.333334
21 29 26 100 0.333333
25 29 26 100 0.333333
26 29 26 100 0.333333
0 30 26 100 0.494477
1 30 26 100 2.39789e-05
10 30 26 100 0.000594928
20 30 26 100 0.00490401
26 30 26 100 0.5
22 31 26 100 1
0 32 26 100 0.000856429
23 32 26 100 0.999144
25 33 26 100 1
26 34 26 100 1
29 1 32 100 1
29 2 32 100 0.500004
30 2 32 100 0.499996
1 3 32 100 0.500003
4 3 32 100 0.497425
25 3 32 100 0.00257191
2 4 32 100 0.499896
3 4 32 100 0.5
19 4 32 100 0.000103368
3 5 32 100 0.5
5 5 32 100 0.5
0 6 32 100 0.000572616
4 6 32 100 0.500009
8 6 32 100 0.492881
10 6 32 100 0.002273
21 6 32 100 5.22778e-05
25 6 32 100 6.7922e-06
28 6 32 100 0.00420537
0 7 32 100 0.499782
9 7 32 100 0.5
18 7 32 100 9.09742e-06
24 7 32 100 0.000209411
0 8 32 100 0.00188444
1 8 32 100 0.0109579
2 8 32 100 0.00131388
5 8 32 100 0.5
6 8 32 100 0.000149963
7 8 32 100 0.000107228
9 8 32 100 0.281938
10 8 32 100 0.177581
11 8 32 100 0.0174569
13 8 32 100 4.89412e-05
18 8 32 100 4.22362e-05
28 8 32 100 0.00851938
1 9 32 100 0.49204
9 9 32 100 0.5
16 9 32 100 0.00115844
17 9 32 100 0.00680144
0 10 32 100 0.00221025
2 10 32 100 0.00524601
10 10 32 100 0.00121295
11 10 32 100 0.499853
13 10 32 100 0.4855
16 10 32 100 0.00235325
18 10 32 100 9.96465e-05
28 10 32 100 4.49306e-05
30 10 32 100 0.0034802
12 11 32 100 0.999403
16 11 32 100 0.000597451
0 12 32 100 0.500001
13 12 32 100 0.499999
6 13 32 100 0.5
14 13 32 100 0.5
7 14 32 100 0.5
15 14 32 100 0.5
1 15 32 100 0.00100739
8 15 32 100 0.5
16 15 32 100 0.463196
17 15 32 100 0.0357964
0 16 32 100 0.500001
20 16 32 100 0.499999
0 17 32 100 0.499278
1 17 32 100 0.000721668
10 17 32 100 0.5
0 18 32 100 0.00467887
14 18 32 100 0.495322
19 18 32 100 0.499999
0 19 32 100 0.000900357
4 19 32 100 1.15318e-05
8 19 32 100 5.16765e-05
10 19 32 100 0.000196613
13 19 32 100 0.492593
18 19 32 100 0.00740678
21 19 32 100 0.492085
25 19 32 100 0.0001429
28 19 32 100 0.00661235
14 20 32 100 0.5
22 20 32 100 0.5
0 21 32 100 0.00930938
17 21 32 100 0.499997
23 21 32 100 0.490694
0 22 32 100 0.0209193
15 22 32 100 0.477468
24 22 32 100 0.499998
31 22 32 100 0.00161455
17 23 32 100 0.5
26 23 32 100 0.5
24 24 32 100 0.499996
27 24 32 100 0.500004
0 25 32 100 1.52907e-05
6 25 32 100 0.499984
20 25 32 100 0.500001
0 26 32 100 1
21 27 32 100 0.5
30 27 32 100 0.5
0 28 32 100 0.455825
18 28 32 100 0.000211908
24 28 32 100 0.0439632
30 28 32 100 0.5
0 29 32 100 0.5
22 29 32 100 0.5
0 30 32 100 1.89833e-05
27 30 32 100 0.493287
29 30 32 100 0.0066921
31 30 32 100 0.500002
0 31 32 100 0.0485729
13 31 32 100 0.00191661
23 31 32 100 0.451443
30 31 32 100 0.498067
0 32 32 100 0.000456027
28 32 32 100 0.49954
32 32 32 100 0.500003
0 33 32 100 1
25 34 32 100 1
0 35 32 100 0.070677
26 35 32 100 0.929323
0 36 32 100 1
27 37 32 100 1
0 38 32 100 0.00267241
28 38 32 100 0.997328
0 39 32 100 1
27 40 32 100 0.999666
29 40 32 100 0.00033407
0 41 32 100 0.0119218
15 41 32 100 0.000139824
31 41 32 100 0.987938
31 42 32 100 1
32 43 32 100 1
3 1 35 100 1
0 2 35 100 0.968313
2 2 35 100 0.0316711
20 2 35 100 1.56536e-05
5 3 35 100 1
0 4 35 100 0.999963
4 4 35 100 3.74902e-05
0 5 35 100 2.3513e-05
6 5 35 100 0.999977
0 6 35 100 0.986311
1 6 35 100 0.0136885
0 7 35 100 2.19978e-05
5 7 35 100 0.972225
28 7 35 100 0.0277531
6 8 35 100 1
8 9 35 100 1
0 10 35 100 0.998514
1 10 35 100 0.00148638
0 11 35 100 0.00163245
6 11 35 100 1.26548e-05
7 11 35 100 0.0010449
10 11 35 100 0.260612
12 11 35 100 0.736698
12 12 35 100 1
13 13 35 100 1
0 14 35 100 0.997358
1 14 35 100 0.00264169
11 15 35 100 1
0 16 35 100 1
11 17 35 100 1
11 18 35 100 1
0 19 35 100 0.00609854
14 19 35 100 0.993901
15 20 35 100 1
13 21 35 100 1
17 22 35 100 1
6 23 35 100 0.00716411
19 23 35 100 0.992836
0 24 35 100 0.175234
16 24 35 100 0.822657
23 24 35 100 0.000182022
25 24 35 100 0.00192691
8 25 35 100 1
9 26 35 100 1
10 27 35 100 1
23 28 35 100 0.999964
30 28 35 100 3.59676e-05
0 29 35 100 0.997506
2 29 35 100 7.34061e-05
20 29 35 100 0.00242025
21 30 35 100 1
0 31 35 100 3.93598e-05
16 31 35 100 4.34008e-05
23 31 35 100 0.999917
22 32 35 100 1
0 33 35 100 0.855457
32 33 35 100 0.144543
0 34 35 100 0.000179133
16 34 35 100 0.000157543
23 34 35 100 0.999643
25 34 35 100 2.03717e-05
19 35 35 100 1
27 36 35 100 1
31 37 35 100 1
0 38 35 100 1
24 39 35 100 1
26 40 35 100 1
0 41 35 100 0.999786
1 41 35 100 0.000213814
5 42 35 100 0.00108804
28 42 35 100 0.998912
0 43 35 100 1
33 44 35 100 1
34 45 35 100 1
35 46 35 100 1
12 1 39 100 1
14 2 39 100 1
7 3 39 100 1
2 4 39 100 1
3 5 39 100 1
0 6 39 100 0.000214485
6 6 39 100 0.999786
0 7 39 100 0.757508
1 7 39 100 0.238241
4 7 39 100 0.00199821
18 7 39 100 0.00152293
21 7 39 100 0.000637322
28 7 39 100 9.2512e-05
5 8 39 100 1
3 9 39 100 1
0 10 39 100 0.988231
1 10 39 100 0.00957337
4 10 39 100 0.000348572
18 10 39 100 0.00131443
21 10 39 100 8.25899e-05
28 10 39 100 0.000449859
3 11 39 100 1
1 12 39 100 0.00224176
4 12 39 100 0.993285
18 12 39 100 0.00373014
21 12 39 100 0.000300324
24 12 39 100 0.000406411
28 12 39 100 3.63152e-05
6 13 39 100 1
8 14 39 100 1
0 15 39 100 1
9 16 39 100 1
0 17 39 100 0.999814
13 17 39 100 0.000186238
16 18 39 100 1
17 19 39 100 0.999871
27 19 39 100 0.0001292
0 20 39 100 1.32836e-05
20 20 39 100 0.999987
17 21 39 100 8.12321e-05
24 21 39 100 0.999919
0 22 39 100 1
25 23 39 100 1
0 24 39 100 0.99996
13 24 39 100 4.01435e-05
26 25 39 100 1
30 26 39 100 1
30 27 39 100 1
31 28 39 100 0.99469
32 28 39 100 0.00531022
0 29 39 100 0.0525022
29 29 39 100 0.947498
15 30 39 100 0.00225914
19 30 39 100 0.997274
29 30 39 100 0.000467199
22 31 39 100 1
23 32 39 100 1
0 33 39 100 1
20 34 39 100 1
0 35 39 100 1
0 36 39 100 0.0759362
1 36 39 100 1.40921e-05
18 36 39 100 0.00393861
21 36 39 100 0.0019366
28 36 39 100 0.918175
0 37 39 100 1.3921e-05
22 37 39 100 0.999986
0 38 39 100 0.00729065
17 38 39 100 0.000173866
27 38 39 100 0.992535
25 39 39 100 1
26 40 39 100 1
0 41 39 100 0.00123901
27 41 39 100 0.998761
17 42 39 100 1.32106e-05
27 42 39 100 0.999987
30 43 39 100 1
31 44 39 100 0.0371369
32 44 39 100 0.962863
0 45 39 100 0.994889
29 45 39 100 0.00511097
35 46 39 100 1
0 47 39 100 0.995087
29 47 39 100 0.00491309
33 48 39 100 1
34 49 39 100 0.999574
37 49 39 100 0.000426297
10 50 39 100 1
0 51 39 100 0.000105974
11 51 39 100 0.999894
34 52 39 100 0.000419851
37 52 39 100 0.99958
34 53 39 100 0.000127033
37 53 39 100 0.999318
38 53 39 100 0.000554574
36 54 39 100 1
34 55 39 100 0.000124548
37 55 39 100 0.999875
34 56 39 100 8.34493e-05
37 56 39 100 0.000255178
38 56 39 100 0.999661
38 57 39 100 1
39 58 39 100 1
1 1 40 100 1
1 2 40 100 1
1 3 40 100 1
1 4 40 100 1
1 5 40 100 1
2 6 40 100 1
3 7 40 100 0.999941
11 7 40 100 5.85825e-05
4 8 40 100 0.999943
14 8 40 100 1.9677e-05
26 8 40 100 2.44055e-05
38 8 40 100 1.31911e-05
5 9 40 100 0.993331
12 9 40 100 0.00666868
6 10 40 100 1
0 11 40 100 1
0 12 40 100 1.45028e-05
8 12 40 100 0.999986
9 13 40 100 1
0 14 40 100 0.000484069
8 14 40 100 0.999516
7 15 40 100 1
0 16 40 100 0.0214158
10 16 40 100 0.978584
13 17 40 100 1
0 18 40 100 0.997181
21 18 40 100 0.00281872
0 19 40 100 0.000288142
16 19 40 100 0.753656
25 19 40 100 0.193384
36 19 40 100 0.0526712
37 20 40 100 1
0 21 40 100 1
27 22 40 100 1
27 23 40 100 1
15 24 40 100 1
0 25 40 100 0.345695
6 25 40 100 0.000205827
35 25 40 100 0.654099
18 26 40 100 0.999576
35 26 40 100 0.000424219
19 27 40 100 1
0 28 40 100 0.0190496
20 28 40 100 0.98095
16 29 40 100 1
22 30 40 100 1
23 31 40 100 1
23 32 40 100 1
23 33 40 100 1
23 34 40 100 1
0 35 40 100 1
25 36 40 100 1
31 37 40 100 1
0 38 40 100 2.36181e-05
30 38 40 100 0.999976
0 39 40 100 1
29 40 40 100 1
30 41 40 100 1
0 42 40 100 0.999756
20 42 40 100 0.000244375
32 43 40 100 1
33 44 40 100 1
0 45 40 100 0.998848
21 45 40 100 0.00115193
34 46 40 100 1
0 47 40 100 1.29507e-05
27 47 40 100 0.999987
28 48 40 100 1
39 49 40 100 1
40 50 40 100 1
0 1 45 100 0.492397
18 1 45 100 0.5
39 1 45 100 0.007603
0 2 45 100 0.5
41 2 45 100 0.5
18 3 45 100 0.5
41 3 45 100 0.5
0 4 45 100 0.999862
2 4 45 100 0.000137834
0 5 45 100 0.795939
2 5 45 100 0.184684
17 5 45 100 0.00120583
30 5 45 100 0.00481581
40 5 45 100 0.0133554
6 6 45 100 0.5
41 6 45 100 0.5
0 7 45 100 0.000948549
6 7 45 100 0.488788
7 7 45 100 0.0102243
10 7 45 100 3.77071e-05
36 7 45 100 0.499605
42 7 45 100 0.000397295
6 8 45 100 0.5
37 8 45 100 0.5
0 9 45 100 1
3 10 45 100 0.499724
5 10 45 100 0.000275435
38 10 45 100 0.500001
0 11 45 100 0.500001
3 11 45 100 0.000213817
9 11 45 100 4.03082e-05
22 11 45 100 2.2659e-05
28 11 45 100 0.000135752
31 11 45 100 0.000207123
34 11 45 100 0.000723811
36 11 45 100 0.000399007
40 11 45 100 6.39465e-06
42 11 45 100 0.498251
3 12 45 100 0.498692
5 12 45 100 0.00130783
11 12 45 100 0.000229829
32 12 45 100 0.499771
1 13 45 100 0.5
5 13 45 100 0.5
0 14 45 100 0.499974
8 14 45 100 0.5
39 14 45 100 2.63459e-05
0 15 45 100 0.5
4 15 45 100 0.5
5 16 45 100 0.5
9 16 45 100 0.5
0 17 45 100 9.60607e-06
6 17 45 100 0.500152
7 17 45 100 5.81834e-05
10 17 45 100 0.00303376
11 17 45 100 0.496746
4 18 45 100 0.5
12 18 45 100 0.5
0 19 45 100 0.00352892
2 19 45 100 0.496421
12 19 45 100 0.5
18 19 45 100 5.03459e-05
1 20 45 100 0.492256
5 20 45 100 0.500001
19 20 45 100 0.00762232
23 20 45 100 4.82694e-05
28 20 45 100 7.23388e-05
6 21 45 100 0.5
13 21 45 100 0.5
0 22 45 100 0.499996
14 22 45 100 0.0101752
39 22 45 100 7.10788e-06
41 22 45 100 0.489822
0 23 45 100 0.499928
7 23 45 100 0.5
22 23 45 100 3.27342e-05
36 23 45 100 3.88576e-05
8 24 45 100 0.5
42 24 45 100 0.5
10 25 45 100 0.5
43 25 45 100 0.5
14 26 45 100 4.32388e-05
15 26 45 100 0.000164342
29 26 45 100 0.499989
44 26 45 100 0.499804
0 27 45 100 0.499855
3 27 45 100 6.76602e-06
28 27 45 100 0.000138326
32 27 45 100 0.5
30 28 45 100 0.5
31 28 45 100 0.5
16 29 45 100 0.500002
28 29 45 100 1.05716e-05
31 29 45 100 0.49978
42 29 45 100 0.000206994
11 30 45 100 0.499579
12 30 45 100 0.000193393
15 30 45 100 0.499998
32 30 45 100 0.000230172
0 31 45 100 0.0154586
2 31 45 100 0.00120031
13 31 45 100 0.5
17 31 45 100 0.47818
30 31 45 100 0.00426416
40 31 45 100 0.000896925
16 32 45 100 0.5
20 32 45 100 0.499991
24 32 45 100 9.28902e-06
0 33 45 100 0.5
17 33 45 100 0.5
19 34 45 100 0.5
20 34 45 100 0.5
0 35 45 100 1
3 36 45 100 5.39193e-06
20 36 45 100 0.5
21 36 45 100 0.499994
0 37 45 100 0.5
21 37 45 100 0.5
0 38 45 100 0.500002
21 38 45 100 0.499998
21 39 45 100 0.5
23 39 45 100 0.5
0 40 45 100 0.000722397
22 40 45 100 0.499278
24 40 45 100 0.5
0 41 45 100 0.487857
2 41 45 100 0.0016675
17 41 45 100 0.00100996
25 41 45 100 0.499819
26 41 45 100 0.000181207
30 41 45 100 0.00838971
40 41 45 100 0.00107536
24 42 45 100 0.499999
27 42 45 100 0.500001
0 43 45 100 0.500001
22 43 45 100 3.09101e-05
28 43 45 100 0.000469544
34 43 45 100 0.498776
42 43 45 100 0.000722989
25 44 45 100 0.5
35 44 45 100 0.5
0 45 45 100 0.983025
2 45 45 100 0.00132201
17 45 45 100 0.000759111
30 45 45 100 0.013634
40 45 45 100 0.00125986
25 46 45 100 0.5
43 46 45 100 0.5
0 47 45 100 0.5
44 47 45 100 0.5
26 48 45 100 0.5
45 48 45 100 0.5
0 49 45 100 0.00127361
14 49 45 100 0.000223194
27 49 45 100 0.998164
33 49 45 100 0.000338753
29 50 45 100 1
0 51 45 100 1
32 52 45 100 1
0 53 45 100 1
32 54 45 100 1
32 55 45 100 1
0 56 45 100 0.00818564
14 56 45 100 0.000211922
27 56 45 100 0.00027306
33 56 45 100 0.991329
0 57 45 100 0.972684
2 57 45 100 0.00177961
17 57 45 100 0.00130458
30 57 45 100 0.0192259
40 57 45 100 0.00500579
32 58 45 100 1
0 59 45 100 1
34 60 45 100 1
0 61 45 100 0.00230304
36 61 45 100 0.997697
0 62 45 100 0.0111586
6 62 45 100 0.0714192
7 62 45 100 0.00200591
10 62 45 100 0.00014149
37 62 45 100 0.915275
35 63 45 100 1
37 64 45 100 1
0 65 45 100 1
38 66 45 100 1
39 67 45 100 1
41 68 45 100 1
0 69 45 100 1
42 70 45 100 1
0 71 45 100 4.10796e-05
42 71 45 100 0.999959
0 72 45 100 1
44 73 45 100 1
45 74 45 100 1
0 1 50 100 0.281804
1 1 50 100 0.000927054
6 1 50 100 0.000128461
7 1 50 100 6.73923e-05
27 1 50 100 0.210759
30 1 50 100 0.499999
31 1 50 100 8.20965e-05
32 1 50 100 0.00609392
40 1 50 100 0.000130671
45 1 50 100 8.59416e-06
0 2 50 100 0.5
28 2 50 100 0.5
0 3 50 100 0.500001
30 3 50 100 0.499999
0 4 50 100 0.48758
1 4 50 100 0.00304246
6 4 50 100 0.00349177
22 4 50 100 0.0114815
26 4 50 100 0.48852
27 4 50 100 0.00340063
31 4 50 100 6.77518e-06
32 4 50 100 0.00246165
40 4 50 100 1.51008e-05
0 5 50 100 7.44161e-05
13 5 50 100 0.5
28 5 50 100 6.23748e-05
30 5 50 100 0.499863
14 6 50 100 0.499948
27 6 50 100 8.30382e-05
31 6 50 100 0.499917
34 6 50 100 5.19261e-05
18 7 50 100 0.499998
28 7 50 100 0.500002
0 8 50 100 9.88292e-06
1 8 50 100 0.000273468
5 8 50 100 0.474623
14 8 50 100 0.0192908
19 8 50 100 1.3567e-05
29 8 50 100 0.499993
34 8 50 100 0.00579644
0 9 50 100 0.00384253
3 9 50 100 0.0247252
6 9 50 100 0.496159
16 9 50 100 0.475273
0 10 50 100 0.041361
5 10 50 100 0.499836
8 10 50 100 0.0320881
11 10 50 100 3.73868e-05
20 10 50 100 2.00472e-05
21 10 50 100 0.000106839
23 10 50 100 0.426551
0 11 50 100 0.5
3 11 50 100 0.488917
16 11 50 100 0.0110827
0 12 50 100 0.5
10 12 50 100 0.5
3 13 50 100 0.5
4 13 50 100 0.5
0 14 50 100 0.0499633
1 14 50 100 0.444324
6 14 50 100 0.000255294
7 14 50 100 0.501047
27 14 50 100 0.000349708
31 14 50 100 6.85085e-06
32 14 50 100 0.00403765
40 14 50 100 1.67993e-05
2 15 50 100 0.500001
4 15 50 100 0.499999
1 16 50 100 0.000737092
5 16 50 100 0.500003
7 16 50 100 0.498812
24 16 50 100 0.000212732
27 16 50 100 6.64635e-05
32 16 50 100 0.00015137
40 16 50 100 1.73723e-05
8 17 50 100 0.499999
39 17 50 100 0.500001
9 18 50 100 0.5
40 18 50 100 0.5
0 19 50 100 0.00017012
8 19 50 100 2.00022e-05
11 19 50 100 0.500003
41 19 50 100 0.499807
12 20 50 100 0.5
33 20 50 100 0.5
0 21 50 100 0.454473
6 21 50 100 0.00010505
10 21 50 100 9.67959e-05
13 21 50 100 0.498484
14 21 50 100 6.66831e-05
25 21 50 100 0.0125461
28 21 50 100 0.000474912
34 21 50 100 0.0326077
42 21 50 100 0.00114622
14 22 50 100 0.500045
32 22 50 100 0.493827
34 22 50 100 0.00612771
0 23 50 100 0.0020985
15 23 50 100 0.497902
33 23 50 100 0.5
16 24 50 100 0.500001
27 24 50 100 0.0105775
32 24 50 100 0.475324
33 24 50 100 0.0115319
38 24 50 100 0.00256582
0 25 50 100 0.00104686
17 25 50 100 0.500001
35 25 50 100 0.498952
0 26 50 100 0.0411425
9 26 50 100 0.426478
17 26 50 100 0.00321584
18 26 50 100 0.500001
19 26 50 100 0.00580447
29 26 50 100 0.0208004
47 26 50 100 0.00255769
16 27 50 100 0.499999
21 27 50 100 0.00272365
36 27 50 100 0.497269
45 27 50 100 8.42109e-06
0 28 50 100 0.499314
6 28 50 100 0.000237976
13 28 50 100 0.000195833
36 28 50 100 0.500238
46 28 50 100 1.4454e-05
0 29 50 100 0.00666011
17 29 50 100 0.499999
37 29 50 100 0.493341
23 30 50 100 0.5
27 30 50 100 2.04564e-05
32 30 50 100 0.00243412
38 30 50 100 0.497545
0 31 50 100 0.0510965
8 31 50 100 5.90324e-05
25 31 50 100 0.499837
26 31 50 100 0.000166602
40 31 50 100 0.448841
0 32 50 100 0.983765
1 32 50 100 0.00688452
6 32 50 100 0.000265112
7 32 50 100 5.46688e-06
27 32 50 100 0.00521243
32 32 50 100 0.00375662
40 32 50 100 0.000110573
0 33 50 100 0.000116684
24 33 50 100 9.24016e-06
25 33 50 100 0.499448
26 33 50 100 0.000424256
41 33 50 100 0.500002
0 34 50 100 0.499999
33 34 50 100 0.500001
33 35 50 100 0.5
41 35 50 100 0.5
34 36 50 100 0.5
41 36 50 100 0.5
0 37 50 100 0.0184693
25 37 50 100 0.00530705
26 37 50 100 0.494286
28 37 50 100 5.65193e-05
34 37 50 100 0.000131176
35 37 50 100 0.000738582
42 37 50 100 0.481011
0 38 50 100 0.5
43 38 50 100 0.5
0 39 50 100 0.499999
22 39 50 100 0.500001
0 40 50 100 0.00381973
28 40 50 100 0.496178
44 40 50 100 0.500002
19 41 50 100 0.499987
21 41 50 100 5.1987e-06
29 41 50 100 1.35668e-05
45 41 50 100 0.499994
25 42 50 100 0.494712
26 42 50 100 0.00426022
35 42 50 100 0.00102693
45 42 50 100 0.000660065
46 42 50 100 0.499341
0 43 50 100 0.0216448
5 43 50 100 2.00472e-05
20 43 50 100 0.478335
50 43 50 100 0.5
35 44 50 100 1
37 45 50 100 1
0 46 50 100 0.13197
6 46 50 100 3.09674e-05
36 46 50 100 0.867999
41 47 50 100 0.99999
46 47 50 100 1.04305e-05
38 48 50 100 1
18 49 50 100 0.000178166
39 49 50 100 0.999822
0 50 50 100 1
43 51 50 100 1
43 52 50 100 1
0 53 50 100 1
8 54 50 100 2.35041e-05
42 54 50 100 0.999977
0 55 50 100 0.0046535
44 55 50 100 0.995346
41 56 50 100 0.00177206
46 56 50 100 0.998228
0 57 50 100 0.999485
20 57 50 100 0.00051473
46 58 50 100 1
0 59 50 100 1.77351e-05
4 59 50 100 0.999828
18 59 50 100 1.22962e-05
47 59 50 100 0.000141854
18 60 50 100 3.6356e-05
47 60 50 100 0.999964
4 61 50 100 3.30654e-05
48 61 50 100 0.999967
49 62 50 100 1
50 63 50 100 1
0 1 66 100 0.0259053
1 1 66 100 0.474082
32 1 66 100 9.95437e-06
52 1 66 100 0.500003
2 2 66 100 0.5
53 2 66 100 0.5
0 3 66 100 1
0 4 66 100 0.5
56 4 66 100 0.5
3 5 66 100 0.500001
57 5 66 100 0.499999
4 6 66 100 0.499993
46 6 66 100 6.94407e-06
58 6 66 100 0.5
0 7 66 100 0.0261135
1 7 66 100 9.99319e-06
5 7 66 100 0.473959
19 7 66 100 1.40755e-05
24 7 66 100 9.18304e-06
32 7 66 100 3.34859e-05
51 7 66 100 0.499861
0 8 66 100 0.5
6 8 66 100 0.5
7 9 66 100 0.5
59 9 66 100 0.5
8 10 66 100 0.49997
12 10 66 100 3.08429e-05
25 10 66 100 5.99482e-06
55 10 66 100 0.499993
9 11 66 100 0.5
56 11 66 100 0.5
11 12 66 100 0.5
56 12 66 100 0.5
0 13 66 100 0.499716
23 13 66 100 0.000286455
25 13 66 100 0.499984
55 13 66 100 1.38197e-05
11 14 66 100 0.5
26 14 66 100 0.5
0 15 66 100 0.500002
5 15 66 100 7.90518e-06
8 15 66 100 3.08431e-05
10 15 66 100 0.000918238
12 15 66 100 0.498911
19 15 66 100 4.4763e-05
32 15 66 100 9.54717e-06
34 15 66 100 7.50931e-05
14 16 66 100 0.499994
28 16 66 100 0.5
42 16 66 100 6.36624e-06
0 17 66 100 0.00359685
15 17 66 100 0.496403
31 17 66 100 0.5
0 18 66 100 0.5
33 18 66 100 0.5
0 19 66 100 0.498932
1 19 66 100 9.30105e-06
5 19 66 100 5.49883e-05
12 19 66 100 5.79956e-05
19 19 66 100 0.000861071
32 19 66 100 8.46954e-05
34 19 66 100 0.5
16 20 66 100 0.5
44 20 66 100 0.5
0 21 66 100 0.5
41 21 66 100 0.5
0 22 66 100 0.997561
1 22 66 100 1.27473e-05
5 22 66 100 5.83447e-05
12 22 66 100 6.05483e-05
19 22 66 100 0.0021763
32 22 66 100 0.000130817
13 23 66 100 0.499949
41 23 66 100 5.05408e-05
48 23 66 100 0.5
17 24 66 100 0.5
46 24 66 100 0.5
18 25 66 100 0.498274
30 25 66 100 1.98768e-05
33 25 66 100 0.00170496
46 25 66 100 0.500001
0 26 66 100 1
18 27 66 100 0.500001
49 27 66 100 0.499999
0 28 66 100 0.5
20 28 66 100 0.5
0 29 66 100 0.000485497
16 29 66 100 0.00256997
22 29 66 100 0.484981
27 29 66 100 0.0119652
49 29 66 100 0.499998
24 30 66 100 0.5
49 30 66 100 0.5
0 31 66 100 0.000233903
21 31 66 100 0.5
24 31 66 100 0.49974
36 31 66 100 1.65701e-05
51 31 66 100 9.18301e-06
25 32 66 100 0.500002
38 32 66 100 0.499998
26 33 66 100 0.499816
27 33 66 100 0.000154203
38 33 66 100 2.69611e-05
39 33 66 100 0.500003
0 34 66 100 0.000960685
35 34 66 100 0.499999
40 34 66 100 0.499032
45 34 66 100 8.66712e-06
12 35 66 100 0.000673967
23 35 66 100 0.500002
29 35 66 100 0.499324
0 36 66 100 0.5
28 36 66 100 0.5
0 37 66 100 0.500002
19 37 66 100 0.499998
2 38 66 100 3.21781e-05
20 38 66 100 0.499968
30 38 66 100 0.155127
33 38 66 100 0.344873
0 39 66 100 0.499914
2 39 66 100 0.499968
20 39 66 100 3.21782e-05
34 39 66 100 8.62146e-05
0 40 66 100 0.5
30 40 66 100 0.363645
33 40 66 100 0.136355
3 41 66 100 1.03332e-05
21 41 66 100 0.49999
30 41 66 100 0.40764
33 41 66 100 0.0923603
0 42 66 100 0.437598
31 42 66 100 0.49706
32 42 66 100 8.84328e-05
37 42 66 100 0.0627936
43 42 66 100 0.00167689
60 42 66 100 0.000782859
0 43 66 100 0.5
35 43 66 100 0.5
0 44 66 100 0.494855
54 44 66 100 0.5
58 44 66 100 0.00514491
34 45 66 100 0.499999
36 45 66 100 0.500001
35 46 66 100 1
0 47 66 100 0.0584855
32 47 66 100 5.70014e-05
37 47 66 100 0.941458
9 48 66 100 0.499982
38 48 66 100 1.20334e-05
39 48 66 100 0.500006
39 49 66 100 0.5
40 49 66 100 0.5
0 50 66 100 0.478119
6 50 66 100 0.499313
11 50 66 100 1.34053e-05
43 50 66 100 0.0225543
3 51 66 100 0.500002
14 51 66 100 5.9735e-05
42 51 66 100 0.499938
0 52 66 100 0.5
4 52 66 100 0.5
0 53 66 100 0.499276
5 53 66 100 7.07334e-06
7 53 66 100 0.500002
19 53 66 100 9.6766e-06
32 53 66 100 0.000705095
8 54 66 100 0.499998
13 54 66 100 5.05412e-05
41 54 66 100 0.499952
0 55 66 100 0.5
44 55 66 100 0.5
0 56 66 100 2.71865e-05
10 56 66 100 0.500004
59 56 66 100 0.499969
0 57 66 100 0.500005
38 57 66 100 0.00914944
51 57 66 100 0.490845
3 58 66 100 0.499982
21 58 66 100 1.79528e-05
47 58 66 100 0.500001
3 59 66 100 0.5
48 59 66 100 0.5
4 60 66 100 0.5
45 60 66 100 0.5
0 61 66 100 0.00106325
5 61 66 100 0.498866
36 61 66 100 6.99235e-05
49 61 66 100 0.5
0 62 66 100 0.0114144
7 62 66 100 0.5
50 62 66 100 0.488586
12 63 66 100 0.5
52 63 66 100 0.5
9 64 66 100 0.000356381
18 64 66 100 0.499553
43 64 66 100 2.68604e-05
53 64 66 100 0.500003
55 64 66 100 6.14351e-05
0 65 66 100 0.5
14 65 66 100 0.5
17 66 66 100 0.5
54 66 66 100 0.5
9 67 66 100 8.51612e-06
18 67 66 100 0.49999
55 67 66 100 0.500001
0 68 66 100 0.475992
50 68 66 100 0.5
58 68 66 100 0.0240082
50 69 66 100 0.5
56 69 66 100 0.5
0 70 66 100 0.5
57 70 66 100 0.5
21 71 66 100 1.00965e-05
53 71 66 100 0.49999
61 71 66 100 0.5
1 72 66 100 7.88514e-05
15 72 66 100 0.499922
62 72 66 100 0.5
61 73 66 100 1
60 74 66 100 0.499999
62 74 66 100 0.500001
0 75 66 100 0.5
61 75 66 100 0.5
62 76 66 100 1
0 77 66 100 1.62912e-05
60 77 66 100 0.000707907
63 77 66 100 0.999276
0 78 66 100 0.999995
40 78 66 100 5.14131e-06
56 79 66 100 0.0003394
64 79 66 100 0.49966
65 79 66 100 0.5
64 80 66 100 1
64 81 66 100 0.5
66 81 66 100 0.5
57 82 66 100 1.27972e-05
65 82 66 100 0.999987
66 83 66 100 1
