2 0 100 17 0.0123152
6 0 100 17 0.00012355
11 0 100 17 0.479012
13 0 100 17 0.0295374
15 0 100 17 0.479012
1 1 100 17 0.99312
16 1 100 17 0.00687983
2 2 100 17 1
3 3 100 17 1
5 4 100 17 1
4 5 100 17 1
6 6 100 17 0.92338
7 6 100 17 0.0766204
7 7 100 17 0.498733
8 7 100 17 0.501267
13 8 100 17 1
7 9 100 17 0.00158337
9 9 100 17 0.998417
11 10 100 17 1
7 11 100 17 8.56534e-05
10 11 100 17 0.499958
12 11 100 17 0.499957
6 12 100 17 1
13 13 100 17 0.320098
14 13 100 17 0.341132
16 13 100 17 0.338769
17 14 100 17 1
1 0 100 23 0.174129
5 0 100 23 0.174123
8 0 100 23 0.174129
10 0 100 23 0.172621
11 0 100 23 0.174129
13 0 100 23 0.130663
16 0 100 23 0.000207005
12 1 100 23 6.38206e-05
14 1 100 23 0.983983
16 1 100 23 0.0159531
15 2 100 23 0.335278
16 2 100 23 0.329444
17 2 100 23 0.335278
18 3 100 23 0.5
19 3 100 23 0.5
10 4 100 23 1
20 5 100 23 1
3 6 100 23 0.999961
5 6 100 23 3.86973e-05
3 7 100 23 1
6 8 100 23 1
21 9 100 23 1
3 10 100 23 0.0042699
7 10 100 23 0.99573
2 11 100 23 0.250005
4 11 100 23 0.250003
9 11 100 23 0.250004
12 11 100 23 0.249988
7 12 100 23 0.115502
13 12 100 23 0.884498
22 13 100 23 1
23 14 100 23 1
1 0 100 29 0.00524283
3 0 100 29 0.106992
7 0 100 29 0.10699
9 0 100 29 0.0123954
11 0 100 29 0.106993
13 0 100 29 0.0236216
15 0 100 29 0.0944947
16 0 100 29 0.000649522
18 0 100 29 0.213959
19 0 100 29 0.106993
22 0 100 29 0.00453062
24 0 100 29 0.00284978
25 0 100 29 0.106993
26 0 100 29 0.000315351
27 0 100 29 0.106981
1 1 100 29 0.541846
5 1 100 29 0.0229017
18 1 100 29 0.000141548
21 1 100 29 0.435111
2 2 100 29 0.142853
10 2 100 29 0.142853
12 2 100 29 0.142853
13 2 100 29 0.142853
14 2 100 29 0.142853
17 2 100 29 0.142853
20 2 100 29 0.142853
22 2 100 29 2.75836e-05
26 2 100 29 1.96153e-06
3 3 100 29 0.499275
4 3 100 29 0.499274
14 3 100 29 0.000103464
21 3 100 29 0.00134736
5 4 100 29 0.501685
11 4 100 29 0.0362618
16 4 100 29 0.462053
6 5 100 29 1
9 6 100 29 0.688834
15 6 100 29 0.311166
1 7 100 29 0.499353
7 7 100 29 0.500647
2 8 100 29 0.333334
4 8 100 29 0.333334
8 8 100 29 0.333333
5 9 100 29 0.489764
10 9 100 29 0.510236
9 10 100 29 0.621138
12 10 100 29 0.369893
15 10 100 29 0.00896968
8 11 100 29 0.999212
21 11 100 29 0.000788084
7 12 100 29 2.45247e-05
13 12 100 29 0.874203
21 12 100 29 0.125644
27 12 100 29 0.000128425
28 13 100 29 1
10 14 100 29 3.17068e-05
14 14 100 29 0.499877
21 14 100 29 6.30299e-05
26 14 100 29 0.500028
15 15 100 29 0.500187
24 15 100 29 0.499813
11 16 100 29 0.463709
16 16 100 29 0.536291
1 17 100 29 0.00264891
24 17 100 29 0.997351
17 18 100 29 0.34963
19 18 100 29 0.349631
21 18 100 29 0.042536
22 18 100 29 0.257879
26 18 100 29 0.000324041
13 19 100 29 6.45205e-05
23 19 100 29 0.999935
20 20 100 29 0.499999
22 20 100 29 0.500001
14 21 100 29 4.67662e-05
21 21 100 29 0.499748
29 21 100 29 0.500206
22 22 100 29 0.176103
24 22 100 29 1.0746e-05
25 22 100 29 0.804674
26 22 100 29 0.0192129
22 23 100 29 0.00105921
26 23 100 29 0.998941
27 24 100 29 1
28 25 100 29 1
29 26 100 29 1
2 0 100 30 0.017715
4 0 100 30 0.00499046
6 0 100 30 0.0325602
9 0 100 30 0.0952804
12 0 100 30 0.18977
14 0 100 30 0.00122965
17 0 100 30 0.00126666
19 0 100 30 0.0930123
22 0 100 30 0.0952219
23 0 100 30 0.0952805
25 0 100 30 0.184626
26 0 100 30 0.0870407
27 0 100 30 0.102006
1 1 100 30 0.513448
4 1 100 30 0.486552
2 2 100 30 1
1 3 100 30 0.25
3 3 100 30 0.5
5 3 100 30 0.25
5 4 100 30 0.499435
7 4 100 30 0.49944
11 4 100 30 0.00112472
4 5 100 30 0.5
8 5 100 30 0.5
6 6 100 30 0.999833
9 6 100 30 0.000166757
7 7 100 30 0.996263
25 7 100 30 0.00373679
8 8 100 30 0.500351
15 8 100 30 0.499649
6 9 100 30 0.000507473
9 9 100 30 0.499678
16 9 100 30 0.499814
10 10 100 30 0.500282
11 10 100 30 0.499718
12 11 100 30 1.88625e-05
13 11 100 30 0.989187
19 11 100 30 0.0107939
6 12 100 30 0.0268995
13 12 100 30 0.973101
14 13 100 30 1
15 14 100 30 0.996527
23 14 100 30 0.00347316
16 15 100 30 0.5
17 15 100 30 0.5
17 16 100 30 5.19582e-05
18 16 100 30 0.992684
25 16 100 30 0.0072645
17 17 100 30 0.492592
19 17 100 30 0.50572
25 17 100 30 0.00168849
17 18 100 30 0.00115098
25 18 100 30 0.998849
20 19 100 30 0.5
21 19 100 30 0.5
18 20 100 30 0.999315
22 20 100 30 0.00061473
27 20 100 30 7.01179e-05
23 21 100 30 0.920148
26 21 100 30 0.0798525
20 22 100 30 0.142857
21 22 100 30 0.142857
22 22 100 30 0.142857
24 22 100 30 0.285714
26 22 100 30 0.142857
28 22 100 30 0.142857
12 23 100 30 0.00427369
18 23 100 30 3.62085e-05
27 23 100 30 0.479612
29 23 100 30 0.516078
28 24 100 30 0.499998
30 24 100 30 0.500002
29 25 100 30 1
30 26 100 30 1
6 0 100 32 0.000378608
8 0 100 32 0.00124597
10 0 100 32 0.000297701
17 0 100 32 0.330118
19 0 100 32 0.000595306
21 0 100 32 0.00615523
25 0 100 32 1.01101e-05
26 0 100 32 0.330595
29 0 100 32 0.330595
31 0 100 32 9.62681e-06
8 1 100 32 0.0217105
9 1 100 32 0.974864
15 1 100 32 0.00199591
17 1 100 32 0.00142982
8 2 100 32 0.200291
10 2 100 32 0.799709
4 3 100 32 1
3 4 100 32 0.999959
6 4 100 32 1.77669e-05
19 4 100 32 2.31821e-05
5 5 100 32 1
8 6 100 32 0.000299845
25 6 100 32 0.9997
8 7 100 32 1
6 8 100 32 0.999895
19 8 100 32 0.000104835
7 9 100 32 0.639437
8 9 100 32 0.360563
6 10 100 32 0.0125397
8 10 100 32 0.979684
10 10 100 32 0.00669161
19 10 100 32 0.00108468
8 11 100 32 0.706172
10 11 100 32 0.293828
11 12 100 32 1
8 13 100 32 4.95626e-05
10 13 100 32 0.491662
12 13 100 32 0.506347
31 13 100 32 0.00194094
13 14 100 32 1
14 15 100 32 1
9 16 100 32 0.00249472
15 16 100 32 0.997505
9 17 100 32 0.159666
15 17 100 32 0.840334
8 18 100 32 0.297685
10 18 100 32 0.702315
18 19 100 32 1
16 20 100 32 1
6 21 100 32 0.000106226
19 21 100 32 0.999894
20 22 100 32 1
21 23 100 32 1
22 24 100 32 1
3 25 100 32 0.944998
6 25 100 32 0.00249567
19 25 100 32 0.0525062
23 26 100 32 1
24 27 100 32 1
6 28 100 32 0.216973
8 28 100 32 0.43955
10 28 100 32 0.00231815
19 28 100 32 0.341159
1 29 100 32 1
2 30 100 32 0.250216
10 30 100 32 8.99339e-05
27 30 100 32 0.250221
28 30 100 32 0.250221
31 30 100 32 0.249253
30 31 100 32 1
32 32 100 32 1
1 0 100 33 0.00706354
2 0 100 33 0.00470528
3 0 100 33 0.0815666
4 0 100 33 0.136887
6 0 100 33 0.0730626
8 0 100 33 0.0730625
9 0 100 33 0.0730626
11 0 100 33 8.66621e-07
14 0 100 33 0.0020278
15 0 100 33 0.146125
17 0 100 33 1.76523e-05
18 0 100 33 0.141271
20 0 100 33 0.00731838
21 0 100 33 0.000436768
26 0 100 33 0.0730626
27 0 100 33 7.25137e-06
28 0 100 33 0.0752621
29 0 100 33 0.0127752
30 0 100 33 0.0191992
31 0 100 33 0.0730626
32 0 100 33 2.32788e-05
2 1 100 33 0.250722
4 1 100 33 6.47037e-06
5 1 100 33 0.250722
7 1 100 33 0.49854
29 1 100 33 9.24554e-06
3 2 100 33 0.180932
5 2 100 33 0.204767
6 2 100 33 0.204767
8 2 100 33 0.204767
9 2 100 33 0.204767
10 3 100 33 0.985048
19 3 100 33 0.0149526
1 4 100 33 0.5
11 4 100 33 0.5
12 5 100 33 0.505678
18 5 100 33 0.00164829
29 5 100 33 0.491347
30 5 100 33 0.00132635
13 6 100 33 0.997644
17 6 100 33 0.00235568
11 7 100 33 0.336869
14 7 100 33 0.663131
16 8 100 33 0.942579
28 8 100 33 0.057421
2 9 100 33 0.000127117
4 9 100 33 6.32583e-05
12 9 100 33 0.343587
24 9 100 33 0.343586
28 9 100 33 0.312309
30 9 100 33 0.000326988
20 10 100 33 0.0552027
23 10 100 33 0.472399
25 10 100 33 0.472398
10 11 100 33 1.36521e-05
13 11 100 33 3.2621e-05
19 11 100 33 0.663228
20 11 100 33 0.336725
21 12 100 33 1
14 13 100 33 0.0013707
17 13 100 33 0.364597
18 13 100 33 0.0016018
22 13 100 33 0.364598
30 13 100 33 0.267832
20 14 100 33 0.439141
27 14 100 33 0.56086
1 15 100 33 0.46035
16 15 100 33 0.509619
18 15 100 33 0.0299557
21 15 100 33 4.39313e-05
27 15 100 33 3.06799e-05
4 16 100 33 0.0039899
7 16 100 33 0.991447
29 16 100 33 0.00456264
2 17 100 33 0.230353
4 17 100 33 0.0309557
13 17 100 33 0.000988189
17 17 100 33 0.245078
22 17 100 33 0.24631
23 17 100 33 0.24631
32 17 100 33 5.54403e-06
17 18 100 33 4.76663e-05
24 18 100 33 0.999941
28 18 100 33 1.09909e-05
24 19 100 33 0.00164442
25 19 100 33 0.499178
31 19 100 33 0.499178
26 20 100 33 0.333351
27 20 100 33 0.333298
32 20 100 33 0.333351
33 21 100 33 1
29 22 100 33 1
30 23 100 33 1
4 24 100 33 0.000505387
32 24 100 33 0.999495
33 25 100 33 1
4 0 100 34 2.66651e-06
5 0 100 34 0.142236
10 0 100 34 0.000464472
12 0 100 34 0.143102
15 0 100 34 0.143102
18 0 100 34 0.143086
23 0 100 34 0.143102
26 0 100 34 0.000157605
27 0 100 34 0.143102
30 0 100 34 0.141522
32 0 100 34 0.000122557
1 1 100 34 0.999834
18 1 100 34 0.000117759
30 1 100 34 4.79498e-05
2 2 100 34 0.333333
17 2 100 34 0.333333
20 2 100 34 0.333333
3 3 100 34 0.334079
6 3 100 34 0.334078
8 3 100 34 0.331844
4 4 100 34 0.333329
7 4 100 34 0.333336
9 4 100 34 0.333336
10 5 100 34 1
11 6 100 34 1
13 7 100 34 1
14 8 100 34 1
26 9 100 34 1
30 10 100 34 1
8 11 100 34 0.817554
22 11 100 34 0.182447
16 12 100 34 1
22 13 100 34 0.999453
26 13 100 34 0.000546705
25 14 100 34 0.651416
26 14 100 34 0.348584
19 15 100 34 1
21 16 100 34 1
22 17 100 34 1
21 18 100 34 1
5 19 100 34 0.958779
26 19 100 34 0.041221
30 20 100 34 1
24 21 100 34 0.31314
26 21 100 34 0.060572
28 21 100 34 0.313144
29 21 100 34 0.313144
31 22 100 34 1
32 23 100 34 1
26 24 100 34 1
33 25 100 34 1
34 26 100 34 1
2 0 100 43 0.069629
7 0 100 43 0.0695986
8 0 100 43 1.37626e-06
10 0 100 43 0.00600493
12 0 100 43 0.139258
16 0 100 43 0.069629
18 0 100 43 0.000651566
19 0 100 43 2.36905e-05
21 0 100 43 0.0630924
22 0 100 43 0.00291316
25 0 100 43 0.000145784
26 0 100 43 0.0753584
28 0 100 43 0.0634773
29 0 100 43 0.000927473
30 0 100 43 2.64357e-06
31 0 100 43 0.0138777
32 0 100 43 0.0687552
33 0 100 43 0.069629
34 0 100 43 0.0696287
35 0 100 43 0.00492117
36 0 100 43 0.069629
37 0 100 43 0.00257198
38 0 100 43 0.000186077
39 0 100 43 0.139258
41 0 100 43 0.000830103
3 1 100 43 0.986185
8 1 100 43 0.000539372
32 1 100 43 0.0132756
4 2 100 43 1
5 3 100 43 0.493271
9 3 100 43 0.0243922
11 3 100 43 0.482337
6 4 100 43 0.333334
13 4 100 43 0.333334
15 4 100 43 0.333333
8 5 100 43 0.660929
16 5 100 43 0.339071
13 6 100 43 1
14 7 100 43 1
10 8 100 43 0.0602969
15 8 100 43 0.939555
19 8 100 43 3.75862e-05
31 8 100 43 0.000110928
9 9 100 43 0.53968
26 9 100 43 0.46032
17 10 100 43 0.999807
21 10 100 43 0.000193554
10 11 100 43 1
11 12 100 43 1
5 13 100 43 0.503731
19 13 100 43 0.496269
6 14 100 43 0.330071
8 14 100 43 0.0127358
18 14 100 43 0.327015
20 14 100 43 0.330105
21 14 100 43 4.40249e-05
22 14 100 43 2.95068e-05
22 15 100 43 0.999854
41 15 100 43 0.000146401
9 16 100 43 0.971319
10 16 100 43 0.00480937
11 16 100 43 0.0238711
21 17 100 43 0.498395
23 17 100 43 0.4984
26 17 100 43 0.00320553
7 18 100 43 0.984991
19 18 100 43 0.0145911
28 18 100 43 0.000417451
4 19 100 43 0.0174968
26 19 100 43 0.982503
25 20 100 43 1
27 21 100 43 0.99999
41 21 100 43 1.0341e-05
4 22 100 43 0.0224474
29 22 100 43 0.977553
10 23 100 43 0.485825
31 23 100 43 0.514175
7 24 100 43 0.00038483
24 24 100 43 0.918825
28 24 100 43 0.0807903
21 25 100 43 0.0244622
34 25 100 43 0.974889
37 25 100 43 0.000648636
4 26 100 43 0.512514
35 26 100 43 0.487486
24 27 100 43 0.00703423
30 27 100 43 0.328058
37 27 100 43 0.33251
40 27 100 43 0.332398
21 28 100 43 0.000475515
32 28 100 43 0.500172
37 28 100 43 5.65906e-05
38 28 100 43 0.499296
1 29 100 43 0.486543
2 29 100 43 0.486542
26 29 100 43 0.0202405
30 29 100 43 0.00651196
40 29 100 43 0.000162539
1 30 100 43 0.498355
3 30 100 43 0.498355
10 30 100 43 0.00328962
22 31 100 43 0.00162171
41 31 100 43 0.49616
42 31 100 43 0.502218
22 32 100 43 0.335575
24 32 100 43 0.323001
30 32 100 43 0.00165408
43 32 100 43 0.33977
20 33 100 43 0.4943
23 33 100 43 0.4943
24 33 100 43 0.0114004
6 34 100 43 0.00116127
8 34 100 43 0.129629
21 34 100 43 0.729236
22 34 100 43 0.13704
37 34 100 43 0.00293359
25 35 100 43 1
27 36 100 43 0.498638
28 36 100 43 0.501362
29 37 100 43 1
24 38 100 43 0.0051305
30 38 100 43 0.99487
17 39 100 43 1
18 40 100 43 0.52696
31 40 100 43 0.47304
19 41 100 43 0.249927
33 41 100 43 0.250024
35 41 100 43 0.250024
36 41 100 43 0.250024
21 42 100 43 0.00237729
37 42 100 43 0.997623
38 43 100 43 1
40 44 100 43 1
1 45 100 43 1.2455e-06
3 45 100 43 8.41297e-05
4 45 100 43 0.000127811
5 45 100 43 1.57226e-06
16 45 100 43 0.000207797
17 45 100 43 0.000318332
18 45 100 43 6.81324e-05
19 45 100 43 9.03932e-05
20 45 100 43 0.000241096
23 45 100 43 2.2838e-06
24 45 100 43 2.33973e-05
27 45 100 43 7.20986e-05
28 45 100 43 7.99904e-05
30 45 100 43 8.76904e-05
31 45 100 43 0.000101791
33 45 100 43 6.4266e-06
35 45 100 43 7.1394e-06
36 45 100 43 8.95017e-06
37 45 100 43 2.19156e-05
38 45 100 43 0.000502072
40 45 100 43 0.0010561
41 45 100 43 0.995864
42 45 100 43 0.00102603
3 46 100 43 5.79534e-05
4 46 100 43 9.55465e-05
5 46 100 43 1.18878e-06
16 46 100 43 0.000207721
17 46 100 43 0.000270809
18 46 100 43 5.19452e-05
19 46 100 43 4.18836e-05
20 46 100 43 5.18435e-05
24 46 100 43 8.06134e-06
27 46 100 43 4.09259e-05
28 46 100 43 0.000324318
30 46 100 43 2.59254e-05
31 46 100 43 5.92085e-05
33 46 100 43 4.38355e-06
35 46 100 43 2.64979e-06
36 46 100 43 2.12137e-06
37 46 100 43 6.47271e-06
38 46 100 43 0.000202088
40 46 100 43 0.000493927
41 46 100 43 0.00124016
42 46 100 43 0.996811
17 47 100 43 0.000572716
26 47 100 43 0.999143
32 47 100 43 0.000128355
34 47 100 43 4.63057e-05
39 47 100 43 0.000109828
2 48 100 43 0.0996888
8 48 100 43 0.00559097
26 48 100 43 0.00604783
32 48 100 43 0.00543268
34 48 100 43 0.326066
37 48 100 43 0.0265994
39 48 100 43 0.530574
6 49 100 43 1
43 50 100 43 1
2 0 100 46 0.088137
4 0 100 46 0.0910179
5 0 100 46 2.14017e-06
6 0 100 46 0.0897754
7 0 100 46 2.00226e-06
10 0 100 46 0.090886
11 0 100 46 0.000148587
14 0 100 46 0.0907808
16 0 100 46 0.0910213
19 0 100 46 0.000555097
24 0 100 46 0.0159501
29 0 100 46 0.0907944
31 0 100 46 3.58258e-06
33 0 100 46 0.0778648
34 0 100 46 1.6305e-05
38 0 100 46 0.0910213
41 0 100 46 0.0910018
43 0 100 46 0.0910213
6 1 100 46 0.759191
10 1 100 46 0.0824375
14 1 100 46 0.146513
41 1 100 46 0.0118585
2 2 100 46 0.997688
29 2 100 46 0.00231241
1 3 100 46 1
4 4 100 46 1
3 5 100 46 0.506763
7 5 100 46 0.492685
42 5 100 46 0.00055138
5 6 100 46 0.498205
8 6 100 46 0.49822
11 6 100 46 6.30485e-06
23 6 100 46 0.00356929
11 7 100 46 1
9 8 100 46 0.499999
25 8 100 46 0.500001
26 9 100 46 1
11 10 100 46 0.206733
27 10 100 46 0.793267
15 11 100 46 0.333333
17 11 100 46 0.333333
18 11 100 46 0.333333
11 12 100 46 0.424193
12 12 100 46 0.575807
13 13 100 46 0.5
21 13 100 46 0.5
19 14 100 46 1
20 15 100 46 1
24 16 100 46 0.999756
31 16 100 46 5.27439e-05
34 16 100 46 0.000191458
22 17 100 46 1
14 18 100 46 1
23 19 100 46 0.498202
35 19 100 46 0.501798
2 20 100 46 0.0064262
29 20 100 46 0.993574
30 21 100 46 1
32 22 100 46 1
24 23 100 46 6.06799e-05
28 23 100 46 0.333354
31 23 100 46 0.333338
34 23 100 46 0.333247
39 24 100 46 1
24 25 100 46 0.989538
34 25 100 46 0.0104616
40 26 100 46 1
36 27 100 46 1
7 28 100 46 0.0270321
42 28 100 46 0.972968
28 29 100 46 0.630569
41 29 100 46 0.369431
28 30 100 46 1
37 31 100 46 1
33 32 100 46 1
44 33 100 46 1
45 34 100 46 1
46 35 100 46 1
1 0 100 48 0.0985659
4 0 100 48 0.10006
5 0 100 48 0.100088
9 0 100 48 0.100088
14 0 100 48 0.100083
19 0 100 48 0.000706405
22 0 100 48 0.100087
27 0 100 48 0.100059
35 0 100 48 0.100088
38 0 100 48 0.100088
45 0 100 48 0.100088
13 1 100 48 1
4 2 100 48 0.000277577
19 2 100 48 0.999722
11 3 100 48 0.969326
27 3 100 48 0.0306735
15 4 100 48 0.5
18 4 100 48 0.5
16 5 100 48 0.5
20 5 100 48 0.5
17 6 100 48 0.5
21 6 100 48 0.5
23 7 100 48 1
24 8 100 48 1
11 9 100 48 1
25 10 100 48 1
12 11 100 48 0.000459835
30 11 100 48 0.99954
30 12 100 48 1
31 13 100 48 1
26 14 100 48 1
38 15 100 48 1
32 16 100 48 1
33 17 100 48 1
19 18 100 48 1
34 19 100 48 1
36 20 100 48 1
37 21 100 48 1
11 22 100 48 0.422986
43 22 100 48 0.577014
39 23 100 48 1
40 24 100 48 1
41 25 100 48 1
41 26 100 48 1
42 27 100 48 1
11 28 100 48 0.179996
27 28 100 48 0.183409
29 28 100 48 0.014017
43 28 100 48 0.622578
26 29 100 48 1
28 30 100 48 1
11 31 100 48 0.000414256
29 31 100 48 0.999586
12 32 100 48 0.99954
30 32 100 48 0.000460342
45 33 100 48 1
11 34 100 48 0.00144907
43 34 100 48 0.998551
44 35 100 48 1
7 36 100 48 0.999202
11 36 100 48 0.000798007
8 37 100 48 1
10 38 100 48 1
1 39 100 48 0.995619
14 39 100 48 0.00345002
22 39 100 48 0.000930779
11 40 100 48 1
2 41 100 48 0.333333
3 41 100 48 0.333333
6 41 100 48 0.333333
7 42 100 48 0.000795262
11 42 100 48 0.997343
29 42 100 48 0.000414337
43 42 100 48 0.0014472
46 43 100 48 1
47 44 100 48 1
48 45 100 48 1
11 0 100 50 0.135451
12 0 100 50 1.96441e-06
14 0 100 50 6.55671e-05
16 0 100 50 0.00290078
18 0 100 50 0.135069
19 0 100 50 3.90287e-05
21 0 100 50 0.135451
25 0 100 50 0.0468246
28 0 100 50 0.00258028
35 0 100 50 0.13545
38 0 100 50 3.19907e-06
39 0 100 50 0.135451
42 0 100 50 0.135417
45 0 100 50 0.135295
47 0 100 50 1.75418e-06
1 1 100 50 0.2
2 1 100 50 0.2
3 1 100 50 0.2
4 1 100 50 0.2
5 1 100 50 0.2
6 2 100 50 1
7 3 100 50 1
8 4 100 50 1
9 5 100 50 1
10 6 100 50 0.999794
25 6 100 50 0.000205784
15 7 100 50 1
12 8 100 50 0.500118
14 8 100 50 0.499882
13 9 100 50 1
16 10 100 50 1
7 11 100 50 1
9 12 100 50 1
17 13 100 50 1
8 14 100 50 1
24 15 100 50 1
19 16 100 50 0.429764
29 16 100 50 0.570236
35 17 100 50 1
26 18 100 50 1
27 19 100 50 1
28 20 100 50 0.999751
42 20 100 50 0.000249058
18 21 100 50 0.709888
45 21 100 50 0.290112
30 22 100 50 1
31 23 100 50 0.25
32 23 100 50 0.25
33 23 100 50 0.25
34 23 100 50 0.25
45 24 100 50 1
19 25 100 50 0.162046
36 25 100 50 0.837954
8 26 100 50 1
22 27 100 50 0.333335
23 27 100 50 0.333335
47 27 100 50 0.333331
48 28 100 50 1
40 29 100 50 1
38 30 100 50 0.499994
41 30 100 50 0.500006
37 31 100 50 1
43 32 100 50 1
44 33 100 50 1
46 34 100 50 1
25 35 100 50 0.999352
26 35 100 50 0.000648134
19 36 100 50 1
20 37 100 50 1
8 38 100 50 1
49 39 100 50 1
50 40 100 50 1
6 0 100 58 2.17248e-05
7 0 100 58 0.0767268
10 0 100 58 0.100096
15 0 100 58 0.101288
17 0 100 58 0.101269
20 0 100 58 1.34548e-06
22 0 100 58 0.101288
24 0 100 58 0.101284
29 0 100 58 0.00531786
33 0 100 58 0.101288
35 0 100 58 0.101288
36 0 100 58 0.00769143
37 0 100 58 1.41004e-06
38 0 100 58 0.000738458
41 0 100 58 0.000125497
45 0 100 58 0.100771
47 0 100 58 0.100791
51 0 100 58 1.07339e-05
7 1 100 58 0.952696
10 1 100 58 0.0382828
12 1 100 58 0.00896452
36 1 100 58 5.63526e-05
4 2 100 58 1
5 3 100 58 0.333334
9 3 100 58 0.333332
11 3 100 58 0.333334
7 4 100 58 0.00200697
10 4 100 58 0.000350102
12 4 100 58 0.997643
8 5 100 58 1
6 6 100 58 0.499946
13 6 100 58 0.500054
3 7 100 58 1
14 8 100 58 1
16 9 100 58 1
50 10 100 58 1
51 11 100 58 1
1 12 100 58 1
17 13 100 58 0.822673
24 13 100 58 0.177327
2 14 100 58 1
30 15 100 58 1
18 16 100 58 1
19 17 100 58 0.999732
21 17 100 58 8.12208e-05
38 17 100 58 0.000173842
42 17 100 58 1.32087e-05
7 18 100 58 0.144957
10 18 100 58 0.125111
12 18 100 58 0.355044
36 18 100 58 0.374887
30 19 100 58 1
20 20 100 58 0.499997
34 20 100 58 0.500003
7 21 100 58 0.215542
10 21 100 58 0.0279319
12 21 100 58 0.101569
36 21 100 58 0.654957
31 22 100 58 0.500004
37 22 100 58 0.499996
32 23 100 58 1
12 24 100 58 0.000406279
21 24 100 58 0.999594
23 25 100 58 0.500001
39 25 100 58 0.499999
25 26 100 58 0.5
40 26 100 58 0.5
19 27 100 58 4.31903e-05
38 27 100 58 0.331795
41 27 100 58 0.333876
42 27 100 58 0.334286
7 28 100 58 0.000100693
10 28 100 58 0.000489642
12 28 100 58 3.95267e-05
36 28 100 58 0.99937
29 29 100 58 0.989049
30 29 100 58 0.000487682
45 29 100 58 0.00533511
47 29 100 58 0.00512854
26 30 100 58 0.333334
27 30 100 58 0.333334
43 30 100 58 0.333331
28 31 100 58 0.964009
44 31 100 58 0.0359914
28 32 100 58 0.00548479
44 32 100 58 0.994515
48 33 100 58 1
49 34 100 58 0.999245
52 34 100 58 0.000419713
53 34 100 58 0.000126992
55 34 100 58 0.000124507
56 34 100 58 8.34219e-05
46 35 100 58 1
54 36 100 58 1
49 37 100 58 0.000142125
52 37 100 58 0.333254
53 37 100 58 0.333167
55 37 100 58 0.333352
56 37 100 58 8.50748e-05
53 38 100 58 0.000277257
56 38 100 58 0.499777
57 38 100 58 0.499946
58 39 100 58 1
1 0 100 63 0.0573912
3 0 100 63 0.101828
4 0 100 63 0.0992988
5 0 100 63 1.51553e-05
9 0 100 63 0.000782552
11 0 100 63 0.101828
14 0 100 63 0.0101753
21 0 100 63 0.000287408
23 0 100 63 0.000427373
28 0 100 63 0.101689
32 0 100 63 0.0998913
33 0 100 63 2.37633e-05
38 0 100 63 0.101828
40 0 100 63 0.00077791
43 0 100 63 0.0044081
46 0 100 63 0.0134383
50 0 100 63 0.101828
53 0 100 63 0.101828
55 0 100 63 0.000473859
57 0 100 63 0.101776
59 0 100 63 1.80593e-06
1 1 100 63 0.00206386
4 1 100 63 0.0067733
14 1 100 63 0.98918
16 1 100 63 0.00164095
32 1 100 63 0.00034213
15 2 100 63 1
13 3 100 63 1
59 4 100 63 0.999967
61 4 100 63 3.30701e-05
10 5 100 63 0.99996
43 5 100 63 4.01061e-05
1 6 100 63 0.000256586
4 6 100 63 0.0069744
9 6 100 63 0.991013
14 6 100 63 0.000509919
21 6 100 63 0.000209826
28 6 100 63 0.00047533
32 6 100 63 0.000529529
46 6 100 63 3.09269e-05
1 7 100 63 0.000134804
14 7 100 63 0.00209132
16 7 100 63 0.997763
32 7 100 63 1.09353e-05
17 8 100 63 0.999976
54 8 100 63 2.35036e-05
18 9 100 63 1
12 10 100 63 1
10 11 100 63 7.4768e-05
19 11 100 63 0.999925
20 12 100 63 1
21 13 100 63 0.999607
28 13 100 63 0.000392703
22 14 100 63 1
23 15 100 63 1
24 16 100 63 0.500001
27 16 100 63 0.499999
25 17 100 63 0.500001
29 17 100 63 0.499999
26 18 100 63 0.999773
49 18 100 63 0.000178126
59 18 100 63 1.22934e-05
60 18 100 63 3.63478e-05
8 19 100 63 2.71336e-05
41 19 100 63 0.999973
10 20 100 63 4.18861e-05
43 20 100 63 0.99942
57 20 100 63 0.000537731
10 21 100 63 1
39 22 100 63 1
30 23 100 63 1
16 24 100 63 0.958373
33 24 100 63 0.0416275
31 25 100 63 0.333453
33 25 100 63 0.333194
37 25 100 63 0.00331852
42 25 100 63 0.330035
31 26 100 63 0.000333781
33 26 100 63 0.000849981
37 26 100 63 0.990281
42 26 100 63 0.00853519
1 27 100 63 0.958557
4 27 100 63 0.0154665
6 27 100 63 0.000377668
14 27 100 63 0.00159051
16 27 100 63 0.000302283
32 27 100 63 0.0237066
2 28 100 63 0.334172
5 28 100 63 4.16878e-05
7 28 100 63 0.334171
40 28 100 63 0.331616
8 29 100 63 0.999973
41 29 100 63 2.71336e-05
5 30 100 63 1
1 31 100 63 0.000164189
4 31 100 63 1.355e-05
6 31 100 63 0.999808
14 31 100 63 1.37013e-05
1 32 100 63 0.369302
4 32 100 63 0.14918
14 32 100 63 0.244688
16 32 100 63 0.00917327
32 32 100 63 0.227656
34 33 100 63 0.5
35 33 100 63 0.5
36 34 100 63 1
37 35 100 63 0.00147195
42 35 100 63 0.00204663
44 35 100 63 0.996481
28 36 100 63 0.00058324
46 36 100 63 0.999417
45 37 100 63 1
48 38 100 63 1
49 39 100 63 1
1 40 100 63 0.44979
4 40 100 63 0.0519793
14 40 100 63 0.0578256
16 40 100 63 0.0597978
32 40 100 63 0.380608
47 41 100 63 0.998231
56 41 100 63 0.00176894
54 42 100 63 1
51 43 100 63 0.5
52 43 100 63 0.5
55 44 100 63 1
1 45 100 63 1
47 46 100 63 5.21983e-06
56 46 100 63 0.499554
58 46 100 63 0.500441
59 47 100 63 0.000141839
60 47 100 63 0.999858
61 48 100 63 1
62 49 100 63 1
63 50 100 63 1
2 0 100 74 0.0486301
4 0 100 74 0.04863
5 0 100 74 0.0287831
7 0 100 74 9.22557e-05
9 0 100 74 0.0486298
11 0 100 74 0.0486299
15 0 100 74 0.0486301
17 0 100 74 9.34288e-07
23 0 100 74 0.0486231
31 0 100 74 0.0015035
33 0 100 74 0.0486301
35 0 100 74 0.0486301
37 0 100 74 0.0486301
40 0 100 74 7.02604e-05
41 0 100 74 0.0474491
43 0 100 74 0.0486301
45 0 100 74 0.0469791
47 0 100 74 0.0486301
49 0 100 74 6.19355e-05
51 0 100 74 0.0486301
53 0 100 74 0.0486301
56 0 100 74 0.000398068
57 0 100 74 0.0473017
59 0 100 74 0.0486301
61 0 100 74 0.000111997
62 0 100 74 0.000542642
65 0 100 74 0.0486301
69 0 100 74 0.0486301
71 0 100 74 1.9977e-06
72 0 100 74 0.0486301
20 1 100 74 1
5 2 100 74 0.973232
31 2 100 74 0.0063253
41 2 100 74 0.00878726
45 2 100 74 0.00696662
57 2 100 74 0.00468903
10 3 100 74 0.500514
12 3 100 74 0.499481
36 3 100 74 5.40046e-06
9 4 100 74 0.643665
11 4 100 74 0.356335
10 5 100 74 0.000549131
12 5 100 74 0.0026074
13 5 100 74 0.996844
6 6 100 74 0.327945
7 6 100 74 0.320589
8 6 100 74 0.327944
17 6 100 74 9.99295e-05
62 6 100 74 0.0234215
7 7 100 74 0.905973
17 7 100 74 0.00515565
62 7 100 74 0.0888717
14 8 100 74 1
16 9 100 74 1
7 10 100 74 0.0120001
17 10 100 74 0.965486
62 10 100 74 0.0225143
17 11 100 74 1
18 12 100 74 0.5
19 12 100 74 0.5
21 13 100 74 1
22 14 100 74 0.976165
26 14 100 74 0.00296341
49 14 100 74 0.0107062
56 14 100 74 0.0101655
26 15 100 74 0.000328578
30 15 100 74 0.999671
29 16 100 74 1
5 17 100 74 0.00250272
31 17 100 74 0.992472
41 17 100 74 0.00209619
45 17 100 74 0.00157555
57 17 100 74 0.00135384
1 18 100 74 0.5
3 18 100 74 0.5
20 19 100 74 1
32 20 100 74 0.499995
34 20 100 74 0.500005
36 21 100 74 0.333332
38 21 100 74 0.333333
39 21 100 74 0.333335
23 22 100 74 6.55587e-05
40 22 100 74 0.999934
20 23 100 74 1
32 24 100 74 1.85778e-05
42 24 100 74 0.999981
44 25 100 74 0.5
46 25 100 74 0.5
48 26 100 74 1
49 27 100 74 0.999727
56 27 100 74 0.000273487
20 28 100 74 1
50 29 100 74 1
5 30 100 74 0.118276
31 30 100 74 0.104728
41 30 100 74 0.206051
45 30 100 74 0.334852
57 30 100 74 0.236094
28 31 100 74 1
27 32 100 74 0.2
52 32 100 74 0.2
54 32 100 74 0.2
55 32 100 74 0.2
58 32 100 74 0.2
49 33 100 74 0.000341599
56 33 100 74 0.999658
60 34 100 74 1
63 35 100 74 1
23 36 100 74 7.78885e-05
61 36 100 74 0.999922
62 37 100 74 0.477881
64 37 100 74 0.522119
66 38 100 74 1
67 39 100 74 1
5 40 100 74 0.699585
31 40 100 74 0.046983
41 40 100 74 0.0563298
45 40 100 74 0.0659946
57 40 100 74 0.131107
22 41 100 74 0.494859
68 41 100 74 0.505141
24 42 100 74 0.333338
70 42 100 74 0.333338
71 42 100 74 0.333324
25 43 100 74 1
26 44 100 74 0.499902
73 44 100 74 0.500098
74 45 100 74 1
3 0 100 81 0.0666786
7 0 100 81 1.74377e-05
8 0 100 81 0.0666786
15 0 100 81 0.0666786
22 0 100 81 0.0666769
26 0 100 81 0.0666786
28 0 100 81 0.0666786
31 0 100 81 3.11926e-05
34 0 100 81 0.000128113
36 0 100 81 0.0666786
40 0 100 81 0.0666786
42 0 100 81 0.0582926
43 0 100 81 0.0666786
47 0 100 81 0.00779946
50 0 100 81 8.96554e-05
55 0 100 81 0.0666786
57 0 100 81 0.0666786
61 0 100 81 0.000141792
70 0 100 81 0.0666786
75 0 100 81 0.0666786
77 0 100 81 2.17255e-06
78 0 100 81 0.0666773
22 1 100 81 0.139165
72 1 100 81 0.860835
38 2 100 81 6.43562e-05
39 2 100 81 0.999936
41 3 100 81 6.88881e-06
51 3 100 81 0.333335
58 3 100 81 0.333323
59 3 100 81 0.333335
52 4 100 81 0.5
60 4 100 81 0.5
61 5 100 81 1
50 6 100 81 1
53 7 100 81 0.5
62 7 100 81 0.5
54 8 100 81 1
48 9 100 81 0.999271
64 9 100 81 0.000712271
67 9 100 81 1.70206e-05
56 10 100 81 1
50 11 100 81 1
63 12 100 81 1
39 13 100 81 1
65 14 100 81 1
72 15 100 81 1
54 16 100 81 1
66 17 100 81 1
64 18 100 81 0.49978
67 18 100 81 0.50022
37 19 100 81 1
38 20 100 81 0.999936
39 20 100 81 6.43565e-05
41 21 100 81 0.999944
58 21 100 81 3.59044e-05
71 21 100 81 2.01922e-05
27 22 100 81 0.357405
29 22 100 81 0.359139
30 22 100 81 0.283456
35 23 100 81 1
7 24 100 81 1.83752e-05
31 24 100 81 0.999982
10 25 100 81 1.19899e-05
13 25 100 81 0.999988
14 26 100 81 1
34 27 100 81 0.87089
50 27 100 81 0.0543893
78 27 100 81 0.0747211
16 28 100 81 1
5 29 100 81 0.0505689
10 29 100 81 0.0633835
13 29 100 81 0.886048
27 30 100 81 0.527065
30 30 100 81 0.472935
17 31 100 81 1
42 32 100 81 0.60806
47 32 100 81 0.39194
18 33 100 81 1
19 34 100 81 0.500002
45 34 100 81 0.499998
46 35 100 81 1
31 36 100 81 0.191576
61 36 100 81 0.808424
42 37 100 81 0.124528
47 37 100 81 0.875472
32 38 100 81 0.999976
48 38 100 81 2.4066e-05
33 39 100 81 0.5
49 39 100 81 0.5
34 40 100 81 0.99999
78 40 100 81 1.03025e-05
21 41 100 81 1
29 42 100 81 1
64 43 100 81 1
20 44 100 81 1
34 45 100 81 1
24 46 100 81 0.5
25 46 100 81 0.5
13 47 100 81 0.22507
26 47 100 81 0.453606
28 47 100 81 0.0996301
32 47 100 81 0.0193269
64 47 100 81 0.202367
23 48 100 81 1
27 49 100 81 0.333333
29 49 100 81 0.333332
30 49 100 81 0.333335
68 50 100 81 0.5
69 50 100 81 0.5
7 51 100 81 0.999982
31 51 100 81 1.83709e-05
1 52 100 81 1
2 53 100 81 0.500005
71 53 100 81 0.499995
44 54 100 81 1
10 55 100 81 0.999849
13 55 100 81 2.76356e-05
64 55 100 81 0.000122853
4 56 100 81 0.333333
11 56 100 81 0.333333
12 56 100 81 0.333333
5 57 100 81 1
6 58 100 81 1
9 59 100 81 1
74 60 100 81 1
73 61 100 81 1
76 62 100 81 1
77 63 100 81 1
80 64 100 81 1
79 65 100 81 1
81 66 100 81 1
1 0 100 83 0.00304351
3 0 100 83 0.0587434
4 0 100 83 0.0587435
7 0 100 83 0.00305262
13 0 100 83 0.0587098
17 0 100 83 0.000422583
18 0 100 83 0.0587434
19 0 100 83 0.058618
21 0 100 83 0.0587434
22 0 100 83 0.058458
26 0 100 83 0.0587435
29 0 100 83 5.70393e-05
37 0 100 83 0.0587435
39 0 100 83 0.0587333
42 0 100 83 5.65155e-05
44 0 100 83 0.058139
50 0 100 83 0.0560936
52 0 100 83 0.0587434
53 0 100 83 0.0586581
56 0 100 83 3.19403e-06
62 0 100 83 0.00134104
65 0 100 83 0.0587435
68 0 100 83 0.0559228
78 0 100 83 0.0587435
1 1 100 83 0.999959
7 1 100 83 2.10782e-05
19 1 100 83 1.96184e-05
2 2 100 83 1
5 3 100 83 1
6 4 100 83 1
7 5 100 83 0.999729
15 5 100 83 1.66745e-05
19 5 100 83 0.000115988
22 5 100 83 0.000123067
53 5 100 83 1.49199e-05
8 6 100 83 1
9 7 100 83 1
10 8 100 83 0.999938
15 8 100 83 6.1686e-05
11 9 100 83 1
15 10 100 83 1
12 11 100 83 0.5
14 11 100 83 0.5
10 12 100 83 6.17187e-05
15 12 100 83 0.998352
19 12 100 83 0.000116053
22 12 100 83 0.000121161
35 12 100 83 0.00134865
23 13 100 83 0.999899
54 13 100 83 0.000101082
16 14 100 83 0.99988
51 14 100 83 0.000119457
17 15 100 83 1
20 16 100 83 0.994886
29 16 100 83 0.00511363
24 17 100 83 1
25 18 100 83 0.499135
27 18 100 83 0.500865
7 19 100 83 0.00453189
15 19 100 83 0.0144123
19 19 100 83 0.277239
22 19 100 83 0.700701
53 19 100 83 0.00311556
28 20 100 83 1
31 21 100 83 1
29 22 100 83 1
13 23 100 83 1
30 24 100 83 1
32 25 100 83 1
33 26 100 83 1
29 27 100 83 0.987276
33 27 100 83 0.0127236
36 28 100 83 1
35 29 100 83 1
25 30 100 83 2.14552e-05
38 30 100 83 0.167446
40 30 100 83 0.392522
41 30 100 83 0.440011
42 31 100 83 1
1 32 100 83 0.0102243
7 32 100 83 0.0343941
15 32 100 83 0.0098061
19 32 100 83 0.0869928
22 32 100 83 0.134365
53 32 100 83 0.724218
25 33 100 83 0.00296363
38 33 100 83 0.599473
40 33 100 83 0.237019
41 33 100 83 0.160545
15 34 100 83 0.465526
39 34 100 83 0.534474
34 35 100 83 0.333332
43 35 100 83 0.333334
46 35 100 83 0.333334
45 36 100 83 1
47 37 100 83 1
33 38 100 83 0.00293811
57 38 100 83 0.997062
48 39 100 83 1
49 40 100 83 1
23 41 100 83 0.000101082
54 41 100 83 0.999899
16 42 100 83 1.2734e-05
51 42 100 83 0.999987
42 43 100 83 0.0692039
50 43 100 83 0.930796
55 44 100 83 1
60 45 100 83 1
6 46 100 83 1
58 47 100 83 1
59 48 100 83 1
61 49 100 83 1
62 50 100 83 1
57 51 100 83 1
63 52 100 83 1
64 53 100 83 1
66 54 100 83 1
67 55 100 83 1
69 56 100 83 0.999322
79 56 100 83 0.000678339
70 57 100 83 0.999987
82 57 100 83 1.27971e-05
44 58 100 83 0.176479
68 58 100 83 0.823521
56 59 100 83 1
42 60 100 83 0.525139
77 60 100 83 0.474861
71 61 100 83 0.333333
73 61 100 83 0.333333
75 61 100 83 0.333333
72 62 100 83 0.333332
74 62 100 83 0.333334
76 62 100 83 0.333334
77 63 100 83 1
79 64 100 83 0.333182
80 64 100 83 0.333409
81 64 100 83 0.333409
82 65 100 83 1
83 66 100 83 1
