2 0 0.795959 0.125802 0.0596393 0.0185989 1.10837e-07 0 0 0 0 
3 0.570305 0.395951 0.0191242 0 0.0146202 0 0 0 0 0 
4 0 0.795959 0.125802 0.0596393 0.0185989 1.10837e-07 0 0 0 0 
5 0 0.631149 0.260758 0.0721771 0 0 0.0359148 0 0 0 
6 0 0.804068 0.130173 0.0657578 0 0 0 0 0 0 
7 0 0.999999 0 0 0 0 0 0 0 0 
8 0.199671 0.673149 0.00112777 0.114571 0.011481 0 0 0 0 0 
9 0 0.804068 0.130173 0.0657578 0 0 0 0 0 0 
10 0 0.804068 0.130173 0.0657578 0 0 0 0 0 0 
11 0 0.641998 0.253089 0.0700543 0 0 0.0348584 0 0 0 
12 0.557937 0.418109 0.00802205 0 0.0159323 0 0 0 0 0 
13 0.19375 0.80625 0 0 0 0 0 0 0 0 
14 0.0198238 0.614815 0.272223 0.0741234 0 0.0190137 0 0 0 0 
15 0.118686 0.490677 0.324396 0.0456918 0.0205488 0 0 0 0 0 
16 0.405691 0.557388 0.00205164 0.027895 0 0.00697474 0 0 0 0 
17 0.110605 0.49001 0.329067 0.0485035 0.0218133 0 0 0 0 0 
18 0.18983 0.679136 0.00116167 0.118043 0.0118289 0 0 0 0 0 
19 4.63384e-06 0.712178 0.175337 0.11248 0 0 0 0 0 0 
20 0.110605 0.505394 0.313683 0.0485035 0.0218133 0 0 0 0 0 
21 0 0.812712 0.12443 0.0628567 0 0 0 0 0 0 
22 0.218393 0.781607 0 0 0 0 0 0 0 0 
23 0.0339193 0.60982 0.265862 0.0719433 0 0.0184545 0 0 0 0 
24 0 0.999999 0 0 0 0 0 0 0 0 
25 0.398221 0.567522 0.00200231 0.0258029 0 0.00645163 0 0 0 0 
26 0 0.61009 0.264982 0.0884603 0 0 0.0364673 0 0 0 
27 0 0.783953 0.138994 0.0587357 0.0183171 1.09158e-07 0 0 0 0 
28 0 0.780575 0.140975 0.0598504 0.0185989 1.10837e-07 0 0 0 0 
29 0.543275 0.431812 0.00834346 0 0.0165696 0 0 0 0 0 
30 4.63384e-06 0.696978 0.190487 0.112529 0 0 0 0 0 0 
31 0.130952 0.869048 0 0 0 0 0 0 0 0 
32 0.178371 0.690587 0.00116943 0.118043 0.0118289 0 0 0 0 0 
33 0.177601 0.673965 0.00117953 0.135243 0.0120109 0 0 0 0 0 
34 0.166148 0.601268 0.212793 0 0.0197898 0 0 0 0 0 
35 4.63384e-06 0.712178 0.175337 0.11248 0 0 0 0 0 0 
36 0.564608 0.41097 0.00138351 0.0184306 0 0.00460831 0 0 0 0 
37 0.174972 0.693994 0.00116165 0.118043 0.0118289 0 0 0 0 0 
38 0 0.625475 0.26477 0.0732875 0 0 0.0364673 0 0 0 
39 0.0199009 0.593767 0.291761 0.0752638 0 0.0193062 0 0 0 0 
40 0.0199009 0.609117 0.276411 0.0752638 0 0.0193062 0 0 0 0 
41 0.202095 0.668827 0.00114431 0.116281 0.0116524 0 0 0 0 0 
42 0.110605 0.505395 0.313683 0.0485035 0.0218133 0 0 0 0 0 
43 0.177601 0.68935 0.00117952 0.119859 0.0120109 0 0 0 0 0 
44 0 0.799051 0.123896 0.0587357 0.0183171 1.09158e-07 0 0 0 0 
45 0 0.61009 0.280155 0.0732875 0 0 0.0364673 0 0 0 
46 0.609827 0.366817 0.00782195 0 0.015534 0 0 0 0 0 
47 0.177601 0.673965 0.00117952 0.135243 0.0120109 0 0 0 0 0 
48 0 0.795959 0.125802 0.0596393 0.0185989 1.10837e-07 0 0 0 0 
49 0.414834 0.543136 0.0023319 0.0317574 0 0.00794047 0 0 0 0 
50 0.391369 0.569038 0.00219671 0.0299164 0 0.00748016 0 0 0 0 
51 0.0193073 0.606326 0.282619 0.0730171 0 0.0187299 0 0 0 0 
52 0.546347 0.426574 0.00906838 0 0.0180104 0 0 0 0 0 
53 0 0.6168 0.273445 0.0732876 0 0 0.0364673 0 0 0 
54 0.408548 0.550059 0.00229657 0.0312762 0 0.00782016 0 0 0 0 
55 0 0.789125 0.145062 0.0658128 0 0 0 0 0 0 
56 0.408548 0.550059 0.00229656 0.0312762 0 0.00782016 0 0 0 0 
57 0 0.795959 0.125802 0.0596393 0.0185989 1.10837e-07 0 0 0 0 
58 0.167241 0.615354 0.197614 0 0.0197898 0 0 0 0 0 
59 0.555682 0.416009 0.00948058 0 0.0188291 0 0 0 0 0 
60 0.414834 0.543136 0.0023319 0.0317574 0 0.00794047 0 0 0 0 
61 0.10893 0.512888 0.30893 0.0477686 0.0214828 0 0 0 0 0 
62 0 0.795959 0.125802 0.0596393 0.0185989 1.10837e-07 0 0 0 0 
63 0.52589 0.446633 0.00920177 0 0.0182753 0 0 0 0 0 
64 0.0199009 0.609117 0.276411 0.0752638 0 0.0193062 0 0 0 0 
65 0 0.625475 0.26477 0.0732875 0 0 0.0364673 0 0 0 
66 0.423697 0.53491 0.00229656 0.0312762 0 0.00782016 0 0 0 0 
67 0 0.780575 0.125802 0.0596935 0.0339293 1.33813e-07 0 0 0 0 
68 4.56363e-06 0.716538 0.172681 0.110776 0 0 0 0 0 0 
69 0.175361 0.693154 0.00161281 0.118043 0.0118289 0 0 0 0 0 
70 0 0.780575 0.141186 0.0596393 0.0185989 1.10837e-07 0 0 0 0 
71 0.110605 0.490791 0.328286 0.0485035 0.0218133 0 0 0 0 0 
72 0.41915 0.541251 0.00220206 0.0299164 0 0.00748016 0 0 0 0 
73 0 0.999999 0 0 0 0 0 0 0 0 
74 0.187221 0.683701 0.00114431 0.116281 0.0116524 0 0 0 0 0 
75 0.177601 0.68935 0.00117952 0.119859 0.0120109 0 0 0 0 0 
76 0.197255 0.673573 0.00166634 0.117094 0.0104106 0 0 0 0 0 
77 0.414834 0.543136 0.0023319 0.0317574 0 0.00794047 0 0 0 0 
78 0.125906 0.490094 0.313683 0.0485035 0.0218133 0 0 0 0 0 
79 0.125637 0.490363 0.313683 0.0485035 0.0218133 0 0 0 0 0 
80 0.183594 0.599008 0.197608 0 0.0197898 0 0 0 0 0 
81 0.169058 0.6102 0.200648 0 0.0200942 0 0 0 0 0 
82 0.429892 0.528078 0.0023319 0.0317574 0 0.00794047 0 0 0 0 
83 0 0.788684 0.145557 0.0657578 0 0 0 0 0 0 
84 0.163675 0.608095 0.208735 0 0.0194944 0 0 0 0 0 
85 0 0.61009 0.2798 0.0736424 0 0 0.0364673 0 0 0 
86 0.0195995 0.599951 0.287312 0.0741235 0 0.0190137 0 0 0 0 
87 0.177601 0.689345 0.00118358 0.119859 0.0120109 0 0 0 0 0 
88 0 0.999999 0 0 0 0 0 0 0 0 
89 0.0199009 0.595307 0.290222 0.0752638 0 0.0193062 0 0 0 0 
90 0.107416 0.490145 0.319183 0.0471743 0.0360817 0 0 0 0 0 
91 0 0.795959 0.125802 0.0596393 0.0185989 1.10837e-07 0 0 0 0 
92 0.168704 0.610553 0.200648 0 0.0200942 0 0 0 0 0 
93 0.0199212 0.609096 0.276412 0.0752638 0 0.0193062 0 0 0 0 
94 0.159419 0.840581 0 0 0 0 0 0 0 0 
95 0.168704 0.610553 0.200648 0 0.0200942 0 0 0 0 0 
96 0.166161 0.616441 0.197608 0 0.0197898 0 0 0 0 0 
97 0.0199009 0.609117 0.276411 0.0752638 0 0.0193062 0 0 0 0 
98 0.533739 0.438373 0.00933908 0 0.0185481 0 0 0 0 0 
99 0 0.795948 0.125813 0.0596393 0.0185989 1.10837e-07 0 0 0 0 
100 0.0199009 0.593733 0.291796 0.0752638 0 0.0193062 0 0 0 0 
101 0.177601 0.68935 0.00117952 0.119859 0.0120109 0 0 0 0 0 
102 0 0.799051 0.123896 0.0587357 0.0183171 1.09158e-07 0 0 0 0 
103 6.15242e-06 0.720701 0.17017 0.109122 0 0 0 0 0 0 
104 0.192273 0.674677 0.00117952 0.119859 0.0120109 0 0 0 0 0 
105 0.190061 0.6789 0.00116663 0.118043 0.0118289 0 0 0 0 0 
106 0.163313 0.836687 0 0 0 0 0 0 0 0 
107 0.534778 0.421093 0.00962644 0 0.0345034 0 0 0 0 0 
108 0.177601 0.689349 0.00117952 0.119859 0.0120109 0 0 0 0 0 
109 0 0.795959 0.125802 0.0596393 0.0185989 1.10837e-07 0 0 0 0 
110 4.63384e-06 0.712178 0.175337 0.11248 0 0 0 0 0 0 
111 0.168704 0.610553 0.200648 0 0.0200942 0 0 0 0 0 
112 0.10893 0.512888 0.30893 0.0477686 0.0214828 0 0 0 0 0 
113 0 0.804068 0.130173 0.0657578 0 0 0 0 0 0 
114 0 0.807037 0.128201 0.0647615 0 0 0 0 0 0 
115 0.408548 0.550059 0.00229657 0.0312762 0 0.00782016 0 0 0 0 
116 0.177601 0.68935 0.00117952 0.119859 0.0120109 0 0 0 0 0 
117 0.0199009 0.593733 0.291796 0.0752638 0 0.0193062 0 0 0 0 
118 0 0.331548 0.668451 0 0 0 0 0 0 0 
119 0 0.631149 0.260758 0.0721771 0 0 0.0359148 0 0 0 
120 0 0.799051 0.123896 0.0587357 0.0183171 1.09158e-07 0 0 0 0 
121 0.187705 0.683155 0.00120626 0.116281 0.0116524 0 0 0 0 0 
122 0.177601 0.673965 0.00121546 0.135203 0.0120149 0 0 0 0 0 
123 0.177628 0.689323 0.00117972 0.119859 0.0120109 0 0 0 0 0 
124 0.498167 0.476209 0.0086007 0 0.0170236 0 0 0 0 0 
125 0 0.780574 0.12592 0.0749043 0.0186008 1.10837e-07 0 0 0 0 
126 0 0.798568 0.124378 0.0587357 0.0183171 1.09158e-07 0 0 0 0 
127 0.174935 0.694031 0.00116167 0.118043 0.0118289 0 0 0 0 0 
128 0.168704 0.595169 0.216032 0 0.0200943 0 0 0 0 0 
129 4.63384e-06 0.712178 0.175337 0.11248 0 0 0 0 0 0 
130 0.168704 0.610553 0.200648 0 0.0200942 0 0 0 0 0 
131 0.177601 0.689322 0.0012067 0.119859 0.0120109 0 0 0 0 0 
132 0.0199009 0.593733 0.291796 0.0752638 0 0.0193062 0 0 0 0 
133 0 0.780602 0.141159 0.0596395 0.0185989 1.10837e-07 0 0 0 0 
134 0.0199009 0.609117 0.276411 0.0752638 0 0.0193062 0 0 0 0 
135 0.177601 0.673965 0.00117953 0.135243 0.0120109 0 0 0 0 0 
136 0.177601 0.673965 0.00128248 0.13514 0.0120109 0 0 0 0 0 
137 4.63384e-06 0.696793 0.175338 0.127864 0 0 0 0 0 0 
138 0.177601 0.68935 0.00117952 0.119859 0.0120109 0 0 0 0 0 
139 0 0.999999 0 0 0 0 0 0 0 0 
140 0.414834 0.543137 0.0023319 0.0317574 0 0.00794047 0 0 0 0 
141 0.183963 0.595294 0.200648 0 0.0200942 0 0 0 0 0 
142 0 0.795959 0.125802 0.0596393 0.0185989 1.10837e-07 0 0 0 0 
143 0.0199239 0.609086 0.27642 0.0752638 0 0.0193062 0 0 0 0 
144 0.110605 0.497162 0.321915 0.0485036 0.0218133 0 0 0 0 0 
145 0.430218 0.527752 0.0023319 0.0317574 0 0.00794047 0 0 0 0 
146 0.547281 0.425618 0.00909031 0 0.0180104 0 0 0 0 0 
147 1.07371e-07 0.804068 0.130173 0.0657578 0 0 0 0 0 0 
148 0 0.780575 0.125802 0.0720479 0.0215748 1.10837e-07 0 0 0 0 
149 0.168704 0.610553 0.200648 0 0.0200943 0 0 0 0 0 
150 0 0.795959 0.125802 0.0596393 0.0185989 1.10837e-07 0 0 0 0 
151 0 0.806932 0.128306 0.0647615 0 0 0 0 0 0 
152 0.526675 0.445015 0.00948058 0 0.0188291 0 0 0 0 0 
153 0.0199009 0.609117 0.276411 0.0752638 0 0.0193062 0 0 0 0 
154 0.166148 0.616454 0.197608 0 0.0197898 0 0 0 0 0 
155 0 0.788762 0.14548 0.0657578 0 0 0 0 0 0 
156 0.110605 0.50537 0.313707 0.0485035 0.0218133 0 0 0 0 0 
157 0.0199009 0.593733 0.291793 0.0752664 0 0.0193062 0 0 0 0 
158 0.120432 0.483022 0.301258 0.0733821 0.0219057 0 0 0 0 0 
159 0.110605 0.49001 0.329067 0.0485035 0.0218133 0 0 0 0 0 
160 0.110605 0.49001 0.329067 0.0485035 0.0218133 0 0 0 0 0 
161 0.0199009 0.593733 0.291796 0.0752638 0 0.0193062 0 0 0 0 
162 0.0199009 0.609117 0.276411 0.0752638 0 0.0193062 0 0 0 0 
163 0 0.346932 0.653067 0 0 0 0 0 0 0 
164 0.110605 0.505395 0.313683 0.0485035 0.0218133 0 0 0 0 0 
165 0.177607 0.689344 0.00117952 0.119859 0.0120109 0 0 0 0 0 
166 0.550156 0.421099 0.00962644 0 0.0191188 0 0 0 0 0 
167 0 0.804068 0.130173 0.0657578 0 0 0 0 0 0 
168 0.124081 0.497737 0.30893 0.0477686 0.0214828 0 0 0 0 0 
169 0.168704 0.610553 0.200648 0 0.0200942 0 0 0 0 0 
170 0.177601 0.68935 0.00117952 0.119859 0.0120109 0 0 0 0 0 
171 0.414834 0.543137 0.0023319 0.0317574 0 0.00794047 0 0 0 0 
172 0.110605 0.505395 0.313683 0.0485035 0.0218133 0 0 0 0 0 
173 0.168704 0.610553 0.200648 0 0.0200942 0 0 0 0 0 
174 0 0.625475 0.26477 0.0732875 0 0 0.0364673 0 0 0 
175 0 0.804068 0.130173 0.0657578 0 0 0 0 0 0 
176 0.166148 0.616454 0.197608 0 0.0197898 0 0 0 0 0 
177 0 0.795959 0.125802 0.0596393 0.0185989 1.10837e-07 0 0 0 0 
178 0 0.999999 0 0 0 0 0 0 0 0 
179 0 0.795959 0.125802 0.0596393 0.0185989 1.10837e-07 0 0 0 0 
180 0 0.795959 0.125802 0.0596393 0.0185989 1.10837e-07 0 0 0 0 
181 0 0.788684 0.130173 0.0811424 0 0 0 0 0 0 
182 0 0.795959 0.125802 0.0596393 0.0185989 1.10837e-07 0 0 0 0 
183 0 0.804068 0.130173 0.0657578 0 0 0 0 0 0 
184 4.63384e-06 0.712178 0.175337 0.11248 0 0 0 0 0 0 
185 4.63384e-06 0.712178 0.175337 0.11248 0 0 0 0 0 0 
186 0.110605 0.505395 0.313683 0.0485035 0.0218133 0 0 0 0 0 
187 0 0.795959 0.125802 0.0596393 0.0185989 1.10837e-07 0 0 0 0 
188 0 0.999999 0 0 0 0 0 0 0 0 
189 0 0.780575 0.141187 0.0596393 0.0185989 1.10837e-07 0 0 0 0 
190 0.40855 0.550055 0.00229819 0.0312762 0 0.00782016 0 0 0 0 
191 0 0.795959 0.125802 0.0596393 0.0185989 1.10837e-07 0 0 0 0 
192 0 0.788737 0.145504 0.0657578 0 0 0 0 0 0 
193 0 0.795959 0.125802 0.0596393 0.0185989 1.10837e-07 0 0 0 0 
194 0 0.795959 0.125802 0.0596393 0.0185989 1.10837e-07 0 0 0 0 
195 0.16923 0.83077 0 0 0 0 0 0 0 0 
196 0.176572 0.823427 0 0 0 0 0 0 0 0 
197 0.534798 0.436456 0.00962644 0 0.0191188 0 0 0 0 0 
198 0.0199009 0.593733 0.276412 0.0906482 0 0.0193062 0 0 0 0 
199 0.164178 0.835822 0 0 0 0 0 0 0 0 
200 0.16923 0.83077 0 0 0 0 0 0 0 0 
201 0.186879 0.684003 0.00118491 0.116281 0.0116524 0 0 0 0 0 
202 0 0.795959 0.125802 0.0596393 0.0185989 1.10837e-07 0 0 0 0 
203 0.177601 0.68935 0.00117952 0.119859 0.0120109 0 0 0 0 0 
204 0 0.804068 0.130173 0.0657578 0 0 0 0 0 0 
205 0.16923 0.83077 0 0 0 0 0 0 0 0 
206 0.110605 0.505395 0.313683 0.0485035 0.0218133 0 0 0 0 0 
207 0.414834 0.543137 0.0023319 0.0317574 0 0.00794047 0 0 0 0 
208 0 0.795949 0.125812 0.0596393 0.0185989 1.10837e-07 0 0 0 0 
209 0.0195995 0.615039 0.272224 0.0741234 0 0.0190137 0 0 0 0 
210 0.207246 0.578601 0.194658 0 0.0194944 0 0 0 0 0 
211 0.1723 0.698622 0.00114432 0.116281 0.0116524 0 0 0 0 0 
212 0.177601 0.673965 0.00117952 0.135243 0.0120109 0 0 0 0 0 
213 0 0.780575 0.125802 0.0750238 0.0185989 1.10837e-07 0 0 0 0 
214 0.0199009 0.593733 0.276422 0.0906379 0 0.0193062 0 0 0 0 
215 0.414834 0.527752 0.0023319 0.0317574 0 0.0233251 0 0 0 0 
216 0.190673 0.583617 0.191795 0 0.0339136 0 0 0 0 0 
217 0.177602 0.689349 0.00117952 0.119859 0.0120109 0 0 0 0 0 
218 0 0.499897 0.000250661 0.499852 0 0 0 0 0 0 
219 0.168704 0.595176 0.216024 0 0.0200943 0 0 0 0 0 
220 0 0.999999 0 0 0 0 0 0 0 0 
221 0.183986 0.595271 0.200648 0 0.0200942 0 0 0 0 0 
222 0.0199009 0.609117 0.276411 0.0752638 0 0.0193062 0 0 0 0 
223 0.110605 0.4938 0.325277 0.0485035 0.0218133 0 0 0 0 0 
224 0 0.625475 0.26477 0.0732875 0 0 0.0364673 0 0 0 
225 0.110605 0.502419 0.316658 0.0485035 0.0218133 0 0 0 0 0 
226 0 0.788684 0.130173 0.0811421 0 0 0 0 0 0 
227 0.17491 0.694056 0.00116165 0.118043 0.0118289 0 0 0 0 0 
228 0.408952 0.549655 0.00229668 0.0312762 0 0.00782016 0 0 0 0 
229 0.168704 0.595169 0.216032 0 0.0200943 0 0 0 0 0 
230 0.110605 0.505395 0.313683 0.0485035 0.0218133 0 0 0 0 0 
231 0.168704 0.610553 0.200648 0 0.0200942 0 0 0 0 0 
232 0 0.799048 0.123898 0.0587357 0.0183171 1.09158e-07 0 0 0 0 
233 0 0.625475 0.26477 0.0732875 0 0 0.0364673 0 0 0 
234 0 0.799051 0.123896 0.0587357 0.0183171 1.09158e-07 0 0 0 0 
235 0.110605 0.490421 0.328656 0.0485037 0.0218133 0 0 0 0 0 
236 0.0199009 0.593733 0.291685 0.0753743 0 0.0193062 0 0 0 0 
237 0 0.780575 0.141186 0.0596394 0.0185989 1.10837e-07 0 0 0 0 
238 0.414834 0.539127 0.00634128 0.0317574 0 0.00794047 0 0 0 0 
239 0.419771 0.511605 0.00224287 0.0589016 0 0.00748016 0 0 0 0 
240 0 0.619987 0.27192 0.0721771 0 0 0.0359148 0 0 0 
241 0.168704 0.595169 0.216032 0 0.0200943 0 0 0 0 0 
242 0.408588 0.55002 0.00229656 0.0312762 0 0.00782016 0 0 0 0 
243 0.177601 0.68935 0.00117952 0.119859 0.0120109 0 0 0 0 0 
244 4.63384e-06 0.696903 0.190612 0.11248 0 0 0 0 0 0 
245 0.408548 0.550059 0.00229656 0.0312762 0 0.00782016 0 0 0 0 
246 0.0199009 0.609117 0.276411 0.0752638 0 0.0193062 0 0 0 0 
247 0.177601 0.68935 0.00117952 0.119859 0.0120109 0 0 0 0 0 
248 0 0.795959 0.125802 0.0596393 0.0185989 1.10837e-07 0 0 0 0 
249 0 0.798647 0.1243 0.0587357 0.0183171 1.09158e-07 0 0 0 0 
250 0 0.625475 0.26477 0.0732875 0 0 0.0364673 0 0 0 
251 0.0199009 0.609117 0.276411 0.0752638 0 0.0193062 0 0 0 0 
252 0 0.795959 0.125802 0.0596393 0.0185989 1.10837e-07 0 0 0 0 
253 0.177601 0.673965 0.00117952 0.135243 0.0120109 0 0 0 0 0 
254 4.63384e-06 0.711711 0.175804 0.11248 0 0 0 0 0 0 
255 0.414834 0.543137 0.0023319 0.0317574 0 0.00794047 0 0 0 0 
256 0.0199009 0.593733 0.277812 0.0892477 0 0.0193062 0 0 0 0 
257 0 0.610556 0.279687 0.073289 0 0 0.0364673 0 0 0 
258 0.109507 0.501113 0.320069 0.0478285 0.0214828 0 0 0 0 0 
259 0.110605 0.505394 0.313683 0.0485035 0.0218133 0 0 0 0 0 
260 0.177601 0.68935 0.00117952 0.119859 0.0120109 0 0 0 0 0 
261 0.168704 0.610553 0.200648 0 0.0200942 0 0 0 0 0 
262 0.534778 0.421093 0.00962644 0 0.0345034 0 0 0 0 0 
263 0.414834 0.543137 0.0023319 0.0317574 0 0.00794047 0 0 0 0 
264 0.177601 0.68935 0.00117952 0.119859 0.0120109 0 0 0 0 0 
265 0.0199009 0.609117 0.276411 0.0752638 0 0.0193062 0 0 0 0 
266 0.534778 0.436477 0.00962644 0 0.0191188 0 0 0 0 0 
267 0 0.795959 0.125802 0.0596393 0.0185989 1.10837e-07 0 0 0 0 
268 0.190053 0.678913 0.00116165 0.118043 0.0118289 0 0 0 0 0 
269 0 0.804068 0.130173 0.0657578 0 0 0 0 0 0 
270 0.177602 0.689348 0.00117952 0.119859 0.0120109 0 0 0 0 0 
271 0.168704 0.610553 0.200648 0 0.0200942 0 0 0 0 0 
272 0.110605 0.49001 0.314669 0.0609793 0.0237363 0 0 0 0 0 
273 0.51883 0.453231 0.00939061 0 0.0185481 0 0 0 0 0 
274 0.110605 0.490012 0.329065 0.0485035 0.0218133 0 0 0 0 0 
275 0.0199031 0.60911 0.276416 0.0752638 0 0.0193062 0 0 0 0 
276 0 0.804068 0.130173 0.0657578 0 0 0 0 0 0 
277 0.177601 0.673965 0.00117959 0.135243 0.0120109 0 0 0 0 0 
278 0 0.804068 0.130173 0.0657578 0 0 0 0 0 0 
279 0 0.795959 0.125802 0.0596393 0.0185989 1.10837e-07 0 0 0 0 
280 4.49552e-06 0.720769 0.170103 0.109122 0 0 0 0 0 0 
281 0 0.795959 0.125802 0.0596393 0.0185989 1.10837e-07 0 0 0 0 
282 0 0.795959 0.125802 0.0596393 0.0185989 1.10837e-07 0 0 0 0 
283 0 0.780575 0.141186 0.0596393 0.0185989 1.10837e-07 0 0 0 0 
284 0.0199009 0.593733 0.291796 0.0752638 0 0.0193062 0 0 0 0 
285 0.167197 0.618044 0.195264 0 0.0194944 0 0 0 0 0 
286 0.110605 0.49001 0.329067 0.0485035 0.0218133 0 0 0 0 0 
287 0.168704 0.595168 0.216032 0 0.0200942 0 0 0 0 0 
288 4.63384e-06 0.696793 0.175337 0.127864 0 0 0 0 0 0 
289 0 0.795959 0.125802 0.0596393 0.0185989 1.10837e-07 0 0 0 0 
290 0.408548 0.534902 0.00230979 0.0464194 0 0.00782016 0 0 0 0 
291 0.414834 0.543137 0.0023319 0.0317574 0 0.00794047 0 0 0 0 
292 0 0.610091 0.280149 0.0732921 0 0 0.0364673 0 0 0 
293 0 0.61009 0.26477 0.0886719 0 0 0.0364673 0 0 0 
294 0 0.61009 0.280155 0.0732875 0 0 0.0364673 0 0 0 
295 4.63384e-06 0.696793 0.190722 0.11248 0 0 0 0 0 0 
296 0.0199009 0.609117 0.276411 0.0752638 0 0.0193062 0 0 0 0 
297 0.177601 0.68935 0.00117952 0.119859 0.0120109 0 0 0 0 0 
298 0.0199009 0.609117 0.276411 0.0752638 0 0.0193062 0 0 0 0 
299 0.177601 0.68935 0.00117955 0.119859 0.0120109 0 0 0 0 0 
300 0.110605 0.505394 0.313683 0.0485035 0.0218133 0 0 0 0 0 
301 0.110605 0.505395 0.313683 0.0485035 0.0218133 0 0 0 0 0 
302 0 0.795959 0.125802 0.0596393 0.0185989 1.10837e-07 0 0 0 0 
303 0 0.804068 0.130173 0.0657578 0 0 0 0 0 0 
304 0.0195993 0.61504 0.272223 0.0741234 0 0.0190137 0 0 0 0 
305 0.0199009 0.593733 0.291796 0.0752638 0 0.0193062 0 0 0 0 
306 4.63384e-06 0.696793 0.190722 0.11248 0 0 0 0 0 0 
307 0 0.346932 0.653067 0 0 0 0 0 0 0 
308 0.124081 0.482634 0.324033 0.0477689 0.0214828 0 0 0 0 0 
309 0 0.795959 0.125802 0.0596393 0.0185989 1.10837e-07 0 0 0 0 
310 0 0.61009 0.280155 0.0732875 0 0 0.0364673 0 0 0 
311 0.110605 0.49001 0.329067 0.0485035 0.0218133 0 0 0 0 0 
312 0.0199009 0.593733 0.291796 0.0752638 0 0.0193062 0 0 0 0 
313 0.414834 0.527752 0.0023319 0.047142 0 0.00794047 0 0 0 0 
314 0.17491 0.678905 0.00116192 0.133194 0.011829 0 0 0 0 0 
315 0.177601 0.68935 0.00117952 0.119859 0.0120109 0 0 0 0 0 
316 0.110605 0.505395 0.313683 0.0485035 0.0218133 0 0 0 0 0 
317 0.0199009 0.609117 0.276411 0.0752638 0 0.0193062 0 0 0 0 
318 0.10893 0.512888 0.30893 0.0477686 0.0214828 0 0 0 0 0 
319 0 0.61009 0.26477 0.0732875 0 0 0.0518519 0 0 0 
320 0.168808 0.61045 0.200648 0 0.0200942 0 0 0 0 0 
321 0 0.804068 0.130173 0.0657578 0 0 0 0 0 0 
322 0.110605 0.49001 0.329067 0.0485035 0.0218133 0 0 0 0 0 
323 0.182179 0.684751 0.00119959 0.119859 0.0120109 0 0 0 0 0 
324 0.168704 0.610553 0.200648 0 0.0200942 0 0 0 0 0 
325 0.169241 0.830759 0 0 0 0 0 0 0 0 
326 1.00953e-07 0.795949 0.125812 0.0596393 0.0185989 1.10837e-07 0 0 0 0 
327 0.541777 0.429914 0.00948058 0 0.0188291 0 0 0 0 0 
328 0 0.795959 0.125802 0.0596393 0.0185989 1.10837e-07 0 0 0 0 
329 0.417607 0.541375 0.00250524 0.0308094 0 0.00770344 0 0 0 0 
330 4.63384e-06 0.712178 0.175337 0.11248 0 0 0 0 0 0 
331 0 0.331548 0.668451 0 0 0 0 0 0 0 
332 0.168704 0.595169 0.216032 0 0.0200943 0 0 0 0 0 
333 0 0.780575 0.141186 0.0596393 0.0185989 1.10837e-07 0 0 0 0 
334 0 0.795959 0.125802 0.0596393 0.0185989 1.10837e-07 0 0 0 0 
335 0 0.331548 0.668451 0 0 0 0 0 0 0 
336 0 0.804068 0.130173 0.0657578 0 0 0 0 0 0 
337 0 0.795959 0.125802 0.0596393 0.0185989 1.10837e-07 0 0 0 0 
338 0.0199009 0.593733 0.276411 0.0752638 0 0.0346909 0 0 0 0 
339 0.0199009 0.609117 0.276411 0.0752638 0 0.0193062 0 0 0 0 
340 0.110605 0.491313 0.327764 0.0485035 0.0218133 0 0 0 0 0 
341 0.177601 0.68935 0.00117952 0.119859 0.0120109 0 0 0 0 0 
342 0 0.795959 0.125802 0.0596393 0.0185989 1.10837e-07 0 0 0 0 
343 0 0.331861 0.668138 0 0 0 0 0 0 0 
344 0 0.780575 0.125803 0.0750233 0.0185989 1.10837e-07 0 0 0 0 
345 0.168704 0.595175 0.216026 0 0.0200942 0 0 0 0 0 
346 0.111357 0.504642 0.313684 0.0485035 0.0218133 0 0 0 0 0 
347 0.0195994 0.611358 0.275904 0.0741234 0 0.0190137 0 0 0 0 
348 0.0199009 0.593733 0.291793 0.0752669 0 0.0193062 0 0 0 0 
349 0 0.625475 0.26477 0.0732875 0 0 0.0364673 0 0 0 
350 0 0.795959 0.125802 0.0596393 0.0185989 1.10837e-07 0 0 0 0 
351 0.177601 0.68935 0.00117952 0.119859 0.0120109 0 0 0 0 0 
352 0.168704 0.595172 0.216029 0 0.0200942 0 0 0 0 0 
353 4.63384e-06 0.696793 0.17936 0.123841 0 0 0 0 0 0 
354 0.534778 0.436477 0.00962644 0 0.0191188 0 0 0 0 0 
355 4.63384e-06 0.712178 0.175337 0.11248 0 0 0 0 0 0 
356 0.0199009 0.593733 0.276679 0.0903806 0 0.0193062 0 0 0 0 
357 0.110605 0.49001 0.329067 0.0485035 0.0218133 0 0 0 0 0 
358 0 0.804068 0.130173 0.0657578 0 0 0 0 0 0 
359 0.177601 0.673965 0.00117952 0.11986 0.0273943 0 0 0 0 0 
360 0.168704 0.610553 0.200648 0 0.0200942 0 0 0 0 0 
