0 5 6.61958e-06
0 8 0.137212
0 11 0.00150373
0 13 0.282393
0 15 1.06595e-07
0 17 0.127115
0 18 2.29718e-06
0 19 5.9518e-05
0 23 0.000789835
0 29 2.28196e-07
0 30 0.0596387
0 31 5.48181e-06
0 33 0.0354934
0 35 0.000175866
21 28 0.99996
0 36 0.133895
0 44 0.114198
126 7 0.99996
0 61 1.188e-07
0 63 2.26526e-05
0 64 5.58742e-06
42 48 0.99996
0 74 1.83808e-07
105 35 0.999632
63 58 0.333318
84 50 0.495958
210 8 0.99996
0 89 2.04498e-06
0 91 0.0386906
0 96 0.00061422
0 110 0.0622623
0 119 1.55025e-06
273 20 0.332989
84 92 0.504002
63 103 0.666642
0 137 4.59162e-05
0 145 1.11996e-07
273 59 0.333892
147 154 0.99996
0 213 3.26803e-07
273 116 0.333079
0 239 2.90945e-06
0 241 1.73185e-06
168 181 0.99996
0 250 1.41954e-07
0 257 1.41323e-07
0 258 1.32216e-07
0 261 9.81168e-06
189 199 0.49998
189 200 0.49998
0 282 0.000167412
0 288 0.000387076
0 289 0.00525239
357 164 0.49998
231 253 0.99996
252 276 0.99996
0 375 7.14523e-06
0 385 1.36039e-06
105 365 0.000328565
315 328 0.99996
294 342 0.49998
294 346 0.49998
336 371 0.99996
357 395 0.49998
10 10 0.99996
31 38 0.99996
73 47 0.99996
52 63 0.00010397
136 48 0.334065
52 91 0.499245
94 102 0.99996
325 19 0.99996
346 36 0.99996
115 125 0.99996
136 144 0.334065
136 147 0.331831
52 186 0.500612
157 164 8.565e-05
157 166 0.499938
157 167 0.499937
178 192 0.99996
199 210 0.99996
220 238 0.99996
241 263 0.499981
241 264 0.49998
262 290 0.24999
262 291 0.24999
262 292 0.24999
262 293 0.24999
283 310 0.499977
283 316 0.499984
304 333 0.49998
304 341 0.49998
20 27 0.99996
41 46 0.00364762
125 18 4.16861e-05
41 53 0.996313
104 30 0.99996
146 19 0.499942
209 14 0.499981
62 71 0.99996
83 78 0.49998
83 79 0.49998
314 40 0.249991
125 118 0.334158
125 120 0.334158
146 115 0.500019
272 77 0.326687
125 137 0.331603
188 122 0.99996
314 97 0.249988
314 98 0.24999
314 99 0.249991
167 183 0.99996
209 221 0.49998
230 252 0.99996
251 275 0.99996
272 288 0.305523
272 289 0.0410647
272 299 0.326686
293 307 0.333322
293 340 0.333316
293 345 0.333322
335 369 0.49998
335 370 0.49998
356 375 0.329431
356 393 0.335265
356 394 0.335265
9 16 0.99996
30 23 0.497762
72 15 5.06519e-05
30 37 0.502198
51 63 7.55691e-05
135 41 0.33332
51 74 0.503911
156 39 0.998377
135 51 0.33332
93 95 0.99996
72 119 0.0130604
72 129 0.985766
114 121 0.99996
72 164 0.00108373
135 153 0.33332
156 164 0.00158331
177 174 0.99996
51 234 0.251956
198 207 0.333319
198 208 0.333321
198 209 0.333321
51 282 0.244018
219 237 0.500098
219 239 0.499862
282 223 0.99996
240 261 0.26918
240 262 0.730781
261 287 0.99996
303 332 0.99996
324 327 0.99996
345 365 0.499882
345 381 0.500079
19 26 0.99996
103 17 0.00706336
40 45 0.99996
124 17 0.0601149
103 30 0.660059
82 50 0.99996
61 69 0.99996
103 78 0.332838
124 119 0.535552
124 122 0.404294
166 174 0.99996
187 198 0.99996
208 220 0.99996
229 250 0.499974
229 251 0.499986
250 273 0.99996
271 297 0.99996
292 323 0.500034
292 325 0.499926
313 327 0.33332
313 329 0.33332
313 330 0.33332
334 367 0.99996
355 389 0.99996
8 15 0.508594
29 11 0.202669
29 59 0.797084
50 61 0.99996
71 61 0.486959
8 91 0.491367
218 19 0.499982
71 87 0.513002
92 101 0.99996
344 19 0.333311
323 30 0.99996
113 124 0.99996
218 91 0.499978
239 97 0.285652
239 98 0.285947
239 99 0.428362
134 143 0.99996
197 119 0.99996
155 164 0.498713
155 165 0.501247
176 182 0.99996
344 121 0.333325
29 261 0.000208348
260 286 0.99996
281 302 0.99996
302 331 0.99996
344 364 0.333325
18 8 0.000435351
39 7 0.499417
18 20 0.999525
39 43 0.500544
144 5 0.34857
123 18 0.000849948
123 19 0.999111
60 70 0.99996
81 80 0.99996
228 35 0.493242
270 31 0.99996
102 112 0.99996
228 93 0.506719
144 156 0.65139
165 174 0.99996
186 197 0.99996
207 219 0.99996
249 258 0.99996
291 324 0.99996
312 326 0.499986
312 340 0.499975
333 367 0.499976
333 368 0.499985
354 388 0.99996
28 2 0.496574
28 3 0.496574
7 14 0.99996
28 29 0.00681212
49 60 0.99996
196 28 0.333994
70 85 0.499981
70 86 0.49998
217 48 0.99996
91 100 0.99996
112 123 0.99996
322 59 0.49998
133 139 0.499539
133 142 0.500421
154 162 0.99996
175 191 0.99996
196 214 0.334094
196 236 0.331873
343 186 0.505121
238 261 0.206725
238 268 0.793235
259 283 0.99996
280 309 0.99996
301 338 0.99996
322 355 0.49998
343 363 0.494839
17 22 0.499978
17 24 0.499983
59 25 0.99996
143 5 0.000546684
38 47 0.99996
143 7 0.999414
122 18 0.333181
122 19 0.66678
164 5 0.99996
80 91 0.99996
101 111 0.99996
353 23 0.269663
185 196 0.99996
206 218 0.99996
227 214 0.99996
332 230 0.49998
248 272 0.99996
269 298 0.99996
290 321 0.250004
290 322 0.500007
290 323 0.24995
311 350 0.49998
311 351 0.49998
332 362 0.49998
353 386 0.365148
353 387 0.365149
6 9 0.99996
27 31 0.333428
27 35 0.666532
48 57 0.99996
111 39 0.99996
69 83 0.499977
69 84 0.499983
90 89 0.143226
258 31 0.369703
90 97 0.285578
90 98 0.285578
90 99 0.285578
195 77 0.99996
132 140 0.49998
132 141 0.49998
258 110 0.628845
153 163 0.99996
174 190 0.99996
216 235 0.199992
216 245 0.199992
216 246 0.199992
216 247 0.199992
216 248 0.199992
237 260 0.499979
237 267 0.499981
258 282 0.00141203
279 308 0.99996
300 340 0.99996
321 356 0.99996
342 380 0.99996
16 7 0.283654
16 23 0.708721
58 25 0.99996
37 46 0.99996
121 18 9.3711e-06
163 4 0.99996
79 80 0.99996
226 25 0.333322
100 108 0.49998
100 109 0.49998
331 40 0.49998
121 122 0.509393
331 47 0.49998
142 152 0.99996
121 186 0.490559
16 241 0.00758552
184 195 0.99996
205 217 0.99996
226 242 0.333322
226 254 0.333317
247 274 0.99996
268 288 0.00036975
268 289 0.000184002
268 301 0.999407
289 300 0.99996
352 287 0.500037
310 335 0.49998
310 336 0.49998
352 385 0.499923
5 7 0.99996
26 29 0.665104
26 34 0.334857
47 54 0.33332
47 55 0.33332
47 56 0.33332
152 20 0.99996
110 55 0.99996
68 77 0.99996
89 88 0.52694
89 96 0.473021
131 139 0.99996
257 115 4.91799e-05
320 110 0.99996
173 189 0.99996
194 205 0.99996
215 230 0.199992
215 231 0.199992
215 232 0.199992
215 233 0.199992
215 234 0.199992
236 257 0.498185
236 259 0.4982
236 261 6.3046e-06
236 266 0.00356915
257 280 0.49226
257 284 0.507651
278 303 0.99996
299 339 0.99996
341 379 0.99996
36 11 9.33815e-07
15 19 0.332648
15 21 0.667312
36 17 0.71473
36 19 4.04986e-06
141 7 0.182439
36 63 0.00320718
36 64 0.00214958
57 68 0.99996
36 110 1.62539e-06
78 94 0.99996
36 122 0.279862
99 105 0.99996
351 15 0.99996
162 113 0.99996
120 132 0.99996
141 147 0.817521
309 115 0.99996
183 194 0.99996
204 215 0.99996
36 289 6.16919e-06
225 241 0.16204
330 206 0.99996
225 249 0.837921
246 270 0.99996
267 296 0.99996
288 313 0.333321
288 314 0.333321
288 320 0.333318
4 6 0.99996
46 5 0.000245167
46 13 0.00823879
25 33 0.998124
67 58 0.250206
67 64 0.249333
88 58 0.99996
67 75 0.250211
67 76 0.250211
256 11 0.312459
46 122 0.991477
340 11 0.477862
109 117 0.99996
319 50 0.16666
130 138 0.99996
151 161 0.498254
151 168 0.501706
172 188 0.99996
193 204 0.99996
214 220 0.333169
214 228 0.333396
214 229 0.333396
319 206 0.16666
235 256 0.506743
235 258 0.493217
25 363 0.00183079
25 365 5.55786e-06
256 281 0.343751
256 285 0.343751
277 305 0.333321
277 306 0.333319
277 307 0.333321
298 349 0.99996
319 357 0.16666
319 358 0.16666
319 359 0.16666
319 360 0.16666
340 378 0.522099
14 20 0.99996
35 42 0.99996
56 67 0.99996
77 82 0.99996
98 107 0.99996
329 48 0.991825
119 136 0.99996
350 50 0.99996
140 151 0.99996
308 97 0.5005
308 98 0.499461
161 177 0.49998
161 180 0.49998
182 193 0.99996
203 216 0.99996
224 243 0.99996
245 269 0.99996
266 295 0.99996
287 312 0.49998
287 319 0.499981
329 375 0.00810286
329 392 3.24157e-05
3 5 0.877381
24 32 0.99996
3 48 0.12258
66 31 0.99996
45 51 0.49998
45 52 0.49998
87 50 0.99996
108 116 0.99996
192 89 0.499116
234 84 0.99996
129 135 0.99996
150 160 0.99996
171 187 0.99996
192 203 0.500845
255 186 0.99996
213 223 0.333319
213 225 0.333321
213 227 0.333321
276 304 0.99996
297 348 0.99996
318 353 0.99996
339 377 0.99996
360 397 0.99996
13 11 0.603868
13 12 0.396032
34 7 0.33382
13 28 6.10689e-05
76 5 2.66269e-05
76 15 0.408909
34 41 0.666141
55 63 4.95607e-05
55 64 0.493584
55 66 0.506327
76 61 0.107377
76 91 0.277871
76 92 0.205777
97 106 0.99996
118 128 0.499981
118 131 0.49998
139 150 0.99996
160 176 0.49998
181 169 0.33332
181 170 0.33332
160 179 0.49998
181 171 0.33332
202 212 0.99996
223 241 0.429747
223 244 0.570214
244 266 0.498183
244 271 0.501778
265 294 0.99996
307 282 0.99996
286 311 0.499981
286 318 0.49998
328 361 0.99996
349 384 0.99996
2 4 0.99996
23 8 0.351837
23 25 0.640876
107 26 0.24999
44 50 0.99996
23 61 0.000176485
23 63 0.00707186
65 73 0.99996
86 94 0.665746
86 95 0.334214
107 113 0.24999
107 114 0.24999
107 115 0.24999
359 28 0.249994
128 133 0.49998
128 134 0.49998
149 159 0.99996
170 185 0.99996
191 202 0.99996
212 222 0.33332
212 224 0.33332
212 226 0.33332
233 255 0.99996
254 280 0.99996
275 289 0.99996
296 344 0.99996
317 354 0.99996
338 366 0.199992
338 373 0.199992
338 374 0.199992
338 375 0.199992
338 376 0.199992
359 390 0.249995
359 391 0.249994
359 392 0.249978
12 11 0.928473
33 28 0.33332
33 39 0.33332
33 40 0.33332
12 63 0.0710078
12 64 0.000479951
54 65 0.99996
201 23 0.974792
75 81 0.99996
96 105 0.499813
327 19 0.000695488
348 20 0.500031
96 116 0.500147
327 41 0.999265
285 61 0.3709
117 127 0.499981
117 130 0.49998
201 110 0.0251686
138 149 0.99996
285 122 0.629061
159 175 0.49998
159 178 0.49998
180 173 0.99996
264 164 0.99996
222 240 0.99996
243 265 0.99996
306 337 0.99996
348 383 0.499929
22 30 0.999952
127 7 0.499695
148 5 0.0605696
43 49 0.99996
127 18 0.500266
106 31 0.513433
85 50 0.0113999
232 5 0.99996
64 72 0.99996
22 89 2.30636e-06
22 96 6.80674e-06
85 90 0.49428
85 93 0.49428
106 110 0.486527
148 155 0.313128
148 157 0.313132
148 158 0.313132
169 184 0.99996
190 201 0.99996
211 213 0.666633
211 231 0.333327
253 277 0.33332
253 278 0.33332
253 279 0.33332
274 282 0.49994
274 300 0.50002
295 343 0.499981
295 347 0.49998
316 352 0.99996
337 372 0.99996
358 396 0.99996
11 18 0.99996
32 36 0.999697
32 46 0.000263634
158 11 0.285248
158 12 0.286282
53 62 0.639412
53 63 0.360549
74 91 9.67828e-05
242 41 0.99996
95 104 0.99996
347 23 0.108305
347 35 5.95375e-06
116 126 0.99996
137 145 0.333316
137 146 0.333322
137 148 0.333322
263 119 0.99996
158 168 0.428431
326 110 0.99996
74 206 0.999864
179 172 0.99996
200 211 0.99996
221 236 0.99996
284 315 0.499984
284 317 0.499977
305 334 0.499983
305 339 0.499978
347 382 0.891649
