0 1 16 100 0.00725331
1 1 16 100 0.992747
2 2 16 100 1
0 3 16 100 0.999974
8 3 16 100 1.4432e-05
14 3 16 100 1.1184e-05
3 4 16 100 1
4 5 16 100 1
5 6 16 100 1
6 7 16 100 1
7 8 16 100 1
0 9 16 100 0.00721741
7 9 16 100 0.992783
9 10 16 100 1
10 11 16 100 1
10 12 16 100 9.83865e-05
11 12 16 100 0.999803
12 12 16 100 9.83865e-05
12 13 16 100 1
0 14 16 100 0.000353696
8 14 16 100 1.25539e-05
13 14 16 100 0.722902
14 14 16 100 0.276732
15 15 16 100 1
0 16 16 100 0.999266
8 16 16 100 1.4432e-05
14 16 16 100 0.000719601
16 17 16 100 1
16 18 16 100 1
1 1 17 100 0.999927
2 1 17 100 7.26736e-05
2 2 17 100 1
3 3 17 100 1
0 4 17 100 0.5
4 4 17 100 0.5
0 5 17 100 0.000735746
4 5 17 100 0.998619
5 5 17 100 0.000645409
0 6 17 100 0.499761
5 6 17 100 0.5
9 6 17 100 0.000239387
5 7 17 100 0.49995
6 7 17 100 0.500022
7 7 17 100 2.75631e-05
5 8 17 100 0.5
6 8 17 100 0.5
5 9 17 100 0.5
7 9 17 100 0.5
8 10 17 100 1
7 11 17 100 0.499993
9 11 17 100 6.63085e-06
10 11 17 100 0.5
10 12 17 100 0.5
11 12 17 100 0.5
0 13 17 100 0.499673
12 13 17 100 0.5
14 13 17 100 0.000326767
0 14 17 100 0.226412
11 14 17 100 0.5
13 14 17 100 0.273588
12 15 17 100 0.5
14 15 17 100 0.5
0 16 17 100 0.000129946
8 16 17 100 0.000245271
9 16 17 100 0.0534936
13 16 17 100 0.251466
14 16 17 100 0.194665
15 16 17 100 0.5
15 17 17 100 1
16 18 17 100 1
17 19 17 100 1
1 1 18 100 0.99987
2 1 18 100 0.000130165
2 2 18 100 1
0 3 18 100 1
3 4 18 100 1
4 5 18 100 1
5 6 18 100 1
0 7 18 100 0.000964237
6 7 18 100 0.999036
7 8 18 100 1
8 9 18 100 1
9 10 18 100 1
10 11 18 100 1
0 12 18 100 0.0217919
11 12 18 100 0.978208
12 13 18 100 1
0 14 18 100 0.998952
11 14 18 100 0.00100057
15 14 18 100 4.71572e-05
13 15 18 100 1
14 16 18 100 1
16 17 18 100 1
16 18 18 100 0.00253602
17 18 18 100 0.997464
0 19 18 100 0.0363704
17 19 18 100 0.96363
17 20 18 100 1
18 21 18 100 1
2 1 19 100 1
3 2 19 100 1
4 3 19 100 1
4 4 19 100 0.000135597
5 4 19 100 0.999729
6 4 19 100 0.000135597
6 5 19 100 1
7 6 19 100 1
8 7 19 100 1
0 8 19 100 0.00795261
9 8 19 100 0.992047
10 9 19 100 1
0 10 19 100 0.014636
11 10 19 100 0.985364
0 11 19 100 0.999854
9 11 19 100 0.000146199
12 12 19 100 1
13 13 19 100 1
0 14 19 100 0.999862
9 14 19 100 0.000137595
14 15 19 100 1
15 16 19 100 1
0 17 19 100 0.999928
9 17 19 100 7.18747e-05
16 18 19 100 1
17 19 19 100 1
18 20 19 100 1
19 21 19 100 1
1 1 21 100 0.999885
2 1 21 100 0.000115116
2 2 21 100 0.999982
3 2 21 100 1.77816e-05
0 3 21 100 0.0511106
3 3 21 100 0.948232
16 3 21 100 0.00065711
4 4 21 100 1
0 5 21 100 0.089322
5 5 21 100 0.910678
6 6 21 100 1
7 7 21 100 1
0 8 21 100 0.00637168
8 8 21 100 0.993628
9 9 21 100 1
14 10 21 100 1
15 11 21 100 1
0 12 21 100 3.54889e-05
15 12 21 100 0.999139
16 12 21 100 0.000825085
9 13 21 100 1
10 14 21 100 1
9 15 21 100 1
10 16 21 100 1
11 17 21 100 1
12 18 21 100 1
13 19 21 100 1
17 20 21 100 1
0 21 21 100 0.0173177
18 21 21 100 0.982682
19 22 21 100 0.996542
20 22 21 100 0.00345822
20 23 21 100 1
21 24 21 100 1
1 1 25 100 1
2 2 25 100 1
5 3 25 100 0.998574
7 3 25 100 0.00142583
5 4 25 100 0.000138316
6 4 25 100 0.999723
7 4 25 100 0.000138316
5 5 25 100 0.00141922
7 5 25 100 0.998581
0 6 25 100 1.22529e-05
4 6 25 100 0.999988
3 7 25 100 1
8 8 25 100 1
9 9 25 100 1
10 10 25 100 1
11 11 25 100 1
12 12 25 100 1
13 13 25 100 1
0 14 25 100 9.12735e-05
14 14 25 100 0.999909
15 15 25 100 1
16 16 25 100 1
17 17 25 100 1
18 18 25 100 1
19 19 25 100 1
20 20 25 100 1
21 21 25 100 1
23 22 25 100 1
24 23 25 100 1
25 24 25 100 1
1 1 27 100 0.999944
2 1 27 100 5.61716e-05
2 2 27 100 1
0 3 27 100 0.0974524
3 3 27 100 0.902548
3 4 27 100 1
0 5 27 100 0.999896
15 5 27 100 7.01605e-05
18 5 27 100 1.0336e-05
21 5 27 100 1.03474e-05
23 5 27 100 1.34233e-05
5 6 27 100 1
4 7 27 100 8.9627e-05
6 7 27 100 0.99991
7 8 27 100 1
8 9 27 100 1
0 10 27 100 0.000753462
9 10 27 100 0.999247
10 11 27 100 1
11 12 27 100 1
12 13 27 100 1
13 14 27 100 1
13 15 27 100 1
14 16 27 100 1
0 17 27 100 0.0106988
15 17 27 100 0.989301
0 18 27 100 1
16 19 27 100 1
17 20 27 100 1
0 21 27 100 0.246879
15 21 27 100 6.53313e-05
18 21 27 100 0.753056
19 22 27 100 1
20 23 27 100 1
0 24 27 100 0.0105705
21 24 27 100 0.98943
22 25 27 100 1
0 26 27 100 0.0105736
23 26 27 100 0.989426
24 27 27 100 1
25 28 27 100 1
0 29 27 100 0.783606
26 29 27 100 0.216394
25 30 27 100 1
26 31 27 100 1
27 32 27 100 1
1 1 28 100 0.99989
2 1 28 100 0.000109696
2 2 28 100 1
3 3 28 100 1
4 4 28 100 1
6 5 28 100 1
7 6 28 100 1
0 7 28 100 0.00274129
5 7 28 100 0.000936559
8 7 28 100 0.996322
8 8 28 100 1
0 9 28 100 0.0996054
9 9 28 100 0.900395
10 10 28 100 1
10 11 28 100 1
11 12 28 100 1
12 13 28 100 1
14 14 28 100 0.00204367
15 14 28 100 0.997956
15 15 28 100 1
16 16 28 100 1
17 17 28 100 1
18 18 28 100 1
20 19 28 100 1
0 20 28 100 0.0996053
21 20 28 100 0.900395
22 21 28 100 1
22 22 28 100 1.75561e-05
23 22 28 100 0.999982
24 23 28 100 1
19 24 28 100 1
0 25 28 100 2.69762e-05
25 25 28 100 0.997913
26 25 28 100 0.00206015
26 26 28 100 1
27 27 28 100 1
28 28 28 100 1
1 1 29 100 0.923186
2 1 29 100 6.13532e-05
3 1 29 100 0.0767528
1 2 29 100 0.00649324
2 2 29 100 0.993507
3 3 29 100 0.5
4 3 29 100 0.5
4 4 29 100 0.5
5 4 29 100 0.5
0 5 29 100 6.52913e-06
5 5 29 100 0.500046
6 5 29 100 0.499895
7 5 29 100 5.2569e-05
6 6 29 100 0.499414
7 6 29 100 0.499999
10 6 29 100 0.000586962
7 7 29 100 0.5
8 7 29 100 0.5
8 8 29 100 0.5
10 8 29 100 0.5
11 9 29 100 1
0 10 29 100 5.78534e-05
9 10 29 100 0.499939
12 10 29 100 0.500003
0 11 29 100 0.00715906
9 11 29 100 2.20567e-05
12 11 29 100 0.5
14 11 29 100 0.492819
0 12 29 100 4.73785e-05
13 12 29 100 0.499953
15 12 29 100 0.5
0 13 29 100 0.486675
13 13 29 100 7.6828e-06
14 13 29 100 0.5
16 13 29 100 0.0133174
15 14 29 100 1
16 15 29 100 0.5
17 15 29 100 0.5
17 16 29 100 0.5
18 16 29 100 0.5
0 17 29 100 0.0557096
18 17 29 100 0.444291
20 17 29 100 0.5
19 18 29 100 0.5
21 18 29 100 0.5
20 19 29 100 0.5
22 19 29 100 0.5
21 20 29 100 0.5
23 20 29 100 0.5
0 21 29 100 0.000892838
22 21 29 100 0.5
24 21 29 100 0.499107
23 22 29 100 0.5
25 22 29 100 0.5
24 23 29 100 0.500001
27 23 29 100 0.499999
0 24 29 100 0.00013869
19 24 29 100 0.014882
25 24 29 100 0.5
26 24 29 100 0.484979
0 25 29 100 0.499772
10 25 29 100 8.69529e-05
16 25 29 100 0.000226026
26 25 29 100 0.499915
26 26 29 100 0.499959
27 26 29 100 0.500041
28 27 29 100 1
29 28 29 100 1
1 1 30 100 0.999873
2 1 30 100 0.000127106
2 2 30 100 0.995359
3 2 30 100 0.0046406
4 3 30 100 1
4 4 30 100 1
5 5 30 100 1
0 6 30 100 0.0197
3 6 30 100 5.02051e-05
6 6 30 100 0.980234
11 6 30 100 1.58957e-05
7 7 30 100 1
0 8 30 100 0.999941
27 8 30 100 5.86068e-05
8 9 30 100 1
9 10 30 100 1
9 11 30 100 1
12 12 30 100 1
13 13 30 100 1
14 14 30 100 1
15 15 30 100 1
16 16 30 100 1
17 17 30 100 1
17 18 30 100 1
18 19 30 100 1
19 20 30 100 1
20 21 30 100 1
0 22 30 100 2.92809e-05
21 22 30 100 0.999971
22 23 30 100 1
23 24 30 100 1
0 25 30 100 0.99362
28 25 30 100 0.00637954
23 26 30 100 1
24 27 30 100 1
25 28 30 100 1
26 29 30 100 1
28 30 30 100 0.0495135
29 30 30 100 0.950487
30 31 30 100 1
1 1 31 100 0.999919
2 1 31 100 8.13379e-05
2 2 31 100 1
3 3 31 100 1
4 4 31 100 1
5 5 31 100 1
6 6 31 100 1
7 7 31 100 1
0 8 31 100 0.636088
7 8 31 100 0.00990454
9 8 31 100 0.354008
10 9 31 100 1
10 10 31 100 1
11 11 31 100 1
0 12 31 100 0.999955
16 12 31 100 2.81876e-05
21 12 31 100 1.68483e-05
12 13 31 100 1
13 14 31 100 1
15 15 31 100 1
17 16 31 100 1
18 17 31 100 1
0 18 31 100 0.0102726
19 18 31 100 0.989727
20 19 31 100 1
0 20 31 100 0.0179813
21 20 31 100 0.982019
22 21 31 100 1
23 22 31 100 1
23 23 31 100 1
24 24 31 100 1
25 25 31 100 1
8 26 31 100 1
8 27 31 100 0.997189
26 27 31 100 0.00281141
0 28 31 100 0.353604
9 28 31 100 0.646396
0 29 31 100 0.999986
21 29 31 100 1.40804e-05
0 30 31 100 0.0154552
26 30 31 100 0.984545
27 31 31 100 1
28 32 31 100 1
0 33 31 100 6.09467e-05
29 33 31 100 0.999939
29 34 31 100 1
30 35 31 100 1
31 36 31 100 1
1 1 33 100 0.999926
2 1 33 100 7.4334e-05
2 2 33 100 1
3 3 33 100 1
0 4 33 100 0.00262754
4 4 33 100 0.5
5 4 33 100 0.497004
9 4 33 100 0.000318554
15 4 33 100 6.35183e-06
22 4 33 100 4.33868e-05
0 5 33 100 0.0324511
5 5 33 100 0.467549
6 5 33 100 0.5
6 6 33 100 0.5
7 6 33 100 0.5
7 7 33 100 0.5
8 7 33 100 0.5
4 8 33 100 0.496266
8 8 33 100 0.50001
9 8 33 100 0.00372358
5 9 33 100 0.000318473
8 9 33 100 6.82702e-06
9 9 33 100 0.999627
10 9 33 100 2.54285e-05
11 9 33 100 2.19368e-05
10 10 33 100 1
0 11 33 100 7.81166e-06
11 11 33 100 0.5
14 11 33 100 0.499992
12 12 33 100 0.5
15 12 33 100 0.5
12 13 33 100 0.5
13 13 33 100 0.5
0 14 33 100 0.00130046
10 14 33 100 0.000306423
12 14 33 100 0.207604
13 14 33 100 0.790498
14 14 33 100 0.00029185
0 15 33 100 3.89785e-05
13 15 33 100 0.499961
14 15 33 100 0.5
16 16 33 100 1
0 17 33 100 3.57813e-05
17 17 33 100 0.5
18 17 33 100 0.499964
0 18 33 100 0.532407
15 18 33 100 2.28643e-05
18 18 33 100 0.467551
22 18 33 100 1.95292e-05
0 19 33 100 0.5
19 19 33 100 0.5
10 20 33 100 7.43859e-05
17 20 33 100 0.499925
20 20 33 100 0.5
0 21 33 100 0.499957
15 21 33 100 1.09954e-05
21 21 33 100 0.500003
22 21 33 100 2.88771e-05
0 22 33 100 0.5
22 22 33 100 0.5
0 23 33 100 0.497045
18 23 33 100 0.00295209
23 23 33 100 0.500003
19 24 33 100 0.5
24 24 33 100 0.5
0 25 33 100 0.498513
20 25 33 100 0.00152748
24 25 33 100 0.49996
0 26 33 100 5.71508e-06
20 26 33 100 0.5
26 26 33 100 0.499994
21 27 33 100 0.5
27 27 33 100 0.5
0 28 33 100 0.000450695
8 28 33 100 3.04991e-05
22 28 33 100 0.157708
25 28 33 100 0.34181
28 28 33 100 0.500001
23 29 33 100 0.5
30 29 33 100 0.5
0 30 33 100 0.00631379
15 30 33 100 2.12149e-05
22 30 33 100 0.00436214
24 30 33 100 0.489302
31 30 33 100 0.500001
26 31 33 100 0.5
32 31 33 100 0.5
0 32 33 100 0.498225
22 32 33 100 0.000171434
24 32 33 100 0.00160162
33 32 33 100 0.500002
27 33 33 100 1
27 34 33 100 1
28 35 33 100 1
29 36 33 100 1
30 37 33 100 1
31 38 33 100 1
32 39 33 100 1
0 40 33 100 0.00338877
10 40 33 100 0.00118018
17 40 33 100 0.995431
0 41 33 100 0.0052435
32 41 33 100 0.994756
33 42 33 100 1
1 1 37 100 0.413621
2 1 37 100 0.586379
3 2 37 100 1
5 3 37 100 1
6 4 37 100 1
7 5 37 100 1
7 6 37 100 1
8 7 37 100 1
9 8 37 100 1
10 9 37 100 1
0 10 37 100 0.0307074
9 10 37 100 0.0396663
11 10 37 100 0.0702186
24 10 37 100 9.09875e-05
29 10 37 100 0.859317
10 11 37 100 1
0 12 37 100 1
0 13 37 100 0.0037843
12 13 37 100 0.996216
13 14 37 100 1
14 15 37 100 1
15 16 37 100 1
0 17 37 100 0.000840271
11 17 37 100 7.41812e-05
16 17 37 100 0.999086
17 18 37 100 1
18 19 37 100 1
20 20 37 100 1
21 21 37 100 1
20 22 37 100 1
0 23 37 100 0.996816
19 23 37 100 0.00318444
20 24 37 100 1
22 25 37 100 1
23 26 37 100 1
26 27 37 100 1
27 28 37 100 1
28 29 37 100 1
29 30 37 100 1
0 31 37 100 0.000608683
28 31 37 100 0.999391
31 32 37 100 0.995856
35 32 37 100 0.00414408
32 33 37 100 1
33 34 37 100 1
0 35 37 100 0.000104059
30 35 37 100 0.999896
31 36 37 100 0.00414597
35 36 37 100 0.995854
36 37 37 100 1
0 38 37 100 1
0 39 37 100 0.999768
19 39 37 100 0.000231646
33 40 37 100 5.56015e-05
34 40 37 100 0.999944
34 41 37 100 1
37 42 37 100 1
4 1 40 100 1
2 2 40 100 0.00310753
5 2 40 100 0.996892
0 3 40 100 3.19369e-05
3 3 40 100 0.999968
6 4 40 100 1
7 5 40 100 1
0 6 40 100 1
8 7 40 100 1
0 8 40 100 0.804853
1 8 40 100 0.0809868
8 8 40 100 0.114093
12 8 40 100 6.68908e-05
7 9 40 100 0.000710418
9 9 40 100 0.99929
9 10 40 100 1
10 11 40 100 1
11 12 40 100 1
0 13 40 100 0.00243866
1 13 40 100 9.95121e-05
12 13 40 100 0.997462
13 14 40 100 1
0 15 40 100 0.0190289
2 15 40 100 8.91497e-05
14 15 40 100 0.980882
15 16 40 100 1
0 17 40 100 0.0332644
16 17 40 100 0.966736
17 18 40 100 1
18 19 40 100 1
18 20 40 100 1
19 21 40 100 1
20 22 40 100 1
0 23 40 100 0.00193426
21 23 40 100 0.998066
22 24 40 100 1
23 25 40 100 1
0 26 40 100 0.0548426
23 26 40 100 0.944807
24 26 40 100 0.000336759
25 26 40 100 1.35362e-05
24 27 40 100 1
25 28 40 100 1
26 29 40 100 1
0 30 40 100 0.0332644
27 30 40 100 0.966736
0 31 40 100 0.0190289
2 31 40 100 6.39838e-05
28 31 40 100 0.980907
29 32 40 100 1
30 33 40 100 1
31 34 40 100 1
33 35 40 100 1
34 36 40 100 1
35 37 40 100 1
36 38 40 100 1
0 39 40 100 0.00645658
1 39 40 100 0.000270463
37 39 40 100 0.979075
38 39 40 100 0.0141984
38 40 40 100 1
39 41 40 100 1
40 42 40 100 1
0 1 44 100 0.997795
1 1 44 100 0.00219318
2 1 44 100 1.16379e-05
0 2 44 100 0.00515402
1 2 44 100 0.994846
1 3 44 100 1
2 4 44 100 1
3 5 44 100 1
4 6 44 100 1
5 7 44 100 1
6 8 44 100 1
7 9 44 100 1
8 10 44 100 1
9 11 44 100 1
0 12 44 100 0.0177763
10 12 44 100 0.982224
11 13 44 100 1
0 14 44 100 0.790725
12 14 44 100 0.209253
22 14 44 100 2.21137e-05
13 15 44 100 1
0 16 44 100 0.00237178
13 16 44 100 0.993006
14 16 44 100 0.00462193
0 17 44 100 0.00191801
13 17 44 100 0.998082
14 18 44 100 1
15 19 44 100 1
16 20 44 100 0.146141
18 20 44 100 0.853859
17 21 44 100 0.999984
20 21 44 100 1.57242e-05
19 22 44 100 1
17 23 44 100 0.00206725
20 23 44 100 0.997933
21 24 44 100 1
21 25 44 100 1
21 26 44 100 1
0 27 44 100 0.010185
22 27 44 100 0.989815
23 28 44 100 1
24 29 44 100 1
25 30 44 100 1
25 31 44 100 1
26 32 44 100 1
27 33 44 100 1
28 34 44 100 1
0 35 44 100 1
29 36 44 100 1
30 37 44 100 1
31 38 44 100 1
32 39 44 100 1
33 40 44 100 1
34 41 44 100 1
36 42 44 100 1
37 43 44 100 1
38 44 44 100 1
6 45 44 100 1.14538e-05
40 45 44 100 0.999989
39 46 44 100 1
41 47 44 100 1
0 48 44 100 0.711461
22 48 44 100 3.2672e-05
42 48 44 100 0.288506
43 49 44 100 1
44 50 44 100 1
1 1 61 100 1
0 2 61 100 0.00307157
2 2 61 100 0.996928
4 3 61 100 1
0 4 61 100 0.0132377
5 4 61 100 0.986762
6 5 61 100 1
0 6 61 100 0.0656256
3 6 61 100 0.934374
6 7 61 100 1
7 8 61 100 1
0 9 61 100 0.0312655
8 9 61 100 0.968735
8 10 61 100 1
0 11 61 100 0.000366061
9 11 61 100 0.999634
9 12 61 100 1
10 13 61 100 1
0 14 61 100 0.0219775
11 14 61 100 0.978022
12 15 61 100 1
0 16 61 100 0.998639
14 16 61 100 0.00132476
45 16 61 100 3.63444e-05
13 17 61 100 1
0 18 61 100 0.0134214
14 18 61 100 0.986579
0 19 61 100 0.999541
2 19 61 100 0.000318735
11 19 61 100 7.63661e-05
46 19 61 100 6.35198e-05
15 20 61 100 1
16 21 61 100 1
17 22 61 100 1
0 23 61 100 0.940492
19 23 61 100 0.0595084
18 24 61 100 1
0 25 61 100 0.368432
19 25 61 100 0.631525
45 25 61 100 4.3018e-05
0 26 61 100 0.00757754
20 26 61 100 0.992422
21 27 61 100 1
0 28 61 100 0.0132863
22 28 61 100 0.986714
0 29 61 100 0.00757515
23 29 61 100 0.992425
24 30 61 100 1
0 31 61 100 0.99984
14 31 61 100 1.53104e-05
19 31 61 100 1.15198e-05
22 31 61 100 6.29912e-05
45 31 61 100 7.06049e-05
25 32 61 100 1
26 33 61 100 1
27 34 61 100 1
28 35 61 100 1
29 36 61 100 1
32 37 61 100 1
17 38 61 100 1.47732e-05
31 38 61 100 0.973246
33 38 61 100 0.0267236
46 38 61 100 1.55821e-05
31 39 61 100 0.0168056
33 39 61 100 0.983194
31 40 61 100 0.0272128
33 40 61 100 0.972787
30 41 61 100 1.56434e-05
34 41 61 100 0.999984
35 42 61 100 1
36 43 61 100 1
37 44 61 100 1
38 45 61 100 1
39 46 61 100 1
41 47 61 100 1
43 48 61 100 1
0 49 61 100 0.000443746
42 49 61 100 0.000713378
44 49 61 100 0.998843
0 50 61 100 0.000779238
43 50 61 100 0.0407238
44 50 61 100 0.958497
44 51 61 100 1
47 52 61 100 1
48 53 61 100 1
49 54 61 100 1
50 55 61 100 1
0 56 61 100 0.0219068
46 56 61 100 2.62943e-05
51 56 61 100 0.978067
52 57 61 100 1
53 58 61 100 1
0 59 61 100 0.0132474
54 59 61 100 0.986753
55 60 61 100 1
56 61 61 100 1
57 62 61 100 1
57 63 61 100 1
58 64 61 100 1
0 65 61 100 0.999859
14 65 61 100 1.35252e-05
45 65 61 100 0.000115279
54 65 61 100 1.19415e-05
0 66 61 100 0.000702926
59 66 61 100 0.999297
60 67 61 100 1
61 68 61 100 1
1 1 78 100 0.999912
7 1 78 100 8.76859e-05
2 2 78 100 1
3 3 78 100 1
0 4 78 100 0.112037
1 4 78 100 0.797702
3 4 78 100 0.0125047
4 4 78 100 0.0777558
3 5 78 100 1
0 6 78 100 3.25973e-05
4 6 78 100 0.999967
5 7 78 100 1
8 8 78 100 1
9 9 78 100 1
10 10 78 100 1
0 11 78 100 0.000105145
12 11 78 100 0.999895
13 12 78 100 1
13 13 78 100 1
14 14 78 100 1
15 15 78 100 1
16 16 78 100 1
19 17 78 100 1
19 18 78 100 1
20 19 78 100 1
22 20 78 100 1
23 21 78 100 1
0 22 78 100 1
23 23 78 100 1
0 24 78 100 0.99998
26 24 78 100 1.9756e-05
0 25 78 100 0.998691
39 25 78 100 0.00130937
23 26 78 100 1
24 27 78 100 1
25 28 78 100 1
0 29 78 100 0.233955
26 29 78 100 0.766045
27 30 78 100 1
28 31 78 100 1
28 32 78 100 0.00140546
29 32 78 100 0.998595
29 33 78 100 1
30 34 78 100 1
31 35 78 100 1
32 36 78 100 1
0 37 78 100 0.00740895
33 37 78 100 0.992591
34 38 78 100 1
0 39 78 100 0.999798
33 39 78 100 0.00020236
35 40 78 100 1
36 41 78 100 1
37 42 78 100 1
38 43 78 100 1
41 44 78 100 1
42 45 78 100 1
0 46 78 100 0.999987
46 46 78 100 1.27697e-05
40 47 78 100 1
0 48 78 100 0.999903
46 48 78 100 8.55471e-05
58 48 78 100 1.13416e-05
42 49 78 100 1
43 50 78 100 1
44 51 78 100 1
0 52 78 100 0.000200962
45 52 78 100 0.999799
45 53 78 100 1
0 54 78 100 0.00658873
46 54 78 100 0.993411
0 55 78 100 1
47 56 78 100 1
48 57 78 100 1
49 58 78 100 1
0 59 78 100 0.998691
39 59 78 100 0.00130907
50 60 78 100 1
51 61 78 100 1
52 62 78 100 0.020144
53 62 78 100 0.979856
54 63 78 100 1
0 64 78 100 1
55 65 78 100 1
56 66 78 100 1
0 67 78 100 0.000200962
57 67 78 100 0.999799
57 68 78 100 1
0 69 78 100 0.00650789
58 69 78 100 0.993492
0 70 78 100 1
59 71 78 100 1
60 72 78 100 1
61 73 78 100 0.232229
62 73 78 100 0.767771
0 74 78 100 0.000517737
63 74 78 100 0.999482
64 75 78 100 1
65 76 78 100 1
66 77 78 100 1
67 78 78 100 1
69 79 78 100 1
34 80 78 100 4.50439e-05
68 80 78 100 0.999955
70 81 78 100 1
71 82 78 100 1
0 83 78 100 0.000200962
72 83 78 100 0.999799
72 84 78 100 1
73 85 78 100 1
74 86 78 100 1
0 87 78 100 0.000200962
75 87 78 100 0.999799
75 88 78 100 1
76 89 78 100 1
77 90 78 100 1
78 91 78 100 1
