1 0 100 18 0.00360133
3 0 100 18 0.496496
9 0 100 18 0.0035835
14 0 100 18 0.000175613
16 0 100 18 0.496144
1 1 100 18 1
2 2 100 18 1
4 3 100 18 1
5 4 100 18 1
6 5 100 18 1
7 6 100 18 1
8 7 100 18 0.501811
9 7 100 18 0.498189
3 8 100 18 0.348448
14 8 100 18 0.303103
16 8 100 18 0.348448
10 9 100 18 1
11 10 100 18 0.999902
12 10 100 18 9.83769e-05
12 11 100 18 1
12 12 100 18 9.8377e-05
13 12 100 18 0.999902
14 13 100 18 1
3 14 100 18 4.03081e-05
14 14 100 18 0.997366
16 14 100 18 0.0025935
15 15 100 18 1
17 16 100 18 0.5
18 16 100 18 0.5
4 0 100 19 0.289568
5 0 100 19 0.000426097
6 0 100 19 0.289429
13 0 100 19 0.289379
14 0 100 19 0.131123
16 0 100 19 7.52565e-05
1 1 100 19 1
1 2 100 19 7.26683e-05
2 2 100 19 0.999927
3 3 100 19 1
4 4 100 19 0.333641
5 4 100 19 0.666359
5 5 100 19 0.000322609
6 5 100 19 0.249926
7 5 100 19 0.249901
8 5 100 19 0.249926
9 5 100 19 0.249926
7 6 100 19 0.500011
8 6 100 19 0.499989
7 7 100 19 2.75625e-05
9 7 100 19 0.49999
11 7 100 19 0.499983
10 8 100 19 0.999755
16 8 100 19 0.000245211
6 9 100 19 0.00445457
11 9 100 19 0.000123388
16 9 100 19 0.995422
11 10 100 19 0.5
12 10 100 19 0.5
12 11 100 19 0.5
14 11 100 19 0.5
13 12 100 19 0.5
15 12 100 19 0.5
14 13 100 19 0.521066
16 13 100 19 0.478934
13 14 100 19 0.000470175
15 14 100 19 0.719433
16 14 100 19 0.280097
16 15 100 19 0.333333
17 15 100 19 0.666667
18 16 100 19 1
19 17 100 19 1
3 0 100 21 0.196838
7 0 100 21 0.000189798
8 0 100 21 0.00156538
10 0 100 21 0.00288092
11 0 100 21 0.196809
12 0 100 21 0.00428948
14 0 100 21 0.393443
17 0 100 21 0.196824
19 0 100 21 0.00715909
1 1 100 21 1
1 2 100 21 0.500032
2 2 100 21 0.499967
2 3 100 21 0.5
4 3 100 21 0.5
3 4 100 21 0.499966
4 4 100 21 6.7794e-05
5 4 100 21 0.499966
4 5 100 21 0.499932
6 5 100 21 0.500068
4 6 100 21 6.7827e-05
5 6 100 21 0.500208
7 6 100 21 0.499724
6 7 100 21 0.5
8 7 100 21 0.5
7 8 100 21 0.5
9 8 100 21 0.5
8 9 100 21 0.497915
10 9 100 21 0.501907
11 9 100 21 7.33783e-05
14 9 100 21 6.906e-05
17 9 100 21 3.60744e-05
9 10 100 21 0.5
11 10 100 21 0.5
10 11 100 21 0.501567
12 11 100 21 0.497924
14 11 100 21 0.000509309
12 12 100 21 0.5
13 12 100 21 0.5
13 13 100 21 0.5
15 13 100 21 0.5
15 14 100 21 0.499998
16 14 100 21 0.500002
14 15 100 21 4.71549e-05
16 15 100 21 0.999953
17 16 100 21 0.499369
18 16 100 21 0.500631
18 17 100 21 0.251815
19 17 100 21 0.495729
20 17 100 21 0.252455
20 18 100 21 0.5
21 18 100 21 0.5
21 19 100 21 1
3 0 100 24 0.311155
5 0 100 24 0.543781
6 0 100 24 7.45941e-05
8 0 100 24 0.03879
12 0 100 24 0.000216052
14 0 100 24 0.000555661
21 0 100 24 0.105428
1 1 100 24 1
1 2 100 24 5.75555e-05
2 2 100 24 0.999942
2 3 100 24 9.12692e-06
3 3 100 24 0.48671
7 3 100 24 0.513281
4 4 100 24 0.500003
6 4 100 24 0.499997
3 5 100 24 0.522592
4 5 100 24 7.2386e-05
5 5 100 24 0.477335
4 6 100 24 0.499931
6 6 100 24 0.500069
3 7 100 24 0.000712866
4 7 100 24 6.91529e-05
5 7 100 24 0.499254
7 7 100 24 0.499964
8 8 100 24 1
9 9 100 24 0.5
13 9 100 24 0.25
15 9 100 24 0.25
10 10 100 24 0.333334
14 10 100 24 0.333333
16 10 100 24 0.333333
11 11 100 24 0.500001
17 11 100 24 0.499999
12 12 100 24 0.5
18 12 100 24 0.5
13 13 100 24 0.5
19 13 100 24 0.499999
10 14 100 24 0.500023
14 14 100 24 0.499977
11 15 100 24 0.333429
12 15 100 24 0.333142
15 15 100 24 0.333429
3 16 100 24 0.000656138
12 16 100 24 0.000823864
16 16 100 24 0.99852
17 17 100 24 0.5
20 17 100 24 0.5
18 18 100 24 0.504367
21 18 100 24 0.495633
19 19 100 24 0.500866
22 19 100 24 0.499134
20 20 100 24 0.499137
22 20 100 24 0.00172613
23 20 100 24 0.499137
21 21 100 24 0.5
24 21 100 24 0.5
6 22 100 24 1
22 23 100 24 1
23 24 100 24 1
24 25 100 24 1
5 0 100 28 5.67037e-06
7 0 100 28 0.00119037
9 0 100 28 0.0432522
10 0 100 28 5.02438e-05
11 0 100 28 0.00621745
12 0 100 28 4.11469e-05
13 0 100 28 0.422664
17 0 100 28 0.0483822
20 0 100 28 0.0432522
21 0 100 28 0.000775405
24 0 100 28 0.000120449
25 0 100 28 0.434049
1 1 100 28 0.995458
2 1 100 28 0.00454193
1 2 100 28 7.7798e-05
2 2 100 28 0.999922
1 3 100 28 0.0712816
3 3 100 28 0.928718
3 4 100 28 0.333333
4 4 100 28 0.666667
4 5 100 28 0.499743
5 5 100 28 0.499789
7 5 100 28 0.000468039
5 6 100 28 0.666904
6 6 100 28 0.333096
5 7 100 28 3.50448e-05
6 7 100 28 0.666643
7 7 100 28 0.333322
7 8 100 28 0.49954
8 8 100 28 0.50046
9 9 100 28 0.473814
10 9 100 28 0.526162
11 9 100 28 2.32138e-05
6 10 100 28 0.000391132
8 10 100 28 0.333184
10 10 100 28 0.333183
11 10 100 28 0.333183
25 10 100 28 5.79425e-05
9 11 100 28 0.666666
12 11 100 28 0.333334
10 12 100 28 0.333333
11 12 100 28 0.333333
13 12 100 28 0.333333
12 13 100 28 0.999985
13 13 100 28 1.53668e-05
11 14 100 28 0.495873
13 14 100 28 0.503099
14 14 100 28 0.00102816
12 15 100 28 0.200082
14 15 100 28 0.599836
15 15 100 28 0.200082
13 16 100 28 0.0131395
15 16 100 28 0.493319
16 16 100 28 0.493319
25 16 100 28 0.000223005
15 17 100 28 0.333333
16 17 100 28 0.333333
17 17 100 28 0.333333
16 18 100 28 0.346191
17 18 100 28 0.307618
18 18 100 28 0.346191
18 19 100 28 0.492668
24 19 100 28 0.507332
17 20 100 28 0.333333
19 20 100 28 0.666667
18 21 100 28 0.344781
20 21 100 28 0.655219
19 22 100 28 0.333331
21 22 100 28 0.666663
22 22 100 28 5.85201e-06
20 23 100 28 0.333335
22 23 100 28 0.666665
21 24 100 28 0.332936
23 24 100 28 0.667064
22 25 100 28 0.333566
24 25 100 28 0.333566
25 25 100 28 0.332868
24 26 100 28 0.244214
25 26 100 28 0.252253
26 26 100 28 0.503534
23 27 100 28 0.333323
26 27 100 28 0.333352
27 27 100 28 0.333325
27 28 100 28 0.666667
28 28 100 28 0.333333
28 29 100 28 1
6 0 100 31 0.009785
8 0 100 31 0.49667
22 0 100 31 1.45438e-05
25 0 100 31 0.49353
1 1 100 31 1
1 2 100 31 0.000127682
2 2 100 31 0.999872
2 3 100 31 0.989297
6 3 100 31 0.0107029
3 4 100 31 0.499999
4 4 100 31 0.500001
5 5 100 31 1
6 6 100 31 1
7 7 100 31 1
9 8 100 31 1
10 9 100 31 0.500001
11 9 100 31 0.499999
27 10 100 31 1
6 11 100 31 1
12 12 100 31 1
13 13 100 31 1
14 14 100 31 1
15 15 100 31 1
16 16 100 31 1
17 17 100 31 0.5
18 17 100 31 0.5
19 18 100 31 1
20 19 100 31 1
21 20 100 31 1
22 21 100 31 1
23 22 100 31 1
24 23 100 31 0.5
26 23 100 31 0.5
27 24 100 31 1
28 25 100 31 1
29 26 100 31 1
8 27 100 31 1
25 28 100 31 0.114138
30 28 100 31 0.885862
30 29 100 31 1
31 30 100 31 1
3 0 100 32 0.0295937
5 0 100 32 0.323349
10 0 100 32 0.000228806
11 0 100 32 4.74438e-06
14 0 100 32 0.00078983
15 0 100 32 2.36735e-05
17 0 100 32 0.00324895
18 0 100 32 0.323382
21 0 100 32 0.0749704
24 0 100 32 0.00320997
25 0 100 32 2.40125e-05
26 0 100 32 0.00321438
29 0 100 32 0.23796
1 1 100 32 1
1 2 100 32 5.92835e-05
2 2 100 32 0.999941
3 3 100 32 0.655476
4 3 100 32 0.344524
4 4 100 32 0.99991
7 4 100 32 8.9619e-05
5 5 100 32 0.48323
6 5 100 32 0.51677
6 6 100 32 0.500022
7 6 100 32 0.499978
7 7 100 32 0.5
8 7 100 32 0.5
8 8 100 32 0.5
9 8 100 32 0.5
9 9 100 32 0.500188
10 9 100 32 0.499812
10 10 100 32 0.499847
11 10 100 32 0.499847
14 10 100 32 0.000306329
12 11 100 32 1
13 12 100 32 0.828086
14 12 100 32 0.171914
14 13 100 32 0.441597
15 13 100 32 0.558403
11 14 100 32 0.499996
16 14 100 32 0.500004
5 15 100 32 3.52663e-05
12 15 100 32 0.502655
17 15 100 32 0.497277
21 15 100 32 3.28391e-05
16 16 100 32 0.5
19 16 100 32 0.5
17 17 100 32 0.5
20 17 100 32 0.5
5 18 100 32 6.12261e-06
18 18 100 32 0.553914
21 18 100 32 0.44608
19 19 100 32 0.5
22 19 100 32 0.5
20 20 100 32 0.5
23 20 100 32 0.5
5 21 100 32 5.20116e-06
21 21 100 32 0.502655
24 21 100 32 0.49734
22 22 100 32 0.5
25 22 100 32 0.5
5 23 100 32 6.74727e-06
23 23 100 32 0.502655
26 23 100 32 0.497338
24 24 100 32 0.333342
25 24 100 32 0.333315
27 24 100 32 0.333342
28 25 100 32 0.5
30 25 100 32 0.5
26 26 100 32 0.45118
29 26 100 32 0.097634
31 26 100 32 0.451185
27 27 100 32 0.5
32 27 100 32 0.5
28 28 100 32 1
5 29 100 32 0.441489
18 29 100 32 0.558511
29 30 100 32 1
30 31 100 32 1
31 32 100 32 1
32 33 100 32 1
8 0 100 36 0.209695
12 0 100 36 0.329648
18 0 100 36 0.00338649
20 0 100 36 0.00592775
28 0 100 36 0.11657
29 0 100 36 0.329658
30 0 100 36 0.005095
33 0 100 36 2.00919e-05
1 1 100 36 1
1 2 100 36 8.13313e-05
2 2 100 36 0.999919
3 3 100 36 1
4 4 100 36 1
5 5 100 36 1
6 6 100 36 1
7 7 100 36 0.990193
8 7 100 36 0.0098074
26 8 100 36 0.500704
27 8 100 36 0.499296
8 9 100 36 0.353865
28 9 100 36 0.646135
9 10 100 36 0.5
10 10 100 36 0.5
11 11 100 36 1
13 12 100 36 1
14 13 100 36 1
29 14 100 36 1
15 15 100 36 1
12 16 100 36 1
16 17 100 36 1
17 18 100 36 1
18 19 100 36 1
19 20 100 36 1
12 21 100 36 1.71562e-05
20 21 100 36 0.999969
29 21 100 36 1.43378e-05
21 22 100 36 1
22 23 100 36 0.5
23 23 100 36 0.5
24 24 100 36 1
25 25 100 36 1
27 26 100 36 0.00284741
30 26 100 36 0.997153
31 27 100 36 1
32 28 100 36 1
33 29 100 36 0.499985
34 29 100 36 0.500015
35 30 100 36 1
36 31 100 36 1
3 0 100 42 2.45239e-06
4 0 100 42 0.000403537
6 0 100 42 0.0767886
8 0 100 42 0.0618041
10 0 100 42 0.00235802
12 0 100 42 0.0767898
13 0 100 42 0.000477861
15 0 100 42 0.00146123
17 0 100 42 0.00262439
18 0 100 42 0.0767829
19 0 100 42 0.07679
21 0 100 42 0.0767831
22 0 100 42 0.07679
23 0 100 42 0.15303
25 0 100 42 0.0765554
26 0 100 42 0.00421136
28 0 100 42 6.92176e-05
30 0 100 42 0.00352404
31 0 100 42 0.00150797
32 0 100 42 0.0765172
35 0 100 42 7.99072e-06
38 0 100 42 0.0767899
39 0 100 42 0.077268
40 0 100 42 0.000260223
41 0 100 42 0.000402645
1 1 100 42 0.945577
8 1 100 42 0.0541752
13 1 100 42 6.65681e-05
39 1 100 42 0.000180925
1 2 100 42 0.36891
2 2 100 42 0.630994
15 2 100 42 5.60787e-05
31 2 100 42 4.02483e-05
2 3 100 42 0.333339
3 3 100 42 0.666661
1 4 100 42 0.501876
8 4 100 42 0.498124
2 5 100 42 0.333238
3 5 100 42 0.334276
4 5 100 42 0.332273
9 5 100 42 0.000212914
4 6 100 42 0.666667
5 6 100 42 0.333333
5 7 100 42 0.499911
6 7 100 42 0.499911
9 7 100 42 0.000177573
7 8 100 42 0.963336
8 8 100 42 0.0366397
9 8 100 42 4.38445e-06
28 8 100 42 1.95872e-05
4 9 100 42 0.000157455
8 9 100 42 0.248981
9 9 100 42 0.493918
10 9 100 42 0.256944
9 10 100 42 0.249927
10 10 100 42 0.249912
11 10 100 42 0.499828
20 10 100 42 3.71802e-05
40 10 100 42 0.000294944
9 11 100 42 2.11914e-05
10 11 100 42 0.0339165
11 11 100 42 0.483013
12 11 100 42 0.483013
17 11 100 42 3.58304e-05
8 12 100 42 2.23433e-05
12 12 100 42 0.33403
13 12 100 42 0.665948
13 13 100 42 0.250036
14 13 100 42 0.749964
14 14 100 42 0.000195776
15 14 100 42 0.999804
4 15 100 42 6.35143e-06
16 15 100 42 0.999939
18 15 100 42 2.28628e-05
21 15 100 42 1.09946e-05
30 15 100 42 2.12136e-05
16 16 100 42 0.337175
17 16 100 42 0.662825
18 17 100 42 0.500591
20 17 100 42 0.250258
40 17 100 42 0.249151
17 18 100 42 0.249618
19 18 100 42 0.499272
20 18 100 42 0.249636
23 18 100 42 0.00147389
21 19 100 42 0.499147
23 19 100 42 0.0015895
24 19 100 42 0.499147
39 19 100 42 0.000115625
20 20 100 42 0.199878
22 20 100 42 0.399756
24 20 100 42 0.199878
25 20 100 42 0.000610619
26 20 100 42 0.199878
21 21 100 42 0.333548
23 21 100 42 0.332903
27 21 100 42 0.333549
4 22 100 42 3.73273e-05
18 22 100 42 1.68017e-05
21 22 100 42 2.4844e-05
24 22 100 42 0.430169
25 22 100 42 0.430169
28 22 100 42 0.135682
30 22 100 42 0.00375291
32 22 100 42 0.000147491
25 23 100 42 0.253498
26 23 100 42 0.493004
29 23 100 42 0.253498
10 24 100 42 4.59016e-05
26 24 100 42 0.000169889
27 24 100 42 0.504482
30 24 100 42 0.493686
32 24 100 42 0.00161597
26 25 100 42 8.03986e-06
28 25 100 42 0.999992
27 26 100 42 0.333333
29 26 100 42 0.333333
31 26 100 42 0.333333
28 27 100 42 0.252096
30 27 100 42 0.243711
33 27 100 42 0.252096
34 27 100 42 0.252096
29 28 100 42 0.251238
31 28 100 42 0.497524
35 28 100 42 0.251238
10 29 100 42 0.222661
30 29 100 42 0.259112
32 29 100 42 0.259114
36 29 100 42 0.259114
33 30 100 42 0.333345
35 30 100 42 0.33331
37 30 100 42 0.333345
32 31 100 42 0.331951
34 31 100 42 0.333334
36 31 100 42 0.00138198
38 31 100 42 0.333334
33 32 100 42 0.333918
39 32 100 42 0.333918
41 32 100 42 0.332164
34 33 100 42 0.333327
35 33 100 42 0.333327
40 33 100 42 1.85335e-05
42 33 100 42 0.333327
36 34 100 42 0.33334
40 34 100 42 0.333321
41 34 100 42 0.333339
32 35 100 42 0.00207204
36 35 100 42 0.497926
37 35 100 42 0.500002
37 36 100 42 0.5
38 36 100 42 0.5
39 37 100 42 0.494713
42 37 100 42 0.505287
39 38 100 42 0.0139996
40 38 100 42 0.986
41 39 100 42 1
42 40 100 42 1
1 0 100 50 0.282073
2 0 100 50 0.00145702
12 0 100 50 0.00502527
14 0 100 50 0.223534
16 0 100 50 0.000670493
17 0 100 50 0.000542214
27 0 100 50 0.00287925
35 0 100 50 0.282693
48 0 100 50 0.201126
1 1 100 50 0.00109822
2 1 100 50 0.498161
3 1 100 50 0.500741
1 2 100 50 1.16378e-05
4 2 100 50 0.999988
5 3 100 50 1
6 4 100 50 1
7 5 100 50 1
8 6 100 50 0.999989
45 6 100 50 1.14537e-05
9 7 100 50 1
10 8 100 50 1
11 9 100 50 1
12 10 100 50 1
13 11 100 50 1
14 12 100 50 1
15 13 100 50 0.334326
16 13 100 50 0.331989
17 13 100 50 0.333686
16 14 100 50 0.00460067
18 14 100 50 0.995399
19 15 100 50 1
20 16 100 50 1
21 17 100 50 0.997937
23 17 100 50 0.00206302
20 18 100 50 1
22 19 100 50 1
21 20 100 50 1.57565e-05
23 20 100 50 0.999984
24 21 100 50 0.333333
25 21 100 50 0.333333
26 21 100 50 0.333333
14 22 100 50 2.23399e-05
27 22 100 50 0.999945
48 22 100 50 3.30062e-05
28 23 100 50 1
29 24 100 50 1
30 25 100 50 0.5
31 25 100 50 0.5
32 26 100 50 1
33 27 100 50 1
34 28 100 50 1
36 29 100 50 1
37 30 100 50 1
38 31 100 50 1
39 32 100 50 1
40 33 100 50 1
41 34 100 50 1
14 35 100 50 0.454425
48 35 100 50 0.545575
42 36 100 50 1
43 37 100 50 1
44 38 100 50 1
46 39 100 50 1
45 40 100 50 1
47 41 100 50 1
48 42 100 50 1
49 43 100 50 1
50 44 100 50 1
2 0 100 68 0.000556317
4 0 100 68 0.00239759
6 0 100 68 0.011886
9 0 100 68 0.00566275
11 0 100 68 6.63004e-05
14 0 100 68 0.00398053
16 0 100 68 0.18087
18 0 100 68 0.00243085
19 0 100 68 0.181033
23 0 100 68 0.17034
25 0 100 68 0.0667295
26 0 100 68 0.00137243
28 0 100 68 0.00240639
29 0 100 68 0.00137199
31 0 100 68 0.181089
49 0 100 68 8.03704e-05
50 0 100 68 0.000141134
56 0 100 68 0.00396772
59 0 100 68 0.00239934
65 0 100 68 0.181092
66 0 100 68 0.000127313
1 1 100 68 1
2 2 100 68 0.99968
19 2 100 68 0.000319611
6 3 100 68 1
3 4 100 68 1
4 5 100 68 1
5 6 100 68 0.5
7 6 100 68 0.5
8 7 100 68 1
9 8 100 68 0.49206
10 8 100 68 0.50794
11 9 100 68 0.499909
12 9 100 68 0.500091
13 10 100 68 1
14 11 100 68 0.999922
19 11 100 68 7.8075e-05
15 12 100 68 1
17 13 100 68 1
16 14 100 68 0.00134093
18 14 100 68 0.99863
31 14 100 68 1.54974e-05
65 14 100 68 1.36903e-05
20 15 100 68 1
21 16 100 68 1
22 17 100 68 0.999985
38 17 100 68 1.4773e-05
24 18 100 68 1
23 19 100 68 0.0861139
25 19 100 68 0.913869
31 19 100 68 1.66701e-05
26 20 100 68 1
27 21 100 68 1
28 22 100 68 0.999936
31 22 100 68 6.38352e-05
29 23 100 68 1
30 24 100 68 1
32 25 100 68 1
33 26 100 68 1
34 27 100 68 1
35 28 100 68 1
36 29 100 68 1
41 30 100 68 1
38 31 100 68 0.956729
39 31 100 68 0.0165202
40 31 100 68 0.0267506
37 32 100 68 1
38 33 100 68 0.0134785
39 33 100 68 0.495885
40 33 100 68 0.490636
41 34 100 68 1
42 35 100 68 1
43 36 100 68 1
44 37 100 68 1
45 38 100 68 1
46 39 100 68 1
48 40 100 68 1
47 41 100 68 1
49 42 100 68 1
48 43 100 68 0.96087
50 43 100 68 0.0391302
49 44 100 68 0.337751
50 44 100 68 0.324108
51 44 100 68 0.338141
16 45 100 68 0.137021
25 45 100 68 0.162181
31 45 100 68 0.266186
65 45 100 68 0.434612
19 46 100 68 0.602673
38 46 100 68 0.147844
56 46 100 68 0.249483
52 47 100 68 1
53 48 100 68 1
54 49 100 68 1
55 50 100 68 1
56 51 100 68 1
57 52 100 68 1
58 53 100 68 1
59 54 100 68 0.999988
65 54 100 68 1.21016e-05
60 55 100 68 1
61 56 100 68 1
62 57 100 68 0.5
63 57 100 68 0.5
64 58 100 68 1
66 59 100 68 1
67 60 100 68 1
68 61 100 68 1
4 0 100 91 0.0108092
6 0 100 91 3.14496e-06
11 0 100 91 1.01443e-05
22 0 100 91 0.0964776
24 0 100 91 0.096476
25 0 100 91 0.0963522
29 0 100 91 0.0225718
37 0 100 91 0.000714809
39 0 100 91 0.0964583
46 0 100 91 0.0964771
48 0 100 91 0.0964696
52 0 100 91 1.93885e-05
54 0 100 91 0.000635675
55 0 100 91 0.0964789
59 0 100 91 0.0963522
64 0 100 91 0.0964789
67 0 100 91 1.93885e-05
69 0 100 91 0.000627876
70 0 100 91 0.0964789
74 0 100 91 4.99509e-05
83 0 100 91 1.93885e-05
87 0 100 91 1.93885e-05
1 1 100 91 0.556244
4 1 100 91 0.443756
2 2 100 91 1
3 3 100 91 0.496893
4 3 100 91 0.00621348
5 3 100 91 0.496893
4 4 100 91 0.0721481
6 4 100 91 0.927852
7 5 100 91 1
11 6 100 91 0.657291
74 6 100 91 0.342709
1 7 100 91 1
8 8 100 91 1
9 9 100 91 1
10 10 100 91 1
52 11 100 91 0.250146
67 11 100 91 0.249951
83 11 100 91 0.249951
87 11 100 91 0.249951
11 12 100 91 1
12 13 100 91 0.5
13 13 100 91 0.5
14 14 100 91 1
15 15 100 91 1
16 16 100 91 1
11 17 100 91 1
25 18 100 91 0.500347
59 18 100 91 0.499653
17 19 100 91 0.499999
18 19 100 91 0.500001
19 20 100 91 1
32 21 100 91 1
20 22 100 91 1
21 23 100 91 0.333334
23 23 100 91 0.333334
26 23 100 91 0.333333
27 24 100 91 1
28 25 100 91 1
24 26 100 91 2.57886e-05
29 26 100 91 0.999974
30 27 100 91 1
31 28 100 91 0.998596
32 28 100 91 0.00140348
32 29 100 91 0.499647
33 29 100 91 0.500353
34 30 100 91 1
35 31 100 91 1
36 32 100 91 1
37 33 100 91 0.999796
39 33 100 91 0.000203826
38 34 100 91 0.999955
80 34 100 91 4.50418e-05
40 35 100 91 1
41 36 100 91 1
42 37 100 91 1
43 38 100 91 1
25 39 100 91 0.500056
59 39 100 91 0.499944
47 40 100 91 1
44 41 100 91 1
45 42 100 91 0.5
49 42 100 91 0.5
50 43 100 91 1
51 44 100 91 1
52 45 100 91 0.499949
53 45 100 91 0.500051
46 46 100 91 1.2853e-05
48 46 100 91 8.61058e-05
54 46 100 91 0.999901
56 47 100 91 1
57 48 100 91 1
58 49 100 91 1
60 50 100 91 1
61 51 100 91 1
62 52 100 91 1
62 53 100 91 1
63 54 100 91 1
65 55 100 91 1
66 56 100 91 1
67 57 100 91 0.499949
68 57 100 91 0.500051
48 58 100 91 1.14157e-05
69 58 100 91 0.999989
71 59 100 91 1
72 60 100 91 1
73 61 100 91 1
73 62 100 91 1
74 63 100 91 1
75 64 100 91 1
76 65 100 91 1
77 66 100 91 1
78 67 100 91 1
80 68 100 91 1
79 69 100 91 1
81 70 100 91 1
82 71 100 91 1
83 72 100 91 0.499949
84 72 100 91 0.500051
85 73 100 91 1
86 74 100 91 1
87 75 100 91 0.499949
88 75 100 91 0.500051
89 76 100 91 1
90 77 100 91 1
91 78 100 91 1
