2 0.273616 0.695293 0.0310904 0 0 0 0 0 0 0 
3 0.26887 0.700237 0.0308936 0 0 0 0 0 0 0 
4 0.0324319 0.723518 0.244049 0 0 0 0 0 0 0 
5 0.315824 0.660597 0.0235783 0 0 0 0 0 0 0 
6 0.208203 0.779312 0.0124854 0 0 0 0 0 0 0 
7 0.0511335 0.914957 0.0339092 0 0 0 0 0 0 0 
8 0.0698123 0.806216 0.10551 0.0184616 0 0 0 0 0 0 
9 0.169165 0.820691 0.0101444 0 0 0 0 0 0 0 
10 0.0314638 0.731172 0.237363 0 0 0 0 0 0 0 
11 0 0.77745 0.222549 0 0 0 0 0 0 0 
12 0.292125 0.68173 0.0261451 0 0 0 0 0 0 0 
13 0.0464963 0.889584 0.0639191 1.03639e-07 0 0 0 0 0 0 
14 0 0.894497 0.105502 0 0 0 0 0 0 0 
15 0.0526157 0.912491 0.0348921 0 0 0 0 0 0 0 
16 0.0464381 0.889642 0.0639191 1.03639e-07 0 0 0 0 0 0 
17 0 0.894497 0.105502 0 0 0 0 0 0 0 
18 0 0.894497 0.105502 0 0 0 0 0 0 0 
19 0.0739396 0.864919 0.0611406 0 0 0 0 0 0 0 
20 0.0411779 0.680192 0.100893 0.177737 0 0 0 0 0 0 
21 0 0.896095 0.103904 0 0 0 0 0 0 0 
22 0.0194709 0.734016 0.126379 0.120134 0 0 0 0 0 0 
23 0.060886 0.861056 0.0780572 1.32982e-07 0 0 0 0 0 0 
24 0 0.897646 0.102353 0 0 0 0 0 0 0 
25 0.0260551 0.902923 0.0710216 0 0 0 0 0 0 0 
26 0.0310011 0.70929 0.259709 0 0 0 0 0 0 0 
27 0.0454708 0.701157 0.253371 0 0 0 0 0 0 0 
28 0.20199 0.785897 0.0121127 0 0 0 0 0 0 0 
29 0.0558536 0.907106 0.0370393 0 0 0 0 0 0 0 
30 0.0464381 0.889642 0.0639191 1.03639e-07 0 0 0 0 0 0 
31 0.0464381 0.889641 0.0639199 1.03639e-07 0 0 0 0 0 0 
32 0.273415 0.666334 0.0602518 0 0 0 0 0 0 0 
33 0.045052 0.892936 0.062011 1.00546e-07 0 0 0 0 0 0 
34 0.0457345 0.891314 0.0629506 1.02069e-07 0 0 0 0 0 0 
35 0.0297276 0.90108 0.0691923 0 0 0 0 0 0 0 
36 0.0464826 0.889595 0.0639213 1.03639e-07 0 0 0 0 0 0 
37 0.267452 0.701179 0.0313689 0 0 0 0 0 0 0 
38 0.0443893 0.894511 0.0610991 0 0 0 0 0 0 0 
39 0.236574 0.740511 0.0229143 0 0 0 0 0 0 0 
40 0 0.879112 0.120887 0 0 0 0 0 0 0 
41 0 0.894497 0.105502 0 0 0 0 0 0 0 
42 0.27671 0.677718 0.0455714 0 0 0 0 0 0 0 
43 0.0352485 0.797064 0.167687 0 0 0 0 0 0 0 
44 0.0411779 0.695577 0.100893 0.162352 0 0 0 0 0 0 
45 0.281768 0.709214 0.00901818 0 0 0 0 0 0 0 
46 0.040554 0.700189 0.0993638 0.159892 0 0 0 0 0 0 
47 0.0558535 0.907106 0.0370392 0 0 0 0 0 0 0 
48 0.0319405 0.713012 0.255046 0 0 0 0 0 0 0 
49 0 0.792835 0.207165 0 0 0 0 0 0 0 
50 0 0.894497 0.105502 0 0 0 0 0 0 0 
51 0.0464381 0.889642 0.0639191 1.03639e-07 0 0 0 0 0 0 
52 0.0558535 0.907106 0.0370392 0 0 0 0 0 0 0 
53 0 0.894497 0.105502 0 0 0 0 0 0 0 
54 0 0.894497 0.105502 0 0 0 0 0 0 0 
55 0 0.899151 0.100848 0 0 0 0 0 0 0 
56 0 0.792835 0.207165 0 0 0 0 0 0 0 
57 0.0839059 0.794001 0.103722 0.0183714 0 0 0 0 0 0 
58 0 0.832555 0.167444 0 0 0 0 0 0 0 
59 0.0558538 0.907106 0.0370392 0 0 0 0 0 0 0 
60 0 0.894497 0.105502 0 0 0 0 0 0 0 
61 0.0464381 0.889642 0.0639191 1.03639e-07 0 0 0 0 0 0 
62 0.0701588 0.893362 0.036478 0 0 0 0 0 0 0 
63 0.0687546 0.824304 0.0887601 0.0181819 0 0 0 0 0 0 
64 0.0558535 0.907106 0.0370392 0 0 0 0 0 0 0 
65 0.0839061 0.809152 0.08876 0.0181819 0 0 0 0 0 0 
66 0.073874 0.848518 0.0776075 0 0 0 0 0 0 0 
67 0 0.831929 0.16807 0 0 0 0 0 0 0 
68 0.0411779 0.680192 0.101549 0.17708 0 0 0 0 0 0 
69 0.0464381 0.889642 0.0639191 1.03639e-07 0 0 0 0 0 0 
70 0.0550072 0.908514 0.036478 0 0 0 0 0 0 0 
71 0.0324319 0.723518 0.244049 0 0 0 0 0 0 0 
72 0.0558535 0.907106 0.0370392 0 0 0 0 0 0 0 
73 0 0.894497 0.105502 0 0 0 0 0 0 0 
74 0.0464381 0.874257 0.0793037 1.03639e-07 0 0 0 0 0 0 
75 0.0698232 0.82159 0.0901256 0.0184616 0 0 0 0 0 0 
76 0.0464381 0.889642 0.0639191 1.03639e-07 0 0 0 0 0 0 
77 0.28714 0.682427 0.0304325 0 0 0 0 0 0 0 
78 0.0558543 0.907106 0.0370392 0 0 0 0 0 0 0 
79 0.0558535 0.907106 0.0370392 0 0 0 0 0 0 0 
80 0.0406064 0.700126 0.0993746 0.159892 0 0 0 0 0 0 
81 0.0319405 0.725979 0.24208 0 0 0 0 0 0 0 
82 0 0.880902 0.119097 0 0 0 0 0 0 0 
83 0.0464381 0.889642 0.0639191 1.03639e-07 0 0 0 0 0 0 
84 0 0.780864 0.219135 0 0 0 0 0 0 0 
85 0 0.77745 0.222549 0 0 0 0 0 0 0 
86 0.0698421 0.821571 0.0901256 0.0184616 0 0 0 0 0 0 
87 0.0698123 0.8216 0.0901256 0.0184616 0 0 0 0 0 0 
88 0.0677286 0.812824 0.101537 0.0179105 0 0 0 0 0 0 
89 0.0698123 0.8216 0.0901258 0.0184616 0 0 0 0 0 0 
90 0 0.894497 0.105502 0 0 0 0 0 0 0 
91 0.0558535 0.907106 0.0370392 0 0 0 0 0 0 0 
92 0.0558535 0.907106 0.0370392 0 0 0 0 0 0 0 
93 0.0701588 0.893362 0.036478 0 0 0 0 0 0 0 
94 0.0464381 0.889642 0.0639191 1.03639e-07 0 0 0 0 0 0 
95 0 0.832555 0.167444 0 0 0 0 0 0 0 
96 0.0558535 0.907106 0.0370392 0 0 0 0 0 0 0 
97 0.0541879 0.909666 0.0361455 0 0 0 0 0 0 0 
98 0.0464381 0.889642 0.0639191 1.03639e-07 0 0 0 0 0 0 
99 0.207618 0.779678 0.0127044 0 0 0 0 0 0 0 
100 0.0712368 0.891723 0.0370392 0 0 0 0 0 0 0 
101 0.0558535 0.907106 0.0370392 0 0 0 0 0 0 0 
102 0.0687546 0.824153 0.0889101 0.0181819 0 0 0 0 0 0 
103 0.240508 0.748374 0.0111172 0 0 0 0 0 0 0 
104 0 0.817171 0.182828 0 0 0 0 0 0 0 
105 0.201988 0.785899 0.0121127 0 0 0 0 0 0 0 
106 0.243926 0.727355 0.028718 0 0 0 0 0 0 0 
107 0 0.894497 0.105502 0 0 0 0 0 0 0 
108 0.0558535 0.891722 0.0524238 0 0 0 0 0 0 0 
109 0.0548726 0.68974 0.0978808 0.157506 0 0 0 0 0 0 
110 0.0698123 0.806216 0.0901257 0.0338462 0 0 0 0 0 0 
111 0 0.897646 0.102353 0 0 0 0 0 0 0 
112 0 0.894497 0.105502 0 0 0 0 0 0 0 
113 0 0.832555 0.167444 0 0 0 0 0 0 0 
114 0.0698123 0.821579 0.0901472 0.0184616 0 0 0 0 0 0 
115 0 0.777472 0.222527 0 0 0 0 0 0 0 
116 0 0.894497 0.105502 0 0 0 0 0 0 0 
117 0.0677291 0.826924 0.0874359 0.0179105 0 0 0 0 0 0 
118 0.0464381 0.889642 0.0639191 1.03639e-07 0 0 0 0 0 0 
119 0 0.835896 3.27038e-07 0.164102 0 0 0 0 0 0 
120 0.254688 0.715327 0.029985 0 0 0 0 0 0 0 
121 0 0.894497 0.105502 0 0 0 0 0 0 0 
122 0.0457345 0.891276 0.062989 1.02069e-07 0 0 0 0 0 0 
123 0 0 0.999999 0 0 0 0 0 0 0 
124 0.0362852 0.87926 0.0844553 0 0 0 0 0 0 0 
125 0.208203 0.779312 0.0124854 0 0 0 0 0 0 0 
126 0.205048 0.782655 0.0122963 0 0 0 0 0 0 0 
127 0.0362852 0.87926 0.0844553 0 0 0 0 0 0 0 
128 0 0.799019 0.200981 0 0 0 0 0 0 0 
129 0.281518 0.687114 0.0313689 0 0 0 0 0 0 0 
130 0.0327418 0.723208 0.244049 0 0 0 0 0 0 0 
131 0.0324319 0.723518 0.244049 0 0 0 0 0 0 0 
132 0.208203 0.779312 0.0124854 0 0 0 0 0 0 0 
133 0.0676654 0.895295 0.0370392 0 0 0 0 0 0 0 
134 0.0360046 0.719946 0.244049 0 0 0 0 0 0 0 
135 0.0464381 0.889642 0.0639191 1.03639e-07 0 0 0 0 0 0 
136 0 0.835092 0.164907 0 0 0 0 0 0 0 
137 0.266443 0.702188 0.0313689 0 0 0 0 0 0 0 
138 0.208203 0.779312 0.0124854 0 0 0 0 0 0 0 
139 0.0194709 0.734016 0.126379 0.120134 0 0 0 0 0 0 
140 0.0674207 0.844352 0.073227 0.0150001 0 0 0 0 0 0 
141 0.0698123 0.8216 0.0901256 0.0184616 0 0 0 0 0 0 
142 0 0.799017 0.200982 0 0 0 0 0 0 0 
143 0.0411779 0.680192 0.100892 0.177737 0 0 0 0 0 0 
144 0.0698123 0.8216 0.0901256 0.0184616 0 0 0 0 0 0 
145 0.0550075 0.908514 0.036478 0 0 0 0 0 0 0 
146 0.0550072 0.908514 0.036478 0 0 0 0 0 0 0 
147 0.0464381 0.889642 0.0639191 1.03639e-07 0 0 0 0 0 0 
148 0 0.835896 3.27038e-07 0.164102 0 0 0 0 0 0 
149 0.0464381 0.889642 0.0639191 1.03639e-07 0 0 0 0 0 0 
150 0.0464381 0.889642 0.0639191 1.03639e-07 0 0 0 0 0 0 
151 0.0457345 0.891314 0.0629506 1.02069e-07 0 0 0 0 0 0 
152 0.205426 0.78298 0.0115936 0 0 0 0 0 0 0 
153 0.0698123 0.8216 0.0901256 0.0184616 0 0 0 0 0 0 
154 0 0.894497 0.105502 0 0 0 0 0 0 0 
155 0.0558535 0.907106 0.0370392 0 0 0 0 0 0 0 
156 0.0464381 0.889642 0.0639191 1.03639e-07 0 0 0 0 0 0 
157 0.0550072 0.908514 0.036478 0 0 0 0 0 0 0 
158 0.0541862 0.909879 0.0359336 0 0 0 0 0 0 0 
159 0 0.792835 0.207165 0 0 0 0 0 0 0 
160 0.0558535 0.907106 0.0370392 0 0 0 0 0 0 0 
161 0.266443 0.702188 0.0313689 0 0 0 0 0 0 0 
162 0 0.792835 0.207165 0 0 0 0 0 0 0 
163 0 0.894497 0.105502 0 0 0 0 0 0 0 
164 0 0.894497 0.105502 0 0 0 0 0 0 0 
165 0.0558535 0.907106 0.0370392 0 0 0 0 0 0 0 
166 0.208203 0.779312 0.0124854 0 0 0 0 0 0 0 
167 0.0324319 0.708245 0.259323 0 0 0 0 0 0 0 
168 0.212466 0.775049 0.0124854 0 0 0 0 0 0 0 
169 0.0698123 0.8216 0.0901256 0.0184616 0 0 0 0 0 0 
170 0.0194709 0.718631 0.141763 0.120134 0 0 0 0 0 0 
171 0.0464381 0.889642 0.0639191 1.03639e-07 0 0 0 0 0 0 
172 0 0.894497 0.105502 0 0 0 0 0 0 0 
173 0.0698123 0.8216 0.0901256 0.0184616 0 0 0 0 0 0 
174 0 0.894497 0.105502 0 0 0 0 0 0 0 
175 0.208203 0.779312 0.0124854 0 0 0 0 0 0 0 
176 0.0379599 0.873687 0.0883532 0 0 0 0 0 0 0 
177 0.208203 0.779312 0.0124854 0 0 0 0 0 0 0 
178 0.0324319 0.723518 0.244049 0 0 0 0 0 0 0 
179 0 0.792835 0.207165 0 0 0 0 0 0 0 
180 0 0.894497 0.105502 0 0 0 0 0 0 0 
181 0.0325469 0.723403 0.244049 0 0 0 0 0 0 0 
182 0.0457345 0.891314 0.0629506 1.02069e-07 0 0 0 0 0 0 
183 0 0.880984 0.119015 0 0 0 0 0 0 0 
184 0 0.886168 0.113831 0 0 0 0 0 0 0 
185 0.0324319 0.708143 0.259425 0 0 0 0 0 0 0 
186 0.0464381 0.889633 0.063928 1.03639e-07 0 0 0 0 0 0 
187 0.208203 0.779312 0.0124854 0 0 0 0 0 0 0 
188 0.0191758 0.737958 0.124552 0.118314 0 0 0 0 0 0 
189 0 0.89445 0.105549 0 0 0 0 0 0 0 
190 0 0.795973 0.204026 0 0 0 0 0 0 0 
191 0.0558535 0.907106 0.0370392 0 0 0 0 0 0 0 
192 0.0243383 0.729148 0.126379 0.120134 0 0 0 0 0 0 
193 0.0324319 0.708134 0.259434 0 0 0 0 0 0 0 
194 0.0558535 0.907106 0.0370392 0 0 0 0 0 0 0 
195 0 0.835896 3.48323e-07 0.164103 0 0 0 0 0 0 
196 0 0.777531 0.222468 0 0 0 0 0 0 0 
197 0.0558535 0.907106 0.0370392 0 0 0 0 0 0 0 
198 0.0464381 0.889642 0.0639191 1.03639e-07 0 0 0 0 0 0 
199 0.0558535 0.907106 0.0370392 0 0 0 0 0 0 0 
200 0.0558535 0.907106 0.0370392 0 0 0 0 0 0 0 
201 0 0.77745 0.222549 0 0 0 0 0 0 0 
202 0.0698123 0.8216 0.0901256 0.0184616 0 0 0 0 0 0 
203 0.0324319 0.723518 0.244049 0 0 0 0 0 0 0 
204 0 0.792835 0.207165 0 0 0 0 0 0 0 
205 0.0558535 0.907106 0.0370392 0 0 0 0 0 0 0 
206 0.0698123 0.8216 0.0901256 0.0184616 0 0 0 0 0 0 
207 0 0.817171 0.182828 0 0 0 0 0 0 0 
208 0 0.795973 0.204026 0 0 0 0 0 0 0 
209 0.0194709 0.734016 0.126379 0.120134 0 0 0 0 0 0 
210 0.084739 0.806674 0.0901256 0.0184616 0 0 0 0 0 0 
211 0.0698123 0.8216 0.0901256 0.0184616 0 0 0 0 0 0 
212 0.0464381 0.889642 0.0639191 1.03639e-07 0 0 0 0 0 0 
213 0.0464381 0.889642 0.0639191 1.03639e-07 0 0 0 0 0 0 
214 0.0411779 0.695577 0.100893 0.162352 0 0 0 0 0 0 
215 0.0464381 0.889641 0.0639203 1.03639e-07 0 0 0 0 0 0 
216 0.0411779 0.695577 0.100893 0.162352 0 0 0 0 0 0 
217 0 0.897646 0.102353 0 0 0 0 0 0 0 
218 0.0411832 0.69556 0.100904 0.162352 0 0 0 0 0 0 
219 0.0464381 0.874257 0.0793037 1.03639e-07 0 0 0 0 0 0 
220 0 0.832555 0.167444 0 0 0 0 0 0 0 
221 0.0324319 0.723518 0.244049 0 0 0 0 0 0 0 
222 0 0.894497 0.105502 0 0 0 0 0 0 0 
223 0.0411779 0.695577 0.100893 0.162352 0 0 0 0 0 0 
224 0.0558535 0.907106 0.0370392 0 0 0 0 0 0 0 
225 0.0411779 0.695577 0.100893 0.162352 0 0 0 0 0 0 
226 0 0.879112 0.120887 0 0 0 0 0 0 0 
227 0.0464381 0.889642 0.0639191 1.03639e-07 0 0 0 0 0 0 
228 0.0464381 0.889642 0.0639191 1.03639e-07 0 0 0 0 0 0 
229 0.0558535 0.891723 0.0524229 0 0 0 0 0 0 0 
230 0.0464381 0.889642 0.0639191 1.03639e-07 0 0 0 0 0 0 
231 0.0558535 0.907106 0.0370392 0 0 0 0 0 0 0 
232 0 0.894497 0.105502 0 0 0 0 0 0 0 
233 0 0.820512 3.27038e-07 0.179487 0 0 0 0 0 0 
234 0.0194709 0.718631 0.141763 0.120134 0 0 0 0 0 0 
235 0.0324319 0.723518 0.244049 0 0 0 0 0 0 0 
236 0.0558535 0.907106 0.0370392 0 0 0 0 0 0 0 
237 0.0457345 0.891314 0.0629506 1.02069e-07 0 0 0 0 0 0 
238 0.0698123 0.806229 0.105497 0.0184616 0 0 0 0 0 0 
239 0 0.894497 0.105502 0 0 0 0 0 0 0 
240 0.0324319 0.723518 0.244049 0 0 0 0 0 0 0 
241 0.0324319 0.723518 0.244049 0 0 0 0 0 0 0 
242 0.0450519 0.878011 0.0769366 1.00546e-07 0 0 0 0 0 0 
243 0.266443 0.702188 0.0313689 0 0 0 0 0 0 0 
244 0.0464381 0.889642 0.0639191 1.03639e-07 0 0 0 0 0 0 
245 0.0550072 0.908514 0.036478 0 0 0 0 0 0 0 
246 0.0194709 0.718631 0.126516 0.135381 0 0 0 0 0 0 
247 0 0.792763 0.207236 0 0 0 0 0 0 0 
248 0.0572215 0.9063 0.036478 0 0 0 0 0 0 0 
249 0 0.792835 0.207165 0 0 0 0 0 0 0 
250 0.0411779 0.680192 0.100893 0.177737 0 0 0 0 0 0 
251 0 0.879112 0.120887 0 0 0 0 0 0 0 
252 0 0.792835 0.207165 0 0 0 0 0 0 0 
253 0.266443 0.702188 0.0313689 0 0 0 0 0 0 0 
254 0.0319405 0.712556 0.255503 0 0 0 0 0 0 0 
255 0.0411779 0.695577 0.100893 0.162352 0 0 0 0 0 0 
256 0.0324319 0.723518 0.244049 0 0 0 0 0 0 0 
257 0.0464381 0.889642 0.0639191 1.03639e-07 0 0 0 0 0 0 
258 0.0324319 0.723518 0.244049 0 0 0 0 0 0 0 
259 0 0.792835 0.207165 0 0 0 0 0 0 0 
260 0.208203 0.779312 0.0124854 0 0 0 0 0 0 0 
261 0.0411779 0.695577 0.100893 0.162352 0 0 0 0 0 0 
262 0 0.792834 0.207165 0 0 0 0 0 0 0 
263 0.0324319 0.723518 0.244049 0 0 0 0 0 0 0 
264 0 0.792835 0.207165 0 0 0 0 0 0 0 
265 0.0194709 0.734016 0.126379 0.120134 0 0 0 0 0 0 
266 0 0.832555 0.167444 0 0 0 0 0 0 0 
267 0.208203 0.779312 0.0124854 0 0 0 0 0 0 0 
268 0.208203 0.779312 0.0124854 0 0 0 0 0 0 0 
269 0.0558535 0.907106 0.0370392 0 0 0 0 0 0 0 
270 0 0.792835 0.207165 0 0 0 0 0 0 0 
271 0 0.894497 0.105502 0 0 0 0 0 0 0 
272 0.0411779 0.695577 0.100893 0.162352 0 0 0 0 0 0 
273 0.0379599 0.873687 0.0883532 0 0 0 0 0 0 0 
274 0.0698123 0.8216 0.0901256 0.0184616 0 0 0 0 0 0 
275 0.0558535 0.907106 0.0370392 0 0 0 0 0 0 0 
276 0 0.894497 0.105502 0 0 0 0 0 0 0 
277 0.0194711 0.734016 0.126379 0.120134 0 0 0 0 0 0 
278 0.0558535 0.907106 0.0370392 0 0 0 0 0 0 0 
279 0.266443 0.702157 0.0314006 0 0 0 0 0 0 0 
280 0.0379599 0.873687 0.0883532 0 0 0 0 0 0 0 
281 0.0411779 0.680192 0.116277 0.162352 0 0 0 0 0 0 
282 0.0457345 0.891314 0.0629506 1.02069e-07 0 0 0 0 0 0 
283 0.0698123 0.8216 0.0901256 0.0184616 0 0 0 0 0 0 
284 0 0.77745 0.222549 0 0 0 0 0 0 0 
285 0.266443 0.702188 0.0313689 0 0 0 0 0 0 0 
286 0.0194709 0.734016 0.126379 0.120134 0 0 0 0 0 0 
287 0.0194709 0.734016 0.126379 0.120134 0 0 0 0 0 0 
288 0 0.792835 0.207165 0 0 0 0 0 0 0 
289 0.208203 0.763927 0.02787 0 0 0 0 0 0 0 
290 0.0698123 0.8216 0.0901256 0.0184616 0 0 0 0 0 0 
291 0.0194709 0.734016 0.126379 0.120134 0 0 0 0 0 0 
292 0 0.77745 0.222549 0 0 0 0 0 0 0 
293 0.0379599 0.873687 0.0883532 0 0 0 0 0 0 0 
294 0.208203 0.779312 0.0124854 0 0 0 0 0 0 0 
295 0.0471998 0.88888 0.0639191 1.03639e-07 0 0 0 0 0 0 
296 0.0194709 0.734016 0.126379 0.120134 0 0 0 0 0 0 
297 0.0558535 0.907106 0.0370392 0 0 0 0 0 0 0 
298 0 0.894497 0.105502 0 0 0 0 0 0 0 
299 0.0698123 0.8216 0.0901256 0.0184616 0 0 0 0 0 0 
300 0 0.792835 0.207165 0 0 0 0 0 0 0 
301 0.0194709 0.718631 0.126977 0.13492 0 0 0 0 0 0 
302 0 0.792835 0.207165 0 0 0 0 0 0 0 
303 0 0.832555 0.167444 0 0 0 0 0 0 0 
304 0 0.894487 0.105512 0 0 0 0 0 0 0 
305 0.0411779 0.689189 0.10728 0.162352 0 0 0 0 0 0 
306 0.0558535 0.89816 0.0459854 0 0 0 0 0 0 0 
307 0.266443 0.702188 0.0313689 0 0 0 0 0 0 0 
308 0.0464381 0.889642 0.0639191 1.03639e-07 0 0 0 0 0 0 
309 0.0324319 0.723518 0.244049 0 0 0 0 0 0 0 
310 0 0.835896 3.27038e-07 0.164102 0 0 0 0 0 0 
311 0.0464381 0.889642 0.0639191 1.03639e-07 0 0 0 0 0 0 
312 0 0.894497 0.105502 0 0 0 0 0 0 0 
313 0.0558535 0.907106 0.0370392 0 0 0 0 0 0 0 
314 0.0411779 0.680194 0.116276 0.162352 0 0 0 0 0 0 
315 0.0457346 0.888035 0.0662293 1.02069e-07 0 0 0 0 0 0 
316 0 0.792835 0.207165 0 0 0 0 0 0 0 
317 0.0324319 0.709633 0.257934 0 0 0 0 0 0 0 
318 0 0.792835 0.207165 0 0 0 0 0 0 0 
319 0.0558549 0.907105 0.0370392 0 0 0 0 0 0 0 
320 0.0464381 0.889642 0.0639191 1.03639e-07 0 0 0 0 0 0 
321 0.0698123 0.806216 0.10551 0.0184616 0 0 0 0 0 0 
322 0 0.832555 0.167444 0 0 0 0 0 0 0 
323 0 0.835896 3.27038e-07 0.164102 0 0 0 0 0 0 
324 0.0411779 0.695577 0.100893 0.162352 0 0 0 0 0 0 
325 0.0698123 0.8216 0.0901256 0.0184616 0 0 0 0 0 0 
326 0.0698123 0.8216 0.0901256 0.0184616 0 0 0 0 0 0 
327 0 0.792835 0.207165 0 0 0 0 0 0 0 
