0 2 6.59615e-07
0 11 0.000575575
0 13 0.511793
0 14 0.168472
0 18 0.0334766
0 23 0.190931
0 31 0.00209393
0 32 5.01393e-07
21 25 0.999966
0 35 3.69418e-06
0 42 0.00121975
0 45 0.0198592
0 47 0.000120801
42 45 0.48161
42 46 0.518356
0 70 8.24769e-06
0 71 1.44833e-05
0 82 5.93585e-07
168 18 0.999966
189 14 0.00304555
63 67 0.999966
0 95 0.00101933
0 108 3.62551e-05
84 82 0.333635
84 83 0.332697
84 90 0.333635
105 113 0.999966
0 162 2.37831e-06
126 137 0.999966
0 194 6.4118e-05
0 195 0.00666972
0 199 1.3301e-06
0 201 0.0184766
147 158 0.999966
0 226 5.15553e-06
0 230 0.0118227
189 171 0.99692
0 253 0.0185455
0 254 9.57953e-05
0 261 4.40832e-05
0 279 1.44895e-06
210 226 0.999966
294 194 0.999966
0 326 4.83421e-05
231 245 0.999966
0 334 0.0145647
252 271 0.999966
315 273 0.45117
273 294 0.999966
315 334 0.548796
10 9 0.328919
10 11 0.0132084
31 34 0.99991
31 37 5.55965e-05
52 56 0.999966
115 35 0.49963
10 89 0.328919
73 77 0.999966
94 101 0.999966
10 155 0.328919
199 87 0.999966
115 125 0.500336
136 145 0.999966
157 169 0.999966
178 188 0.999966
220 233 0.999966
241 256 0.999966
262 283 0.999966
283 305 0.999966
304 323 0.999353
304 326 0.000612449
325 343 0.999966
20 21 0.333322
20 22 0.333322
20 24 0.333322
41 44 0.999966
62 66 0.999966
167 45 0.498172
83 88 0.999966
104 111 0.499983
104 112 0.499983
314 35 0.499963
125 136 0.999966
146 157 0.999966
167 178 0.501794
188 199 0.997023
188 201 0.00294339
209 220 0.999966
230 244 0.999966
251 268 0.499983
251 269 0.499983
272 292 0.999966
293 315 0.999966
314 333 0.500003
9 8 0.999966
30 33 0.999966
93 15 0.999966
51 55 0.999966
114 35 0.00140343
72 76 0.999966
282 35 0.499983
114 124 0.998562
135 144 0.999966
156 168 0.999966
177 186 0.999966
198 209 0.999966
219 231 0.499983
219 232 0.499983
240 253 1.16374e-05
240 255 0.999954
261 282 0.999966
282 304 0.499983
303 322 0.999966
324 342 0.999966
19 23 0.496915
103 13 0.195999
40 41 0.499983
40 43 0.499983
103 47 0.803967
61 65 0.999966
19 83 0.503051
82 86 0.333932
82 87 0.666034
124 135 0.999966
145 156 0.999966
166 177 0.999966
187 198 0.999966
229 194 0.499968
208 219 0.999966
250 214 0.333322
229 243 0.499998
250 265 0.333322
250 266 0.333322
292 273 0.499983
271 291 0.999966
292 314 0.499983
313 332 0.999966
8 6 0.499983
8 7 0.499983
29 32 0.999966
50 54 0.999966
71 74 0.999966
92 100 0.999966
113 123 0.999966
239 84 0.999966
197 116 0.999966
134 143 0.999966
155 166 0.999966
176 187 0.999966
218 195 0.646113
218 230 0.353853
281 214 0.499982
260 281 0.999966
281 303 0.499984
302 321 0.999966
323 341 0.999966
18 20 0.999966
39 13 0.999966
81 18 0.0539657
60 64 0.999966
81 85 0.946
102 110 0.497519
186 96 0.00058334
123 132 0.499983
123 134 0.499983
144 153 0.999966
165 176 0.999966
102 229 0.497519
186 197 0.999383
102 230 0.0049277
207 217 0.499984
207 218 0.499982
291 195 0.999966
228 242 0.999966
249 264 0.999966
270 290 0.999966
312 331 0.999966
7 5 0.999966
28 35 0.999966
49 53 0.999966
238 2 0.499768
70 73 0.999966
91 99 0.999966
301 45 0.325419
112 122 0.999966
133 143 0.999966
154 165 0.999966
175 186 0.999966
196 195 0.498667
196 208 0.501299
217 228 0.666644
238 248 0.500198
217 277 0.333322
301 262 0.337701
259 280 0.999966
280 302 0.999966
301 320 0.336845
322 340 0.999966
17 19 0.999966
38 40 0.999966
59 63 0.999966
80 84 0.500671
80 86 0.499295
101 109 0.999966
122 102 0.49935
143 102 0.333322
122 118 0.49935
185 96 0.499837
143 152 0.333322
143 154 0.333322
164 175 0.999966
185 196 0.500129
206 216 0.999966
227 241 0.999966
248 263 0.999966
122 320 0.00126636
269 289 0.999966
290 313 0.999966
311 330 0.999966
6 4 0.999966
27 11 0.491413
27 30 0.508546
111 5 0.999966
69 26 0.999966
48 52 0.336703
90 98 0.999966
216 53 0.999966
279 32 0.00205583
300 47 0.999966
27 156 6.74422e-06
132 142 0.999966
153 164 0.999966
48 226 0.326588
48 227 0.336674
174 185 0.999966
237 162 0.499983
195 207 0.999966
321 214 0.499983
237 267 0.499983
258 278 0.999966
279 301 0.99791
321 339 0.499983
16 17 0.999966
37 42 0.999966
58 61 0.999966
79 81 0.999966
100 107 0.999966
121 133 0.999966
142 151 0.333344
184 151 1.59087e-05
163 174 0.999966
142 195 0.666622
184 194 0.666445
184 200 0.333505
205 215 0.999966
226 239 0.499983
226 240 0.499983
247 261 0.00460051
247 262 0.995365
268 288 0.999966
289 311 0.499983
289 312 0.499983
310 329 0.999966
5 13 0.173074
5 18 0.646108
26 29 0.517492
26 31 0.309993
5 47 0.0246373
47 51 0.999966
68 70 0.33774
68 71 0.324097
68 72 0.338129
278 5 0.999966
26 107 0.172482
89 95 1.35355e-05
89 97 0.999952
5 151 0.155567
110 119 0.333322
110 120 0.333322
110 121 0.333321
131 141 0.999966
5 193 0.000579325
152 162 0.999966
173 183 0.999966
194 206 0.999966
236 194 0.999966
215 225 0.999886
215 227 7.99775e-05
257 276 0.999966
299 319 0.999966
320 338 0.999966
15 16 0.399987
15 31 0.199993
36 23 0.999966
57 31 0.00621322
99 31 0.606107
57 60 0.496872
57 63 0.49688
78 82 0.999966
183 47 0.332719
99 108 0.196926
15 167 0.199993
120 131 0.999966
246 108 0.333674
141 150 0.999966
183 151 4.55523e-06
162 173 0.999966
183 192 0.66724
183 193 3.34076e-06
15 274 0.199993
204 214 0.999966
99 274 0.196933
225 238 0.999966
246 260 0.334314
246 261 0.331978
267 287 0.999966
288 310 0.999966
309 328 0.999966
4 3 0.999966
25 28 0.968651
46 50 0.499983
25 62 0.0313145
46 75 0.499983
67 69 0.960837
67 71 0.0391289
235 10 0.999966
88 94 0.760467
88 95 0.239498
109 118 0.499961
130 140 0.999966
151 163 0.999966
172 182 0.999966
193 204 0.499983
193 205 0.499983
214 224 0.999966
109 270 0.500005
256 275 0.999966
319 270 0.999966
277 295 0.999966
298 318 0.999966
14 15 0.999966
77 18 0.999966
35 39 0.999966
56 60 0.999966
140 62 0.990316
98 106 0.999966
119 130 0.999966
161 172 0.999966
182 191 0.999966
203 213 0.999966
140 263 0.00964964
224 237 0.999966
245 259 0.999966
266 286 0.999966
287 309 0.999966
308 327 0.999966
3 2 0.999966
45 2 5.82089e-05
45 11 0.0274668
45 14 0.207353
24 27 0.999966
45 23 0.693991
45 28 0.0709532
45 37 0.000144178
66 70 0.000101897
192 47 0.999966
87 93 0.999966
66 102 0.714189
108 116 0.499982
108 117 0.499984
129 140 0.999966
150 161 0.999966
171 181 0.999966
213 223 0.999966
66 279 0.285675
234 250 0.499983
234 252 0.499983
255 273 0.999966
276 299 0.999966
297 317 0.999966
318 337 0.999966
13 14 0.999966
34 36 0.999966
97 18 0.336438
55 59 0.749974
76 80 0.999966
97 105 0.663528
55 126 0.249991
118 129 0.999966
139 149 0.999966
160 171 0.999966
181 193 0.999966
202 212 0.999966
223 236 0.999966
244 258 0.999966
265 285 0.999966
286 308 0.999966
307 324 0.999966
2 2 0.335083
86 14 0.999966
44 49 0.999966
317 23 0.474374
107 115 0.999966
2 162 0.664883
254 72 0.999966
128 139 0.999966
149 160 0.999966
170 179 0.499983
170 180 0.499983
23 239 0.500724
23 253 0.00109818
23 254 0.498144
191 203 0.999966
212 222 0.999966
65 293 0.999966
233 247 0.333322
233 249 0.333322
233 251 0.333322
275 298 0.999966
296 316 0.999966
317 336 0.525592
12 11 0.0671747
12 18 0.229895
12 32 0.116939
75 14 0.999966
33 32 0.666643
54 58 0.999966
12 95 3.94627e-05
12 96 0.585919
96 104 0.999966
117 128 0.333322
117 146 0.666644
33 184 0.333323
138 148 0.999966
201 131 0.499983
264 125 0.999966
159 170 0.999966
180 190 0.999966
201 211 0.499983
222 235 0.999966
243 257 0.999966
306 279 0.63224
285 307 0.999966
327 310 0.999966
306 326 0.367726
22 26 0.999966
43 47 0.49978
43 48 0.500186
64 68 0.999966
169 54 0.999966
85 91 0.499983
85 92 0.499983
106 114 0.999966
295 46 0.999966
127 138 0.999966
148 159 0.999966
190 202 0.999966
211 221 0.999966
232 246 0.999966
253 272 0.999966
274 297 0.999966
316 335 0.999966
11 10 0.499983
11 12 0.499982
32 37 0.49972
32 38 0.500246
53 57 0.999966
74 78 0.499983
74 79 0.499983
95 103 0.999966
116 127 0.999966
158 131 0.999966
137 147 0.999966
242 118 0.249991
284 116 0.499984
179 189 0.999966
200 210 0.999966
221 234 0.999966
263 284 0.999966
242 295 0.249994
242 296 0.24999
242 300 0.249991
284 306 0.499982
305 325 0.706586
305 326 0.29338
326 344 0.999966
