3 1 12 100 1
0 2 12 100 0.885168
2 2 12 100 0.114832
0 3 12 100 0.043112
3 3 12 100 0.0761557
9 3 12 100 0.880732
1 4 12 100 1
3 5 12 100 1
3 6 12 100 1
0 7 12 100 5.39192e-05
5 7 12 100 0.999946
7 8 12 100 1
7 9 12 100 1
7 10 12 100 1
8 11 12 100 0.19153
10 11 12 100 0.80847
11 12 12 100 1
11 13 12 100 1
12 14 12 100 1
5 1 15 100 1
0 2 15 100 0.74385
3 2 15 100 0.25615
5 3 15 100 1
0 4 15 100 0.725489
2 4 15 100 0.274511
1 5 15 100 0.999986
5 5 15 100 1.35998e-05
5 6 15 100 1
6 7 15 100 0.845584
7 7 15 100 0.154416
10 8 15 100 1
10 9 15 100 1
12 10 15 100 1
0 11 15 100 0.00287557
9 11 15 100 0.997124
0 12 15 100 1
13 13 15 100 0.0299238
14 13 15 100 0.970076
14 14 15 100 1
11 15 15 100 3.06834e-05
15 15 15 100 0.999969
4 1 18 100 1
4 2 18 100 1
3 3 18 100 0.00569405
5 3 18 100 0.994306
0 4 18 100 0.914078
11 4 18 100 0.0859215
0 5 18 100 3.84236e-05
10 5 18 100 0.999962
7 6 18 100 1
7 7 18 100 1
7 8 18 100 1
7 9 18 100 1
9 10 18 100 1
12 11 18 100 0.950563
13 11 18 100 0.0494371
15 12 18 100 1
15 13 18 100 1
15 14 18 100 1
14 15 18 100 0.00800989
16 15 18 100 0.99199
0 16 18 100 0.000199992
1 16 18 100 0.000143258
17 16 18 100 0.999657
6 17 18 100 5.77781e-05
18 17 18 100 0.999942
6 1 19 100 0.499999
17 1 19 100 0.500001
0 2 19 100 0.5
17 2 19 100 0.5
6 3 19 100 0.5
17 3 19 100 0.5
7 4 19 100 0.497687
8 4 19 100 0.00231273
17 4 19 100 0.5
2 5 19 100 0.5
17 5 19 100 0.5
2 6 19 100 0.5
4 6 19 100 0.5
3 7 19 100 0.0198278
4 7 19 100 0.980172
4 8 19 100 0.5
5 8 19 100 0.5
4 9 19 100 0.5
5 9 19 100 0.5
0 10 19 100 7.44623e-06
5 10 19 100 0.999766
10 10 19 100 0.000226333
0 11 19 100 0.147227
5 11 19 100 0.499994
9 11 19 100 0.352779
0 12 19 100 0.499868
1 12 19 100 9.87446e-05
3 12 19 100 0.000115479
11 12 19 100 0.00562509
12 12 19 100 0.492794
14 12 19 100 2.29808e-05
16 12 19 100 0.00147562
8 13 19 100 0.5
12 13 19 100 0.00215703
13 13 19 100 0.108614
15 13 19 100 0.389229
0 14 19 100 0.499897
3 14 19 100 5.35305e-05
11 14 19 100 2.48045e-05
14 14 19 100 2.48045e-05
17 14 19 100 0.5
8 15 19 100 0.5
18 15 19 100 0.5
8 16 19 100 0.5
17 16 19 100 0.5
8 17 19 100 0.5
17 17 19 100 0.5
0 18 19 100 4.79575e-05
9 18 19 100 0.499952
17 18 19 100 0.5
14 19 19 100 6.63323e-05
15 19 19 100 0.249709
16 19 19 100 0.250291
19 19 19 100 0.499934
18 20 19 100 1
0 21 19 100 1
18 22 19 100 1
18 23 19 100 1
19 24 19 100 1
5 1 27 100 0.791264
6 1 27 100 0.208736
8 2 27 100 1
8 3 27 100 1
15 4 27 100 0.33574
16 4 27 100 0.646241
19 4 27 100 0.0180185
18 5 27 100 1
26 6 27 100 1
13 7 27 100 0.0190943
14 7 27 100 0.0129741
25 7 27 100 0.96052
26 7 27 100 0.00741192
22 8 27 100 1
15 9 27 100 0.000988591
16 9 27 100 0.0026584
19 9 27 100 0.996353
26 10 27 100 1
26 11 27 100 1
26 12 27 100 1
0 13 27 100 0.999389
7 13 27 100 1.08116e-05
17 13 27 100 1.89062e-05
21 13 27 100 0.000433371
24 13 27 100 0.000148086
26 14 27 100 1
26 15 27 100 1
25 16 27 100 0.00722313
26 16 27 100 0.992777
0 17 27 100 0.99985
17 17 27 100 1.40698e-05
21 17 27 100 0.00010738
24 17 27 100 2.87524e-05
1 18 27 100 1
1 19 27 100 1
9 20 27 100 7.90612e-05
27 20 27 100 0.999921
2 1 28 100 1
0 2 28 100 1
2 3 28 100 1
3 4 28 100 1
4 5 28 100 0.8349
5 5 28 100 0.1651
6 6 28 100 1
7 7 28 100 0.148108
8 7 28 100 0.851892
9 8 28 100 1
9 9 28 100 1
9 10 28 100 1
9 11 28 100 1
0 12 28 100 0.999748
17 12 28 100 0.000125992
20 12 28 100 0.000125992
9 13 28 100 1
10 14 28 100 0.820091
11 14 28 100 0.166657
14 14 28 100 0.012623
15 14 28 100 0.000628447
13 15 28 100 0.0873557
14 15 28 100 0.0852414
15 15 28 100 0.822784
18 15 28 100 0.00461904
21 16 28 100 0.999931
26 16 28 100 6.88834e-05
23 17 28 100 1
24 18 28 100 1
27 19 28 100 1
27 20 28 100 1
27 21 28 100 1
0 22 28 100 0.017575
12 22 28 100 0.134704
16 22 28 100 0.847721
27 23 28 100 1
0 24 28 100 0.99775
17 24 28 100 0.00112512
20 24 28 100 0.00112512
27 25 28 100 1
27 26 28 100 1
25 27 28 100 3.01176e-05
28 27 28 100 0.99997
15 1 29 100 0.0111448
22 1 29 100 0.988855
11 2 29 100 8.2947e-05
20 2 29 100 0.499916
22 2 29 100 0.500001
0 3 29 100 0.459525
11 3 29 100 0.020621
12 3 29 100 8.75574e-06
21 3 29 100 0.019845
28 3 29 100 0.5
0 4 29 100 0.5
14 4 29 100 0.0105443
23 4 29 100 0.00873298
24 4 29 100 0.480723
16 5 29 100 0.5
28 5 29 100 0.5
16 6 29 100 0.5
28 6 29 100 0.5
0 7 29 100 0.499974
5 7 29 100 0.0602143
20 7 29 100 0.114282
25 7 29 100 2.71959e-05
27 7 29 100 0.325503
17 8 29 100 1
4 9 29 100 0.0108975
6 9 29 100 0.000750912
9 9 29 100 0.0205742
10 9 29 100 0.0358338
13 9 29 100 0.0108975
17 9 29 100 0.5
18 9 29 100 0.421046
0 10 29 100 0.475128
2 10 29 100 0.00437233
8 10 29 100 0.0204999
17 10 29 100 0.5
1 11 29 100 0.5
17 11 29 100 0.5
0 12 29 100 0.451798
1 12 29 100 0.5
10 12 29 100 0.048202
1 13 29 100 0.5
17 13 29 100 0.5
1 14 29 100 0.5
17 14 29 100 0.5
0 15 29 100 1.18858e-05
1 15 29 100 0.5
13 15 29 100 0.499739
16 15 29 100 0.000249427
0 16 29 100 1.52493e-05
14 16 29 100 0.497841
16 16 29 100 0.00214343
28 16 29 100 0.5
17 17 29 100 0.5
28 17 29 100 0.5
0 18 29 100 0.491512
17 18 29 100 0.5
19 18 29 100 0.00848788
5 19 29 100 0.0798869
8 19 29 100 0.0064017
9 19 29 100 0.396195
19 19 29 100 0.0175157
28 19 29 100 0.5
1 20 29 100 0.5
28 20 29 100 0.5
1 21 29 100 0.5
28 21 29 100 0.5
1 22 29 100 0.5
28 22 29 100 0.5
0 23 29 100 0.496988
1 23 29 100 0.5
11 23 29 100 0.00181149
21 23 29 100 0.00120012
3 24 29 100 0.5
28 24 29 100 0.5
0 25 29 100 7.77923e-06
2 25 29 100 0.499992
29 25 29 100 0.5
4 26 29 100 0.15539
26 26 29 100 0.84461
23 27 29 100 0.115697
24 27 29 100 0.884303
7 28 29 100 0.0108304
27 28 29 100 0.0131603
29 28 29 100 0.976009
3 1 30 100 1
3 2 30 100 1
1 3 30 100 1
3 4 30 100 1
0 5 30 100 0.995318
7 5 30 100 0.000124186
10 5 30 100 1.09368e-05
14 5 30 100 0.00348952
17 5 30 100 0.000350507
25 5 30 100 0.000707011
3 6 30 100 1
2 7 30 100 1
2 8 30 100 0.00429086
15 8 30 100 0.988706
18 8 30 100 0.00696958
29 8 30 100 3.35756e-05
11 9 30 100 0.000553826
20 9 30 100 0.999446
0 10 30 100 0.775861
13 10 30 100 0.224139
0 11 30 100 0.00809785
5 11 30 100 0.991902
4 12 30 100 1
24 13 30 100 1
4 14 30 100 0.981089
24 14 30 100 0.0189113
8 15 30 100 1
0 16 30 100 7.08722e-05
12 16 30 100 0.999929
0 17 30 100 1
23 18 30 100 1
0 19 30 100 0.969527
7 19 30 100 0.000451054
10 19 30 100 0.000350508
14 19 30 100 0.00348952
17 19 30 100 1.09369e-05
25 19 30 100 0.0261714
26 20 30 100 1
26 21 30 100 1
2 22 30 100 1.62002e-05
15 22 30 100 3.35769e-05
29 22 30 100 0.99995
11 23 30 100 0.00613062
20 23 30 100 0.993859
28 23 30 100 1.02276e-05
30 24 30 100 1
2 1 32 100 1
0 2 32 100 0.849366
1 2 32 100 0.115017
5 2 32 100 0.0356169
2 3 32 100 1
0 4 32 100 0.0782093
3 4 32 100 0.921791
4 5 32 100 0.999857
8 5 32 100 0.00014266
6 6 32 100 1
0 7 32 100 1
7 8 32 100 0.999184
19 8 32 100 0.00081612
9 9 32 100 0.0141403
26 9 32 100 0.98586
27 10 32 100 1
0 11 32 100 1.80713e-05
19 11 32 100 7.6528e-05
24 11 32 100 0.00709712
31 11 32 100 0.992808
24 12 32 100 0.00243023
31 12 32 100 0.99757
0 13 32 100 1
8 14 32 100 0.097052
10 14 32 100 0.902948
8 15 32 100 0.00160679
11 15 32 100 0.998393
11 16 32 100 0.99974
15 16 32 100 0.00025993
11 17 32 100 1
8 18 32 100 6.30148e-05
11 18 32 100 0.999937
14 19 32 100 1
0 20 32 100 0.999348
3 20 32 100 0.000651821
17 21 32 100 0.99976
28 21 32 100 0.000240083
0 22 32 100 1
18 23 32 100 1
18 24 32 100 1
18 25 32 100 1
0 26 32 100 0.999865
21 26 32 100 0.000134991
18 27 32 100 1
23 28 32 100 1
22 29 32 100 0.0724287
23 29 32 100 0.927571
13 30 32 100 0.00400652
25 30 32 100 0.995993
13 31 32 100 0.000180837
25 31 32 100 0.999819
13 32 32 100 0.00163323
25 32 32 100 0.998367
30 33 32 100 1
30 34 32 100 1
30 35 32 100 1
32 36 32 100 1
2 1 33 100 1
1 2 33 100 1
0 3 33 100 1
0 4 33 100 1
4 5 33 100 1
4 6 33 100 1
26 7 33 100 1
26 8 33 100 1
0 9 33 100 0.222447
25 9 33 100 0.777293
30 9 33 100 0.000260415
26 10 33 100 1
18 11 33 100 1
17 12 33 100 1
10 13 33 100 1
0 14 33 100 0.997659
12 14 33 100 0.00234077
9 15 33 100 1
7 16 33 100 1
7 17 33 100 1
6 18 33 100 1
7 19 33 100 1
7 20 33 100 1
0 21 33 100 0.999684
15 21 33 100 0.000316145
11 22 33 100 1
0 23 33 100 1
13 24 33 100 1
13 25 33 100 1
14 26 33 100 0.991634
23 26 33 100 0.00836602
0 27 33 100 1
15 28 33 100 0.0111222
16 28 33 100 0.837894
27 28 33 100 0.150984
0 29 33 100 0.00188699
5 29 33 100 0.913116
8 29 33 100 0.0849968
20 30 33 100 1
21 31 33 100 1
22 32 33 100 1
29 33 33 100 1
0 34 33 100 1
31 35 33 100 1
32 36 33 100 1
32 37 33 100 1
33 38 33 100 1
2 1 34 100 1
2 2 34 100 1
2 3 34 100 0.999848
13 3 34 100 0.000152375
1 4 34 100 1
1 5 34 100 1
0 6 34 100 0.989625
7 6 34 100 0.00715622
17 6 34 100 0.00321892
0 7 34 100 0.00598968
5 7 34 100 0.99401
0 8 34 100 0.000214181
4 8 34 100 0.998709
9 8 34 100 0.000738934
21 8 34 100 6.06639e-05
28 8 34 100 0.000277075
0 9 34 100 0.00427257
3 9 34 100 0.21884
6 9 34 100 0.00115505
26 9 34 100 0.775733
6 10 34 100 1
0 11 34 100 1
6 12 34 100 1
0 13 34 100 0.00024175
4 13 34 100 0.00073894
9 13 34 100 0.998476
21 13 34 100 2.49309e-05
28 13 34 100 0.000518698
10 14 34 100 0.00156146
12 14 34 100 0.998439
15 15 34 100 1
0 16 34 100 0.939301
7 16 34 100 0.00823255
17 16 34 100 0.052466
15 17 34 100 1
15 18 34 100 1
16 19 34 100 0.197156
18 19 34 100 0.802844
0 20 34 100 0.00011382
4 20 34 100 5.74227e-05
9 20 34 100 1.17407e-05
21 20 34 100 0.998592
28 20 34 100 0.00122538
23 21 34 100 1
23 22 34 100 1
23 23 34 100 1
23 24 34 100 1
23 25 34 100 1
24 26 34 100 1
27 27 34 100 1
32 28 34 100 0.0423411
33 28 34 100 0.957659
30 29 34 100 1
30 30 34 100 1
19 31 34 100 3.35215e-05
34 31 34 100 0.999967
3 1 35 100 1
3 2 35 100 1
3 3 35 100 1
4 4 35 100 0.0160522
6 4 35 100 0.885625
12 4 35 100 0.0837533
13 4 35 100 0.0145696
5 5 35 100 0.0278169
15 5 35 100 0.938064
20 5 35 100 0.0340725
31 5 35 100 4.68896e-05
0 6 35 100 0.000115723
14 6 35 100 0.017482
16 6 35 100 0.982402
17 7 35 100 0.931995
19 7 35 100 0.0680055
0 8 35 100 2.47859e-05
22 8 35 100 0.99922
26 8 35 100 0.000754972
0 9 35 100 2.91836e-05
23 9 35 100 0.999971
24 10 35 100 1
24 11 35 100 1
0 12 35 100 0.975273
10 12 35 100 0.0239265
27 12 35 100 0.000799996
7 13 35 100 1
0 14 35 100 1
7 15 35 100 1
7 16 35 100 1
7 17 35 100 1
7 18 35 100 1
7 19 35 100 1
7 20 35 100 1
17 21 35 100 1
17 22 35 100 1
0 23 35 100 0.000124104
22 23 35 100 0.000810509
25 23 35 100 4.11093e-05
26 23 35 100 0.999024
0 24 35 100 0.061191
23 24 35 100 0.932323
25 24 35 100 0.00648634
24 25 35 100 1
24 26 35 100 1
0 27 35 100 0.111504
10 27 35 100 0.000986643
27 27 35 100 0.88751
18 28 35 100 4.48877e-05
29 28 35 100 0.999955
29 29 35 100 0.982526
30 29 35 100 0.0174736
0 30 35 100 0.242362
32 30 35 100 0.757522
33 30 35 100 0.000115892
34 31 35 100 1
34 32 35 100 1
34 33 35 100 1
35 34 35 100 1
6 1 36 100 0.999961
17 1 36 100 3.93347e-05
0 2 36 100 1
0 3 36 100 1
7 4 36 100 0.943635
15 4 36 100 0.0243721
17 4 36 100 0.0158541
22 4 36 100 0.0155404
34 4 36 100 0.000598616
3 5 36 100 1
3 6 36 100 1
3 7 36 100 1
2 8 36 100 0.993762
3 8 36 100 0.00623767
11 9 36 100 1
10 10 36 100 1
20 11 36 100 1
0 12 36 100 0.892082
12 12 36 100 0.107918
0 13 36 100 0.000436351
1 13 36 100 0.00863906
18 13 36 100 0.0246943
24 13 36 100 0.96123
27 13 36 100 0.00499991
14 14 36 100 0.00272819
24 14 36 100 0.99441
27 14 36 100 0.0028623
25 15 36 100 1
8 16 36 100 0.00143576
25 16 36 100 0.996579
28 16 36 100 0.00198558
25 17 36 100 1
4 18 36 100 0.00374006
19 18 36 100 0.00225802
23 18 36 100 0.0366844
26 18 36 100 0.957318
8 19 36 100 0.00749292
25 19 36 100 0.0260555
28 19 36 100 0.966172
29 19 36 100 0.00027962
29 20 36 100 1
29 21 36 100 1
29 22 36 100 1
31 23 36 100 0.0585272
35 23 36 100 0.941473
9 24 36 100 9.47838e-05
30 24 36 100 0.000715091
36 24 36 100 0.99919
10 1 37 100 1
9 2 37 100 0.999847
18 2 37 100 0.00015286
10 3 37 100 1
6 4 37 100 1
8 5 37 100 1
8 6 37 100 1
8 7 37 100 1
5 8 37 100 1
0 9 37 100 0.794447
12 9 37 100 0.205553
3 10 37 100 1
0 11 37 100 1
3 12 37 100 1
1 13 37 100 1
3 14 37 100 1
0 15 37 100 0.997096
11 15 37 100 0.00276207
25 15 37 100 0.000142168
3 16 37 100 1
8 17 37 100 1
8 18 37 100 1
0 19 37 100 0.0148351
7 19 37 100 0.985165
10 20 37 100 1
15 21 37 100 0.969731
17 21 37 100 0.0302689
16 22 37 100 0.98948
21 22 37 100 0.0105199
20 23 37 100 0.058933
21 23 37 100 0.941067
0 24 37 100 1
24 25 37 100 0.989187
29 25 37 100 0.0108126
14 26 37 100 0.0139195
24 26 37 100 0.976536
29 26 37 100 0.00954485
0 27 37 100 0.000273381
22 27 37 100 0.999727
27 28 37 100 1
0 29 37 100 0.000306772
28 29 37 100 0.990428
32 29 37 100 0.0092652
31 30 37 100 1
31 31 37 100 1
30 32 37 100 1
11 33 37 100 1.76003e-05
25 33 37 100 3.64958e-05
30 33 37 100 0.999946
23 34 37 100 1
31 35 37 100 1
9 36 37 100 0.000109816
18 36 37 100 4.89148e-05
33 36 37 100 0.999841
36 37 37 100 1
35 38 37 100 0.000600072
37 38 37 100 0.9994
3 1 39 100 1
0 2 39 100 1
3 3 39 100 1
3 4 39 100 1
3 5 39 100 1
3 6 39 100 1
0 7 39 100 0.134389
5 7 39 100 0.865276
28 7 39 100 0.000334376
3 8 39 100 0.999793
4 8 39 100 0.000206913
8 9 39 100 1
7 10 39 100 0.156109
9 10 39 100 0.843891
10 11 39 100 1
10 12 39 100 1
14 13 39 100 0.00250328
16 13 39 100 0.036352
17 13 39 100 0.0201066
19 13 39 100 0.821253
21 13 39 100 0.119785
22 14 39 100 1
22 15 39 100 1
22 16 39 100 1
22 17 39 100 1
22 18 39 100 1
0 19 39 100 0.999875
24 19 39 100 0.000125325
22 20 39 100 1
0 21 39 100 0.154513
5 21 39 100 6.33185e-05
23 21 39 100 0.844377
28 21 39 100 0.00104645
22 22 39 100 1
0 23 39 100 0.998616
37 23 39 100 0.00138366
22 24 39 100 1
25 25 39 100 0.828427
27 25 39 100 0.0495328
29 25 39 100 0.0495328
30 25 39 100 0.057738
32 25 39 100 0.00398576
36 25 39 100 0.0107839
30 26 39 100 0.000240418
35 26 39 100 0.99976
38 27 39 100 1
38 28 39 100 1
38 29 39 100 1
38 30 39 100 1
38 31 39 100 1
38 32 39 100 1
38 33 39 100 1
38 34 39 100 1
39 35 39 100 1
1 1 40 100 1
0 2 40 100 0.0530771
6 2 40 100 0.946923
7 3 40 100 1
9 4 40 100 1
0 5 40 100 0.994413
11 5 40 100 0.000963804
12 5 40 100 0.00435677
21 5 40 100 1.08915e-05
27 5 40 100 0.000113519
33 5 40 100 0.000142414
20 6 40 100 0.00946358
29 6 40 100 0.990536
30 7 40 100 1
35 8 40 100 1
36 9 40 100 1
36 10 40 100 1
0 11 40 100 0.995779
11 11 40 100 5.55615e-05
12 11 40 100 0.00025116
21 11 40 100 0.000443591
27 11 40 100 0.0033762
33 11 40 100 9.49963e-05
28 12 40 100 1
25 13 40 100 1
24 14 40 100 0.769549
26 14 40 100 0.230451
0 15 40 100 1.54651e-05
14 15 40 100 0.00120085
23 15 40 100 0.998784
0 16 40 100 0.000493027
8 16 40 100 0.999057
22 16 40 100 0.000278524
23 16 40 100 0.000171087
10 17 40 100 0.0697557
15 17 40 100 0.000126012
16 17 40 100 0.930118
18 18 40 100 1
18 19 40 100 1
19 20 40 100 1
0 21 40 100 0.997008
11 21 40 100 0.000420965
12 21 40 100 0.00190293
21 21 40 100 0.000574525
27 21 40 100 9.32599e-05
17 22 40 100 1
13 23 40 100 0.975006
22 23 40 100 0.0249939
0 24 40 100 1.82683e-05
14 24 40 100 0.998356
23 24 40 100 0.00162597
19 25 40 100 1
19 26 40 100 1
38 27 40 100 1
35 28 40 100 1
35 29 40 100 1
0 30 40 100 0.999479
4 30 40 100 0.000183924
11 30 40 100 3.30904e-05
12 30 40 100 0.000149581
21 30 40 100 0.000120443
27 30 40 100 3.3454e-05
0 31 40 100 0.201637
2 31 40 100 0.0326157
22 31 40 100 0.00253079
30 31 40 100 0.0287
35 31 40 100 0.734516
2 32 40 100 1
4 33 40 100 0.0678695
5 33 40 100 0.932131
1 34 40 100 1
1 35 40 100 1
1 36 40 100 1
0 37 40 100 1
1 38 40 100 1
0 39 40 100 0.997325
3 39 40 100 0.000965383
11 39 40 100 0.00170929
39 40 40 100 1
39 41 40 100 1
40 42 40 100 1
24 1 42 100 4.70378e-05
30 1 42 100 0.999953
30 2 42 100 1
32 3 42 100 1
0 4 42 100 0.976226
11 4 42 100 0.0035122
33 4 42 100 0.0202618
32 5 42 100 1
32 6 42 100 1
32 7 42 100 1
32 8 42 100 1
32 9 42 100 1
0 10 42 100 1
34 11 42 100 1
34 12 42 100 1
34 13 42 100 1
34 14 42 100 1
34 15 42 100 1
34 16 42 100 1
34 17 42 100 1
6 18 42 100 3.3897e-05
34 18 42 100 0.999966
0 19 42 100 0.841282
11 19 42 100 0.153008
33 19 42 100 0.0057102
9 20 42 100 0.251682
10 20 42 100 0.748318
2 21 42 100 1
2 22 42 100 1
2 23 42 100 1
0 24 42 100 0.853107
12 24 42 100 0.146703
21 24 42 100 0.000189517
13 25 42 100 1
0 26 42 100 0.844833
11 26 42 100 0.153008
33 26 42 100 0.00215864
2 27 42 100 1
2 28 42 100 1
2 29 42 100 1
0 30 42 100 0.998497
1 30 42 100 0.000194314
5 30 42 100 7.72349e-05
8 30 42 100 7.72349e-05
23 30 42 100 0.000170229
36 30 42 100 0.00098417
19 31 42 100 1
22 32 42 100 1
25 33 42 100 1
39 34 42 100 1
41 35 42 100 1
41 36 42 100 1
41 37 42 100 1
20 38 42 100 2.70349e-05
40 38 42 100 0.000101764
42 38 42 100 0.999871
3 1 43 100 1
0 2 43 100 1
3 3 43 100 1
3 4 43 100 1
3 5 43 100 1
3 6 43 100 1
3 7 43 100 1
7 8 43 100 1
9 9 43 100 0.882795
12 9 43 100 0.117205
19 10 43 100 1
21 11 43 100 0.997703
31 11 43 100 0.00229743
24 12 43 100 1
22 13 43 100 1
22 14 43 100 1
22 15 43 100 1
15 16 43 100 1
15 17 43 100 0.101766
16 17 43 100 0.898234
0 18 43 100 0.994937
11 18 43 100 0.00109177
27 18 43 100 0.00395218
37 18 43 100 1.91815e-05
42 19 43 100 1
0 20 43 100 0.995914
32 20 43 100 0.00408601
23 21 43 100 0.00406121
42 21 43 100 0.995939
0 22 43 100 1
42 23 43 100 1
28 24 43 100 0.991439
29 24 43 100 0.00856093
0 25 43 100 0.997431
40 25 43 100 0.00256871
29 26 43 100 1
24 27 43 100 0.000439426
29 27 43 100 0.999561
33 28 43 100 0.00877921
35 28 43 100 0.991221
13 29 43 100 0.00217209
26 29 43 100 0.0270065
36 29 43 100 0.904854
39 29 43 100 0.065967
41 30 43 100 1
41 31 43 100 1
41 32 43 100 1
41 33 43 100 1
41 34 43 100 1
41 35 43 100 1
34 36 43 100 0.000511798
43 36 43 100 0.999488
