2 0 100 14 0.953502
3 0 100 14 0.0464399
7 0 100 14 5.80817e-05
4 1 100 14 1
2 2 100 14 1
1 3 100 14 0.325081
3 3 100 14 0.0247566
5 3 100 14 0.325081
6 3 100 14 0.325081
1 4 100 14 1
7 5 100 14 1
3 6 100 14 1
8 7 100 14 0.333333
9 7 100 14 0.333333
10 7 100 14 0.333333
11 8 100 14 1
3 9 100 14 1
11 10 100 14 1
12 11 100 14 0.5
13 11 100 14 0.5
14 12 100 14 1
2 0 100 15 0.300884
4 0 100 15 0.293457
11 0 100 15 0.00116315
12 0 100 15 0.404496
5 1 100 15 1
4 2 100 15 1
2 3 100 15 1
12 4 100 15 1
1 5 100 15 0.333332
3 5 100 15 0.333332
5 5 100 15 4.53325e-06
6 5 100 15 0.333332
7 6 100 15 1
7 7 100 15 1
2 8 100 15 1
11 9 100 15 1
8 10 100 15 0.5
9 10 100 15 0.5
15 11 100 15 1
10 12 100 15 1
13 13 100 15 1
13 14 100 15 0.492405
14 14 100 15 0.507595
15 15 100 15 1
4 0 100 17 0.999739
5 0 100 17 4.20243e-05
16 0 100 17 0.000218734
16 1 100 17 1
16 2 100 17 1
3 3 100 17 1
1 4 100 17 0.5
2 4 100 17 0.5
3 5 100 17 1
17 6 100 17 1
6 7 100 17 0.25
7 7 100 17 0.25
8 7 100 17 0.25
9 7 100 17 0.25
3 8 100 17 0.111452
5 8 100 17 0.888548
10 9 100 17 1
5 10 100 17 1
4 11 100 17 1
11 12 100 17 1
11 13 100 17 1
15 14 100 17 1
12 15 100 17 0.333333
13 15 100 17 0.333333
14 15 100 17 0.333333
15 16 100 17 1
16 17 100 17 1
17 18 100 17 1
2 0 100 19 0.772499
11 0 100 19 0.227456
12 0 100 19 4.51323e-05
12 1 100 19 1
5 2 100 19 0.5
6 2 100 19 0.5
7 3 100 19 1
7 4 100 19 1
8 5 100 19 0.333333
9 5 100 19 0.333333
10 5 100 19 0.333333
1 6 100 19 0.499999
3 6 100 19 0.500001
4 7 100 19 1
4 8 100 19 1
11 9 100 19 1
2 10 100 19 0.579871
11 10 100 19 0.193672
12 10 100 19 0.226457
12 11 100 19 1
12 12 100 19 0.995642
13 12 100 19 0.00435807
13 13 100 19 1
19 14 100 19 1
13 15 100 19 1
12 16 100 19 1
14 17 100 19 0.25
16 17 100 19 0.25
17 17 100 19 0.25
18 17 100 19 0.25
15 18 100 19 1
19 19 100 19 1
13 0 100 20 0.499884
17 0 100 20 0.500116
18 1 100 20 0.5
19 1 100 20 0.5
20 2 100 20 1
19 3 100 20 1
20 4 100 20 1
1 5 100 20 1
1 6 100 20 1
13 7 100 20 1
2 8 100 20 0.5
3 8 100 20 0.5
20 9 100 20 1
7 10 100 20 1
17 11 100 20 1
13 12 100 20 0.540714
17 12 100 20 0.459286
7 13 100 20 1
7 14 100 20 1
4 15 100 20 0.997064
9 15 100 20 0.00293587
4 16 100 20 0.995903
9 16 100 20 0.00409678
13 17 100 20 0.573332
17 17 100 20 0.426668
5 18 100 20 1
4 19 100 20 0.0177632
9 19 100 20 0.982237
13 20 100 20 1
13 21 100 20 0.801424
17 21 100 20 0.198576
3 22 100 20 1.93189e-05
4 22 100 20 9.34106e-05
5 22 100 20 0.00482752
6 22 100 20 0.00190841
7 22 100 20 0.00129025
8 22 100 20 0.984439
9 22 100 20 0.000937937
10 22 100 20 0.00206792
11 22 100 20 0.000119516
12 22 100 20 0.000916346
14 22 100 20 0.000599286
15 22 100 20 0.000566735
16 22 100 20 0.00221429
4 23 100 20 0.00858482
9 23 100 20 0.0883352
13 23 100 20 0.243741
17 23 100 20 0.659339
4 24 100 20 0.000900729
9 24 100 20 0.0120186
13 24 100 20 0.94602
17 24 100 20 0.0410606
3 25 100 20 4.64616e-05
4 25 100 20 5.10262e-05
5 25 100 20 0.00656297
6 25 100 20 0.00351049
7 25 100 20 0.589501
8 25 100 20 0.00308816
9 25 100 20 0.000801697
10 25 100 20 0.00331509
11 25 100 20 0.000553306
12 25 100 20 0.00225799
14 25 100 20 0.0032095
15 25 100 20 0.0027605
16 25 100 20 0.384335
17 25 100 20 3.08659e-06
18 25 100 20 3.09684e-06
3 26 100 20 4.46049e-07
4 26 100 20 5.69198e-06
5 26 100 20 0.00101687
6 26 100 20 0.141925
7 26 100 20 0.0855393
8 26 100 20 0.00129548
9 26 100 20 0.000228222
10 26 100 20 0.14189
11 26 100 20 0.142636
12 26 100 20 0.142337
13 26 100 20 5.89264e-07
14 26 100 20 0.142302
15 26 100 20 0.142349
16 26 100 20 0.0584759
13 27 100 20 2.1475e-06
17 27 100 20 3.24754e-06
20 27 100 20 0.999995
2 0 100 24 0.103724
3 0 100 24 0.103724
5 0 100 24 0.103238
10 0 100 24 0.0804769
11 0 100 24 0.000841118
12 0 100 24 0.196221
13 0 100 24 4.52598e-05
14 0 100 24 0.103702
16 0 100 24 7.35114e-06
17 0 100 24 0.103724
18 0 100 24 9.94867e-06
19 0 100 24 0.100563
21 0 100 24 0.103724
3 1 100 24 0.991435
13 1 100 24 0.00856504
7 2 100 24 0.500484
8 2 100 24 0.499508
22 2 100 24 8.10796e-06
1 3 100 24 0.142723
2 3 100 24 0.142723
4 3 100 24 0.142723
5 3 100 24 0.142723
6 3 100 24 0.285446
7 3 100 24 0.142723
8 3 100 24 0.000890255
12 3 100 24 3.2963e-05
14 3 100 24 1.52801e-05
6 4 100 24 0.167089
7 4 100 24 0.167089
8 4 100 24 0.167089
9 4 100 24 0.167089
12 4 100 24 0.167089
14 4 100 24 0.163929
18 4 100 24 0.000624924
10 5 100 24 0.334133
11 5 100 24 0.665867
1 6 100 24 1
4 7 100 24 0.999391
5 7 100 24 0.000131524
19 7 100 24 0.000477705
13 8 100 24 0.199643
15 8 100 24 0.399287
16 8 100 24 0.19993
17 8 100 24 0.199643
19 8 100 24 0.00149591
18 9 100 24 0.999905
24 9 100 24 9.47839e-05
5 10 100 24 1.09279e-05
10 10 100 24 0.999639
19 10 100 24 0.000350222
9 11 100 24 0.993816
12 11 100 24 4.56521e-05
14 11 100 24 4.9275e-05
23 11 100 24 0.00608935
12 12 100 24 0.0974121
16 12 100 24 0.902588
10 13 100 24 1
5 14 100 24 0.355972
12 14 100 24 0.00468862
14 14 100 24 0.283368
19 14 100 24 0.355972
4 15 100 24 0.0161135
8 15 100 24 0.653676
19 15 100 24 0.330188
22 15 100 24 2.21992e-05
19 16 100 24 1
1 17 100 24 0.19936
2 17 100 24 0.199352
3 17 100 24 0.199352
4 17 100 24 0.202512
5 17 100 24 0.199422
19 17 100 24 2.18028e-06
8 18 100 24 0.00229893
13 18 100 24 0.00814544
20 18 100 24 0.329851
22 18 100 24 0.329852
23 18 100 24 0.329852
18 19 100 24 0.00225294
24 19 100 24 0.997747
9 20 100 24 0.333894
11 20 100 24 0.334079
23 20 100 24 0.332027
11 21 100 24 1
4 22 100 24 1
18 23 100 24 1
13 24 100 24 0.659336
14 24 100 24 0.340664
5 25 100 24 0.000231844
15 25 100 24 0.327921
16 25 100 24 0.326799
17 25 100 24 0.327921
19 25 100 24 0.0171263
1 26 100 24 1.3463e-06
2 26 100 24 1.75008e-06
3 26 100 24 6.0872e-07
4 26 100 24 3.94211e-06
5 26 100 24 1.50434e-06
6 26 100 24 2.85681e-05
7 26 100 24 1.06323e-05
8 26 100 24 2.79554e-06
9 26 100 24 6.31963e-06
10 26 100 24 1.48755e-06
11 26 100 24 6.3691e-05
12 26 100 24 4.36814e-06
13 26 100 24 1.18608e-06
14 26 100 24 4.07163e-05
15 26 100 24 6.07282e-05
16 26 100 24 0.000559209
17 26 100 24 0.00173737
18 26 100 24 0.297983
19 26 100 24 0.0012813
20 26 100 24 0.352054
21 26 100 24 0.345579
22 26 100 24 0.000323021
23 26 100 24 0.000253448
5 27 100 24 2.72683e-05
10 27 100 24 1.33737e-05
11 27 100 24 0.00200735
12 27 100 24 7.21429e-06
13 27 100 24 0.139235
14 27 100 24 0.846559
15 27 100 24 0.00126306
16 27 100 24 0.000429231
17 27 100 24 0.00201335
18 27 100 24 8.18496e-05
19 27 100 24 0.00755397
20 27 100 24 0.000316772
21 27 100 24 0.000184165
22 27 100 24 0.000298803
23 27 100 24 9.99186e-06
1 28 100 24 6.98891e-05
4 28 100 24 3.3298e-06
5 28 100 24 5.00029e-05
6 28 100 24 2.11193e-06
7 28 100 24 3.84204e-05
8 28 100 24 5.24698e-06
9 28 100 24 0.000447916
10 28 100 24 5.43415e-05
11 28 100 24 0.00182695
13 28 100 24 9.00528e-06
14 28 100 24 0.000543783
15 28 100 24 0.000609676
16 28 100 24 0.00469315
17 28 100 24 0.00155683
18 28 100 24 8.0023e-05
19 28 100 24 0.939581
20 28 100 24 0.000468243
21 28 100 24 0.00027814
22 28 100 24 0.000442916
23 28 100 24 0.049103
24 28 100 24 0.000136093
1 29 100 24 2.66503e-07
5 29 100 24 2.60889e-07
6 29 100 24 1.30172e-06
7 29 100 24 2.15161e-06
8 29 100 24 5.33557e-05
9 29 100 24 1.0186e-05
10 29 100 24 4.33513e-07
11 29 100 24 2.24162e-05
13 29 100 24 3.26819e-07
14 29 100 24 4.21902e-05
15 29 100 24 7.30957e-05
16 29 100 24 3.0632e-05
17 29 100 24 8.09772e-05
18 29 100 24 4.19624e-05
19 29 100 24 0.103241
20 29 100 24 0.209733
21 29 100 24 0.213089
22 29 100 24 0.417722
23 29 100 24 0.0558548
3 30 100 24 1.83222e-06
12 30 100 24 4.03025e-05
13 30 100 24 1.44321e-06
16 30 100 24 4.94325e-06
17 30 100 24 1.51557e-06
24 30 100 24 0.99995
13 31 100 24 8.17975e-05
19 31 100 24 1.69275e-06
22 31 100 24 0.000274919
23 31 100 24 0.999642
4 32 100 24 0.720439
12 32 100 24 0.190152
13 32 100 24 0.0894084
19 33 100 24 0.0552792
20 33 100 24 0.0279547
21 33 100 24 0.0281674
22 33 100 24 0.772677
23 33 100 24 0.115922
2 34 100 24 0.176821
3 34 100 24 0.169344
4 34 100 24 0.627451
12 34 100 24 0.0263833
1 35 100 24 0.00340204
11 35 100 24 6.71515e-05
14 35 100 24 2.04757e-05
15 35 100 24 2.30153e-05
16 35 100 24 1.61355e-05
17 35 100 24 1.56219e-05
18 35 100 24 3.73894e-06
19 35 100 24 0.000369516
20 35 100 24 0.000409414
21 35 100 24 0.000737595
22 35 100 24 0.0186884
23 35 100 24 0.976247
24 36 100 24 1
3 0 100 25 0.238944
10 0 100 25 0.247057
18 0 100 25 0.255576
23 0 100 25 0.258423
11 1 100 25 0.2
12 1 100 25 0.2
13 1 100 25 0.2
14 1 100 25 0.2
15 1 100 25 0.2
10 2 100 25 1
3 3 100 25 0.159881
10 3 100 25 0.840119
9 4 100 25 1
7 5 100 25 1
9 6 100 25 1
8 7 100 25 1
10 8 100 25 1
9 9 100 25 1
9 10 100 25 1
3 11 100 25 0.919247
23 11 100 25 0.080753
3 12 100 25 1
9 13 100 25 1
4 14 100 25 1
3 15 100 25 1
5 16 100 25 0.5
6 16 100 25 0.5
8 17 100 25 1
9 18 100 25 1
18 19 100 25 1
7 20 100 25 1
3 21 100 25 0.942974
23 21 100 25 0.0570259
1 22 100 25 0.5
2 22 100 25 0.5
4 23 100 25 1
4 24 100 25 1
3 25 100 25 0.81239
23 25 100 25 0.18761
15 26 100 25 1
3 27 100 25 0.00012303
4 27 100 25 5.18435e-06
6 27 100 25 3.62319e-05
7 27 100 25 0.999456
8 27 100 25 1.40666e-05
9 27 100 25 6.06388e-06
15 27 100 25 4.13064e-05
16 27 100 25 5.61732e-05
17 27 100 25 1.3143e-05
18 27 100 25 9.24433e-05
19 27 100 25 1.09988e-05
20 27 100 25 8.22506e-06
21 27 100 25 7.03886e-06
22 27 100 25 7.23985e-06
23 27 100 25 9.59253e-05
24 27 100 25 2.65929e-05
2 28 100 25 4.31981e-06
3 28 100 25 4.59718e-07
4 28 100 25 1.02047e-05
5 28 100 25 2.57414e-06
6 28 100 25 1.31679e-05
7 28 100 25 5.77929e-07
8 28 100 25 1.80522e-06
9 28 100 25 3.65336e-06
14 28 100 25 2.89167e-07
15 28 100 25 0.000514804
16 28 100 25 0.140264
17 28 100 25 0.143177
19 28 100 25 0.143182
20 28 100 25 0.143195
21 28 100 25 0.143209
22 28 100 25 0.143228
23 28 100 25 6.75535e-06
24 28 100 25 0.143186
18 29 100 25 1.43643e-06
23 29 100 25 1.64067e-06
25 29 100 25 0.999997
2 0 100 27 0.331668
12 0 100 27 0.331583
22 0 100 27 0.00582907
24 0 100 27 0.330919
12 1 100 27 1
1 2 100 27 0.5
3 2 100 27 0.5
4 3 100 27 1
5 4 100 27 1
5 5 100 27 1
6 6 100 27 1
7 7 100 27 1
7 8 100 27 1
8 9 100 27 0.2
9 9 100 27 0.2
10 9 100 27 0.2
11 9 100 27 0.2
13 9 100 27 0.2
14 10 100 27 1
14 11 100 27 1
22 12 100 27 1
15 13 100 27 1
14 14 100 27 0.128985
15 14 100 27 0.871015
14 15 100 27 0.000763223
15 15 100 27 0.999237
22 16 100 27 1
12 17 100 27 0.100704
24 17 100 27 0.899296
15 18 100 27 1
24 19 100 27 1
12 20 100 27 0.100704
24 20 100 27 0.899296
16 21 100 27 1
24 22 100 27 1
17 23 100 27 1
18 24 100 27 1
27 25 100 27 1
16 26 100 27 1
19 27 100 27 0.166667
20 27 100 27 0.166667
21 27 100 27 0.166667
23 27 100 27 0.166667
25 27 100 27 0.166667
26 27 100 27 0.166667
27 28 100 27 1
4 0 100 28 0.344399
7 0 100 28 0.34438
12 0 100 28 0.311197
15 0 100 28 8.18688e-06
16 0 100 28 1.05036e-05
25 0 100 28 5.35831e-06
20 1 100 28 0.25
21 1 100 28 0.25
22 1 100 28 0.25
23 1 100 28 0.25
25 2 100 28 1
24 3 100 28 1
26 4 100 28 1
19 5 100 28 1
27 6 100 28 1
28 7 100 28 1
19 8 100 28 1
19 9 100 28 1
12 10 100 28 1
2 11 100 28 1
15 12 100 28 0.343334
16 12 100 28 0.656666
15 13 100 28 1
16 14 100 28 1
1 15 100 28 1
15 16 100 28 0.104238
16 16 100 28 0.895762
8 17 100 28 0.125
9 17 100 28 0.125
10 17 100 28 0.125
11 17 100 28 0.125
13 17 100 28 0.125
14 17 100 28 0.125
17 17 100 28 0.125
18 17 100 28 0.125
26 18 100 28 1
19 19 100 28 1
2 20 100 28 1
3 21 100 28 1
1 22 100 28 1
27 23 100 28 1
27 24 100 28 1
7 25 100 28 1
26 26 100 28 1
28 27 100 28 1
3 28 100 28 0.333333
5 28 100 28 0.333333
6 28 100 28 0.333333
28 29 100 28 1
6 0 100 31 0.336635
7 0 100 31 0.00203747
8 0 100 31 7.28568e-05
9 0 100 31 0.00145337
11 0 100 31 0.340164
13 0 100 31 8.22341e-05
16 0 100 31 0.319517
20 0 100 31 3.87174e-05
4 1 100 31 0.500001
5 1 100 31 0.499999
1 2 100 31 0.333351
2 2 100 31 0.333351
3 2 100 31 0.333298
9 3 100 31 1
8 4 100 31 0.999203
13 4 100 31 0.000739301
20 4 100 31 5.74511e-05
7 5 100 31 1
9 6 100 31 0.000577188
10 6 100 31 0.499711
12 6 100 31 0.499711
6 7 100 31 0.465029
16 7 100 31 0.534971
9 8 100 31 1
8 9 100 31 0.000739511
13 9 100 31 0.999249
20 9 100 31 1.17499e-05
14 10 100 31 1
13 11 100 31 1
14 12 100 31 1
3 13 100 31 1
13 14 100 31 0.617854
20 14 100 31 0.382146
15 15 100 31 0.333333
17 15 100 31 0.333333
18 15 100 31 0.333333
19 16 100 31 1
6 17 100 31 0.0578059
16 17 100 31 0.942194
19 18 100 31 1
31 19 100 31 1
19 20 100 31 1
8 21 100 31 6.07442e-05
13 21 100 31 2.49638e-05
20 21 100 31 0.999914
20 22 100 31 1
21 23 100 31 0.2
22 23 100 31 0.2
23 23 100 31 0.2
24 23 100 31 0.2
25 23 100 31 0.2
26 24 100 31 1
13 25 100 31 0.475274
20 25 100 31 0.524726
9 26 100 31 1
27 27 100 31 1
8 28 100 31 0.137088
13 28 100 31 0.256634
20 28 100 31 0.606278
13 29 100 31 0.0525024
20 29 100 31 0.261184
28 29 100 31 0.686314
29 30 100 31 0.5
30 30 100 31 0.5
28 31 100 31 1
28 32 100 31 1
28 33 100 31 1
31 34 100 31 1
6 0 100 34 4.84071e-05
8 0 100 34 1.0368e-05
9 0 100 34 1.22075e-05
12 0 100 34 0.407958
14 0 100 34 0.418301
23 0 100 34 5.19129e-05
24 0 100 34 0.0255961
27 0 100 34 0.0466421
30 0 100 34 0.10138
4 1 100 34 0.368579
14 1 100 34 0.631421
5 2 100 34 1
1 3 100 34 0.333333
2 3 100 34 0.333334
3 3 100 34 0.333333
4 4 100 34 1
5 5 100 34 1
4 6 100 34 1
13 7 100 34 0.142857
15 7 100 34 0.142857
16 7 100 34 0.142857
17 7 100 34 0.142857
18 7 100 34 0.142857
19 7 100 34 0.142857
20 7 100 34 0.142857
30 8 100 34 1
15 9 100 34 1
12 10 100 34 0.960397
27 10 100 34 0.0396033
5 11 100 34 1
4 12 100 34 1
4 13 100 34 1
6 14 100 34 1
5 15 100 34 1
6 16 100 34 1
7 17 100 34 0.317871
21 17 100 34 0.341065
22 17 100 34 0.341065
28 18 100 34 1
7 19 100 34 1
5 20 100 34 1
5 21 100 34 1
8 22 100 34 0.999189
23 22 100 34 0.000810484
9 23 100 34 0.517506
24 23 100 34 0.482494
10 24 100 34 0.25
11 24 100 34 0.25
25 24 100 34 0.25
26 24 100 34 0.25
23 25 100 34 0.00629794
24 25 100 34 0.993702
8 26 100 34 0.000755139
23 26 100 34 0.999245
12 27 100 34 0.000900583
27 27 100 34 0.999099
28 28 100 34 1
28 29 100 34 0.504396
29 29 100 34 0.495604
29 30 100 34 1
5 31 100 34 1
30 32 100 34 1
30 33 100 34 1
31 34 100 34 0.333333
32 34 100 34 0.333333
33 34 100 34 0.333333
34 35 100 34 1
2 0 100 35 0.304195
7 0 100 35 0.0408802
19 0 100 35 0.304149
21 0 100 35 0.0470021
23 0 100 35 0.303774
2 1 100 35 0.355762
3 1 100 35 0.0967137
4 1 100 35 0.0704462
5 1 100 35 0.0740624
6 1 100 35 0.0955099
8 1 100 35 0.254203
9 1 100 35 0.0103809
10 1 100 35 0.0166153
13 1 100 35 0.0177186
14 1 100 35 0.00858798
19 2 100 35 1
1 3 100 35 0.166672
3 3 100 35 0.166672
4 3 100 35 0.166672
5 3 100 35 0.166672
6 3 100 35 0.166672
8 3 100 35 0.166638
8 4 100 35 1
7 5 100 35 0.999927
21 5 100 35 7.31725e-05
19 6 100 35 1
10 7 100 35 1
9 8 100 35 1
10 9 100 35 1
11 10 100 35 0.5
12 10 100 35 0.5
2 11 100 35 1
13 12 100 35 0.604928
14 12 100 35 0.395072
26 13 100 35 1
13 14 100 35 1
19 15 100 35 1
13 16 100 35 1
13 17 100 35 1
19 18 100 35 1
13 19 100 35 1
21 20 100 35 0.837816
23 20 100 35 0.162184
13 21 100 35 1
14 22 100 35 0.125
15 22 100 35 0.125
16 22 100 35 0.125
17 22 100 35 0.125
18 22 100 35 0.125
20 22 100 35 0.125
22 22 100 35 0.125
24 22 100 35 0.125
21 23 100 35 1
19 24 100 35 1
25 25 100 35 1
23 26 100 35 1
25 27 100 35 1
7 28 100 35 0.242154
21 28 100 35 0.757846
25 29 100 35 1
25 30 100 35 0.995853
26 30 100 35 0.00414666
35 31 100 35 1
25 32 100 35 1
19 33 100 35 1
19 34 100 35 1
26 35 100 35 1
25 36 100 35 1
13 37 100 35 1.80344e-05
14 37 100 35 3.39708e-05
22 37 100 35 1.25248e-05
23 37 100 35 0.98106
24 37 100 35 1.85707e-05
25 37 100 35 0.00616798
26 37 100 35 0.00554808
27 37 100 35 0.000854472
28 37 100 35 0.000793447
29 37 100 35 0.000741143
30 37 100 35 0.000685491
31 37 100 35 0.000626157
32 37 100 35 0.000564583
33 37 100 35 0.000531822
34 37 100 35 0.00234334
13 38 100 35 5.77377e-07
14 38 100 35 1.9377e-06
15 38 100 35 2.5276e-07
16 38 100 35 3.12733e-07
17 38 100 35 3.22365e-07
18 38 100 35 2.79674e-07
20 38 100 35 2.3287e-07
22 38 100 35 3.27108e-07
24 38 100 35 6.08852e-07
25 38 100 35 0.000516372
26 38 100 35 0.0112668
27 38 100 35 0.123506
28 38 100 35 0.123515
29 38 100 35 0.123523
30 38 100 35 0.123531
31 38 100 35 0.123539
32 38 100 35 0.123548
33 38 100 35 0.123557
34 38 100 35 0.123492
35 39 100 35 1
2 0 100 36 0.169432
4 0 100 36 0.00716527
7 0 100 36 0.0916164
11 0 100 36 1.65562e-06
13 0 100 36 0.0916158
18 0 100 36 0.0911516
20 0 100 36 0.182799
22 0 100 36 0.183233
25 0 100 36 0.091381
26 0 100 36 0.091604
2 1 100 36 1
1 2 100 36 0.5
3 2 100 36 0.5
1 3 100 36 0.144458
3 3 100 36 0.144458
4 3 100 36 0.277617
5 3 100 36 0.144458
6 3 100 36 0.144458
7 3 100 36 0.144458
20 3 100 36 9.41604e-05
5 4 100 36 1
2 5 100 36 1
6 6 100 36 1
8 7 100 36 1
5 8 100 36 0.00144299
14 8 100 36 0.981667
15 8 100 36 0.0162525
18 8 100 36 0.000637385
9 9 100 36 1
14 10 100 36 1
15 11 100 36 0.249651
16 11 100 36 0.249987
17 11 100 36 0.250052
18 11 100 36 0.250309
9 12 100 36 1
29 13 100 36 0.27176
30 13 100 36 0.501273
31 13 100 36 0.0226254
32 13 100 36 0.204341
19 14 100 36 1
16 15 100 36 0.907656
17 15 100 36 0.0923444
17 16 100 36 1
21 17 100 36 1
23 18 100 36 0.25
24 18 100 36 0.25
25 18 100 36 0.25
27 18 100 36 0.25
8 19 100 36 0.000815392
10 19 100 36 0.999108
11 19 100 36 7.64598e-05
9 20 100 36 0.651541
18 20 100 36 0.348459
11 21 100 36 0.999865
26 21 100 36 0.000135284
13 22 100 36 0.325475
14 22 100 36 0.325475
15 22 100 36 0.325475
29 22 100 36 0.0235737
21 23 100 36 0.00210248
28 23 100 36 0.517696
29 23 100 36 0.480201
11 24 100 36 0.00702716
12 24 100 36 0.992538
27 24 100 36 0.000435095
30 25 100 36 0.332643
31 25 100 36 0.333921
32 25 100 36 0.333436
9 26 100 36 0.973337
29 26 100 36 0.0266634
10 27 100 36 0.996063
18 27 100 36 0.00393659
21 28 100 36 0.000242097
24 28 100 36 0.999758
24 29 100 36 0.00426315
26 29 100 36 0.497978
27 29 100 36 0.497759
33 30 100 36 0.333333
34 30 100 36 0.333333
35 30 100 36 0.333333
11 31 100 36 0.499382
12 31 100 36 0.500618
20 32 100 36 0.00406939
36 32 100 36 0.995931
28 33 100 36 1
36 34 100 36 1
28 35 100 36 1
29 36 100 36 1
18 37 100 36 1
13 38 100 36 0.00138601
14 38 100 36 0.0666372
15 38 100 36 0.00735464
19 38 100 36 0.0304197
23 38 100 36 0.0603927
24 38 100 36 0.148616
26 38 100 36 0.00109365
28 38 100 36 0.0418671
29 38 100 36 0.00128135
30 38 100 36 0.531087
31 38 100 36 0.0255355
32 38 100 36 0.0177416
33 38 100 36 0.0137729
34 38 100 36 0.0119795
35 38 100 36 0.0408348
15 39 100 36 4.18858e-05
16 39 100 36 0.00186831
17 39 100 36 0.00155463
19 39 100 36 0.000595769
20 39 100 36 0.00119899
22 39 100 36 0.0442049
23 39 100 36 0.00205814
24 39 100 36 0.00249246
25 39 100 36 0.00207528
28 39 100 36 0.000831166
29 39 100 36 0.93166
30 39 100 36 0.010142
31 39 100 36 0.000275532
32 39 100 36 0.000199798
33 39 100 36 0.000159888
34 39 100 36 0.000140458
35 39 100 36 0.000500918
15 40 100 36 1.78387e-05
19 40 100 36 0.00134669
23 40 100 36 0.00302744
24 40 100 36 0.106417
25 40 100 36 0.866021
26 40 100 36 3.07612e-05
27 40 100 36 1.83436e-05
28 40 100 36 0.000470202
29 40 100 36 3.36146e-05
30 40 100 36 0.0146539
31 40 100 36 0.00149632
32 40 100 36 0.00113218
33 40 100 36 0.000970913
34 40 100 36 0.000957625
35 40 100 36 0.00340624
1 41 100 36 4.64804e-07
19 41 100 36 3.14754e-05
23 41 100 36 8.54362e-05
24 41 100 36 0.000150003
26 41 100 36 3.49639e-07
27 41 100 36 3.26749e-07
28 41 100 36 4.50421e-06
29 41 100 36 2.68563e-06
30 41 100 36 0.165483
31 41 100 36 0.166866
32 41 100 36 0.166887
33 41 100 36 0.166897
34 41 100 36 0.166897
35 41 100 36 0.166694
17 42 100 36 9.78434e-06
18 42 100 36 2.06523e-05
19 42 100 36 0.332551
20 42 100 36 2.9078e-06
21 42 100 36 0.333222
22 42 100 36 8.39814e-05
23 42 100 36 0.332459
24 42 100 36 0.00106112
28 42 100 36 5.16674e-06
29 42 100 36 3.7353e-07
30 42 100 36 0.000140839
31 42 100 36 3.40777e-05
32 42 100 36 2.76665e-05
33 42 100 36 2.5881e-05
34 42 100 36 3.17908e-05
35 42 100 36 0.00032318
18 43 100 36 2.91783e-06
20 43 100 36 1.02479e-06
36 43 100 36 0.999996
3 0 100 38 0.0604501
4 0 100 38 0.119463
9 0 100 38 0.0614713
10 0 100 38 0.0604501
11 0 100 38 0.0604501
14 0 100 38 0.0603086
15 0 100 38 0.0602745
19 0 100 38 0.0517523
21 0 100 38 0.0604308
23 0 100 38 0.0604501
24 0 100 38 0.11202
26 0 100 38 0.0510702
27 0 100 38 0.0604666
29 0 100 38 0.000132612
30 0 100 38 0.0603592
34 0 100 38 0.0604501
2 1 100 38 0.499952
13 1 100 38 0.499951
30 1 100 38 9.71476e-05
1 2 100 38 0.142857
21 2 100 38 0.142857
22 2 100 38 0.142857
23 2 100 38 0.142857
27 2 100 38 0.142857
28 2 100 38 0.142857
29 2 100 38 0.142857
10 3 100 38 0.25
12 3 100 38 0.25
14 3 100 38 0.25
16 3 100 38 0.25
5 4 100 38 0.5
6 4 100 38 0.5
8 5 100 38 0.522687
29 5 100 38 0.477272
30 5 100 38 4.03698e-05
4 6 100 38 0.49999
18 6 100 38 0.50001
16 7 100 38 0.200595
17 7 100 38 0.200595
19 7 100 38 0.398214
20 7 100 38 0.200595
5 8 100 38 0.196654
6 8 100 38 0.196654
7 8 100 38 0.196654
17 8 100 38 0.196654
18 8 100 38 0.196654
29 8 100 38 0.0167148
30 8 100 38 1.51885e-05
2 9 100 38 0.444051
15 9 100 38 0.444123
20 9 100 38 0.111778
36 9 100 38 4.8772e-05
1 10 100 38 0.210601
3 10 100 38 0.210601
13 10 100 38 0.210601
20 10 100 38 0.368197
4 11 100 38 0.00267635
15 11 100 38 0.00210474
19 11 100 38 0.116594
22 11 100 38 0.762016
26 11 100 38 0.116594
33 11 100 38 1.34117e-05
9 12 100 38 0.57968
14 12 100 38 0.00660123
24 12 100 38 0.413719
24 13 100 38 0.333333
25 13 100 38 0.666667
26 14 100 38 1
21 15 100 38 0.988664
28 15 100 38 0.0113357
22 16 100 38 0.541477
28 16 100 38 0.458523
12 17 100 38 0.97062
21 17 100 38 0.0293797
2 18 100 38 0.000152828
11 18 100 38 0.999798
36 18 100 38 4.89049e-05
31 19 100 38 1
23 20 100 38 0.0556518
30 20 100 38 0.944323
38 20 100 38 2.55296e-05
22 21 100 38 0.00538989
23 21 100 38 0.482159
24 21 100 38 9.70998e-05
31 21 100 38 0.512354
27 22 100 38 0.333273
32 22 100 38 0.666727
26 23 100 38 0.00829523
30 23 100 38 0.000168788
34 23 100 38 0.991536
1 24 100 38 2.39285e-05
25 24 100 38 0.503206
26 24 100 38 0.49677
9 25 100 38 0.437302
15 25 100 38 7.99831e-05
33 25 100 38 0.562618
7 26 100 38 0.333333
8 26 100 38 0.333333
10 26 100 38 0.333333
28 27 100 38 1
29 28 100 38 1
25 29 100 38 0.0105968
26 29 100 38 0.00935442
33 29 100 38 0.980049
1 30 100 38 0.249978
2 30 100 38 0.24999
9 30 100 38 6.5101e-05
32 30 100 38 0.24999
33 30 100 38 0.249976
30 31 100 38 0.25
31 31 100 38 0.25
35 31 100 38 0.5
3 32 100 38 0.124855
5 32 100 38 0.124855
6 32 100 38 0.124855
7 32 100 38 0.124855
8 32 100 38 0.124855
9 32 100 38 0.124855
29 32 100 38 0.00115681
36 32 100 38 0.124855
37 32 100 38 0.124855
4 33 100 38 0.00999115
19 33 100 38 0.00281572
26 33 100 38 0.00106444
36 33 100 38 0.493025
38 33 100 38 0.493104
11 34 100 38 0.125001
12 34 100 38 0.125001
13 34 100 38 0.125001
14 34 100 38 0.125001
15 34 100 38 0.125001
16 34 100 38 0.125001
17 34 100 38 0.125001
18 34 100 38 0.124996
38 35 100 38 1
30 36 100 38 0.000983203
37 36 100 38 0.999017
38 37 100 38 1
32 38 100 38 1
34 39 100 38 1
4 40 100 38 0.000447039
10 40 100 38 0.000866954
19 40 100 38 0.00896757
35 40 100 38 0.00072078
38 40 100 38 0.988998
2 41 100 38 1.28893e-06
3 41 100 38 4.02505e-06
5 41 100 38 3.08454e-06
6 41 100 38 4.20527e-06
7 41 100 38 4.74805e-06
8 41 100 38 5.03457e-06
9 41 100 38 2.67059e-05
11 41 100 38 2.35343e-05
12 41 100 38 7.95279e-06
13 41 100 38 7.08388e-06
14 41 100 38 6.59173e-06
15 41 100 38 6.25155e-06
16 41 100 38 5.91927e-06
17 41 100 38 5.50118e-06
18 41 100 38 4.33878e-05
20 41 100 38 2.69072e-05
33 41 100 38 6.70539e-07
34 41 100 38 0.000981333
35 41 100 38 0.32904
36 41 100 38 0.33495
37 41 100 38 0.334845
38 42 100 38 1
2 0 100 42 0.008507
5 0 100 42 0.159381
11 0 100 42 0.1596
15 0 100 42 2.47869e-06
16 0 100 42 7.90202e-05
21 0 100 42 0.159795
24 0 100 42 2.92797e-06
30 0 100 42 0.160192
31 0 100 42 0.0323175
37 0 100 42 0.160276
39 0 100 42 0.159848
1 1 100 42 0.2
34 1 100 42 0.2
35 1 100 42 0.2
36 1 100 42 0.2
38 1 100 42 0.2
31 2 100 42 0.0315854
32 2 100 42 0.968415
39 3 100 42 1
30 4 100 42 0.00270263
33 4 100 42 0.997297
33 5 100 42 1
2 6 100 42 1
3 7 100 42 1
16 8 100 42 1
4 9 100 42 1
17 10 100 42 1
5 11 100 42 0.302825
11 11 100 42 0.0174573
21 11 100 42 0.132265
30 11 100 42 0.0103969
39 11 100 42 0.537056
5 12 100 42 0.654129
11 12 100 42 0.0377093
21 12 100 42 0.285704
30 12 100 42 0.0224581
23 13 100 42 1
15 14 100 42 0.00120139
24 14 100 42 0.998799
17 15 100 42 1
17 16 100 42 1
22 17 100 42 1
18 18 100 42 0.5
19 18 100 42 0.5
20 19 100 42 0.333333
25 19 100 42 0.333333
26 19 100 42 0.333333
6 20 100 42 1
5 21 100 42 0.00947545
11 21 100 42 0.385918
21 21 100 42 0.499823
30 21 100 42 0.104783
16 22 100 42 0.0100177
23 22 100 42 0.898957
31 22 100 42 0.0910249
15 23 100 42 0.998204
16 23 100 42 0.000170987
24 23 100 42 0.00162503
14 24 100 42 1
13 25 100 42 1
14 26 100 42 1
5 27 100 42 0.0313898
11 27 100 42 0.933572
21 27 100 42 0.0257876
30 27 100 42 0.00925051
12 28 100 42 1
6 29 100 42 1
7 30 100 42 0.972101
31 30 100 42 0.0278992
32 31 100 42 1
32 32 100 42 1
5 33 100 42 0.599864
11 33 100 42 0.400136
32 34 100 42 1
8 35 100 42 0.267772
28 35 100 42 0.267772
29 35 100 42 0.267773
31 35 100 42 0.196682
9 36 100 42 0.5
10 36 100 42 0.5
11 37 100 42 1
27 38 100 42 1
40 39 100 42 0.5
41 39 100 42 0.5
42 40 100 42 1
