2 0.506283 0.315999 0.0888595 0 0.0222146 4.67572e-06 0.02221 0 0.044429 0 
3 0.478324 0.29363 0.140133 0 0.0527473 0 0.0175825 0 0.0175825 0 
4 0.498253 0.288536 0.117292 0 0.0632653 0 0.0163266 0 0.0163266 0 
5 0.176941 0.668106 0.0601587 0.0315364 0 0.0316284 0 0.0316254 3.04133e-06 0 
6 0.631265 0.0348108 0.0887522 0.215513 0.0296583 0 0 0 0 0 
7 0.478324 0.29363 0.140133 0 0.0527473 0 0.0175825 0 0.0175825 0 
8 0.245906 0.631016 0 0.0307693 0 0 0.0923077 0 0 0 
9 0.257192 0.621596 0 0.0303031 0 0 0.0909091 0 0 0 
10 0.480532 0.504979 0.0144889 0 0 0 0 0 0 0 
11 0.92933 0.0226722 0.026587 0.00535734 0 0.0107024 0 1.94778e-07 0.005351 0 
12 0.875678 0.0394022 0.0470386 0.00947837 0 0.0189349 0 3.44608e-07 0.00946716 0 
13 0.275992 0.441772 0.216594 0.0218804 0.0218804 0 0 0.0218804 0 0 
14 0.50251 0.314304 0.0915936 0 0.0228981 4.81959e-06 0.0228934 0 0.0457961 0 
15 0.897517 0.0326121 0.0387026 0.00779866 0 0.0155794 0 2.83538e-07 0.00778943 0 
16 0.279179 0.438651 0.216528 0.0218804 0.0218804 0 0 0.0218804 0 0 
17 0.675407 0.306676 0.0179173 0 0 0 0 0 0 0 
18 0.597063 0.16299 0 0.124113 0.0985585 0 0.017274 0 0 0 
19 0.185881 0.661642 0.0505027 0.0339255 0 0.0340245 0 0.0340213 3.27173e-06 0 
20 0.290724 0.694271 0.0150052 0 0 0 0 0 0 0 
21 0.490563 0.32625 0.0915936 0 0.0228981 4.81959e-06 0.0228934 0 0.0457961 0 
22 0.597063 0.16299 0 0.139402 0.0832699 0 0.017274 0 0 0 
23 0.681312 0.299472 0.0192156 0 0 0 0 0 0 0 
24 0.676088 0.304414 0.0194982 0 0 0 0 0 0 0 
25 0.478325 0.309014 0.124748 0 0.0527473 0 0.0175825 0 0.0175825 0 
26 0.736372 0.249057 0.0145713 0 0 0 0 0 0 0 
27 0.498536 0.321053 0.0902069 0 0.0225512 4.74657e-06 0.0225465 0 0.0451022 0 
28 0.174256 0.67092 0.0512797 0.0344474 0 0.034548 0 0.0345447 3.32207e-06 0 
29 0.646607 0.0348528 0.0887522 0.200129 0.0296583 0 0 0 0 0 
30 0.612203 0.163235 0 0.124113 0.0831739 0 0.017274 0 0 0 
31 0.174256 0.67092 0.0512797 0.0344474 0 0.034548 0 0.0345447 3.32207e-06 0 
32 0.675249 0.308178 0.0165737 0 0 0 0 0 0 0 
33 0.67677 0.303731 0.0194983 0 0 0 0 0 0 0 
34 0.189077 0.6561 0.0512797 0.0344474 0 0.034548 0 0.0345447 3.32207e-06 0 
35 0.672914 0.293033 0.0340525 0 0 0 0 0 0 0 
36 0.631265 0.0348108 0.0887753 0.215119 0.0300297 0 0 0 0 0 
37 0.0073635 0.649046 0 0.234153 0.109436 0 0 0 0 0 
38 0.877732 0.0386355 0.0463259 0.00933476 0 0.018648 0 3.39386e-07 0.00932372 0 
39 0.882081 0.0379225 0.0443117 0.0089289 0 0.0178373 0 3.2463e-07 0.00891834 0 
40 0.00826392 0.66353 0 0.218773 0.109432 0 0 0 0 0 
41 0.681463 0.298448 0.0200891 0 0 0 0 0 0 0 
42 0.613164 0.175292 0 0.116918 0.0783522 0 0.0162726 0 0 0 
43 0.61821 0.160631 0 0.122233 0.0819137 0 0.0170123 0 0 0 
44 0.490467 0.310962 0.106978 0 0.0228981 4.81959e-06 0.0228934 0 0.0457961 0 
45 0.490555 0.326259 0.0915937 0 0.0228981 4.81959e-06 0.0228934 0 0.0457961 0 
46 0.597063 0.16299 0 0.124114 0.0985585 0 0.017274 0 0 0 
47 0.862615 0.053752 0.046326 0.00933476 0 0.018648 0 3.39386e-07 0.00932372 0 
48 0.245835 0.631087 0 0.0307693 0 0 0.0923077 0 0 0 
49 0.245836 0.631087 0 0.0307693 0 0 0.0923077 0 0 0 
50 0.87509 0.0399904 0.0470386 0.00947837 0 0.0189349 0 3.44608e-07 0.00946716 0 
51 0 0 0 0.999999 0 0 0 0 0 0 
52 0.490472 0.326341 0.0915936 0 0.0228981 4.81959e-06 0.0228934 0 0.0457961 0 
53 0.860466 0.0392298 0.0470386 0.00947837 0 0.0343195 0 3.44608e-07 0.00946716 0 
54 0.65995 0.0355638 0.0848366 0.191299 0.0283499 0 0 0 0 0 
55 0.505517 0.311297 0.0915936 0 0.0228981 4.81959e-06 0.0228934 0 0.0457961 0 
56 0.646626 0.0348339 0.0887522 0.200129 0.0296583 0 0 0 0 0 
57 0.63837 0.156045 0 0.113625 0.0761451 0 0.0158142 0 0 0 
58 0.628925 0.156421 0 0.118638 0.0795045 0 0.0165119 0 0 0 
59 0.290522 0.427308 0.216528 0.0218804 0.0218804 0 0 0.0218804 0 0 
60 0.260117 0.616805 0 0.0307693 0 0 0.0923077 0 0 0 
61 0.493778 0.299909 0.121025 0 0.0511727 0 0.0170576 0 0.0170576 0 
62 0.505517 0.311297 0.0915936 0 0.0228981 4.81959e-06 0.0228934 0 0.0457961 0 
63 0.866312 0.0525151 0.0449634 0.00906021 0 0.0180996 0 3.29404e-07 0.00904949 0 
64 0.631265 0.0348108 0.104137 0.200129 0.0296583 0 0 0 0 0 
65 0.00725193 0.654364 0 0.23061 0.107774 0 0 0 0 0 
66 0.480754 0.306585 0.124748 0 0.0527473 0 0.0175825 0 0.0175825 0 
67 0.6905 0.290002 0.0194982 0 0 0 0 0 0 0 
68 0.508135 0.285552 0.121025 0 0.0511727 0 0.0170576 0 0.0170576 0 
69 0.478324 0.29363 0.140133 0 0.0527473 0 0.0175825 0 0.0175825 0 
70 0.875582 0.0394985 0.0470386 0.00947837 0 0.0189349 0 3.44608e-07 0.00946716 0 
71 0.478917 0.308422 0.124748 0 0.0527473 0 0.0175825 0 0.0175825 0 
72 0.612448 0.16299 0 0.124113 0.0831739 0 0.017274 0 0 0 
73 0.174256 0.655536 0.0512797 0.0344474 0 0.034548 0 0.0499293 3.32207e-06 0 
74 0.245835 0.615703 0 0.0307693 0 0 0.107692 0 0 0 
75 0.291155 0.426675 0.216528 0.0218804 0.0218804 0 0 0.0218804 0 0 
76 0.261219 0.615703 0 0.0307693 0 0 0.0923077 0 0 0 
77 0.50198 0.314834 0.0915936 0 0.0228981 4.81959e-06 0.0228934 0 0.0457961 0 
78 0.494339 0.322475 0.0915936 0 0.0228981 4.81959e-06 0.0228934 0 0.0457961 0 
79 0.676521 0.303081 0.0203981 0 0 0 0 0 0 0 
80 0.864631 0.0380588 0.0456345 0.00919543 0 0.0183697 0 8.39346e-07 0.0241094 0 
81 0.603168 0.160521 0 0.137384 0.0819137 0 0.0170123 0 0 0 
82 0.803073 3.03382e-06 0 0 0 0.196923 0 0 0 0 
83 0.291155 0.426675 0.216528 0.0218804 0.0218804 0 0 0.0218804 0 0 
84 0.174256 0.67092 0.0512797 0.0344474 0 0.034548 0 0.0345447 3.32207e-06 0 
85 0.86258 0.0537876 0.0463259 0.00933476 0 0.018648 0 3.39386e-07 0.00932372 0 
86 0.486565 0.303996 0.122858 0 0.0519481 0 0.0173161 0 0.0173161 0 
87 0.275771 0.44206 0.216528 0.0218804 0.0218804 0 0 0.0218804 0 0 
88 0.875851 0.0392298 0.0470386 0.00947837 0 0.0189349 0 3.44608e-07 0.00946716 0 
89 0.646649 0.0348108 0.0887522 0.200129 0.0296583 0 0 0 0 0 
90 0.286406 0.420549 0.228398 0.0215488 0.0215489 0 0 0.0215489 0 0 
91 0.612448 0.16299 0 0.124113 0.0831739 0 0.017274 0 0 0 
92 0.597063 0.16299 0 0.124113 0.0831739 0 0.0326586 0 0 0 
93 0.646649 0.0348108 0.0887522 0.200129 0.0296583 0 0 0 0 0 
94 0.505852 0.310962 0.0915936 0 0.0228981 4.81959e-06 0.0228934 0 0.0457961 0 
95 0.0073635 0.664431 0 0.218773 0.109432 0 0 0 0 0 
96 0.631265 0.0348108 0.0887522 0.215513 0.0296583 0 0 0 0 0 
97 0.636852 0.03429 0.102423 0.197226 0.029209 0 0 0 0 0 
98 0.490467 0.310962 0.0915936 0 0.0228981 8.00134e-06 0.0382748 0 0.0457961 0 
99 0.261216 0.615706 0 0.0307693 0 0 0.0923077 0 0 0 
100 0.50345 0.313364 0.0915936 0 0.0228981 4.81959e-06 0.0228934 0 0.0457961 0 
101 0.24211 0.636677 0 0.0303031 0 0 0.0909091 0 0 0 
102 0.862868 0.0522128 0.0470386 0.00947837 0 0.0189349 0 3.44608e-07 0.00946716 0 
103 0.490467 0.310962 0.106978 0 0.0228981 4.81959e-06 0.0228934 0 0.0457961 0 
104 0.382542 0.599129 0.0183296 0 0 0 0 0 0 0 
105 0.646611 0.0348493 0.0887522 0.200129 0.0296583 0 0 0 0 0 
106 0.505293 0.311521 0.0915936 0 0.0228981 4.81959e-06 0.0228934 0 0.0457961 0 
107 0.715589 0.266494 0.0179173 0 0 0 0 0 0 0 
108 0.177006 0.66817 0.0512797 0.0344474 0 0.034548 0 0.0345447 3.32207e-06 0 
109 0.259377 0.617546 0 0.0307693 0 0 0.0923077 0 0 0 
110 0.490467 0.310962 0.0915936 0 0.0228981 4.81959e-06 0.0228934 0 0.0611807 0 
111 0.248475 0.628448 0 0.0307693 0 0 0.0923077 0 0 0 
112 0.492947 0.294392 0.124748 0 0.0527473 0 0.0175825 0 0.0175825 0 
113 0.492947 0.294392 0.124748 0 0.0527473 0 0.0175825 0 0.0175825 0 
114 0.50496 0.311854 0.0915936 0 0.0228981 4.81959e-06 0.0228934 0 0.0457961 0 
115 0.646588 0.0348721 0.0887522 0.200129 0.0296583 0 0 0 0 0 
116 0.245839 0.631084 0 0.0307693 0 0 0.0923077 0 0 0 
117 0.189475 0.655702 0.0512797 0.0344474 0 0.034548 0 0.0345447 3.32207e-06 0 
118 0.478324 0.29363 0.124748 0 0.0527473 0 0.0175825 0 0.0329671 0 
119 0.253422 0.627174 0 0.0298508 0 0 0.0895522 0 0 0 
120 0.597063 0.16299 0 0.138326 0.0843455 0 0.017274 0 0 0 
121 0.691905 0.287697 0.0203981 0 0 0 0 0 0 0 
122 0.25343 0.627166 0 0.0298508 0 0 0.0895522 0 0 0 
123 0.288209 0.429622 0.216528 0.0218804 0.0218804 0 0 0.0218804 0 0 
124 0.278717 0.439113 0.216528 0.0218804 0.0218804 0 0 0.0218804 0 0 
125 0.483036 0.321402 0.105357 0 0.0225512 4.74657e-06 0.0225465 0 0.0451022 0 
126 0.483152 0.30741 0.122858 0 0.0519481 0 0.0173161 0 0.0173161 0 
127 0.597063 0.16299 0 0.139498 0.0831741 0 0.017274 0 0 0 
128 0.248211 0.628712 0 0.0307693 0 0 0.0923077 0 0 0 
129 0.28878 0.429051 0.216528 0.0218804 0.0218804 0 0 0.0218804 0 0 
130 0.860466 0.0392298 0.0624232 0.00947837 0 0.0189349 0 3.44608e-07 0.00946716 0 
131 0.171616 0.675906 0.0505028 0.0339255 0 0.0340245 0 0.0340213 3.27173e-06 0 
132 0.611987 0.163451 0 0.124113 0.0831739 0 0.017274 0 0 0 
133 0.860466 0.0396902 0.0619628 0.00947838 0 0.0189349 0 3.44608e-07 0.00946716 0 
134 0.275771 0.426675 0.216528 0.0218804 0.037265 0 0 0.0218804 0 0 
135 0.86456 0.0381374 0.0605527 0.00919543 0 0.0183697 0 3.34321e-07 0.00918456 0 
136 0.291155 0.426675 0.216528 0.0218804 0.0218804 0 0 0.0218804 0 0 
137 0.646649 0.0348108 0.0887522 0.200129 0.0296583 0 0 0 0 0 
138 0.478324 0.29363 0.124748 0 0.0681319 0 0.0175825 0 0.0175825 0 
139 0.291148 0.426682 0.216528 0.0218804 0.0218804 0 0 0.0218804 0 0 
140 0.507897 0.314385 0.0888595 0 0.0222146 4.67572e-06 0.02221 0 0.044429 0 
141 0.486025 0.301314 0.124748 0 0.0527473 0 0.0175825 0 0.0175825 0 
142 0.486008 0.301331 0.124748 0 0.0527473 0 0.0175825 0 0.0175825 0 
143 0.787688 3.03382e-06 0 0 0 0.212308 0 0 0 0 
144 0.860466 0.0392298 0.0470387 0.0248629 0 0.0189349 0 3.44608e-07 0.00946716 0 
145 0.597063 0.16299 0 0.124113 0.0985585 0 0.017274 0 0 0 
146 0.245835 0.631087 0 0.0307693 0 0 0.0923077 0 0 0 
147 0.499054 0.28306 0.133852 0 0.0504202 0 0.0168068 0 0.0168068 0 
148 0.491251 0.296088 0.124748 0 0.0527473 0 0.0175825 0 0.0175825 0 
149 0.801679 0.00139751 0 0 0 0.196923 0 0 0 0 
150 0.646452 0.0350078 0.0887522 0.200129 0.0296583 0 0 0 0 0 
151 0.278965 0.438866 0.216528 0.0218804 0.0218804 0 0 0.0218804 0 0 
152 0.493837 0.29985 0.121025 0 0.0511727 0 0.0170576 0 0.0170576 0 
153 0.178615 0.675536 0.0483078 0.0324505 0 0.0325452 0 0.0325421 3.12948e-06 0 
154 0.259857 0.460806 0.2175 0.0206119 0.020612 0 0 0.020612 0 0 
155 0.490467 0.310962 0.0915936 0 0.0228981 4.81959e-06 0.0228934 0 0.0611807 0 
156 0.611909 0.163529 0 0.124113 0.0831739 0 0.017274 0 0 0 
157 0.611611 0.173735 0 0.118638 0.0795045 0 0.0165119 0 0 0 
158 0.610668 0.16477 0 0.124113 0.0831739 0 0.017274 0 0 0 
159 0.492247 0.324567 0.0915936 0 0.0228981 4.81959e-06 0.0228934 0 0.0457961 0 
160 0.879512 0.0381038 0.0456345 0.00919543 0 0.0183697 0 3.34321e-07 0.00918456 0 
161 0.699338 0.280873 0.0197892 0 0 0 0 0 0 0 
162 0.490467 0.310962 0.106978 0 0.0228981 4.81959e-06 0.0228934 0 0.0457961 0 
163 0.501022 0.318567 0.0902059 0 0.0225512 4.74657e-06 0.0225465 0 0.0451022 0 
164 0.501339 0.295382 0.119245 0 0.0504202 0 0.0168068 0 0.0168068 0 
165 0.478337 0.309002 0.124748 0 0.0527473 0 0.0175825 0 0.0175825 0 
166 0.504331 0.312483 0.0915936 0 0.0228981 4.81959e-06 0.0228934 0 0.0457961 0 
167 0.875633 0.0394474 0.0470386 0.00947837 0 0.0189349 0 3.44608e-07 0.00946716 0 
168 0.17575 0.669427 0.0512797 0.0344474 0 0.034548 0 0.0345447 3.32207e-06 0 
169 0.597063 0.16299 0 0.124143 0.0985288 0 0.017274 0 0 0 
170 0.186679 0.645692 0.0505909 0.0489888 0 0.0340245 0 0.0340213 3.27173e-06 0 
171 0.646645 0.0348148 0.0887522 0.200129 0.0296583 0 0 0 0 0 
172 0.801679 0.00139751 0 0 0 0.196923 0 0 0 0 
173 0.0073635 0.649046 0 0.218773 0.124817 0 0 0 0 0 
174 0.803073 3.03382e-06 0 0 0 0.196923 0 0 0 0 
175 0.199138 0.638304 0.0635817 0.0329277 0 0.0330238 0 0.0330207 3.17551e-06 0 
176 0.478542 0.308797 0.124748 0 0.0527473 0 0.0175825 0 0.0175825 0 
177 0.636848 0.034287 0.087469 0.212186 0.029209 0 0 0 0 0 
178 0.245835 0.615703 0 0.0461539 0 0 0.0923077 0 0 0 
179 0.245835 0.615703 0 0.0307693 0 0 0.107692 0 0 0 
180 0.245835 0.631087 0 0.0307693 0 0 0.0923077 0 0 0 
181 0.17606 0.669117 0.0512797 0.0344474 0 0.034548 0 0.0345447 3.32207e-06 0 
182 0.875851 0.0392298 0.0470386 0.00947837 0 0.0189349 0 3.44608e-07 0.00946716 0 
183 0.504049 0.312765 0.0915936 0 0.0228981 4.81959e-06 0.0228934 0 0.0457961 0 
184 0.282469 0.443784 0.210064 0.0212272 0.0212273 0 0 0.0212273 0 0 
185 0.171631 0.675659 0.0507355 0.0339255 0 0.0340245 0 0.0340213 3.27173e-06 0 
186 0.588187 0.175502 0 0.137384 0.0819137 0 0.0170123 0 0 0 
187 0.678897 0.301007 0.0200957 0 0 0 0 0 0 0 
188 0.612448 0.16299 0 0.124113 0.0831739 0 0.017274 0 0 0 
189 0.275902 0.441928 0.216528 0.0218804 0.0218804 0 0 0.0218804 0 0 
190 0.493674 0.293665 0.124748 0 0.0527473 0 0.0175825 0 0.0175825 0 
191 0.493574 0.293765 0.124748 0 0.0527473 0 0.0175825 0 0.0175825 0 
192 0.00749856 0.664296 0 0.218773 0.109432 0 0 0 0 0 
193 0.603168 0.175672 0 0.122233 0.0819137 0 0.0170123 0 0 0 
194 0.478324 0.29363 0.124748 0 0.0527473 0 0.0329671 0 0.0175825 0 
195 0.18398 0.650893 0.0646743 0.0334192 0 0.0335167 0 0.0335135 3.2229e-06 0 
196 0.631265 0.0348108 0.0887546 0.215511 0.0296583 0 0 0 0 0 
197 0.860466 0.0392299 0.0624054 0.00949614 0 0.0189349 0 3.44608e-07 0.00946716 0 
198 0.608703 0.173438 0 0.120409 0.0806911 0 0.0167584 0 0 0 
199 0.17428 0.670896 0.0512797 0.0344474 0 0.034548 0 0.0345447 3.32207e-06 0 
200 0.681419 0.297997 0.0205833 0 0 0 0 0 0 0 
201 0.174256 0.655536 0.0512797 0.049832 0 0.034548 0 0.0345447 3.32207e-06 0 
202 0.490676 0.296663 0.124748 0 0.0527473 0 0.0175825 0 0.0175825 0 
203 0.278804 0.439027 0.216528 0.0218804 0.0218804 0 0 0.0218804 0 0 
204 0.803073 3.16044e-06 0 0 0 0.196923 0 0 0 0 
205 0.786294 0.00139751 0 0 0 0.212308 0 0 0 0 
206 0.174256 0.67092 0.0512797 0.0344474 0 0.034548 0 0.0345447 3.32207e-06 0 
207 0.490467 0.326347 0.0915937 0 0.0228981 4.81959e-06 0.0228934 0 0.0457961 0 
208 0.631265 0.0348108 0.104137 0.200129 0.0296583 0 0 0 0 0 
209 0.171616 0.675906 0.0505028 0.0339255 0 0.0340245 0 0.0340213 3.27173e-06 0 
210 0.597063 0.178375 0 0.124113 0.0831739 0 0.017274 0 0 0 
211 0.275771 0.426675 0.231913 0.0218804 0.0218804 0 0 0.0218804 0 0 
212 0.174256 0.67092 0.0512797 0.0344474 0 0.034548 0 0.0345447 3.32207e-06 0 
213 0.631265 0.0348108 0.0887522 0.200129 0.0450429 0 0 0 0 0 
214 0.245835 0.631087 0 0.0307693 0 0 0.0923077 0 0 0 
215 0.174256 0.67092 0.0512797 0.0344474 0 0.034548 0 0.0345447 3.32207e-06 0 
216 0.174256 0.67092 0.0512797 0.0344474 0 0.034548 0 0.0345447 3.32207e-06 0 
217 0.471077 0.289181 0.153161 0 0.0519481 0 0.0173161 0 0.0173161 0 
218 0.617115 0.161726 0 0.122233 0.0819137 0 0.0170123 0 0 0 
219 0.278265 0.439566 0.216528 0.0218804 0.0218804 0 0 0.0218804 0 0 
220 0.676521 0.303081 0.0203981 0 0 0 0 0 0 0 
221 0.0073635 0.664431 0 0.218773 0.109432 0 0 0 0 0 
222 0.375299 0.60531 0.0193913 0 0 0 0 0 0 0 
223 0.597063 0.16299 0 0.139498 0.0831739 0 0.017274 0 0 0 
224 0.503529 0.313285 0.0915936 0 0.0228981 4.81959e-06 0.0228934 0 0.0457961 0 
225 0.174256 0.67092 0.0512797 0.0344474 0 0.034548 0 0.0345447 3.32207e-06 0 
226 0.174256 0.67092 0.0512797 0.0344474 0 0.034548 0 0.0345447 3.32207e-06 0 
227 0.375299 0.589926 0.0347759 0 0 0 0 0 0 0 
228 0.275771 0.426675 0.231913 0.0218804 0.0218804 0 0 0.0218804 0 0 
229 0.803073 3.13641e-06 0 0 0 0.196923 0 0 0 0 
230 0.637051 0.0492353 0.0874074 0.197096 0.029209 0 0 0 0 0 
231 0.64645 0.0350104 0.0887522 0.200129 0.0296583 0 0 0 0 0 
232 0.490467 0.326347 0.0915936 0 0.0228981 4.81959e-06 0.0228934 0 0.0457961 0 
233 0.275771 0.44206 0.216528 0.0218804 0.0218804 0 0 0.0218804 0 0 
234 0.174256 0.655536 0.0512797 0.0344474 0 0.034548 0 0.0499264 6.22249e-06 0 
235 0.478971 0.314716 0.121025 0 0.0511727 0 0.0170576 0 0.0170576 0 
236 0.490467 0.310962 0.0915936 0 0.0382827 4.81959e-06 0.0228934 0 0.0457961 0 
237 0.490467 0.326346 0.0915936 0 0.0228981 4.81959e-06 0.0228934 0 0.0457961 0 
238 0.246063 0.630859 0 0.0307693 0 0 0.0923077 0 0 0 
239 0.174256 0.655536 0.0512797 0.0344474 0 0.0499326 0 0.0345447 3.32207e-06 0 
240 0 0 0 0.999999 0 0 0 0 0 0 
241 0.505638 0.311176 0.0915936 0 0.0228981 4.81959e-06 0.0228934 0 0.0457961 0 
242 0.597529 0.177909 0 0.124113 0.0831739 0 0.017274 0 0 0 
243 0.174418 0.670758 0.0512797 0.0344474 0 0.034548 0 0.0345447 3.32207e-06 0 
244 0.505386 0.311428 0.0915936 0 0.0228981 4.81959e-06 0.0228934 0 0.0457961 0 
245 0.286435 0.421038 0.227879 0.0215488 0.0215489 0 0 0.0215489 0 0 
246 0.275771 0.44206 0.216528 0.0218804 0.0218804 0 0 0.0218804 0 0 
247 0.275771 0.426676 0.231912 0.0218804 0.0218804 0 0 0.0218804 0 0 
248 0.631265 0.0348108 0.0887522 0.215513 0.0296583 0 0 0 0 0 
249 0.505852 0.310962 0.0915936 0 0.0228981 4.81959e-06 0.0228934 0 0.0457961 0 
250 0.275771 0.44206 0.216528 0.0218804 0.0218804 0 0 0.0218804 0 0 
251 0.478324 0.29363 0.124748 0 0.0681319 0 0.0175825 0 0.0175825 0 
252 0.275771 0.426966 0.231622 0.0218804 0.0218804 0 0 0.0218804 0 0 
253 0.174256 0.67092 0.0512797 0.0344474 0 0.034548 0 0.0345447 3.32207e-06 0 
254 0.801571 0.00150475 0 0 0 0.196923 0 0 0 0 
255 0.646649 0.0348108 0.0887522 0.200129 0.0296583 0 0 0 0 0 
256 0.174256 0.67092 0.0512797 0.0344474 0 0.034548 0 0.0345447 3.32207e-06 0 
257 0.174256 0.670629 0.0515706 0.0344474 0 0.034548 0 0.0345447 3.32207e-06 0 
258 0.275771 0.426675 0.231913 0.0218804 0.0218804 0 0 0.0218804 0 0 
259 0.275771 0.426675 0.216528 0.0372649 0.0218804 0 0 0.0218804 0 0 
260 0.612201 0.163237 0 0.124113 0.0831739 0 0.017274 0 0 0 
261 0.176016 0.669161 0.0512797 0.0344474 0 0.034548 0 0.0345447 3.32207e-06 0 
262 0.275771 0.426675 0.216528 0.0218804 0.0218804 0 0 0.037265 0 0 
263 0.289867 0.427964 0.216528 0.0218804 0.0218804 0 0 0.0218804 0 0 
264 0.612224 0.163215 0 0.124113 0.0831739 0 0.017274 0 0 0 
265 0.631265 0.0348108 0.0897984 0.214467 0.0296583 0 0 0 0 0 
266 0.290109 0.427721 0.216528 0.0218804 0.0218804 0 0 0.0218804 0 0 
267 0.245838 0.631084 0 0.0307693 0 0 0.0923077 0 0 0 
268 0.275771 0.426945 0.231643 0.0218804 0.0218804 0 0 0.0218804 0 0 
269 0.646381 0.0350796 0.0887522 0.200129 0.0296583 0 0 0 0 0 
270 0 0 0 0.999999 0 0 0 0 0 0 
271 0.275771 0.426675 0.231913 0.0218804 0.0218804 0 0 0.0218804 0 0 
272 0.480864 0.306475 0.124748 0 0.0527473 0 0.0175825 0 0.0175825 0 
273 0.491169 0.29617 0.124748 0 0.0527473 0 0.0175825 0 0.0175825 0 
274 0.174256 0.655536 0.0512797 0.0344474 0 0.0499326 0 0.0345447 3.32207e-06 0 
275 0.599831 0.175607 0 0.124113 0.0831739 0 0.017274 0 0 0 
276 0.504508 0.312306 0.0915936 0 0.0228981 4.81959e-06 0.0228934 0 0.0457961 0 
277 0.504346 0.312468 0.0915936 0 0.0228981 4.81959e-06 0.0228934 0 0.0457961 0 
278 0.278497 0.439324 0.216538 0.0218804 0.0218804 0 0 0.0218804 0 0 
279 0.646578 0.0348819 0.0887522 0.200129 0.0296583 0 0 0 0 0 
280 0.174257 0.670919 0.0512797 0.0344474 0 0.034548 0 0.0345447 3.32207e-06 0 
281 0.646648 0.0348119 0.0887522 0.200129 0.0296583 0 0 0 0 0 
282 0.245835 0.615703 0 0.0307693 0 0 0.107692 0 0 0 
283 0.860466 0.0392298 0.0470386 0.00947837 0 0.0343195 0 3.44608e-07 0.00946716 0 
284 0.479368 0.307971 0.124748 0 0.0527473 0 0.0175825 0 0.0175825 0 
285 0.174256 0.67092 0.0512797 0.0344474 0 0.034548 0 0.0345447 3.32207e-06 0 
286 0.611374 0.164064 0 0.124113 0.0831739 0 0.017274 0 0 0 
287 0.801677 0.00139945 0 0 0 0.196923 0 0 0 0 
288 0.24691 0.630012 0 0.0307693 0 0 0.0923077 0 0 0 
289 0.375299 0.60531 0.0193913 0 0 0 0 0 0 0 
290 0.67652 0.287697 0.0357827 0 0 0 0 0 0 0 
291 0.597063 0.16299 0 0.139498 0.0831739 0 0.017274 0 0 0 
292 0.177802 0.667375 0.0512797 0.0344474 0 0.034548 0 0.0345447 3.32207e-06 0 
293 0.0073635 0.664431 0 0.218773 0.109432 0 0 0 0 0 
294 0.257674 0.619248 0 0.0307693 0 0 0.0923077 0 0 0 
295 0.245835 0.631087 0 0.0307693 0 0 0.0923077 0 0 0 
296 0.275771 0.441618 0.216969 0.0218804 0.0218804 0 0 0.0218804 0 0 
297 0.646649 0.0348109 0.0887522 0.200129 0.0296583 0 0 0 0 0 
298 0.597063 0.16299 0 0.128198 0.0944741 0 0.017274 0 0 0 
299 0.860466 0.0392298 0.0624232 0.00947837 0 0.0189349 0 3.44608e-07 0.00946716 0 
300 0.275771 0.44206 0.216528 0.0218804 0.0218804 0 0 0.0218804 0 0 
301 0.478324 0.29363 0.140133 0 0.0527473 0 0.0175825 0 0.0175825 0 
