0 3 0.0980349
0 12 0.222291
0 13 0.000832145
0 22 0.186724
0 23 0.158615
0 43 5.54198e-07
0 53 4.93252e-05
0 62 0.0702781
0 99 0.258763
223 266 0.333321
223 267 0.333321
223 268 0.333321
0 140 0.000297181
49 43 0.999962
0 164 2.70517e-06
0 165 0.00088409
0 191 7.33551e-06
0 197 6.18854e-05
185 222 0.999962
272 349 0.999962
0 308 0.000213972
98 107 0.166666
98 108 0.166666
98 109 0.166666
98 110 0.166666
98 111 0.166666
98 112 0.166632
0 380 0.00290828
11 99 0.999962
234 288 0.142848
234 289 0.142875
234 291 0.142848
234 292 0.142848
234 293 0.142848
234 294 0.142848
234 295 0.142848
60 61 0.999962
147 192 0.999962
245 92 0.496477
283 362 0.199992
196 241 0.333338
196 242 0.333338
109 117 0.999962
196 243 0.333286
283 381 0.199992
283 382 0.199992
283 383 0.199992
283 384 0.199992
22 25 0.332629
22 26 0.332629
22 27 0.332629
22 28 0.00207482
71 56 0.999962
245 311 0.503485
158 193 0.999962
120 13 0.0247557
294 370 0.999962
207 259 0.999962
120 136 0.325069
120 138 0.325069
120 139 0.325069
33 24 0.999962
169 200 0.249709
169 201 0.250046
256 327 0.999962
169 202 0.250111
218 99 0.00629058
169 203 0.250095
218 222 0.85376
267 164 0.999962
131 153 0.999962
218 280 0.139911
44 40 0.499981
44 41 0.499981
180 220 0.999962
6 9 0.333321
6 10 0.333321
6 11 0.333321
142 170 0.999962
55 61 0.999962
278 233 0.000763194
240 96 0.333321
278 355 0.999199
191 234 0.999962
104 127 0.332949
17 13 0.50416
17 59 0.495802
104 191 0.665579
104 226 0.00143403
153 164 0.99926
240 297 0.333321
240 309 0.333321
66 61 0.999962
153 191 6.95879e-05
289 374 0.999962
115 126 0.999962
202 252 0.999962
153 380 0.000632304
28 30 0.999962
251 319 0.24999
251 320 0.24999
164 195 0.999962
251 321 0.24999
251 322 0.24999
77 91 0.999962
126 3 0.999962
300 377 0.999962
39 22 0.00200001
213 273 0.24999
213 274 0.249991
39 24 0.997962
213 276 0.249991
213 277 0.24999
262 195 0.142852
175 197 0.639698
175 198 0.360264
262 335 0.142852
262 336 0.142852
262 337 0.142852
262 338 0.142852
262 339 0.142852
262 340 0.142852
224 280 0.999962
50 49 0.999962
273 349 0.999962
186 225 0.250696
186 226 0.498569
186 227 0.250696
99 112 0.999962
235 138 0.999962
12 13 0.999962
61 22 0.999962
148 185 0.999962
284 222 0.999962
197 197 0.000577166
110 118 0.124995
110 119 0.124995
110 120 0.124995
197 246 0.499692
110 121 0.124995
197 247 0.499692
110 122 0.124995
110 123 0.124995
110 124 0.124995
110 125 0.124995
23 36 0.999962
246 312 0.999962
159 193 0.999962
295 368 0.999962
208 260 0.499981
208 261 0.499981
34 36 0.999962
257 324 0.981402
257 325 0.0185596
170 209 0.333321
170 210 0.333321
170 211 0.333321
268 101 0.504376
132 154 0.999962
219 280 0.999962
45 42 0.999962
268 343 0.495585
181 221 0.999962
7 2 0.49998
7 4 0.499982
143 156 0.199992
143 157 0.199992
143 158 0.199992
143 159 0.199992
143 160 0.199992
230 289 0.999962
56 61 0.999962
241 92 0.999962
279 355 0.999962
192 234 0.999962
105 117 0.999962
18 15 0.24999
18 17 0.249991
18 18 0.249991
18 19 0.24999
154 165 0.999933
67 59 0.999962
154 191 2.88591e-05
290 372 0.499981
290 373 0.499981
203 252 0.999962
116 127 0.999962
29 32 0.999962
165 174 0.999962
252 323 0.504754
252 325 0.495208
78 91 0.999962
301 326 0.499981
301 385 0.499981
127 137 4.53307e-06
40 16 0.999962
214 272 0.999962
127 147 0.333319
127 148 0.333319
127 149 0.333319
176 196 0.999962
263 333 0.999962
2 13 0.00921012
2 49 0.990752
225 283 0.999962
138 166 0.24999
138 167 0.24999
138 168 0.24999
138 169 0.24999
51 50 0.333321
51 51 0.333321
51 52 0.333321
187 224 0.856793
274 350 0.199992
274 351 0.199992
274 352 0.199992
274 353 0.199992
274 354 0.199992
187 233 0.143169
100 114 0.999962
13 13 0.995604
13 14 0.0043579
236 302 0.24999
236 303 0.24999
236 304 0.24999
236 305 0.24999
62 61 0.999962
198 140 0.999962
285 363 0.999962
111 126 0.999962
160 23 0.982007
24 104 0.999962
247 315 0.499994
247 316 0.499967
73 68 0.142852
73 69 0.142852
73 70 0.142852
73 71 0.142852
73 72 0.142852
73 73 0.142852
73 74 0.142852
160 316 0.0179552
296 364 0.972064
296 380 0.0278981
209 263 0.999962
35 13 0.649345
122 140 0.999962
35 32 0.350617
171 201 0.999962
258 328 0.499981
258 329 0.499981
84 100 0.999962
220 270 0.999962
133 154 0.492387
133 155 0.507575
46 44 0.24999
46 45 0.249991
46 46 0.249991
46 47 0.24999
269 343 0.999962
95 103 0.999962
8 5 0.999962
231 289 0.999962
144 171 0.33332
144 172 0.333321
144 173 0.333321
57 192 2.10937e-05
193 226 0.999962
280 356 0.999962
106 117 0.999962
57 222 0.999941
19 16 0.999962
291 76 0.333321
68 22 0.999962
155 177 0.124995
155 178 0.124995
155 179 0.124995
155 180 0.124995
155 181 0.124995
155 182 0.124995
155 183 0.124995
155 184 0.124995
242 310 0.999962
291 375 0.333321
291 376 0.333321
117 126 0.999962
30 21 0.0024748
30 24 0.997487
166 104 0.00144293
166 199 0.98163
166 200 0.0162518
253 326 0.999962
166 203 0.000637361
79 95 0.999962
215 271 0.999962
128 150 0.999962
41 53 0.999962
226 60 0.999962
90 75 0.50548
90 76 0.494482
177 204 0.33247
264 333 0.999962
177 229 0.333746
177 230 0.333746
3 6 0.499981
3 7 0.499981
139 164 0.999962
52 53 0.999962
275 233 0.999962
101 113 0.999962
14 14 0.999962
237 301 0.999962
63 56 0.999962
150 185 0.999962
286 371 0.999962
199 248 0.999962
112 126 0.999962
25 21 0.999962
161 62 0.987497
161 99 0.012465
248 313 0.333321
248 314 0.333321
248 317 0.33332
74 92 0.16666
74 93 0.16666
74 94 0.16666
74 96 0.16666
74 97 0.16666
74 98 0.16666
210 262 0.999962
123 144 0.999962
36 33 0.330825
36 34 0.338313
36 35 0.330825
259 330 0.333321
259 331 0.333321
259 332 0.33332
85 101 0.999962
134 101 0.24999
221 269 0.999962
134 161 0.249991
134 162 0.249991
134 163 0.249991
270 344 0.333321
270 345 0.333321
270 346 0.333321
183 221 0.999962
96 104 0.333321
96 105 0.333321
96 106 0.333321
47 223 0.999962
9 5 0.00460399
232 287 0.999962
145 186 0.24999
58 62 0.999962
145 187 0.249991
145 188 0.249991
145 189 0.24999
243 29 0.999962
9 282 0.995358
107 99 0.000132308
281 356 0.999962
194 235 0.16666
194 236 0.16666
194 237 0.16666
194 238 0.16666
194 239 0.16666
194 240 0.16666
107 117 0.999829
20 20 0.999962
69 54 0.499981
69 55 0.499981
156 185 0.999962
292 370 0.999962
205 253 0.199992
118 128 0.124995
205 254 0.199992
118 129 0.124995
205 255 0.199992
118 130 0.124995
205 256 0.199992
118 131 0.124995
205 257 0.199992
118 132 0.124995
118 133 0.124995
118 134 0.124995
118 135 0.124995
31 31 0.999962
254 226 0.999962
167 196 0.999962
80 83 0.124996
80 84 0.124996
80 85 0.124996
80 86 0.124996
80 87 0.124996
80 88 0.124996
80 89 0.124996
80 90 0.124992
129 150 0.999962
216 278 0.999962
265 334 0.317858
178 212 0.333321
178 213 0.333321
178 214 0.333321
265 341 0.341052
265 342 0.341052
42 222 0.999962
4 8 0.435556
227 158 0.499981
227 284 0.499981
53 63 0.199992
53 64 0.199992
53 65 0.199992
53 66 0.199992
140 192 0.999962
53 67 0.199992
4 228 0.564405
276 355 0.999962
189 231 0.999962
102 114 0.999962
15 20 0.999962
64 57 0.499981
238 308 0.999962
64 58 0.499981
151 185 0.999962
200 243 0.968382
287 371 0.999962
113 126 0.999962
26 24 0.999962
162 50 0.499981
200 380 0.0315796
162 194 0.499981
298 365 0.267762
298 378 0.267762
298 379 0.267762
298 380 0.196675
211 264 0.499981
211 265 0.499981
124 144 0.999962
37 34 9.31944e-05
37 37 0.33329
37 38 0.33329
37 39 0.33329
86 75 0.999962
173 205 0.249991
173 206 0.249991
173 207 0.249991
260 333 0.999962
173 208 0.24999
222 281 0.999962
184 53 0.999962
135 164 0.498922
135 165 0.50104
48 48 0.999962
271 347 0.499981
271 348 0.499981
10 12 0.999962
97 231 0.00426299
97 232 0.497959
97 233 0.49774
233 290 0.999962
59 61 0.999962
146 190 0.999962
282 224 0.16666
282 357 0.16666
282 358 0.16666
282 359 0.16666
282 360 0.16666
282 361 0.16666
108 117 0.999962
195 244 0.666642
195 245 0.33332
21 28 0.999962
157 174 0.820466
70 56 0.999962
244 310 0.999962
157 197 0.179496
293 369 0.999962
206 258 0.999962
119 137 0.999962
32 140 0.999962
168 199 0.999962
217 156 0.249991
81 141 0.333321
81 142 0.333321
81 143 0.333321
130 151 0.499981
130 152 0.499981
217 279 0.499981
43 42 0.78476
217 296 0.24999
179 75 0.16666
92 77 0.16666
92 78 0.16666
92 79 0.16666
92 80 0.16666
92 81 0.16666
92 82 0.16666
266 334 0.999962
179 215 0.16666
179 216 0.16666
179 217 0.16666
179 218 0.16666
179 219 0.16666
5 8 0.699008
43 248 0.215202
5 29 0.29998
228 285 0.499981
228 286 0.499981
141 170 0.999962
5 164 6.13374e-06
5 165 0.000967793
54 62 0.999962
277 233 0.12898
190 223 0.999962
277 355 0.870982
103 115 0.499981
103 116 0.499981
16 14 0.999962
239 298 0.199992
239 299 0.199992
152 174 0.000165229
239 300 0.199992
239 306 0.199992
239 307 0.199992
65 60 0.499981
152 204 0.999797
65 175 0.24999
65 176 0.24999
288 371 0.999962
201 249 0.333321
201 250 0.333321
201 251 0.333321
114 126 0.995815
114 127 0.0041465
27 34 0.999962
163 62 0.999962
250 318 0.999962
76 90 0.999962
299 366 0.499981
299 367 0.499981
125 145 0.666641
125 146 0.333321
212 275 0.999962
261 333 0.999962
87 102 0.999962
