1 1 16 100 1
0 2 16 100 0.0448746
2 2 16 100 0.955125
3 3 16 100 1
0 4 16 100 0.998124
2 4 16 100 0.00104668
10 4 16 100 0.000120988
12 4 16 100 0.000708003
4 5 16 100 1
6 6 16 100 1
7 7 16 100 1
8 8 16 100 1
9 9 16 100 1
0 10 16 100 0.0439492
10 10 16 100 0.956051
11 11 16 100 1
0 12 16 100 0.0969033
12 12 16 100 0.903097
14 13 16 100 1
13 14 16 100 1
15 15 16 100 1
16 16 16 100 1
1 1 20 100 1
2 2 20 100 0.190982
3 2 20 100 0.809018
4 3 20 100 1
5 4 20 100 1
0 5 20 100 0.999908
11 5 20 100 9.16042e-05
6 6 20 100 1
0 7 20 100 0.000222505
7 7 20 100 0.999767
15 7 20 100 1.06089e-05
8 8 20 100 1
0 9 20 100 0.00743161
9 9 20 100 0.992551
17 9 20 100 1.72829e-05
10 10 20 100 1
0 11 20 100 0.0470498
11 11 20 100 0.95295
12 12 20 100 0.999901
15 12 20 100 9.92176e-05
13 13 20 100 1
14 14 20 100 1
16 15 20 100 1
18 16 20 100 1
19 17 20 100 1
20 18 20 100 1
1 1 21 100 1
0 2 21 100 0.00355667
2 2 21 100 0.996443
3 3 21 100 1
4 4 21 100 1
0 5 21 100 0.601511
6 5 21 100 0.398489
0 6 21 100 0.99825
2 6 21 100 0.000211954
16 6 21 100 0.00153765
5 7 21 100 1
6 8 21 100 7.06027e-05
12 8 21 100 0.999864
13 8 21 100 6.51921e-05
7 9 21 100 1
8 10 21 100 1
9 11 21 100 1
10 12 21 100 1
0 13 21 100 0.000949336
11 13 21 100 0.999051
0 14 21 100 0.101868
10 14 21 100 0.898132
11 15 21 100 1
0 16 21 100 0.999657
15 16 21 100 0.000342952
0 17 21 100 0.997793
2 17 21 100 2.83076e-05
16 17 21 100 0.00217835
0 18 21 100 0.991563
14 18 21 100 0.00843719
13 19 21 100 1
14 20 21 100 1
17 21 21 100 1
18 22 21 100 1
20 23 21 100 1
21 24 21 100 1
1 1 22 100 1
0 2 22 100 0.0567558
2 2 22 100 0.943244
3 3 22 100 1
5 4 22 100 1
4 5 22 100 0.0010873
6 5 22 100 0.998913
7 6 22 100 1
0 7 22 100 0.114888
8 7 22 100 0.885112
0 8 22 100 0.0567558
9 8 22 100 0.943244
10 9 22 100 1
0 10 22 100 0.114888
11 10 22 100 0.885112
12 11 22 100 1
13 12 22 100 1
14 13 22 100 1
15 14 22 100 1
16 15 22 100 1
17 16 22 100 1
18 17 22 100 1
19 18 22 100 1
20 19 22 100 1
21 20 22 100 1
22 21 22 100 1
1 1 24 100 1
0 2 24 100 0.00301659
2 2 24 100 0.996983
3 3 24 100 1
0 4 24 100 0.00052858
4 4 24 100 0.999471
5 5 24 100 1
0 6 24 100 0.00489304
6 6 24 100 0.995107
0 7 24 100 0.976613
5 7 24 100 0.0233874
6 8 24 100 1
0 9 24 100 0.0188838
4 9 24 100 6.89374e-05
7 9 24 100 0.981047
0 10 24 100 0.971531
2 10 24 100 2.34071e-05
10 10 24 100 0.0284458
8 11 24 100 1
11 12 24 100 1
13 13 24 100 1
0 14 24 100 0.993668
2 14 24 100 1.37019e-05
10 14 24 100 0.00631874
14 15 24 100 1
15 16 24 100 1
17 17 24 100 1
0 18 24 100 0.985947
16 18 24 100 0.0140525
18 19 24 100 1
19 20 24 100 1
21 21 24 100 1
22 22 24 100 1
23 23 24 100 1
24 24 24 100 1
1 1 25 100 1
2 2 25 100 0.666667
3 2 25 100 0.333333
0 3 25 100 0.000125389
2 3 25 100 0.333229
3 3 25 100 0.437596
5 3 25 100 0.22905
0 4 25 100 0.0870322
4 4 25 100 0.571949
6 4 25 100 0.333334
8 4 25 100 0.00764088
9 4 25 100 4.36465e-05
0 5 25 100 0.0548023
4 5 25 100 0.27853
7 5 25 100 0.333334
12 5 25 100 0.333334
5 6 25 100 0.333333
8 6 25 100 0.333333
13 6 25 100 0.333333
0 7 25 100 0.664866
7 7 25 100 0.00175147
9 7 25 100 0.333334
19 7 25 100 4.83688e-05
0 8 25 100 0.333235
6 8 25 100 0.333333
11 8 25 100 0.333333
23 8 25 100 9.80279e-05
0 9 25 100 0.0107958
5 9 25 100 0.333333
10 9 25 100 0.333333
12 9 25 100 0.322538
0 10 25 100 0.331919
6 10 25 100 0.333334
7 10 25 100 0.00141286
13 10 25 100 0.333334
8 11 25 100 0.333333
11 11 25 100 0.333313
14 11 25 100 0.333333
18 11 25 100 1.98607e-05
0 12 25 100 9.50139e-06
9 12 25 100 0.333334
12 12 25 100 0.333322
15 12 25 100 0.333334
10 13 25 100 0.333333
13 13 25 100 0.333333
16 13 25 100 0.333333
0 14 25 100 0.335872
11 14 25 100 0.333333
12 14 25 100 2.10466e-05
14 14 25 100 0.330773
15 15 25 100 0.666667
17 15 25 100 0.332937
20 15 25 100 0.000396443
0 16 25 100 0.00532283
16 16 25 100 0.666667
18 16 25 100 0.32801
0 17 25 100 0.332431
7 17 25 100 0.000112923
17 17 25 100 0.333333
19 17 25 100 0.0138835
21 17 25 100 0.0417105
22 17 25 100 0.278529
0 18 25 100 0.313545
7 18 25 100 2.78749e-05
17 18 25 100 0.333333
18 18 25 100 0.0250837
23 18 25 100 0.32801
18 19 25 100 0.333333
19 19 25 100 0.333333
24 19 25 100 0.333333
20 20 25 100 0.333333
21 20 25 100 0.333333
25 20 25 100 0.333333
21 21 25 100 0.5
22 21 25 100 0.5
22 22 25 100 0.5
24 22 25 100 0.5
23 23 25 100 0.5
25 23 25 100 0.5
24 24 25 100 1
25 25 25 100 1
1 1 30 100 1
3 2 30 100 1
4 3 30 100 1
5 4 30 100 1
6 5 30 100 1
7 6 30 100 1
8 7 30 100 1
0 8 30 100 0.0071938
9 8 30 100 0.992806
10 9 30 100 1
12 10 30 100 1
13 11 30 100 1
14 12 30 100 1
0 13 30 100 0.0149442
15 13 30 100 0.985056
16 14 30 100 1
0 15 30 100 0.998589
2 15 30 100 3.88576e-05
15 15 30 100 0.00041071
18 15 30 100 0.000763611
22 15 30 100 9.90967e-05
25 15 30 100 9.90967e-05
0 16 30 100 0.999894
9 16 30 100 2.77682e-05
24 16 30 100 5.10859e-05
26 16 30 100 2.67908e-05
17 17 30 100 1
19 18 30 100 1
0 19 30 100 0.994913
2 19 30 100 3.90056e-05
15 19 30 100 2.67903e-05
18 19 30 100 0.00349361
22 19 30 100 0.000763611
25 19 30 100 0.000763611
20 20 30 100 1
21 21 30 100 0.596029
23 21 30 100 0.403971
0 22 30 100 0.00719311
24 22 30 100 0.156577
26 22 30 100 0.83623
27 23 30 100 1
0 24 30 100 1.37647e-05
29 24 30 100 0.999986
29 25 30 100 1
30 26 30 100 1
0 1 35 100 0.0152404
1 1 35 100 0.98476
2 2 35 100 1
3 3 35 100 1
4 4 35 100 1
0 5 35 100 0.999966
15 5 35 100 1.37034e-05
18 5 35 100 1.99462e-05
5 6 35 100 1
7 7 35 100 1
0 8 35 100 0.999957
15 8 35 100 2.97033e-05
18 8 35 100 1.37034e-05
0 9 35 100 0.999968
9 9 35 100 3.23064e-05
8 10 35 100 1
0 11 35 100 0.00489102
9 11 35 100 0.179991
10 11 35 100 0.815118
11 12 35 100 1
0 13 35 100 0.00521926
9 13 35 100 1.72856e-05
12 13 35 100 0.994763
13 14 35 100 1
14 15 35 100 1
0 16 35 100 0.0308662
15 16 35 100 0.969134
16 17 35 100 1
17 18 35 100 1
0 19 35 100 0.0308564
18 19 35 100 0.969144
19 20 35 100 1
0 21 35 100 0.999973
1 21 35 100 1.37405e-05
10 21 35 100 1.30299e-05
20 22 35 100 1
21 23 35 100 1
22 24 35 100 1
23 25 35 100 0.99949
24 25 35 100 0.000509705
24 26 35 100 1
25 27 35 100 1
26 28 35 100 1
27 29 35 100 1
28 30 35 100 1
29 31 35 100 1
30 32 35 100 1
31 33 35 100 1
0 34 35 100 0.0048824
32 34 35 100 0.995118
33 35 35 100 1
34 36 35 100 1
35 37 35 100 1
1 1 39 100 1
3 2 39 100 1
4 3 39 100 1
5 4 39 100 1
6 5 39 100 1
0 6 39 100 0.0105039
7 6 39 100 0.989496
8 7 39 100 1
9 8 39 100 1
0 9 39 100 0.0212768
10 9 39 100 0.978723
11 10 39 100 1
12 11 39 100 1
13 12 39 100 1
14 13 39 100 1
16 14 39 100 0.0727515
17 14 39 100 0.927249
4 15 39 100 1
0 16 39 100 0.998142
2 16 39 100 0.00185774
18 17 39 100 1
19 18 39 100 1
0 19 39 100 0.689037
2 19 39 100 2.05737e-05
20 19 39 100 0.310943
4 20 39 100 1
20 21 39 100 1
22 22 39 100 1
23 23 39 100 0.999833
26 23 39 100 0.000167467
24 24 39 100 1
25 25 39 100 0.131446
27 25 39 100 0.868528
31 25 39 100 2.5782e-05
23 26 39 100 0.00193875
26 26 39 100 0.997751
28 26 39 100 0.000310096
29 27 39 100 1
30 28 39 100 1
0 29 39 100 1
27 30 39 100 2.12989e-05
31 30 39 100 0.999979
32 31 39 100 1
32 32 39 100 1
0 33 39 100 1
33 34 39 100 1
34 35 39 100 1
35 36 39 100 1
36 37 39 100 1
37 38 39 100 1
38 39 39 100 1
39 40 39 100 1
1 1 44 100 0.5
2 1 44 100 0.5
0 2 44 100 0.0100751
2 2 44 100 0.489914
3 2 44 100 0.5
14 2 44 100 1.12039e-05
0 3 44 100 0.504934
3 3 44 100 0.495027
7 3 44 100 3.09988e-05
20 3 44 100 7.98302e-06
4 4 44 100 1
0 5 44 100 0.00170327
5 5 44 100 0.998289
39 5 44 100 7.3828e-06
6 6 44 100 1
0 7 44 100 0.012354
7 7 44 100 0.987646
9 8 44 100 1
10 9 44 100 1
0 10 44 100 0.496105
2 10 44 100 7.93319e-06
12 10 44 100 0.5
14 10 44 100 0.00388725
0 11 44 100 0.000320825
13 11 44 100 0.999668
14 11 44 100 1.07647e-05
11 12 44 100 0.499998
15 12 44 100 0.500002
0 13 44 100 4.68564e-05
15 13 44 100 0.499953
16 13 44 100 0.499916
31 13 44 100 8.39707e-05
0 14 44 100 0.499951
7 14 44 100 1.03395e-05
16 14 44 100 0.5
20 14 44 100 3.09696e-05
31 14 44 100 7.21721e-06
0 15 44 100 0.499252
14 15 44 100 0.000746513
17 15 44 100 0.500001
18 16 44 100 1
0 17 44 100 0.00170328
19 17 44 100 0.998285
39 17 44 100 1.16154e-05
0 18 44 100 0.011491
20 18 44 100 0.988509
0 19 44 100 0.00170328
21 19 44 100 0.998289
39 19 44 100 7.38221e-06
22 20 44 100 1
23 21 44 100 1
24 22 44 100 1
25 23 44 100 1
0 24 44 100 0.00181596
26 24 44 100 0.998184
27 25 44 100 1
0 26 44 100 0.00159487
28 26 44 100 0.728575
29 26 44 100 0.269823
39 26 44 100 6.90245e-06
29 27 44 100 0.5
30 27 44 100 0.5
0 28 44 100 0.499935
2 28 44 100 5.11223e-06
14 28 44 100 6.01294e-05
30 28 44 100 0.5
0 29 44 100 0.448037
7 29 44 100 5.36263e-06
20 29 44 100 5.09509e-06
31 29 44 100 0.551953
0 30 44 100 0.998706
14 30 44 100 0.000101271
31 30 44 100 0.00119279
32 31 44 100 1
33 32 44 100 1
0 33 44 100 0.999939
7 33 44 100 8.42121e-06
20 33 44 100 7.98305e-06
31 33 44 100 4.48432e-05
34 34 44 100 1
35 35 44 100 1
36 36 44 100 0.999744
39 36 44 100 0.000255706
0 37 44 100 0.999927
7 37 44 100 5.51764e-06
20 37 44 100 5.09562e-06
31 37 44 100 1.3847e-05
39 37 44 100 4.81859e-05
37 38 44 100 0.5
41 38 44 100 0.5
0 39 44 100 2.0284e-05
38 39 44 100 0.500033
40 39 44 100 0.499525
42 39 44 100 0.000421524
0 40 44 100 0.000301851
17 40 44 100 0.4997
37 40 44 100 0.499998
38 41 44 100 0.5
39 41 44 100 0.5
40 42 44 100 0.500489
42 42 44 100 0.499511
41 43 44 100 0.5
43 43 44 100 0.5
12 44 44 100 0.000145703
42 44 44 100 0.5
44 44 44 100 0.499854
43 45 44 100 1
44 46 44 100 1
0 1 46 100 0.00216979
1 1 46 100 0.497829
3 1 46 100 0.500001
0 2 46 100 0.498838
2 2 46 100 0.501056
6 2 46 100 8.06758e-05
11 2 46 100 2.46095e-05
0 3 46 100 0.00231946
3 3 46 100 0.49768
4 3 46 100 0.500001
0 4 46 100 0.00925392
4 4 46 100 0.5
5 4 46 100 0.490746
0 5 46 100 0.00464957
5 5 46 100 0.500001
6 5 46 100 0.495349
6 6 46 100 0.500001
7 6 46 100 0.499999
1 7 46 100 0.5
7 7 46 100 0.5
0 8 46 100 0.513864
2 8 46 100 0.486091
11 8 46 100 1.39707e-05
32 8 46 100 6.18352e-06
42 8 46 100 2.51069e-05
7 9 46 100 0.499999
8 9 46 100 0.499993
30 9 46 100 7.41138e-06
0 10 46 100 0.499994
8 10 46 100 0.5
32 10 46 100 6.18425e-06
0 11 46 100 0.499896
5 11 46 100 5.49499e-06
9 11 46 100 0.500001
13 11 46 100 8.06466e-05
16 11 46 100 1.63751e-05
9 12 46 100 0.5
11 12 46 100 0.5
0 13 46 100 0.00677303
12 13 46 100 0.993227
0 14 46 100 0.00933647
13 14 46 100 0.990645
16 14 46 100 1.8916e-05
0 15 46 100 0.49999
14 15 46 100 0.5
32 15 46 100 9.46493e-06
0 16 46 100 0.00245022
14 16 46 100 0.497549
15 16 46 100 0.500001
15 17 46 100 0.5
18 17 46 100 0.5
16 18 46 100 0.5
19 18 46 100 0.5
0 19 46 100 0.499641
13 19 46 100 1.20155e-05
16 19 46 100 0.000350041
17 19 46 100 0.499997
18 20 46 100 0.5
20 20 46 100 0.5
20 21 46 100 0.5
21 21 46 100 0.49917
23 21 46 100 0.000829785
0 22 46 100 0.499988
22 22 46 100 0.5
32 22 46 100 1.12697e-05
0 23 46 100 0.00457023
21 23 46 100 0.500001
24 23 46 100 0.495429
0 24 46 100 0.00678167
22 24 46 100 0.493209
25 24 46 100 0.5
33 24 46 100 9.358e-06
24 25 46 100 0.5
26 25 46 100 0.5
0 26 46 100 0.000891459
25 26 46 100 0.5
27 26 46 100 0.499012
29 26 46 100 9.66638e-05
0 27 46 100 0.0113631
27 27 46 100 0.00307144
28 27 46 100 0.493014
29 27 46 100 0.492356
33 27 46 100 0.000194839
29 28 46 100 0.5
30 28 46 100 0.5
0 29 46 100 0.015579
28 29 46 100 1.76792e-05
30 29 46 100 0.00385731
31 29 46 100 0.209948
32 29 46 100 0.770591
42 29 46 100 6.23394e-06
33 30 46 100 0.5
34 30 46 100 0.5
0 31 46 100 0.499608
30 31 46 100 8.23732e-06
32 31 46 100 0.000384073
34 31 46 100 0.5
0 32 46 100 0.489984
12 32 46 100 6.20801e-06
14 32 46 100 4.54834e-05
22 32 46 100 1.51964e-05
28 32 46 100 2.48925e-05
33 32 46 100 0.00992292
35 32 46 100 0.500001
23 33 46 100 5.36511e-05
35 33 46 100 0.499946
36 33 46 100 0.5
0 34 46 100 0.00925871
36 34 46 100 0.5
37 34 46 100 0.490741
37 35 46 100 0.5
38 35 46 100 0.5
0 36 46 100 0.00146866
39 36 46 100 0.998505
42 36 46 100 2.66517e-05
40 37 46 100 1
41 38 46 100 1
0 39 46 100 0.499976
16 39 46 100 7.57144e-06
37 39 46 100 1.20155e-05
42 39 46 100 0.500004
0 40 46 100 0.499735
2 40 46 100 0.000169931
11 40 46 100 1.53424e-05
27 40 46 100 6.43336e-06
39 40 46 100 5.53607e-06
43 40 46 100 0.500006
44 40 46 100 6.20628e-05
43 41 46 100 0.5
44 41 46 100 0.5
0 42 46 100 0.00152495
42 42 46 100 0.000109735
44 42 46 100 0.498365
45 42 46 100 0.500001
45 43 46 100 0.5
46 43 46 100 0.5
46 44 46 100 1
0 1 49 100 0.0141414
1 1 49 100 0.531551
5 1 49 100 0.454307
1 2 49 100 0.499494
3 2 49 100 0.000506401
6 2 49 100 0.5
2 3 49 100 0.5
3 3 49 100 0.000177012
4 3 49 100 0.499823
0 4 49 100 0.0879422
4 4 49 100 0.5
5 4 49 100 0.412058
0 5 49 100 0.00153303
2 5 49 100 0.498478
6 5 49 100 0.499989
3 6 49 100 0.499822
4 6 49 100 0.000177958
7 6 49 100 0.499986
46 6 49 100 1.3959e-05
0 7 49 100 0.495283
1 7 49 100 0.00321906
2 7 49 100 0.00135339
8 7 49 100 0.500001
10 7 49 100 1.29747e-05
33 7 49 100 5.76197e-05
35 7 49 100 4.63171e-05
39 7 49 100 2.69958e-05
7 8 49 100 0.5
10 8 49 100 0.5
0 9 49 100 0.00850382
8 9 49 100 0.491496
12 9 49 100 0.5
0 10 49 100 0.0100945
9 10 49 100 0.5
13 10 49 100 0.489906
0 11 49 100 0.00135682
10 11 49 100 0.498643
14 11 49 100 0.5
11 12 49 100 0.5
15 12 49 100 0.5
0 13 49 100 0.00498146
12 13 49 100 0.500001
16 13 49 100 0.495018
14 14 49 100 0.5
17 14 49 100 0.5
15 15 49 100 0.5
18 15 49 100 0.5
0 16 49 100 0.499777
5 16 49 100 0.000206047
19 16 49 100 0.500002
42 16 49 100 1.48201e-05
16 17 49 100 0.5
20 17 49 100 0.5
17 18 49 100 0.5
21 18 49 100 0.5
18 19 49 100 0.5
22 19 49 100 0.5
0 20 49 100 0.499978
13 20 49 100 8.5665e-06
19 20 49 100 0.499998
27 20 49 100 1.47122e-05
20 21 49 100 0.5
23 21 49 100 0.5
0 22 49 100 0.00159586
21 22 49 100 0.499999
24 22 49 100 0.196023
25 22 49 100 0.302382
22 23 49 100 0.5
26 23 49 100 0.5
0 24 49 100 0.509955
5 24 49 100 0.000129465
27 24 49 100 0.489901
42 24 49 100 1.48232e-05
23 25 49 100 0.5
28 25 49 100 0.5
0 26 49 100 0.00134588
24 26 49 100 0.498654
30 26 49 100 0.500001
25 27 49 100 0.5
31 27 49 100 0.5
26 28 49 100 0.5
32 28 49 100 0.5
0 29 49 100 0.000890231
27 29 49 100 0.500001
29 29 49 100 0.499108
0 30 49 100 0.509922
5 30 49 100 0.000210543
33 30 49 100 0.489841
42 30 49 100 1.48212e-05
44 30 49 100 1.12722e-05
28 31 49 100 0.5
34 31 49 100 0.5
30 32 49 100 0.499937
33 32 49 100 6.32298e-05
35 32 49 100 0.5
0 33 49 100 0.0101043
31 33 49 100 0.323002
34 33 49 100 0.176997
36 33 49 100 0.489896
32 34 49 100 0.499983
37 34 49 100 0.5
45 34 49 100 1.68612e-05
0 35 49 100 0.499821
5 35 49 100 0.000129709
38 35 49 100 0.500003
42 35 49 100 4.62171e-05
0 36 49 100 0.00859072
35 36 49 100 0.491409
39 36 49 100 0.5
0 37 49 100 0.499983
36 37 49 100 0.500017
37 38 49 100 0.5
40 38 49 100 0.499961
46 38 49 100 3.94114e-05
38 39 49 100 0.5
41 39 49 100 0.5
40 40 49 100 0.5
42 40 49 100 0.5
0 41 49 100 0.499992
36 41 49 100 5.93991e-06
41 41 49 100 0.500002
0 42 49 100 0.000196219
43 42 49 100 0.500001
44 42 49 100 0.499803
0 43 49 100 0.0173867
42 43 49 100 0.482125
44 43 49 100 0.500488
0 44 49 100 0.499997
43 44 49 100 0.500003
0 45 49 100 0.499962
11 45 49 100 9.95647e-06
33 45 49 100 2.63067e-05
46 45 49 100 0.500002
47 46 49 100 1
0 47 49 100 2.60492e-05
9 47 49 100 7.18703e-06
45 47 49 100 0.499967
48 47 49 100 0.5
48 48 49 100 0.5
49 48 49 100 0.5
49 49 49 100 1
0 1 51 100 0.17991
1 1 51 100 0.811089
21 1 51 100 0.00900091
0 2 51 100 0.9208
1 2 51 100 0.0103229
19 2 51 100 0.0688774
1 3 51 100 1
2 4 51 100 1
0 5 51 100 0.995604
4 5 51 100 0.00435249
23 5 51 100 4.37273e-05
3 6 51 100 1
6 7 51 100 1
7 8 51 100 1
8 9 51 100 1
0 10 51 100 0.00105866
9 10 51 100 0.816611
11 10 51 100 0.18226
13 10 51 100 7.03233e-05
12 11 51 100 1
14 12 51 100 1
0 13 51 100 0.999851
4 13 51 100 7.16972e-05
23 13 51 100 7.70981e-05
15 14 51 100 1
16 15 51 100 1
18 16 51 100 1
0 17 51 100 0.00110988
20 17 51 100 0.99889
17 18 51 100 1
22 19 51 100 1
24 20 51 100 1
0 21 51 100 0.995279
4 21 51 100 4.06642e-05
23 21 51 100 0.00468036
25 22 51 100 1
26 23 51 100 1
27 24 51 100 1
28 25 51 100 1
29 26 51 100 1
0 27 51 100 0.00959326
30 27 51 100 0.990407
31 28 51 100 1
0 29 51 100 0.999944
4 29 51 100 1.60844e-05
23 29 51 100 3.95794e-05
32 30 51 100 1
0 31 51 100 0.00959326
33 31 51 100 0.990407
34 32 51 100 1
35 33 51 100 1
36 34 51 100 1
38 35 51 100 1
39 36 51 100 1
37 37 51 100 4.32924e-05
40 37 51 100 0.999957
41 38 51 100 1
0 39 51 100 0.999967
4 39 51 100 1.60851e-05
23 39 51 100 1.72929e-05
41 40 51 100 1
43 41 51 100 1
44 42 51 100 1
45 43 51 100 1
46 44 51 100 1
49 45 51 100 1
49 46 51 100 1
50 47 51 100 1
51 48 51 100 1
1 1 53 100 1
0 2 53 100 4.59889e-05
2 2 53 100 0.999954
0 3 53 100 0.996903
4 3 53 100 0.00307545
16 3 53 100 1.05993e-05
37 3 53 100 1.08727e-05
3 4 53 100 1
0 5 53 100 2.26692e-05
5 5 53 100 0.999977
6 6 53 100 1
7 7 53 100 1
8 8 53 100 1
0 9 53 100 0.999868
30 9 53 100 1.99912e-05
40 9 53 100 5.58929e-05
48 9 53 100 5.58623e-05
8 10 53 100 1
9 11 53 100 1
11 12 53 100 1
12 13 53 100 1
0 14 53 100 0.0484698
13 14 53 100 0.95153
0 15 53 100 0.00463444
14 15 53 100 0.995366
15 16 53 100 1
0 17 53 100 0.0485114
16 17 53 100 0.951489
17 18 53 100 1
18 19 53 100 1
19 20 53 100 1
0 21 53 100 0.999941
13 21 53 100 1.29069e-05
16 21 53 100 4.62943e-05
23 22 53 100 1
0 23 53 100 0.000104427
24 23 53 100 0.999875
34 23 53 100 2.07386e-05
20 24 53 100 1
21 25 53 100 1
22 26 53 100 1
25 27 53 100 1
26 28 53 100 1
27 29 53 100 1
28 30 53 100 1
0 31 53 100 0.99996
4 31 53 100 1.60167e-05
16 31 53 100 1.05993e-05
37 31 53 100 1.29068e-05
29 32 53 100 1
0 33 53 100 0.0239517
30 33 53 100 0.976048
31 34 53 100 1
33 35 53 100 1
35 36 53 100 1
36 37 53 100 1
0 38 53 100 0.0484743
37 38 53 100 0.951526
38 39 53 100 1
39 40 53 100 1
41 41 53 100 1
41 42 53 100 1
0 43 53 100 0.0484631
42 43 53 100 0.951537
43 44 53 100 1
0 45 53 100 0.0140815
45 45 53 100 0.985919
0 46 53 100 6.05644e-05
10 46 53 100 0.000226917
46 46 53 100 0.999713
0 47 53 100 2.38019e-05
44 47 53 100 0.999976
47 48 53 100 1
0 49 53 100 0.0585091
47 49 53 100 0.941491
49 50 53 100 1
51 51 53 100 1
52 52 53 100 1
53 53 53 100 1
5 1 58 100 1
4 2 58 100 1.62581e-05
8 2 58 100 0.999984
9 3 58 100 1
0 4 58 100 0.00365842
6 4 58 100 6.59486e-05
7 4 58 100 7.05621e-05
10 4 58 100 0.994132
13 4 58 100 0.000358684
15 4 58 100 0.00120176
42 4 58 100 0.000371941
50 4 58 100 0.000140338
11 5 58 100 1
14 6 58 100 1
0 7 58 100 0.907554
4 7 58 100 0.000442358
15 7 58 100 0.0911125
41 7 58 100 0.000682087
49 7 58 100 4.52917e-05
50 7 58 100 0.00016391
0 8 58 100 0.99236
7 8 58 100 9.6162e-05
13 8 58 100 0.00120352
42 8 58 100 0.00633994
51 9 58 100 1
0 10 58 100 0.00365847
15 10 58 100 0.0123709
42 10 58 100 0.000371536
50 10 58 100 0.000430025
52 10 58 100 0.983169
53 11 58 100 1
54 12 58 100 1
16 13 58 100 1
17 14 58 100 1
0 15 58 100 0.0137049
18 15 58 100 0.986295
20 16 58 100 1
19 17 58 100 1
0 18 58 100 0.999131
18 18 58 100 0.000842154
38 18 58 100 2.64418e-05
21 19 58 100 1
0 20 58 100 0.000999377
15 20 58 100 6.54279e-05
22 20 58 100 0.99875
42 20 58 100 0.000168695
50 20 58 100 1.68588e-05
23 21 58 100 1
25 22 58 100 1
26 23 58 100 0.76031
27 23 58 100 0.23969
0 24 58 100 0.000999375
15 24 58 100 4.03152e-05
28 24 58 100 0.0653789
29 24 58 100 0.933463
42 24 58 100 0.000101513
50 24 58 100 1.68625e-05
30 25 58 100 1
0 26 58 100 0.00106775
15 26 58 100 4.28191e-05
31 26 58 100 0.998763
42 26 58 100 0.000108329
50 26 58 100 1.80391e-05
32 27 58 100 1
33 28 58 100 1
34 29 58 100 1
0 30 58 100 0.00632749
35 30 58 100 0.993653
38 30 58 100 1.92468e-05
36 31 58 100 1
37 32 58 100 1
39 33 58 100 0.999897
50 33 58 100 0.000103267
40 34 58 100 1
0 35 58 100 0.999377
18 35 58 100 1.73065e-05
35 35 58 100 1.11187e-05
38 35 58 100 0.000594552
0 36 58 100 0.924956
7 36 58 100 2.03452e-05
13 36 58 100 2.02076e-05
42 36 58 100 0.0749922
46 36 58 100 1.1124e-05
0 37 58 100 0.0347847
41 37 58 100 0.965215
0 38 58 100 0.999944
2 38 58 100 1.54589e-05
18 38 58 100 1.72985e-05
38 38 58 100 2.34903e-05
43 39 58 100 0.102063
44 39 58 100 0.897937
45 40 58 100 1
0 41 58 100 0.00312831
42 41 58 100 0.00164261
46 41 58 100 0.995229
47 42 58 100 1
0 43 58 100 0.999966
18 43 58 100 1.73025e-05
38 43 58 100 1.70063e-05
48 44 58 100 1
0 45 58 100 0.876724
4 45 58 100 9.303e-05
15 45 58 100 0.000123616
41 45 58 100 0.120962
42 45 58 100 0.000124612
49 45 58 100 0.00194594
50 45 58 100 2.61957e-05
0 46 58 100 0.000342506
49 46 58 100 0.999658
43 47 58 100 0.967672
44 47 58 100 0.0323282
55 48 58 100 1
56 49 58 100 1
57 50 58 100 1
58 51 58 100 1
