2 0 100 16 0.0379057
4 0 100 16 0.843117
10 0 100 16 0.0371237
12 0 100 16 0.0818538
1 1 100 16 1
2 2 100 16 0.998905
4 2 100 16 0.00109466
3 3 100 16 1
5 4 100 16 1
4 5 100 16 1
6 6 100 16 1
7 7 100 16 1
8 8 100 16 1
9 9 100 16 1
4 10 100 16 0.000126535
10 10 100 16 0.999873
11 11 100 16 1
4 12 100 16 0.000783363
12 12 100 16 0.999217
14 13 100 16 1
13 14 100 16 1
15 15 100 16 1
16 16 100 16 1
5 0 100 18 0.948129
7 0 100 18 0.000210982
9 0 100 18 0.00704677
11 0 100 18 0.0446134
1 1 100 18 1
2 2 100 18 1
2 3 100 18 1
3 4 100 18 1
4 5 100 18 1
6 6 100 18 1
7 7 100 18 1
8 8 100 18 1
9 9 100 18 1
10 10 100 18 1
5 11 100 18 9.61177e-05
11 11 100 18 0.999904
12 12 100 18 1
13 13 100 18 1
14 14 100 18 1
7 15 100 18 0.0965967
12 15 100 18 0.903403
15 16 100 18 1
9 17 100 18 1
16 18 100 18 1
17 19 100 18 1
11 20 100 18 3.4136e-06
15 20 100 18 2.76216e-05
18 20 100 18 0.999969
3 0 100 20 5.9555e-05
9 0 100 20 0.03043
14 0 100 20 0.939504
16 0 100 20 0.0150034
18 0 100 20 0.0150034
1 1 100 20 1
2 2 100 20 1
3 3 100 20 1
18 4 100 20 1
3 5 100 20 1
4 6 100 20 1
5 7 100 20 1
6 8 100 20 1
7 9 100 20 1
9 10 100 20 0.163174
16 10 100 20 0.262358
18 10 100 20 0.574469
8 11 100 20 1
9 12 100 20 0.999935
14 12 100 20 6.52488e-05
10 13 100 20 1
11 14 100 20 1
12 15 100 20 1
13 16 100 20 1
15 17 100 20 1
16 18 100 20 1
17 19 100 20 1
15 20 100 20 1
17 21 100 20 1
5 22 100 20 5.10941e-06
6 22 100 20 6.9151e-06
7 22 100 20 3.39982e-05
8 22 100 20 3.30807e-05
11 22 100 20 5.856e-06
13 22 100 20 4.49596e-05
15 22 100 20 0.000307502
16 22 100 20 1.06523e-05
17 22 100 20 0.998551
18 22 100 20 0.000216677
19 22 100 20 0.000783827
9 23 100 20 1.13032e-05
14 23 100 20 3.34392e-05
16 23 100 20 0.000289934
18 23 100 20 0.999665
6 24 100 20 1.51335e-06
7 24 100 20 7.1061e-06
8 24 100 20 5.93965e-06
13 24 100 20 6.37426e-06
15 24 100 20 3.14052e-05
17 24 100 20 0.00046611
18 24 100 20 1.1897e-05
19 24 100 20 0.99947
14 25 100 20 1.40911e-06
16 25 100 20 2.61184e-06
18 25 100 20 7.88999e-05
20 25 100 20 0.999917
2 0 100 21 0.16533
7 0 100 21 0.33467
8 0 100 21 0.16533
10 0 100 21 0.33467
1 1 100 21 1
2 2 100 21 1
3 3 100 21 1
5 4 100 21 1
4 5 100 21 1
5 6 100 21 1
6 7 100 21 1
7 8 100 21 1
8 9 100 21 1
9 10 100 21 1
10 11 100 21 1
11 12 100 21 1
12 13 100 21 1
13 14 100 21 1
14 15 100 21 1
15 16 100 21 1
16 17 100 21 1
17 18 100 21 1
18 19 100 21 1
19 20 100 21 1
20 21 100 21 1
21 22 100 21 1
7 0 100 23 0.333409
8 0 100 23 0.333698
17 0 100 23 0.332893
1 1 100 23 1
2 2 100 23 1
3 3 100 23 1
4 4 100 23 1
9 5 100 23 1
10 6 100 23 1
7 7 100 23 0.749913
17 7 100 23 0.250087
11 8 100 23 1
12 9 100 23 1
13 10 100 23 1
14 11 100 23 1
5 12 100 23 1
6 13 100 23 1
8 14 100 23 1
15 15 100 23 1
16 16 100 23 1
18 17 100 23 1
19 18 100 23 1
7 19 100 23 0.0577061
17 19 100 23 0.942294
21 20 100 23 1
20 21 100 23 1
21 22 100 23 1
8 23 100 23 1
22 24 100 23 1
7 25 100 23 1.62114e-06
8 25 100 23 2.76572e-06
23 25 100 23 0.999996
2 0 100 24 0.000759887
4 0 100 24 6.11059e-05
5 0 100 24 0.0695369
6 0 100 24 0.115967
7 0 100 24 0.1129
9 0 100 24 0.00218303
10 0 100 24 0.112313
13 0 100 24 0.000109747
14 0 100 24 0.126648
16 0 100 24 0.115564
17 0 100 24 0.115349
18 0 100 24 0.228608
1 1 100 24 1
2 2 100 24 0.999861
6 2 100 24 0.000106313
10 2 100 24 1.17407e-05
14 2 100 24 6.87265e-06
17 2 100 24 1.41986e-05
3 3 100 24 1
4 4 100 24 0.999966
9 4 100 24 3.44765e-05
5 5 100 24 0.494221
7 5 100 24 0.505779
5 6 100 24 0.166476
6 6 100 24 0.415725
8 6 100 24 0.417799
9 7 100 24 1
10 8 100 24 0.5
11 8 100 24 0.5
11 9 100 24 1
10 10 100 24 0.0147167
12 10 100 24 0.517358
14 10 100 24 0.467925
12 11 100 24 0.333439
13 11 100 24 0.333122
15 11 100 24 0.333439
8 12 100 24 1
8 13 100 24 3.25948e-05
13 13 100 24 0.499983
19 13 100 24 0.499984
15 14 100 24 0.4979
18 14 100 24 0.00420087
20 14 100 24 0.4979
16 15 100 24 1
6 16 100 24 0.0865377
17 16 100 24 0.122596
18 16 100 24 0.790867
17 17 100 24 0.5
21 17 100 24 0.5
19 18 100 24 0.5
22 18 100 24 0.5
20 19 100 24 1
23 20 100 24 1
21 21 100 24 0.5
24 21 100 24 0.5
22 22 100 24 1
23 23 100 24 1
24 24 100 24 1
3 0 100 25 9.33757e-05
4 0 100 25 0.0779461
5 0 100 25 0.049081
7 0 100 25 0.297268
10 0 100 25 0.297267
12 0 100 25 8.50943e-06
14 0 100 25 0.00229278
18 0 100 25 0.276044
1 1 100 25 1
3 2 100 25 1
2 3 100 25 1
4 4 100 25 0.461408
5 4 100 25 0.538592
6 5 100 25 1
8 6 100 25 1
7 7 100 25 0.495116
10 7 100 25 0.495116
18 7 100 25 0.00976835
4 8 100 25 1
4 9 100 25 1
9 10 100 25 1
11 11 100 25 1
12 12 100 25 1
13 13 100 25 1
14 14 100 25 1
15 15 100 25 1
16 16 100 25 1
17 17 100 25 1
11 18 100 25 0.000791152
18 18 100 25 0.999209
19 19 100 25 1
20 20 100 25 1
21 21 100 25 1
22 22 100 25 1
23 23 100 25 1
24 24 100 25 1
25 25 100 25 1
8 0 100 26 0.00237989
13 0 100 26 0.00494384
15 0 100 26 0.330359
16 0 100 26 0.330791
19 0 100 26 0.329143
22 0 100 26 0.00237966
24 0 100 26 4.5537e-06
1 1 100 26 1
15 2 100 26 0.499049
19 2 100 26 0.500951
2 3 100 26 1
3 4 100 26 1
4 5 100 26 1
5 6 100 26 1
6 7 100 26 1
7 8 100 26 1
8 9 100 26 0.999972
16 9 100 26 2.79687e-05
9 10 100 26 1
9 11 100 26 0.109909
24 11 100 26 0.890091
10 12 100 26 1
11 13 100 26 1
12 14 100 26 1
13 15 100 26 0.999556
15 15 100 26 0.000416763
19 15 100 26 2.7185e-05
14 16 100 26 1
17 17 100 26 1
15 18 100 26 0.179368
19 18 100 26 0.820632
18 19 100 26 1
20 20 100 26 1
21 21 100 26 1
15 22 100 26 0.114867
19 22 100 26 0.885133
21 23 100 26 1
16 24 100 26 0.00032616
22 24 100 26 0.999674
15 25 100 26 0.114867
19 25 100 26 0.885133
16 26 100 26 3.20365e-05
22 26 100 26 0.999968
23 27 100 26 1
8 28 100 26 0.00385122
13 28 100 26 0.00522729
15 28 100 26 0.00411402
16 28 100 26 0.0210493
19 28 100 26 0.00894262
22 28 100 26 0.887511
24 28 100 26 0.0693049
14 29 100 26 2.64966e-06
17 29 100 26 2.30532e-05
18 29 100 26 4.6057e-06
20 29 100 26 2.46948e-06
21 29 100 26 9.43918e-07
22 29 100 26 7.13035e-07
23 29 100 26 0.001506
24 29 100 26 0.491129
25 29 100 26 0.507331
22 30 100 26 2.46942e-05
24 30 100 26 0.000603384
26 30 100 26 0.999372
1 0 100 37 0.00372462
5 0 100 37 0.244382
8 0 100 37 0.24438
9 0 100 37 0.244381
11 0 100 37 0.00119532
13 0 100 37 0.00127554
16 0 100 37 0.0075434
19 0 100 37 0.00754102
21 0 100 37 0.244383
34 0 100 37 0.00119321
1 1 100 37 0.999986
21 1 100 37 1.39529e-05
2 2 100 37 1
3 3 100 37 1
4 4 100 37 1
6 5 100 37 1
3 6 100 37 1
7 7 100 37 1
10 8 100 37 1
9 9 100 37 0.000179439
11 9 100 37 0.999725
13 9 100 37 9.60098e-05
11 10 100 37 0.999984
21 10 100 37 1.5985e-05
12 11 100 37 1
13 12 100 37 1
14 13 100 37 1
15 14 100 37 1
5 15 100 37 1.41393e-05
8 15 100 37 3.06479e-05
16 15 100 37 0.999955
17 16 100 37 1
18 17 100 37 1
5 18 100 37 2.05805e-05
8 18 100 37 1.41392e-05
19 18 100 37 0.999965
20 19 100 37 1
22 20 100 37 1
23 21 100 37 1
24 22 100 37 1
25 23 100 37 1
25 24 100 37 0.000509446
26 24 100 37 0.999491
27 25 100 37 1
28 26 100 37 1
29 27 100 37 1
30 28 100 37 1
31 29 100 37 1
32 30 100 37 1
33 31 100 37 1
34 32 100 37 1
35 33 100 37 1
36 34 100 37 1
37 35 100 37 1
6 0 100 40 0.00282441
9 0 100 40 0.00572121
16 0 100 40 0.268392
19 0 100 40 0.185278
29 0 100 40 0.268892
33 0 100 40 0.268892
1 1 100 40 1
16 2 100 40 0.989047
19 2 100 40 0.0109534
2 3 100 40 1
3 4 100 40 0.333333
15 4 100 40 0.333333
20 4 100 40 0.333333
4 5 100 40 1
5 6 100 40 1
6 7 100 40 1
7 8 100 40 1
8 9 100 40 1
9 10 100 40 1
10 11 100 40 1
11 12 100 40 1
12 13 100 40 1
13 14 100 40 1
6 15 100 40 1
14 16 100 40 1
14 17 100 40 1
17 18 100 40 1
18 19 100 40 1
19 20 100 40 0.23719
21 20 100 40 0.76281
19 21 100 40 1
22 22 100 40 1
23 23 100 40 0.998065
26 23 100 40 0.00193532
24 24 100 40 1
25 25 100 40 1
23 26 100 40 0.000167817
26 26 100 40 0.999832
25 27 100 40 0.999976
30 27 100 40 2.45226e-05
26 28 100 40 1
27 29 100 40 1
28 30 100 40 1
25 31 100 40 2.57817e-05
30 31 100 40 0.999974
31 32 100 40 0.5
32 32 100 40 0.5
34 33 100 40 1
35 34 100 40 1
36 35 100 40 1
37 36 100 40 1
38 37 100 40 1
39 38 100 40 1
40 39 100 40 1
1 0 100 43 0.000715875
3 0 100 43 0.000765255
8 0 100 43 0.164962
10 0 100 43 0.164962
13 0 100 43 0.0022346
15 0 100 43 0.164961
16 0 100 43 0.000808396
19 0 100 43 2.11478e-06
22 0 100 43 0.16496
24 0 100 43 0.00223746
27 0 100 43 0.00224059
29 0 100 43 0.00465691
31 0 100 43 0.164835
32 0 100 43 0.161659
1 1 100 43 1
2 2 100 43 1
3 3 100 43 1
4 4 100 43 1
5 5 100 43 1
6 6 100 43 1
7 7 100 43 1
9 8 100 43 1
11 9 100 43 1
16 10 100 43 1
12 11 100 43 1
13 12 100 43 0.999987
32 12 100 43 1.25865e-05
14 13 100 43 1
16 14 100 43 0.999909
32 14 100 43 9.14065e-05
17 15 100 43 1
18 16 100 43 1
19 17 100 43 1
20 18 100 43 1
1 19 100 43 0.819746
3 19 100 43 0.179209
16 19 100 43 0.00097185
24 19 100 43 7.23494e-05
21 20 100 43 1
23 21 100 43 1
24 22 100 43 0.999969
32 22 100 43 3.08103e-05
33 23 100 43 1
25 24 100 43 1
26 25 100 43 1
3 26 100 43 1
26 27 100 43 1
27 28 100 43 0.99995
32 28 100 43 5.04879e-05
28 29 100 43 1
9 30 100 43 0.00191362
29 30 100 43 0.995959
31 30 100 43 0.00212689
19 31 100 43 1
8 32 100 43 1.28169e-05
10 32 100 43 1.28186e-05
15 32 100 43 1.96187e-05
22 32 100 43 2.33596e-05
29 32 100 43 0.999135
31 32 100 43 0.000796098
24 33 100 43 0.000924055
27 33 100 43 0.0192393
32 33 100 43 0.979837
30 34 100 43 1
33 35 100 43 1
34 36 100 43 1
35 37 100 43 1
3 38 100 43 1
36 39 100 43 1
37 40 100 43 1
38 41 100 43 1
39 42 100 43 1
40 43 100 43 1
41 44 100 43 1
17 45 100 43 4.60363e-06
28 45 100 43 8.95326e-06
30 45 100 43 1.35717e-05
34 45 100 43 4.70772e-06
35 45 100 43 2.34385e-05
36 45 100 43 1.43995e-05
37 45 100 43 1.34162e-06
38 45 100 43 4.84157e-06
40 45 100 43 6.543e-05
41 45 100 43 0.000133453
42 45 100 43 0.999725
29 46 100 43 1.07905e-06
43 46 100 43 0.999999
2 0 100 44 0.100245
3 0 100 44 0.000980109
4 0 100 44 0.00182284
5 0 100 44 0.00125139
8 0 100 44 0.00273094
10 0 100 44 0.0977231
11 0 100 44 0.0984696
13 0 100 44 9.22981e-06
14 0 100 44 0.00183911
17 0 100 44 0.000335512
19 0 100 44 0.0987528
23 0 100 44 0.000900246
26 0 100 44 0.000489758
27 0 100 44 0.000900574
28 0 100 44 0.0984776
29 0 100 44 0.000288398
30 0 100 44 0.0984779
33 0 100 44 0.0984889
34 0 100 44 0.00182379
36 0 100 44 0.000289297
37 0 100 44 0.0984801
39 0 100 44 0.0984865
40 0 100 44 0.098437
42 0 100 44 0.000300386
1 1 100 44 0.5
7 1 100 44 0.5
2 2 100 44 0.502402
8 2 100 44 0.49741
10 2 100 44 8.11802e-06
28 2 100 44 5.23134e-06
40 2 100 44 0.000173888
1 3 100 44 0.5025
3 3 100 44 0.4975
3 4 100 44 0.5
4 4 100 44 0.5
4 5 100 44 0.496184
5 5 100 44 0.503811
11 5 100 44 5.55587e-06
2 6 100 44 8.10451e-05
5 6 100 44 0.497623
6 6 100 44 0.502296
6 7 100 44 0.333333
7 7 100 44 0.333334
9 7 100 44 0.333333
10 8 100 44 1
8 9 100 44 0.5
12 9 100 44 0.5
9 10 100 44 1
2 11 100 44 4.92133e-05
8 11 100 44 2.79383e-05
12 11 100 44 0.999892
40 11 100 44 3.06813e-05
13 12 100 44 0.999709
44 12 100 44 0.000291321
11 13 100 44 0.504756
14 13 100 44 0.495232
19 13 100 44 1.21277e-05
2 14 100 44 2.22292e-05
10 14 100 44 0.00771251
15 14 100 44 0.992027
28 14 100 44 0.0001193
30 14 100 44 0.000119296
13 15 100 44 0.499977
16 15 100 44 0.500023
11 16 100 44 3.27244e-05
14 16 100 44 0.999253
19 16 100 44 0.000699525
39 16 100 44 1.51308e-05
15 17 100 44 1
16 18 100 44 0.5
17 18 100 44 0.5
17 19 100 44 0.49914
18 19 100 44 0.50086
18 20 100 44 0.5
20 20 100 44 0.5
19 21 100 44 0.499557
21 21 100 44 0.500443
20 22 100 44 0.5
22 22 100 44 0.5
21 23 100 44 1
22 24 100 44 0.502296
23 24 100 44 0.497704
23 25 100 44 0.5
24 25 100 44 0.5
24 26 100 44 0.5
25 26 100 44 0.5
25 27 100 44 0.498957
26 27 100 44 0.497971
27 27 100 44 0.00306503
40 27 100 44 6.41987e-06
26 28 100 44 0.999923
29 28 100 44 7.73394e-05
26 29 100 44 0.354098
27 29 100 44 0.645902
27 30 100 44 0.5
28 30 100 44 0.5
29 31 100 44 1
29 32 100 44 0.365935
31 32 100 44 0.634065
30 33 100 44 0.5
32 33 100 44 0.5
31 34 100 44 0.5
34 34 100 44 0.5
32 35 100 44 0.5
35 35 100 44 0.5
33 36 100 44 0.500128
36 36 100 44 0.499872
34 37 100 44 0.495323
39 37 100 44 1.21275e-05
40 37 100 44 0.504665
35 38 100 44 0.499978
39 38 100 44 4.39337e-05
41 38 100 44 0.499978
5 39 100 44 1.47998e-05
17 39 100 44 2.32845e-05
19 39 100 44 1.47985e-05
26 39 100 44 1.38368e-05
36 39 100 44 0.999826
37 39 100 44 9.65945e-05
40 39 100 44 1.10976e-05
37 40 100 44 0.499993
39 40 100 44 0.499518
42 40 100 44 0.00048884
38 41 100 44 1
8 42 100 44 5.0203e-05
29 42 100 44 1.24654e-05
36 42 100 44 5.32925e-05
39 42 100 44 0.00084288
42 42 100 44 0.999041
41 43 100 44 0.5
43 43 100 44 0.5
40 44 100 44 6.2169e-05
42 44 100 44 0.499222
44 44 100 44 0.500715
43 45 100 44 1
39 46 100 44 6.87634e-06
40 46 100 44 1.17313e-05
42 46 100 44 2.46507e-06
44 46 100 44 0.999979
3 0 100 46 0.14399
7 0 100 46 0.00355801
11 0 100 46 9.2399e-05
14 0 100 46 0.143988
15 0 100 46 0.143787
18 0 100 46 0.00330945
24 0 100 46 0.000523003
29 0 100 46 0.129037
30 0 100 46 0.143646
33 0 100 46 0.143985
37 0 100 46 0.143995
39 0 100 46 3.14453e-06
40 0 100 46 8.69341e-05
3 1 100 46 0.716273
7 1 100 46 0.283727
1 2 100 46 1
2 3 100 46 1
4 4 100 46 1
5 5 100 46 1
6 6 100 46 1
3 7 100 46 6.356e-05
7 7 100 46 0.999876
14 7 100 46 2.12003e-05
29 7 100 46 1.09956e-05
33 7 100 46 1.72668e-05
37 7 100 46 1.13134e-05
31 8 100 46 1
8 9 100 46 1
9 10 100 46 1
24 11 100 46 1
10 12 100 46 1
11 13 100 46 1
11 14 100 46 0.0134825
15 14 100 46 0.934987
30 14 100 46 0.0515305
12 15 100 46 1
13 16 100 46 1
40 17 100 46 1
16 18 100 46 1
17 19 100 46 1
3 20 100 46 1.63396e-05
14 20 100 46 6.33889e-05
18 20 100 46 0.999883
29 20 100 46 1.04287e-05
33 20 100 46 1.63396e-05
37 20 100 46 1.04297e-05
19 21 100 46 1
20 22 100 46 1
21 23 100 46 1
22 24 100 46 1
23 25 100 46 1
24 26 100 46 1
25 27 100 46 1
26 28 100 46 1
27 29 100 46 1
28 30 100 46 1
13 31 100 46 0.00157557
14 31 100 46 0.000135419
29 31 100 46 0.974807
30 31 100 46 0.0223805
33 31 100 46 0.000841404
37 31 100 46 0.000259816
31 32 100 46 1
32 33 100 46 1
34 34 100 46 1
35 35 100 46 1
36 36 100 46 1
38 37 100 46 1
39 38 100 46 1
41 39 100 46 1
42 40 100 46 1
43 41 100 46 1
44 42 100 46 1
45 43 100 46 1
46 44 100 46 1
1 0 100 48 0.018135
2 0 100 48 0.0809005
4 0 100 48 0.015453
5 0 100 48 0.0877401
7 0 100 48 0.0870299
9 0 100 48 0.00149427
10 0 100 48 9.30124e-05
11 0 100 48 0.000238418
13 0 100 48 0.0878459
16 0 100 48 0.0878194
17 0 100 48 9.75128e-05
21 0 100 48 0.0874442
24 0 100 48 0.087833
26 0 100 48 0.000236494
27 0 100 48 0.000842853
29 0 100 48 0.0878541
30 0 100 48 0.0878171
31 0 100 48 0.000842853
35 0 100 48 0.0878271
36 0 100 48 0.00150954
39 0 100 48 0.0878561
42 0 100 48 3.44791e-05
43 0 100 48 0.00305516
1 1 100 48 0.637046
2 1 100 48 0.00368497
3 1 100 48 0.356971
7 1 100 48 0.00229822
4 2 100 48 0.500084
5 2 100 48 0.498562
7 2 100 48 0.00135362
3 3 100 48 0.000177012
6 3 100 48 0.999823
3 4 100 48 0.995169
5 4 100 48 0.004333
6 4 100 48 0.000354322
13 4 100 48 7.13761e-05
21 4 100 48 4.04821e-05
29 4 100 48 1.60124e-05
39 4 100 48 1.6013e-05
4 5 100 48 0.998363
16 5 100 48 0.000499224
24 5 100 48 0.000313676
30 5 100 48 0.000510118
35 5 100 48 0.000314265
2 6 100 48 0.5
7 6 100 48 0.5
8 7 100 48 1
9 8 100 48 1
10 9 100 48 1
7 10 100 48 2.60193e-05
11 10 100 48 0.999974
10 11 100 48 0.154162
12 11 100 48 0.845838
11 12 100 48 0.5
13 12 100 48 0.5
10 13 100 48 1
12 14 100 48 0.5
14 14 100 48 0.5
14 15 100 48 0.5
15 15 100 48 0.5
15 16 100 48 0.5
17 16 100 48 0.5
18 17 100 48 1
16 18 100 48 0.5
19 18 100 48 0.5
2 19 100 48 0.0644396
20 19 100 48 0.93556
17 20 100 48 0.499722
21 20 100 48 0.500278
1 21 100 48 0.00892067
22 21 100 48 0.991079
19 22 100 48 0.5
23 22 100 48 0.5
5 23 100 48 4.35159e-05
13 23 100 48 7.67253e-05
21 23 100 48 0.00465773
25 23 100 48 0.995165
29 23 100 48 3.9388e-05
39 23 100 48 1.72093e-05
20 24 100 48 0.500674
26 24 100 48 0.499326
22 25 100 48 0.5
27 25 100 48 0.5
23 26 100 48 0.5
28 26 100 48 0.5
24 27 100 48 0.5
29 27 100 48 0.5
25 28 100 48 0.5
31 28 100 48 0.5
26 29 100 48 1
27 30 100 48 0.497621
32 30 100 48 0.502379
28 31 100 48 0.607532
33 31 100 48 0.392468
30 32 100 48 0.500008
34 32 100 48 0.499992
7 33 100 48 0.000116327
31 33 100 48 0.999756
32 33 100 48 0.000127654
32 34 100 48 0.738556
33 34 100 48 0.261444
7 35 100 48 4.67162e-05
33 35 100 48 0.504309
36 35 100 48 0.495644
34 36 100 48 0.5
37 36 100 48 0.5
37 37 100 48 4.32906e-05
38 37 100 48 0.999957
35 38 100 48 0.5
39 38 100 48 0.5
7 39 100 48 5.39886e-05
36 39 100 48 0.999946
37 40 100 48 0.499989
40 40 100 48 0.500011
38 41 100 48 0.333334
40 41 100 48 0.333333
41 41 100 48 0.333334
16 42 100 48 3.07332e-05
24 42 100 48 3.07396e-05
30 42 100 48 3.07356e-05
35 42 100 48 9.58426e-05
43 42 100 48 0.999812
41 43 100 48 0.5
44 43 100 48 0.5
30 44 100 48 1.12688e-05
42 44 100 48 0.999501
43 44 100 48 0.00048814
34 45 100 48 3.37213e-05
43 45 100 48 0.999966
44 46 100 48 0.5
45 46 100 48 0.5
46 47 100 48 1
47 48 100 48 1
45 49 100 48 0.33333
46 49 100 48 0.333335
48 49 100 48 0.333335
47 50 100 48 1
15 51 100 48 7.91162e-06
20 51 100 48 9.27876e-06
43 51 100 48 0.00011674
48 51 100 48 0.999866
1 0 100 49 0.000349691
5 0 100 49 4.44342e-06
10 0 100 49 0.00396056
13 0 100 49 0.00195447
20 0 100 49 0.196164
22 0 100 49 0.00062613
24 0 100 49 0.00396299
29 0 100 49 0.00034928
30 0 100 49 0.00398612
33 0 100 49 0.00396442
37 0 100 49 0.196167
41 0 100 49 0.19617
44 0 100 49 0.196172
45 0 100 49 0.196159
47 0 100 49 1.02204e-05
1 1 100 49 0.0823109
2 1 100 49 0.917689
3 2 100 49 1
2 3 100 49 1
4 4 100 49 1
1 5 100 49 1
5 6 100 49 1
6 7 100 49 1
7 8 100 49 1
47 9 100 49 1
8 10 100 49 1
45 11 100 49 1
9 12 100 49 1
10 13 100 49 0.999983
20 13 100 49 1.74856e-05
11 14 100 49 1
12 15 100 49 1
13 16 100 49 1
14 17 100 49 1
15 18 100 49 1
16 19 100 49 1
17 20 100 49 1
18 21 100 49 1
19 22 100 49 1
21 23 100 49 1
22 24 100 49 1
22 25 100 49 1
23 26 100 49 1
20 27 100 49 3.003e-05
24 27 100 49 0.99997
25 28 100 49 1
29 29 100 49 1
26 30 100 49 1
27 31 100 49 1
28 32 100 49 1
30 33 100 49 0.999946
45 33 100 49 5.37016e-05
31 34 100 49 1
32 35 100 49 1
33 36 100 49 0.999958
37 36 100 49 3.00299e-05
41 36 100 49 1.21243e-05
34 37 100 49 1
35 38 100 49 1
36 39 100 49 1
38 40 100 49 1
39 41 100 49 1
40 42 100 49 1
42 43 100 49 1
43 44 100 49 1
47 45 100 49 1
6 46 100 49 0.261549
38 46 100 49 0.738451
46 47 100 49 1
48 48 100 49 1
49 49 100 49 1
4 0 100 51 0.000470922
7 0 100 51 0.116822
8 0 100 51 0.127739
10 0 100 51 0.000470922
15 0 100 51 0.00176412
18 0 100 51 0.128609
20 0 100 51 0.000128642
24 0 100 51 0.000128642
26 0 100 51 0.000137442
30 0 100 51 0.000814491
35 0 100 51 0.128641
36 0 100 51 0.119063
37 0 100 51 0.00447758
38 0 100 51 0.128715
41 0 100 51 0.000402684
43 0 100 51 0.128717
45 0 100 51 0.112854
46 0 100 51 4.40883e-05
37 1 100 51 1
38 2 100 51 1
45 3 100 51 1
2 4 100 51 0.0294723
7 4 100 51 0.801886
45 4 100 51 0.168642
1 5 100 51 1
4 6 100 51 1
4 7 100 51 0.377199
8 7 100 51 0.514044
36 7 100 51 0.108757
2 8 100 51 1
3 9 100 51 1
4 10 100 51 1
5 11 100 51 1
33 12 100 51 1
4 13 100 51 0.22667
8 13 100 51 0.76056
36 13 100 51 0.0127702
6 14 100 51 1
4 15 100 51 0.0114501
7 15 100 51 0.868091
10 15 100 51 0.117866
20 15 100 51 0.00062338
24 15 100 51 0.000384113
26 15 100 51 0.000407967
45 15 100 51 0.00117779
13 16 100 51 1
14 17 100 51 1
15 18 100 51 0.999094
18 18 100 51 0.000853075
35 18 100 51 1.7531e-05
38 18 100 51 1.75229e-05
43 18 100 51 1.75268e-05
17 19 100 51 1
16 20 100 51 1
19 21 100 51 1
20 22 100 51 1
21 23 100 51 1
22 24 100 51 1
22 25 100 51 1
23 26 100 51 1
23 27 100 51 1
24 28 100 51 1
24 29 100 51 1
25 30 100 51 1
26 31 100 51 1
27 32 100 51 1
28 33 100 51 1
29 34 100 51 1
30 35 100 51 0.999989
35 35 100 51 1.11895e-05
31 36 100 51 1
32 37 100 51 1
18 38 100 51 0.0388428
30 38 100 51 0.0282737
35 38 100 51 0.873394
38 38 100 51 0.0345073
43 38 100 51 0.0249821
33 39 100 51 1
34 40 100 51 1
7 41 100 51 0.000627571
37 41 100 51 0.888077
45 41 100 51 0.111295
4 42 100 51 0.00441624
8 42 100 51 0.0752769
10 42 100 51 0.00441138
20 42 100 51 0.002003
24 42 100 51 0.00120531
26 42 100 51 0.00128624
36 42 100 51 0.890418
41 42 100 51 0.0195035
45 42 100 51 0.00147957
39 43 100 51 0.0954107
47 43 100 51 0.904589
39 44 100 51 0.965249
47 44 100 51 0.0347512
40 45 100 51 1
36 46 100 51 1.11772e-05
41 46 100 51 0.999989
42 47 100 51 1
44 48 100 51 1
7 49 100 51 4.52167e-05
45 49 100 51 0.00194274
46 49 100 51 0.998012
4 50 100 51 0.153293
7 50 100 51 0.179039
10 50 100 51 0.469716
20 50 100 51 0.018415
24 50 100 51 0.0184191
26 50 100 51 0.0197042
33 50 100 51 0.112799
45 50 100 51 0.0286139
9 51 100 51 1
10 52 100 51 1
5 53 100 51 3.8426e-05
6 53 100 51 4.33281e-05
9 53 100 51 0.000468137
11 53 100 51 0.992985
12 53 100 51 2.84605e-06
13 53 100 51 0.000562383
14 53 100 51 0.00162967
39 53 100 51 4.56475e-05
42 53 100 51 1.62524e-06
45 53 100 51 7.49208e-05
46 53 100 51 1.74733e-05
47 53 100 51 0.00196587
48 53 100 51 0.00216088
50 53 100 51 3.52571e-06
7 54 100 51 1.99158e-06
8 54 100 51 1.32879e-06
9 54 100 51 2.67899e-06
10 54 100 51 7.15723e-05
11 54 100 51 1.47197e-06
12 54 100 51 0.999303
13 54 100 51 7.79607e-06
14 54 100 51 5.44807e-05
45 54 100 51 0.000214515
46 54 100 51 3.79852e-06
47 54 100 51 7.0929e-05
48 54 100 51 1.96457e-05
49 54 100 51 0.000246695
5 55 100 51 1.35107e-05
6 55 100 51 1.99159e-05
9 55 100 51 0.000135001
11 55 100 51 0.000289819
12 55 100 51 1.58523e-06
13 55 100 51 0.165527
14 55 100 51 0.00123589
39 55 100 51 1.28411e-05
45 55 100 51 1.33516e-05
46 55 100 51 3.34594e-06
47 55 100 51 0.000432136
48 55 100 51 0.832202
49 55 100 51 1.53949e-06
50 55 100 51 0.000112468
7 56 100 51 1.43673e-06
9 56 100 51 1.2433e-06
10 56 100 51 1.87998e-05
12 56 100 51 0.000327617
13 56 100 51 1.08474e-05
14 56 100 51 0.000212567
45 56 100 51 8.41231e-05
46 56 100 51 2.05503e-06
47 56 100 51 1.31334e-05
48 56 100 51 7.64271e-06
49 56 100 51 0.999321
5 57 100 51 2.54623e-06
6 57 100 51 2.97438e-06
9 57 100 51 1.52604e-05
11 57 100 51 6.47938e-06
13 57 100 51 0.000253123
14 57 100 51 0.000434688
39 57 100 51 1.79018e-06
45 57 100 51 1.87798e-06
47 57 100 51 4.3742e-05
48 57 100 51 8.76455e-05
50 57 100 51 0.99915
8 58 100 51 2.35116e-06
51 58 100 51 0.999998
2 0 100 53 1.07151e-05
3 0 100 53 0.232268
5 0 100 53 5.28176e-06
9 0 100 53 0.232962
14 0 100 53 0.0112931
15 0 100 53 0.00107979
17 0 100 53 0.0113028
21 0 100 53 0.232974
23 0 100 53 2.43304e-05
31 0 100 53 0.232981
33 0 100 53 0.00558058
38 0 100 53 0.0112942
43 0 100 53 0.0112916
45 0 100 53 0.00328088
46 0 100 53 1.41111e-05
47 0 100 53 5.54568e-06
49 0 100 53 0.0136321
1 1 100 53 1
2 2 100 53 1
4 3 100 53 1
3 4 100 53 0.994819
31 4 100 53 0.00518092
5 5 100 53 1
6 6 100 53 1
7 7 100 53 1
8 8 100 53 0.5
10 8 100 53 0.5
11 9 100 53 1
46 10 100 53 1
12 11 100 53 1
13 12 100 53 1
14 13 100 53 0.999986
21 13 100 53 1.35639e-05
15 14 100 53 1
16 15 100 53 1
3 16 100 53 1.11387e-05
17 16 100 53 0.999929
21 16 100 53 4.86501e-05
31 16 100 53 1.11387e-05
18 17 100 53 1
19 18 100 53 1
20 19 100 53 1
24 20 100 53 1
25 21 100 53 1
26 22 100 53 1
22 23 100 53 1
23 24 100 53 1
27 25 100 53 1
28 26 100 53 1
29 27 100 53 1
30 28 100 53 1
32 29 100 53 1
9 30 100 53 2.04813e-05
33 30 100 53 0.99998
34 31 100 53 1
24 32 100 53 1
35 33 100 53 1
23 34 100 53 1
36 35 100 53 1
37 36 100 53 1
3 37 100 53 1.14262e-05
31 37 100 53 1.35638e-05
38 37 100 53 0.999975
39 38 100 53 1
40 39 100 53 1
9 40 100 53 1
41 41 100 53 0.499999
42 41 100 53 0.500001
43 42 100 53 1
44 43 100 53 1
47 44 100 53 1
45 45 100 53 1
46 46 100 53 1
48 47 100 53 0.515069
49 47 100 53 0.484931
9 48 100 53 1
50 49 100 53 1
49 50 100 53 0.0724841
50 50 100 53 0.927516
51 51 100 53 1
52 52 100 53 1
53 53 100 53 1
