2 0.258843 0.738783 0.00237454 0 0 0 0 0 0 0 
3 0.0432225 0.956777 1.7152e-07 0 0 0 0 0 0 0 
4 0.416765 0.581606 0.00162912 0 0 0 0 0 0 0 
5 0.0432225 0.956777 1.7152e-07 0 0 0 0 0 0 0 
6 0.0409049 0.85712 0.101975 0 0 0 0 0 0 0 
7 0.417897 0.580631 0.0014729 0 0 0 0 0 0 0 
8 0.0432225 0.956776 2.65617e-07 0 0 0 0 0 0 0 
9 0 0.753845 0 0.246154 0 0 0 0 0 0 
10 0.431276 0.565825 0.00289889 0 0 0 0 0 0 0 
11 0.143909 0.85609 0 0 0 0 0 0 0 0 
12 0.47303 0.525734 0.001236 0 0 0 0 0 0 0 
13 0.0432225 0.956777 1.7152e-07 0 0 0 0 0 0 0 
14 0.143909 0.85609 0 0 0 0 0 0 0 0 
15 0.267222 0.732778 0 0 0 0 0 0 0 0 
16 0.0795093 0.867797 0.0526932 0 0 0 0 0 0 0 
17 0.0409049 0.85712 0.101975 0 0 0 0 0 0 0 
18 0.0476183 0.952381 1.3936e-07 0 0 0 0 0 0 0 
19 0.0795093 0.867797 0.0526932 0 0 0 0 0 0 0 
20 0.035396 0.915115 0.0494885 0 0 0 0 0 0 0 
21 0 0.956921 0.0430785 0 0 0 0 0 0 0 
22 0.141736 0.858263 0 0 0 0 0 0 0 0 
23 0.384154 0.61428 0.00156569 0 0 0 0 0 0 0 
24 0.035396 0.915115 0.0494885 0 0 0 0 0 0 0 
25 0.0795093 0.867797 0.0526932 0 0 0 0 0 0 0 
26 0.199445 0.796857 0.00369787 0 0 0 0 0 0 0 
27 0 0.956921 0.0430785 0 0 0 0 0 0 0 
28 0.035396 0.915115 0.0494885 0 0 0 0 0 0 0 
29 0.0795093 0.867797 0.0526932 0 0 0 0 0 0 0 
30 0.394102 0.604405 0.00149336 0 0 0 0 0 0 0 
31 0.143909 0.85609 0 0 0 0 0 0 0 0 
32 0.234243 0.761376 0.00438047 0 0 0 0 0 0 0 
33 0.169632 0.830368 0 0 0 0 0 0 0 0 
34 0.407792 0.590554 0.00165418 0 0 0 0 0 0 0 
35 0.135568 0.864431 0 0 0 0 0 0 0 0 
36 0.154537 0.845462 0 0 0 0 0 0 0 0 
37 0.0432225 0.956777 1.7152e-07 0 0 0 0 0 0 0 
38 0.143909 0.85609 0 0 0 0 0 0 0 0 
39 0.0795093 0.852412 0.0680777 0 0 0 0 0 0 0 
40 0.143909 0.85609 0 0 0 0 0 0 0 0 
41 0.0492614 0.902727 0.0480112 0 0 0 0 0 0 0 
42 0.0795093 0.867797 0.0526932 0 0 0 0 0 0 0 
43 0.407792 0.590554 0.00165418 0 0 0 0 0 0 0 
44 0.0918543 0.856936 0.0512092 0 0 0 0 0 0 0 
45 0 0.956921 0.0430785 0 0 0 0 0 0 0 
46 0 0.9641 0.0358988 0 0 0 0 0 0 0 
47 0.187498 0.812502 0 0 0 0 0 0 0 0 
48 0.0783046 0.8698 0.0518948 0 0 0 0 0 0 0 
49 0.242186 0.753565 0.00424971 0 0 0 0 0 0 0 
50 0 0.956921 0.0430785 0 0 0 0 0 0 0 
51 0 0.753845 0 0.246154 0 0 0 0 0 0 
52 0 0.95692 0.0430786 0 0 0 0 0 0 0 
53 0 0.999999 0 0 0 0 0 0 0 0 
54 0.0795093 0.867797 0.0526932 0 0 0 0 0 0 0 
55 0 0.999999 0 0 0 0 0 0 0 0 
56 0.214448 0.781541 0.00401029 0 0 0 0 0 0 0 
57 0.415828 0.582567 0.0016048 0 0 0 0 0 0 0 
58 0.035396 0.915115 0.0494885 0 0 0 0 0 0 0 
59 0.0795093 0.867797 0.0526932 0 0 0 0 0 0 0 
60 0.0795093 0.852412 0.0680777 0 0 0 0 0 0 0 
61 0.401613 0.596758 0.00162912 0 0 0 0 0 0 0 
62 0.0432228 0.956776 1.7152e-07 0 0 0 0 0 0 0 
63 0.393106 0.605335 0.00155928 0 0 0 0 0 0 0 
64 0.035396 0.90063 0.0639729 0 0 0 0 0 0 0 
65 0.410544 0.58785 0.00160578 0 0 0 0 0 0 0 
66 0.0795093 0.867797 0.0526932 0 0 0 0 0 0 0 
67 0.035396 0.915115 0.0494885 0 0 0 0 0 0 0 
68 0.260969 0.734717 0.0043141 0 0 0 0 0 0 0 
69 0.143909 0.85609 0 0 0 0 0 0 0 0 
70 0 0.738461 0 0.261538 0 0 0 0 0 0 
71 0.0409049 0.85712 0.101975 0 0 0 0 0 0 0 
72 0.0795093 0.867797 0.0526932 0 0 0 0 0 0 0 
73 0.0425676 0.957431 1.68921e-07 0 0 0 0 0 0 0 
74 0.143909 0.85609 0 0 0 0 0 0 0 0 
75 0.373354 0.625131 0.0015144 0 0 0 0 0 0 0 
76 0.141729 0.85827 0 0 0 0 0 0 0 0 
77 0.445982 0.552738 0.00128006 0 0 0 0 0 0 0 
78 0.248509 0.747111 0.00438047 0 0 0 0 0 0 0 
79 0.0443417 0.955657 1.7152e-07 0 0 0 0 0 0 0 
80 0.234243 0.761376 0.00438047 0 0 0 0 0 0 0 
81 0.154539 0.84546 0 0 0 0 0 0 0 0 
82 0.0795093 0.863013 0.0574769 0 0 0 0 0 0 0 
83 0 0.956921 0.0430785 0 0 0 0 0 0 0 
84 0.0409049 0.857092 0.102002 0 0 0 0 0 0 0 
85 0.035396 0.915115 0.0494885 0 0 0 0 0 0 0 
86 0.0432545 0.956745 1.7152e-07 0 0 0 0 0 0 0 
87 0.0795093 0.867797 0.0526932 0 0 0 0 0 0 0 
88 0.0783046 0.8698 0.0518948 0 0 0 0 0 0 0 
89 0.035396 0.89973 0.0648731 0 0 0 0 0 0 0 
90 0.164559 0.83544 0 0 0 0 0 0 0 0 
91 0.253319 0.742494 0.00418722 0 0 0 0 0 0 0 
92 0 0.956921 0.0430785 0 0 0 0 0 0 0 
93 0.0795093 0.867797 0.0526932 0 0 0 0 0 0 0 
94 0.035396 0.915115 0.0494885 0 0 0 0 0 0 0 
95 0.0432225 0.956777 1.7152e-07 0 0 0 0 0 0 0 
96 0.0409049 0.85712 0.101975 0 0 0 0 0 0 0 
97 0 0.956921 0.0430785 0 0 0 0 0 0 0 
98 0 0.999999 0 0 0 0 0 0 0 0 
99 0.0409049 0.85712 0.101975 0 0 0 0 0 0 0 
100 0.417836 0.580521 0.00164317 0 0 0 0 0 0 0 
101 0.234243 0.761376 0.00438047 0 0 0 0 0 0 0 
102 0.141729 0.85827 0 0 0 0 0 0 0 0 
103 0.0426405 0.957359 1.68921e-07 0 0 0 0 0 0 0 
104 0.143909 0.85609 0 0 0 0 0 0 0 0 
105 0.0432225 0.956777 1.7152e-07 0 0 0 0 0 0 0 
106 0.238615 0.757198 0.00418727 0 0 0 0 0 0 0 
107 0.143909 0.85609 0 0 0 0 0 0 0 0 
108 0.0348597 0.916401 0.0487387 0 0 0 0 0 0 0 
109 0.0934547 0.85465 0.0518948 0 0 0 0 0 0 0 
110 0.114087 0.885807 0.000104758 0 0 0 0 0 0 0 
111 0 0.956921 0.0430785 0 0 0 0 0 0 0 
112 0.159294 0.840705 0 0 0 0 0 0 0 0 
113 0 0.999999 0 0 0 0 0 0 0 0 
114 0.12924 0.870628 0.000131232 0 0 0 0 0 0 0 
115 0.0409049 0.85712 0.101975 0 0 0 0 0 0 0 
116 0.0432225 0.956777 1.7152e-07 0 0 0 0 0 0 0 
117 0.0432225 0.956777 1.7152e-07 0 0 0 0 0 0 0 
118 0.407792 0.590554 0.00165418 0 0 0 0 0 0 0 
119 0.0348597 0.916401 0.0487387 0 0 0 0 0 0 0 
120 0.0795093 0.867797 0.0526932 0 0 0 0 0 0 0 
121 0.234243 0.761376 0.00438047 0 0 0 0 0 0 0 
122 0.0795093 0.867797 0.0526932 0 0 0 0 0 0 0 
123 0.104182 0.846164 0.0496531 0 0 0 0 0 0 0 
124 0.115843 0.88405 0.00010637 0 0 0 0 0 0 0 
125 0 0.999999 0 0 0 0 0 0 0 0 
126 0 0.956921 0.0430785 0 0 0 0 0 0 0 
127 0.0432225 0.956777 1.7152e-07 0 0 0 0 0 0 0 
128 0.0795093 0.867797 0.0526932 0 0 0 0 0 0 0 
129 0.0409049 0.85712 0.101975 0 0 0 0 0 0 0 
130 0.139613 0.860386 0 0 0 0 0 0 0 0 
131 0.035396 0.915115 0.0494885 0 0 0 0 0 0 0 
132 0.143909 0.85609 0 0 0 0 0 0 0 0 
133 0.245846 0.74984 0.0043141 0 0 0 0 0 0 0 
134 0.0409049 0.85712 0.101975 0 0 0 0 0 0 0 
135 0 0.999999 0 0 0 0 0 0 0 0 
136 0.035396 0.915115 0.0494885 0 0 0 0 0 0 0 
137 0.035396 0.915115 0.0494885 0 0 0 0 0 0 0 
138 0.115843 0.88405 0.00010637 0 0 0 0 0 0 0 
139 0.0795093 0.867797 0.0526932 0 0 0 0 0 0 0 
140 0.407818 0.589165 0.00301682 0 0 0 0 0 0 0 
141 0.0354104 0.914013 0.0505756 0 0 0 0 0 0 0 
142 0 0.999999 0 0 0 0 0 0 0 0 
143 0.143909 0.85609 0 0 0 0 0 0 0 0 
144 0.143909 0.85609 0 0 0 0 0 0 0 0 
145 0.035396 0.915115 0.0494885 0 0 0 0 0 0 0 
146 0.053795 0.946204 1.7152e-07 0 0 0 0 0 0 0 
147 0.0402091 0.910302 0.0494885 0 0 0 0 0 0 0 
148 0.035396 0.915115 0.0494885 0 0 0 0 0 0 0 
149 0.0432225 0.956777 1.7152e-07 0 0 0 0 0 0 0 
150 0.035396 0.915115 0.0494885 0 0 0 0 0 0 0 
151 0 0.999999 0 0 0 0 0 0 0 0 
152 0.429349 0.569137 0.00151442 0 0 0 0 0 0 0 
153 0.035396 0.915115 0.0494885 0 0 0 0 0 0 0 
154 0.143927 0.856072 0 0 0 0 0 0 0 0 
155 0.241606 0.754144 0.00424971 0 0 0 0 0 0 0 
156 0.0562712 0.841753 0.101975 0 0 0 0 0 0 0 
157 0.170119 0.82988 0 0 0 0 0 0 0 0 
158 0.0434343 0.85459 0.101975 0 0 0 0 0 0 0 
159 0.0432225 0.956777 1.7152e-07 0 0 0 0 0 0 0 
160 0 0.999999 0 0 0 0 0 0 0 0 
161 0.206441 0.793559 0 0 0 0 0 0 0 0 
162 0.0795093 0.867797 0.0526932 0 0 0 0 0 0 0 
163 0 0.956921 0.0430785 0 0 0 0 0 0 0 
164 0.0783046 0.8698 0.0518948 0 0 0 0 0 0 0 
165 0.0795093 0.867797 0.0526932 0 0 0 0 0 0 0 
166 0 0.956921 0.0430785 0 0 0 0 0 0 0 
167 0.035396 0.915115 0.0494885 0 0 0 0 0 0 0 
168 0.230694 0.764992 0.0043141 0 0 0 0 0 0 0 
169 0.143909 0.85609 0 0 0 0 0 0 0 0 
170 0.234243 0.761376 0.00438047 0 0 0 0 0 0 0 
171 0.143909 0.85609 0 0 0 0 0 0 0 0 
172 0.035396 0.915115 0.0494885 0 0 0 0 0 0 0 
173 0.040905 0.85712 0.101975 0 0 0 0 0 0 0 
174 0.166972 0.833027 0 0 0 0 0 0 0 0 
175 0.143909 0.85609 0 0 0 0 0 0 0 0 
176 0.234243 0.761376 0.00438047 0 0 0 0 0 0 0 
177 0.0795093 0.867797 0.0526932 0 0 0 0 0 0 0 
178 0 0.957573 0.0424258 0 0 0 0 0 0 0 
179 0.0432225 0.956777 1.7152e-07 0 0 0 0 0 0 0 
180 0 0.956921 0.0430785 0 0 0 0 0 0 0 
181 0.141729 0.85827 0 0 0 0 0 0 0 0 
182 0.0409049 0.85712 0.101975 0 0 0 0 0 0 0 
183 0 0.753845 0 0.246154 0 0 0 0 0 0 
184 0.0432225 0.956777 1.7152e-07 0 0 0 0 0 0 0 
185 0.035396 0.915115 0.0494885 0 0 0 0 0 0 0 
186 0.141729 0.85827 0 0 0 0 0 0 0 0 
187 0.0432225 0.956777 1.7152e-07 0 0 0 0 0 0 0 
188 0.0795093 0.867797 0.0526932 0 0 0 0 0 0 0 
189 0 0.944283 0.0557156 0 0 0 0 0 0 0 
190 0.0409049 0.85712 0.101975 0 0 0 0 0 0 0 
191 0.035396 0.915115 0.0494885 0 0 0 0 0 0 0 
192 0.144508 0.855491 0 0 0 0 0 0 0 0 
193 0.0795093 0.867797 0.0526932 0 0 0 0 0 0 0 
194 0.115843 0.88405 0.00010637 0 0 0 0 0 0 0 
195 0 0.956921 0.0430785 0 0 0 0 0 0 0 
196 0.158234 0.841765 0 0 0 0 0 0 0 0 
197 0.159155 0.840844 0 0 0 0 0 0 0 0 
198 0.143909 0.85609 0 0 0 0 0 0 0 0 
199 0.0432225 0.956777 1.7152e-07 0 0 0 0 0 0 0 
200 0.249642 0.746231 0.00412653 0 0 0 0 0 0 0 
201 0 0.999999 0 0 0 0 0 0 0 0 
202 0.143909 0.85609 0 0 0 0 0 0 0 0 
203 0.143909 0.85609 0 0 0 0 0 0 0 0 
204 0 0.956921 0.0430785 0 0 0 0 0 0 0 
205 0.234243 0.761376 0.00438047 0 0 0 0 0 0 0 
206 0.115843 0.88405 0.00010637 0 0 0 0 0 0 0 
207 0.0409049 0.841735 0.117359 0 0 0 0 0 0 0 
208 0.149459 0.85054 0 0 0 0 0 0 0 0 
209 0.035396 0.915115 0.0494885 0 0 0 0 0 0 0 
210 0.143909 0.85609 0 0 0 0 0 0 0 0 
211 0.0409049 0.841735 0.117359 0 0 0 0 0 0 0 
212 0 0.956921 0.0430785 0 0 0 0 0 0 0 
213 0.0795093 0.867797 0.0526932 0 0 0 0 0 0 0 
214 0.0409049 0.85712 0.101975 0 0 0 0 0 0 0 
215 0 0.941536 0.058463 0 0 0 0 0 0 0 
216 0.115843 0.88405 0.00010637 0 0 0 0 0 0 0 
217 0.0432225 0.956777 1.7152e-07 0 0 0 0 0 0 0 
218 0.0795093 0.867797 0.0526932 0 0 0 0 0 0 0 
219 0 0.956921 0.0430785 0 0 0 0 0 0 0 
220 0.0795093 0.867797 0.0526932 0 0 0 0 0 0 0 
221 0.131227 0.868666 0.00010637 0 0 0 0 0 0 0 
222 0 0.956921 0.0430785 0 0 0 0 0 0 0 
223 0.0795093 0.867797 0.0526932 0 0 0 0 0 0 0 
224 0.035396 0.915115 0.0494885 0 0 0 0 0 0 0 
225 0.234243 0.761376 0.00438047 0 0 0 0 0 0 0 
226 0.0585815 0.941418 1.7152e-07 0 0 0 0 0 0 0 
227 0 0.956921 0.0430785 0 0 0 0 0 0 0 
228 0.0432225 0.956777 1.7152e-07 0 0 0 0 0 0 0 
229 0.035396 0.915115 0.0494885 0 0 0 0 0 0 0 
230 0.035396 0.915115 0.0494885 0 0 0 0 0 0 0 
231 0 0.956921 0.0430785 0 0 0 0 0 0 0 
232 0 0.956921 0.0430785 0 0 0 0 0 0 0 
233 0.0795093 0.867797 0.0526932 0 0 0 0 0 0 0 
234 0.035396 0.915115 0.0494885 0 0 0 0 0 0 0 
235 0.143909 0.85609 0 0 0 0 0 0 0 0 
236 0.143909 0.85609 1.09896e-07 0 0 0 0 0 0 0 
237 0.230695 0.756636 0.0126692 0 0 0 0 0 0 0 
238 0 0.956921 0.0430785 0 0 0 0 0 0 0 
239 0.0409049 0.85712 0.101975 0 0 0 0 0 0 0 
240 0.0795093 0.867797 0.0526932 0 0 0 0 0 0 0 
241 0 0.956921 0.0430785 0 0 0 0 0 0 0 
242 0.0432225 0.956777 1.7152e-07 0 0 0 0 0 0 0 
243 0 0.956921 0.0430785 0 0 0 0 0 0 0 
244 0.0409049 0.85712 0.101975 0 0 0 0 0 0 0 
245 0.115843 0.88405 0.00010637 0 0 0 0 0 0 0 
246 0 0.999999 0 0 0 0 0 0 0 0 
247 0.245846 0.74984 0.0043141 0 0 0 0 0 0 0 
248 0.143909 0.85609 0 0 0 0 0 0 0 0 
249 0.146847 0.853152 0 0 0 0 0 0 0 0 
250 0.0409049 0.85712 0.101975 0 0 0 0 0 0 0 
251 0.0432225 0.956777 1.7152e-07 0 0 0 0 0 0 0 
252 0 0.956921 0.0430785 0 0 0 0 0 0 0 
253 0.234243 0.761376 0.00438047 0 0 0 0 0 0 0 
254 0 0.956921 0.0430785 0 0 0 0 0 0 0 
255 0.0795093 0.867797 0.0526932 0 0 0 0 0 0 0 
256 0.0783062 0.869796 0.0518968 0 0 0 0 0 0 0 
257 0.245846 0.74984 0.0043141 0 0 0 0 0 0 0 
258 0.145315 0.854684 0 0 0 0 0 0 0 0 
259 0.143909 0.85609 0 0 0 0 0 0 0 0 
260 0 0.956921 0.0430785 0 0 0 0 0 0 0 
261 0.0795093 0.867797 0.0526932 0 0 0 0 0 0 0 
262 0.143909 0.85609 0 0 0 0 0 0 0 0 
263 0 0.956921 0.0430785 0 0 0 0 0 0 0 
264 0.0409049 0.85712 0.101975 0 0 0 0 0 0 0 
265 0 0.956921 0.0430785 0 0 0 0 0 0 0 
266 0.143909 0.85609 0 0 0 0 0 0 0 0 
267 0.115843 0.88405 0.00010637 0 0 0 0 0 0 0 
268 0.143937 0.856063 0 0 0 0 0 0 0 0 
269 0.0795093 0.867797 0.0526932 0 0 0 0 0 0 0 
270 0.035396 0.915115 0.0494886 0 0 0 0 0 0 0 
271 0.035396 0.915115 0.0494885 0 0 0 0 0 0 0 
272 0 0.956921 0.0430785 0 0 0 0 0 0 0 
273 0.0795093 0.867797 0.0526932 0 0 0 0 0 0 0 
274 0.035396 0.915115 0.0494885 0 0 0 0 0 0 0 
275 0.234243 0.761376 0.00438047 0 0 0 0 0 0 0 
276 0.234243 0.761376 0.00438047 0 0 0 0 0 0 0 
277 0.035396 0.915115 0.0494885 0 0 0 0 0 0 0 
278 0 0.999999 0 0 0 0 0 0 0 0 
279 0.234244 0.761375 0.00438047 0 0 0 0 0 0 0 
280 0.115843 0.88405 0.00010637 0 0 0 0 0 0 0 
281 0.0432276 0.956771 1.78595e-07 0 0 0 0 0 0 0 
282 0.0353961 0.915115 0.0494886 0 0 0 0 0 0 0 
283 0.040905 0.85712 0.101975 0 0 0 0 0 0 0 
284 0 0.956921 0.0430785 0 0 0 0 0 0 0 
285 0.035396 0.915115 0.0494885 0 0 0 0 0 0 0 
286 0 0.956921 0.0430785 0 0 0 0 0 0 0 
287 0.115843 0.88405 0.00010637 0 0 0 0 0 0 0 
288 0.0934561 0.854648 0.0518948 0 0 0 0 0 0 0 
289 0 0.956921 0.0430785 0 0 0 0 0 0 0 
290 0.143909 0.85609 0 0 0 0 0 0 0 0 
291 0 0.956921 0.0430785 0 0 0 0 0 0 0 
292 0.035396 0.915115 0.0494885 0 0 0 0 0 0 0 
293 0.143909 0.85609 0 0 0 0 0 0 0 0 
294 0.244182 0.751438 0.00438047 0 0 0 0 0 0 0 
295 0.0795093 0.867797 0.0526932 0 0 0 0 0 0 0 
296 0.035396 0.915115 0.0494885 0 0 0 0 0 0 0 
297 0.0795093 0.867797 0.0526932 0 0 0 0 0 0 0 
298 0.407792 0.590554 0.00165418 0 0 0 0 0 0 0 
299 0.0432225 0.956777 1.7152e-07 0 0 0 0 0 0 0 
300 0.143909 0.85609 0 0 0 0 0 0 0 0 
301 0 0.956921 0.0430785 0 0 0 0 0 0 0 
302 0 0.956561 0.0434383 0 0 0 0 0 0 0 
303 0.035396 0.899805 0.0647978 0 0 0 0 0 0 0 
304 0.0409049 0.85712 0.101975 0 0 0 0 0 0 0 
305 0.115843 0.88405 0.00010637 0 0 0 0 0 0 0 
306 0 0.999999 0 0 0 0 0 0 0 0 
307 0.115843 0.88405 0.00010637 0 0 0 0 0 0 0 
308 0 0.956921 0.0430785 0 0 0 0 0 0 0 
309 0 0.956921 0.0430785 0 0 0 0 0 0 0 
310 0.035396 0.915115 0.0494885 0 0 0 0 0 0 0 
311 0 0.956921 0.0430785 0 0 0 0 0 0 0 
312 0 0.956921 0.0430785 0 0 0 0 0 0 0 
313 0.0795093 0.867797 0.0526932 0 0 0 0 0 0 0 
314 0.0795093 0.867797 0.0526932 0 0 0 0 0 0 0 
315 0.0409049 0.85712 0.101975 0 0 0 0 0 0 0 
316 0.0432225 0.956777 1.7152e-07 0 0 0 0 0 0 0 
317 0.0409049 0.843302 0.115792 0 0 0 0 0 0 0 
318 0 0.941551 0.0584485 0 0 0 0 0 0 0 
319 0.047638 0.903495 0.0488665 0 0 0 0 0 0 0 
320 0.035396 0.915115 0.0494885 0 0 0 0 0 0 0 
321 0 0.999999 0 0 0 0 0 0 0 0 
322 0.0432225 0.956777 1.7152e-07 0 0 0 0 0 0 0 
323 0.0338344 0.91886 0.0473052 0 0 0 0 0 0 0 
324 0.234243 0.761376 0.00438047 0 0 0 0 0 0 0 
325 0.0409049 0.85712 0.101975 0 0 0 0 0 0 0 
326 0.035396 0.915115 0.0494885 0 0 0 0 0 0 0 
327 0 0.956921 0.0430785 0 0 0 0 0 0 0 
328 0.234243 0.761376 0.00438047 0 0 0 0 0 0 0 
329 0.143909 0.85609 0 0 0 0 0 0 0 0 
330 0.143909 0.85609 0 0 0 0 0 0 0 0 
331 0.0432225 0.956777 1.7152e-07 0 0 0 0 0 0 0 
332 0.0432225 0.956777 1.7152e-07 0 0 0 0 0 0 0 
333 0 0.956921 0.0430785 0 0 0 0 0 0 0 
334 0.0795093 0.852412 0.0680775 0 0 0 0 0 0 0 
335 0.143909 0.85609 0 0 0 0 0 0 0 0 
336 0.0795093 0.867797 0.0526932 0 0 0 0 0 0 0 
337 0.035396 0.915115 0.0494885 0 0 0 0 0 0 0 
338 0.0795093 0.867797 0.0526932 0 0 0 0 0 0 0 
339 0.035396 0.915115 0.0494885 0 0 0 0 0 0 0 
340 0 0.957573 0.0424258 0 0 0 0 0 0 0 
341 0.035396 0.915115 0.0494885 0 0 0 0 0 0 0 
342 0.0432225 0.956777 1.7152e-07 0 0 0 0 0 0 0 
343 0.234243 0.761376 0.00438047 0 0 0 0 0 0 0 
344 0.203313 0.796687 0 0 0 0 0 0 0 0 
345 0.206441 0.793559 0 0 0 0 0 0 0 0 
346 0.0409049 0.85712 0.101975 0 0 0 0 0 0 0 
347 0.035396 0.915115 0.0494885 0 0 0 0 0 0 0 
348 0.0432225 0.956777 1.7152e-07 0 0 0 0 0 0 0 
349 0.0432225 0.956777 1.7152e-07 0 0 0 0 0 0 0 
350 0.0425676 0.957431 1.68921e-07 0 0 0 0 0 0 0 
351 0.0795093 0.867797 0.0526932 0 0 0 0 0 0 0 
352 0.0419322 0.958067 1.664e-07 0 0 0 0 0 0 0 
353 0.423177 0.575169 0.00165418 0 0 0 0 0 0 0 
354 0.0432225 0.956777 1.7152e-07 0 0 0 0 0 0 0 
355 0 0.957573 0.0424258 0 0 0 0 0 0 0 
356 0.0432225 0.956777 1.7152e-07 0 0 0 0 0 0 0 
357 0.0432225 0.956777 1.7152e-07 0 0 0 0 0 0 0 
358 0.035396 0.915115 0.0494885 0 0 0 0 0 0 0 
359 0 0.999999 0 0 0 0 0 0 0 0 
360 0.206441 0.793559 0 0 0 0 0 0 0 0 
361 0.143909 0.85609 0 0 0 0 0 0 0 0 
362 0.407792 0.590554 0.00165418 0 0 0 0 0 0 0 
363 0.0795093 0.867797 0.0526932 0 0 0 0 0 0 0 
364 0.035396 0.915115 0.0494885 0 0 0 0 0 0 0 
365 0.143909 0.85609 0 0 0 0 0 0 0 0 
366 0.115843 0.884049 0.00010772 0 0 0 0 0 0 0 
367 0.143909 0.85609 0 0 0 0 0 0 0 0 
368 0.143909 0.85609 0 0 0 0 0 0 0 0 
369 0.0432225 0.956777 1.7152e-07 0 0 0 0 0 0 0 
370 0.035396 0.915115 0.0494885 0 0 0 0 0 0 0 
371 0.143909 0.85609 0 0 0 0 0 0 0 0 
372 0.0409049 0.85712 0.101975 0 0 0 0 0 0 0 
373 0.035396 0.915115 0.0494885 0 0 0 0 0 0 0 
