0 2 0.200294
0 6 0.652965
0 8 4.83431e-06
0 9 0.0123182
0 11 0.0381863
63 4 1.61104e-05
0 28 4.6644e-06
21 20 0.999965
0 33 0.00322523
0 47 1.28639e-06
0 48 7.43679e-06
42 40 0.999965
0 60 0.0298246
0 61 7.46075e-07
0 62 2.93208e-07
0 64 0.0127513
0 79 0.0122957
0 82 0.00848803
210 4 0.999965
63 60 0.999949
147 60 0.999965
84 86 0.999965
0 136 0.000428502
105 103 0.999965
126 121 0.999965
0 178 0.00221625
0 179 0.0133695
168 158 0.999965
0 239 2.19587e-05
189 178 0.445293
189 179 0.00566733
0 252 2.19329e-05
189 180 0.549005
0 280 6.02758e-05
0 294 1.16946e-05
0 295 0.00125487
0 297 0.0122148
273 200 0.999965
231 217 0.999965
252 235 0.999965
0 340 2.30745e-07
294 272 0.999965
315 291 0.999965
336 315 0.999965
357 330 0.999965
10 2 7.5922e-05
10 9 2.5451e-05
10 11 0.141864
31 29 0.999965
52 46 0.999965
73 72 0.499983
94 95 0.999965
241 54 0.999965
115 109 0.999965
73 140 0.499983
136 132 0.999965
10 188 0.787411
157 148 0.999965
178 168 0.999965
10 239 0.0705896
199 187 0.999965
220 208 0.999965
262 244 0.999965
283 262 0.999965
304 282 0.999965
325 301 0.999965
346 322 0.999965
367 339 0.999965
20 19 0.999965
41 61 0.500039
62 62 0.999965
41 86 0.499926
146 60 0.999965
83 85 0.999965
104 102 0.999965
125 120 0.999965
167 157 0.999965
188 177 0.999965
209 198 0.999965
230 216 0.999965
251 234 0.999965
272 254 0.999965
293 271 0.999965
314 290 0.999965
335 312 0.999965
356 329 0.999965
9 10 0.999965
30 24 0.0214383
30 28 0.978527
51 50 0.999965
114 33 0.997977
72 71 0.999965
114 60 0.00198789
93 94 0.999965
135 131 0.999965
156 147 0.999965
177 167 0.999965
198 186 0.999965
219 207 0.999965
240 224 0.999965
261 243 0.999965
282 262 0.999965
303 280 0.498757
303 281 0.501209
324 300 0.999965
345 320 0.999965
366 340 8.78606e-05
366 342 0.999878
19 18 0.999965
103 2 0.498776
40 39 0.999965
61 59 0.999965
82 82 0.237182
82 84 0.762783
334 28 0.499979
103 118 0.501189
124 119 0.999965
145 139 0.999965
355 61 0.499983
166 156 0.999965
187 176 0.999965
208 179 0.313352
208 197 0.626763
229 215 0.999965
208 232 0.0598503
250 233 0.999965
271 253 0.999965
292 269 0.999965
313 289 0.999965
334 311 0.499987
355 341 0.499983
8 8 0.999965
29 27 0.999965
50 49 0.999965
71 70 0.999965
281 11 0.999965
92 93 0.999965
113 108 0.999965
176 110 0.999965
302 64 0.0228522
134 130 0.999965
155 148 0.509352
239 128 0.999965
197 178 0.999965
323 158 0.749974
218 206 0.999965
155 270 0.490614
260 242 0.999965
302 279 0.977113
323 321 0.249991
344 319 0.999965
365 338 0.999965
18 17 0.933301
39 37 0.499983
123 6 0.3291
39 38 0.499983
123 8 0.335366
60 57 0.499981
60 58 0.499984
81 81 0.999965
102 80 0.999965
312 13 0.999965
165 77 0.999965
144 124 0.999965
186 119 0.999965
123 159 0.335499
18 231 0.0666643
207 195 0.499983
207 196 0.499982
228 214 0.999965
249 232 0.999965
270 251 0.999965
291 268 0.999965
333 310 0.999965
354 328 0.999965
28 26 0.999965
49 48 0.999965
91 33 6.54631e-05
70 69 0.333322
70 78 0.333322
70 83 0.333322
91 92 0.9999
7 141 0.999965
133 129 0.999965
154 147 0.999965
175 166 0.999965
301 127 0.999965
196 179 0.999965
217 205 0.999965
238 223 0.999965
259 237 0.999965
280 260 0.999965
322 299 0.999965
343 318 0.999965
364 336 0.999965
17 16 0.999965
38 36 0.999965
59 56 0.999965
80 80 0.999965
101 101 0.999965
122 117 0.999965
143 123 0.999965
164 154 0.999965
185 175 0.999965
206 194 0.999965
227 213 0.999965
248 230 0.999965
269 250 0.999965
290 267 0.999965
311 288 0.999965
332 309 0.999965
6 7 0.999965
27 25 0.999965
90 2 0.000195702
90 6 0.0153423
48 45 0.999965
90 34 0.902391
69 68 0.999965
111 54 0.999965
237 33 0.672474
279 28 0.999965
132 128 0.999965
90 155 0.0820361
321 77 0.999965
153 146 0.999965
174 165 0.999965
195 185 0.999965
237 179 0.327491
216 204 0.999965
258 239 0.999965
300 278 0.999965
342 314 0.999965
363 335 0.999965
16 15 0.999965
37 35 0.999965
58 55 0.999965
79 77 0.999965
226 74 0.999965
247 68 0.999965
121 116 0.999965
100 137 0.999965
142 138 0.999965
163 153 0.999965
184 174 0.999965
205 193 0.999965
268 252 0.999965
289 266 0.999965
310 287 0.999965
331 308 0.999965
352 327 0.999965
373 349 0.999965
5 5 0.999965
26 24 0.999965
47 44 0.584221
47 60 0.0819227
152 33 0.338328
68 79 0.989012
68 82 0.010953
89 90 0.499983
89 91 0.499983
47 110 0.333751
152 74 0.661637
110 107 0.999965
173 104 0.999965
131 127 0.999965
320 76 0.999965
194 184 0.999965
215 202 0.499983
215 203 0.499983
236 222 0.999965
257 240 0.999965
47 340 7.0361e-05
278 259 0.999965
299 277 0.999965
341 313 0.999965
362 334 0.999965
15 6 0.999965
36 34 0.500002
57 47 0.607515
78 77 0.999965
99 100 0.999965
120 115 0.999965
141 137 0.999965
162 152 0.999965
183 173 0.999965
36 241 0.499963
204 192 0.999965
57 272 0.39245
225 212 0.999965
246 229 0.999965
267 249 0.999965
309 286 0.999965
288 306 0.999965
330 307 0.999965
351 326 0.999965
372 348 0.999965
4 4 0.999965
25 23 0.999965
46 43 0.999965
67 67 0.999965
88 89 0.999965
319 2 0.134433
130 100 0.999965
109 110 0.999965
151 145 0.999965
256 110 0.500464
172 163 0.999965
193 183 0.999965
214 201 0.999965
361 162 0.999965
235 221 0.999965
277 258 0.999965
298 276 0.999965
319 297 0.00724157
319 298 0.858291
256 340 0.499501
340 317 0.499983
340 344 0.499983
14 14 0.999965
77 11 0.225972
35 33 0.999965
77 28 0.110568
56 54 0.999965
77 60 2.10193e-05
77 76 0.663405
140 60 0.111919
98 99 0.999965
119 114 0.999965
140 136 0.888046
161 151 0.999965
182 172 0.999965
203 191 0.999965
224 211 0.999965
245 228 0.999965
266 248 0.999965
287 265 0.999965
308 285 0.999965
329 305 0.999965
350 325 0.999965
371 347 0.999965
3 3 0.999965
24 22 0.999965
45 42 0.999965
192 11 0.449517
66 66 0.999965
87 88 0.999965
108 106 0.999965
129 126 0.999965
150 144 0.999965
192 141 0.550448
171 162 0.999965
213 200 0.999965
234 220 0.999965
255 238 0.999965
276 257 0.999965
297 275 0.999965
318 294 0.499745
318 296 0.50022
339 316 0.999965
360 333 0.999965
13 13 0.999965
34 32 0.999965
55 53 0.999965
76 75 0.999965
97 98 0.999965
118 113 0.999965
139 135 0.999965
160 150 0.999965
181 171 0.499983
202 190 0.999965
223 210 0.999965
244 227 0.999965
265 247 0.999965
286 264 0.999965
307 284 0.999965
181 337 0.499983
328 304 0.999965
349 324 0.999965
370 346 0.999965
2 2 0.611619
2 11 0.363445
23 4 0.599907
44 2 0.999965
65 4 0.499999
23 21 0.400059
2 60 3.63841e-06
2 61 0.0248895
2 86 7.72033e-06
212 10 0.999965
65 86 0.499966
86 86 0.999965
107 105 0.999965
128 125 0.999965
338 68 0.999965
149 143 0.999965
170 161 0.999965
191 182 0.999965
233 219 0.999965
254 237 0.999965
275 256 0.999965
296 274 0.999965
317 293 0.526815
317 295 0.47315
359 332 0.999965
12 11 0.869344
33 31 0.999965
12 47 0.119699
12 60 0.0109223
54 52 0.999965
75 74 0.999965
96 97 0.999965
117 112 0.999965
138 134 0.999965
159 149 0.999965
180 170 0.999965
201 189 0.999965
222 209 0.999965
243 226 0.999965
264 246 0.999965
285 263 0.999965
306 283 0.999965
327 303 0.999965
348 323 0.999965
369 345 0.999965
22 21 0.499855
43 41 0.999965
22 65 0.50011
169 21 0.999965
64 63 0.515051
64 64 0.484915
211 10 0.499986
85 87 0.999965
106 104 0.333323
127 122 0.999965
148 142 0.999965
106 160 0.333322
106 164 0.333321
190 181 0.999965
211 199 0.499979
232 218 0.999965
253 236 0.999965
274 255 0.999965
295 273 0.999965
337 261 0.999965
316 292 0.999965
358 331 0.999965
11 12 0.999965
32 30 0.999965
53 51 0.999965
74 73 0.999965
95 96 0.999965
116 111 0.999965
305 57 0.999965
137 133 0.999965
158 148 0.999965
179 169 0.999965
200 188 0.999965
242 225 0.999965
263 245 0.999965
347 237 0.999965
284 261 0.999965
326 302 0.999965
368 343 0.999965
