15 1 16 100 1
15 2 16 100 1
0 3 16 100 0.999235
8 3 16 100 0.000765292
15 4 16 100 1
15 5 16 100 1
15 6 16 100 1
0 7 16 100 0.138095
1 7 16 100 0.861906
0 8 16 100 0.0199737
1 8 16 100 0.978366
2 8 16 100 0.00126053
13 8 16 100 0.000399437
0 9 16 100 1.41095e-05
3 9 16 100 0.999986
0 10 16 100 0.998425
8 10 16 100 0.00157524
11 11 16 100 1
11 12 16 100 1
11 13 16 100 1
0 14 16 100 0.0346284
1 14 16 100 2.01292e-05
12 14 16 100 0.00213613
13 14 16 100 0.963215
14 15 16 100 1
0 16 16 100 1.75292e-05
6 16 16 100 0.999982
4 17 16 100 1
4 18 16 100 1
5 19 16 100 1
7 20 16 100 0.794325
9 20 16 100 0.205675
2 21 16 100 0.00109366
10 21 16 100 0.92023
12 21 16 100 0.00559543
16 21 16 100 0.073081
1 1 20 100 1
0 2 20 100 0.0011522
1 2 20 100 1.007e-05
7 2 20 100 0.00557956
12 2 20 100 0.87097
15 2 20 100 0.122289
0 3 20 100 0.908042
4 3 20 100 0.0919584
3 4 20 100 1
0 5 20 100 1
2 6 20 100 1
2 7 20 100 1
2 8 20 100 1
2 9 20 100 1
0 10 20 100 1
5 11 20 100 1
5 12 20 100 1
0 13 20 100 1
5 14 20 100 1
7 15 20 100 0.993629
12 15 20 100 0.005579
15 15 20 100 0.000792249
8 16 20 100 1
8 17 20 100 1
8 18 20 100 1
8 19 20 100 0.999295
18 19 20 100 0.000705398
10 20 20 100 1
0 21 20 100 1
0 22 20 100 1.15564e-05
13 22 20 100 0.979669
14 22 20 100 0.0203196
8 23 20 100 0.000654193
18 23 20 100 0.999346
0 24 20 100 0.917774
6 24 20 100 0.0203607
16 24 20 100 0.061865
19 25 20 100 1
19 26 20 100 1
19 27 20 100 1
0 28 20 100 1
19 29 20 100 1
19 30 20 100 1
19 31 20 100 1
11 32 20 100 0.0264652
20 32 20 100 0.973535
0 1 21 100 0.000727816
1 1 21 100 0.0550411
5 1 21 100 0.932423
12 1 21 100 0.0118078
5 2 21 100 0.994474
10 2 21 100 0.00552582
6 3 21 100 1
7 4 21 100 1
3 5 21 100 1
3 6 21 100 1
0 7 21 100 1
3 8 21 100 1
3 9 21 100 1
3 10 21 100 1
0 11 21 100 0.000640385
3 11 21 100 0.0111629
14 11 21 100 0.988197
3 12 21 100 1
8 13 21 100 1
9 14 21 100 1
0 15 21 100 1
11 16 21 100 1
11 17 21 100 1
13 18 21 100 1
0 19 21 100 0.380739
19 19 21 100 0.619261
4 20 21 100 0.973506
17 20 21 100 0.0189633
20 20 21 100 0.00753061
17 21 21 100 0.00411551
20 21 21 100 0.995884
17 22 21 100 0.107087
20 22 21 100 0.892913
15 23 21 100 0.0120732
21 23 21 100 0.987927
5 1 22 100 1
3 2 22 100 1
0 3 22 100 0.989469
2 3 22 100 0.00761325
9 3 22 100 0.0029177
3 4 22 100 1
3 5 22 100 1
3 6 22 100 1
3 7 22 100 1
0 8 22 100 0.911529
16 8 22 100 0.088471
3 9 22 100 1
0 10 22 100 1
0 11 22 100 0.984166
2 11 22 100 0.00187022
9 11 22 100 0.0139636
4 12 22 100 0.0252196
7 12 22 100 0.97478
0 13 22 100 1
0 14 22 100 0.907656
16 14 22 100 0.0923438
12 15 22 100 1
0 16 22 100 0.00454064
8 16 22 100 5.00855e-05
11 16 22 100 5.00855e-05
13 16 22 100 0.994404
15 16 22 100 0.000954903
0 17 22 100 0.653332
16 17 22 100 0.346668
14 18 22 100 1
14 19 22 100 1
0 20 22 100 0.00708884
8 20 22 100 2.14281e-05
11 20 22 100 2.14281e-05
13 20 22 100 0.00107034
15 20 22 100 0.991798
19 21 22 100 1
18 22 22 100 0.0211722
20 22 22 100 0.978828
21 23 22 100 1
18 24 22 100 0.978384
20 24 22 100 0.0216157
21 25 22 100 1
8 26 22 100 0.0034081
11 26 22 100 0.0034081
22 26 22 100 0.993184
23 1 24 100 1
0 2 24 100 0.0439571
2 2 24 100 0.00120894
5 2 24 100 0.953142
10 2 24 100 0.000212708
12 2 24 100 0.00147953
6 3 24 100 1
0 4 24 100 0.488463
2 4 24 100 0.00737331
5 4 24 100 0.00217782
10 4 24 100 0.0646746
12 4 24 100 0.437312
19 5 24 100 1
0 6 24 100 0.65591
2 6 24 100 0.00285703
5 6 24 100 0.026925
10 6 24 100 0.000881308
12 6 24 100 0.313426
13 7 24 100 0.959132
17 7 24 100 0.0408675
15 8 24 100 1
15 9 24 100 1
13 10 24 100 0.0435761
17 10 24 100 0.956424
14 11 24 100 1
3 12 24 100 1
3 13 24 100 0.999375
8 13 24 100 0.000624965
0 14 24 100 1
3 15 24 100 1
3 16 24 100 1
3 17 24 100 1
3 18 24 100 1
0 19 24 100 0.993608
21 19 24 100 0.00639169
4 20 24 100 1
0 21 24 100 0.997446
20 21 24 100 0.00255418
18 22 24 100 0.980821
22 22 24 100 0.0191787
16 23 24 100 0.00143111
24 23 24 100 0.998569
0 1 25 100 0.089904
1 1 25 100 0.576763
2 1 25 100 0.0542151
15 1 25 100 0.279118
2 2 25 100 0.00233727
3 2 25 100 0.666668
5 2 25 100 0.000148006
14 2 25 100 0.000643041
16 2 25 100 0.330204
3 3 25 100 1
3 4 25 100 0.666667
5 4 25 100 0.333333
0 5 25 100 0.333854
3 5 25 100 0.333334
5 5 25 100 0.267536
8 5 25 100 0.00307676
13 5 25 100 0.0621997
3 6 25 100 0.333334
4 6 25 100 0.333333
12 6 25 100 0.333333
0 7 25 100 0.333338
1 7 25 100 0.333329
15 7 25 100 0.333333
0 8 25 100 5.88838e-05
3 8 25 100 0.333333
6 8 25 100 0.663337
17 8 25 100 0.00327052
0 9 25 100 0.000222841
5 9 25 100 0.361416
6 9 25 100 0.0259927
7 9 25 100 0.333333
8 9 25 100 0.00331376
13 9 25 100 0.275721
6 10 25 100 0.0235584
7 10 25 100 0.010865
8 10 25 100 0.32247
9 10 25 100 0.00765749
10 10 25 100 0.308181
24 10 25 100 0.327268
0 11 25 100 0.0241926
2 11 25 100 6.16369e-05
4 11 25 100 0.000373191
8 11 25 100 0.333333
11 11 25 100 0.283514
12 11 25 100 0.0251552
15 11 25 100 0.000963613
18 11 25 100 3.66691e-05
22 11 25 100 0.33237
8 12 25 100 0.328185
9 12 25 100 0.00514842
13 12 25 100 0.297645
15 12 25 100 0.0356883
22 12 25 100 0.333333
0 13 25 100 0.00569868
2 13 25 100 0.000181642
7 13 25 100 3.64748e-06
9 13 25 100 0.325058
11 13 25 100 0.00827512
16 13 25 100 0.327611
20 13 25 100 2.03337e-05
21 13 25 100 0.333152
0 14 25 100 0.33252
11 14 25 100 0.333333
14 14 25 100 0.00081289
17 14 25 100 0.333333
0 15 25 100 4.46076e-06
11 15 25 100 0.333254
16 15 25 100 0.333408
17 15 25 100 0.333334
0 16 25 100 1
0 17 25 100 0.333176
5 17 25 100 1.15371e-05
8 17 25 100 0.332518
13 17 25 100 0.334136
23 17 25 100 0.000158015
0 18 25 100 0.0450037
2 18 25 100 0.000208349
4 18 25 100 0.000241033
9 18 25 100 0.326891
11 18 25 100 5.69365e-05
12 18 25 100 0.000141462
18 18 25 100 0.287682
19 18 25 100 0.333333
24 18 25 100 0.0064422
0 19 25 100 0.333334
15 19 25 100 0.333097
19 19 25 100 0.333334
22 19 25 100 0.000235952
17 20 25 100 0.334448
19 20 25 100 0.333333
20 20 25 100 0.201841
21 20 25 100 0.0206094
22 20 25 100 0.109768
6 21 25 100 0.00327051
17 21 25 100 0.330063
19 21 25 100 0.333333
24 21 25 100 0.333333
0 22 25 100 0.340349
6 22 25 100 0.331697
10 22 25 100 0.000319295
16 22 25 100 0.000574941
20 22 25 100 0.327059
0 23 25 100 9.29987e-06
4 23 25 100 1.14547e-05
10 23 25 100 0.333313
24 23 25 100 0.666667
0 24 25 100 0.332394
10 24 25 100 0.000402249
11 24 25 100 0.333333
18 24 25 100 0.000253895
23 24 25 100 0.000283617
24 24 25 100 0.333333
0 25 25 100 4.46947e-06
7 25 25 100 0.0040624
19 25 25 100 0.0518028
24 25 25 100 0.666667
25 25 25 100 0.277464
24 26 25 100 1
7 27 25 100 0.000444857
24 27 25 100 0.5
25 27 25 100 0.499555
24 28 25 100 1
24 29 25 100 1
2 30 25 100 0.000831746
5 30 25 100 0.000867632
11 30 25 100 0.00476768
14 30 25 100 0.00258929
16 30 25 100 0.990944
12 31 25 100 0.00605315
25 31 25 100 0.993947
21 1 30 100 0.999186
23 1 30 100 0.00081395
21 2 30 100 0.968996
23 2 30 100 0.0310039
20 3 30 100 0.00709341
27 3 30 100 0.992907
3 4 30 100 1
3 5 30 100 1
3 6 30 100 1
3 7 30 100 0.822572
4 7 30 100 0.177428
0 8 30 100 0.988394
1 8 30 100 0.0105061
14 8 30 100 0.00109975
0 9 30 100 0.243943
6 9 30 100 0.743341
9 9 30 100 0.00142113
26 9 30 100 0.000250314
28 9 30 100 0.0110441
4 10 30 100 0.000857494
6 10 30 100 0.00553414
7 10 30 100 0.986068
8 10 30 100 0.00754076
0 11 30 100 0.0305036
1 11 30 100 0.00539158
2 11 30 100 2.93165e-05
12 11 30 100 0.963948
18 11 30 100 0.000127348
10 12 30 100 0.997881
13 12 30 100 0.00211881
11 13 30 100 1
11 14 30 100 1
0 15 30 100 5.5214e-05
11 15 30 100 0.0319871
17 15 30 100 0.967958
0 16 30 100 0.112611
1 16 30 100 0.00343953
14 16 30 100 0.883949
0 17 30 100 0.984621
6 17 30 100 0.0074906
9 17 30 100 0.000245513
26 17 30 100 2.09688e-05
28 17 30 100 0.00762191
16 18 30 100 1
0 19 30 100 0.0305033
1 19 30 100 0.00235947
2 19 30 100 1.28295e-05
12 19 30 100 0.966922
15 19 30 100 3.61172e-05
18 19 30 100 0.000165798
29 20 30 100 1
29 21 30 100 1
0 22 30 100 1
29 23 30 100 1
29 24 30 100 1
29 25 30 100 1
29 26 30 100 1
2 27 30 100 0.00134801
15 27 30 100 0.00605447
18 27 30 100 0.0268945
22 27 30 100 0.000224786
25 27 30 100 0.000224786
30 27 30 100 0.965253
0 1 35 100 0.149053
9 1 35 100 0.0153331
31 1 35 100 0.835614
33 2 35 100 0.987706
34 2 35 100 0.0122943
0 3 35 100 0.985003
1 3 35 100 0.0100108
10 3 35 100 0.000996014
12 3 35 100 0.00347017
32 3 35 100 0.000520213
5 4 35 100 0.100038
7 4 35 100 0.0973889
30 4 35 100 0.786226
34 4 35 100 0.0163465
2 5 35 100 1
2 6 35 100 1
2 7 35 100 1
2 8 35 100 1
2 9 35 100 1
13 10 35 100 1
14 11 35 100 1
0 12 35 100 1
0 13 35 100 5.91542e-05
19 13 35 100 0.000243562
24 13 35 100 0.999697
26 14 35 100 1
28 15 35 100 0.999902
29 15 35 100 9.83424e-05
25 16 35 100 0.0012505
28 16 35 100 0.000203506
29 16 35 100 0.998546
11 17 35 100 0.770013
25 17 35 100 0.0675358
29 17 35 100 0.162451
23 18 35 100 1
16 19 35 100 0.989845
21 19 35 100 0.0101546
17 20 35 100 1
17 21 35 100 1
17 22 35 100 0.999985
22 22 35 100 1.45552e-05
15 23 35 100 0.0818779
18 23 35 100 0.834053
35 23 35 100 0.0840689
1 1 39 100 1
1 2 39 100 1
5 3 39 100 0.986799
38 3 39 100 0.0132005
24 4 39 100 0.998899
37 4 39 100 0.00110098
0 5 39 100 0.0754249
25 5 39 100 0.923184
33 5 39 100 0.00139163
26 6 39 100 1
29 7 39 100 1
30 8 39 100 1
0 9 39 100 1
11 10 39 100 1
12 11 39 100 0.852976
13 11 39 100 0.00815091
34 11 39 100 0.138677
35 11 39 100 0.000196094
9 12 39 100 1
3 13 39 100 1
8 14 39 100 1
35 15 39 100 1
30 16 39 100 0.00442998
35 16 39 100 0.99557
32 17 39 100 1
29 18 39 100 1
29 19 39 100 1
0 20 39 100 0.835765
10 20 39 100 0.000676842
27 20 39 100 0.000710342
31 20 39 100 0.162848
29 21 39 100 1
23 22 39 100 1
20 23 39 100 1
20 24 39 100 1
6 25 39 100 1
0 26 39 100 1
9 27 39 100 1
0 28 39 100 3.67138e-05
12 28 39 100 0.138679
13 28 39 100 0.157446
34 28 39 100 0.691908
35 28 39 100 0.0119294
0 29 39 100 0.000230433
16 29 39 100 0.0345382
17 29 39 100 0.930693
18 29 39 100 0.0345382
0 30 39 100 0.985577
25 30 39 100 4.73621e-05
33 30 39 100 0.0143761
29 31 39 100 1
2 32 39 100 0.000725332
19 32 39 100 0.999275
22 33 39 100 1
36 34 39 100 1
0 35 39 100 1
0 36 39 100 0.993042
10 36 39 100 0.000484887
27 36 39 100 0.000241836
31 36 39 100 0.00623135
29 37 39 100 1
0 38 39 100 1
0 39 39 100 1.86932e-05
14 39 39 100 0.999981
12 40 39 100 0.000216561
13 40 39 100 0.962882
34 40 39 100 0.0364657
35 40 39 100 0.000435649
9 41 39 100 1
4 42 39 100 1
4 43 39 100 1
9 44 39 100 1
10 45 39 100 0.0329474
39 45 39 100 0.967053
1 1 44 100 1
1 2 44 100 0.5
3 2 44 100 0.5
3 3 44 100 0.500001
40 3 44 100 0.499999
0 4 44 100 0.5
6 4 44 100 0.5
4 5 44 100 0.5
6 5 44 100 0.5
5 6 44 100 0.5
7 6 44 100 0.499614
30 6 44 100 0.000385426
6 7 44 100 0.5
8 7 44 100 0.5
0 8 44 100 0.544875
9 8 44 100 0.45455
13 8 44 100 0.000574599
7 9 44 100 0.5
10 9 44 100 0.5
7 10 44 100 0.5
31 10 44 100 0.5
0 11 44 100 0.500116
9 11 44 100 0.499755
21 11 44 100 2.48789e-05
41 11 44 100 0.000104439
10 12 44 100 0.499999
33 12 44 100 0.500001
0 13 44 100 0.500001
15 13 44 100 0.499999
13 14 44 100 0.5
31 14 44 100 5.17021e-06
33 14 44 100 0.499995
18 15 44 100 0.5
34 15 44 100 0.5
0 16 44 100 1.80478e-05
7 16 44 100 0.000774979
10 16 44 100 0.5
30 16 44 100 0.499207
0 17 44 100 0.495644
10 17 44 100 0.5
39 17 44 100 0.00435626
0 18 44 100 0.5
41 18 44 100 0.5
0 19 44 100 0.932267
3 19 44 100 0.000640131
5 19 44 100 0.0110477
16 19 44 100 0.00174837
19 19 44 100 0.00289044
21 19 44 100 0.00289044
28 19 44 100 0.00825381
29 19 44 100 0.00170317
31 19 44 100 0.0385586
12 20 44 100 0.440225
24 20 44 100 0.0597748
41 20 44 100 0.5
0 21 44 100 1.12095e-05
8 21 44 100 0.0157651
23 21 44 100 0.123896
32 21 44 100 0.360327
41 21 44 100 0.500001
19 22 44 100 0.5
35 22 44 100 0.499739
38 22 44 100 0.000260776
19 23 44 100 0.5
36 23 44 100 0.5
20 24 44 100 0.499991
36 24 44 100 0.5
44 24 44 100 8.48877e-06
21 25 44 100 0.499999
26 25 44 100 0.499614
32 25 44 100 0.000386366
22 26 44 100 0.499981
27 26 44 100 0.5
38 26 44 100 1.91371e-05
22 27 44 100 0.547945
24 27 44 100 0.0389282
25 27 44 100 0.413127
0 28 44 100 0.500273
21 28 44 100 0.499727
0 29 44 100 0.00108877
15 29 44 100 0.499994
21 29 44 100 0.00188966
25 29 44 100 0.497027
15 30 44 100 0.477926
18 30 44 100 0.0220741
33 30 44 100 0.5
16 31 44 100 0.403327
18 31 44 100 0.0966726
34 31 44 100 0.5
4 32 44 100 0.499999
29 32 44 100 0.500001
4 33 44 100 0.5
30 33 44 100 0.5
4 34 44 100 0.5
28 34 44 100 0.5
0 35 44 100 1.09972e-05
1 35 44 100 0.5
39 35 44 100 0.499989
0 36 44 100 0.488416
3 36 44 100 0.000585474
5 36 44 100 0.00425244
19 36 44 100 0.0028684
21 36 44 100 0.0028684
28 36 44 100 0.000836857
29 36 44 100 0.000172685
43 36 44 100 0.5
0 37 44 100 0.5
4 37 44 100 0.5
0 38 44 100 0.489569
4 38 44 100 0.5
16 38 44 100 4.19001e-05
31 38 44 100 0.0103895
4 39 44 100 0.5
42 39 44 100 0.5
4 40 44 100 0.5
35 40 44 100 0.5
11 41 44 100 0.450418
37 41 44 100 0.0495814
43 41 44 100 0.5
43 42 44 100 1
2 43 44 100 0.00102124
12 43 44 100 0.024563
14 43 44 100 0.00981943
40 43 44 100 0.5
44 43 44 100 0.464597
36 44 44 100 1
0 45 44 100 1
37 46 44 100 1
0 47 44 100 1.94723e-05
2 47 44 100 2.00495e-05
38 47 44 100 0.99996
0 48 44 100 0.00524455
21 48 44 100 0.994755
0 49 44 100 2.31673e-05
12 49 44 100 0.238387
24 49 44 100 0.76159
27 50 44 100 1
0 51 44 100 0.000140055
17 51 44 100 1.39474e-05
24 51 44 100 6.34088e-05
27 51 44 100 0.999783
43 52 44 100 1
43 53 44 100 1
20 54 44 100 1.69778e-05
44 54 44 100 0.999983
0 1 46 100 0.0883995
1 1 46 100 0.905835
3 1 46 100 0.0047005
12 1 46 100 4.19519e-05
22 1 46 100 0.000984284
28 1 46 100 3.83252e-05
0 2 46 100 0.435379
1 2 46 100 0.00639271
2 2 46 100 0.550604
6 2 46 100 0.00405516
11 2 46 100 0.000223654
24 2 46 100 0.000125808
28 2 46 100 0.00107162
29 2 46 100 5.29846e-05
31 2 46 100 0.00199125
32 2 46 100 7.06697e-06
39 2 46 100 8.48695e-05
44 2 46 100 1.15386e-05
0 3 46 100 0.488541
1 3 46 100 0.00157917
3 3 46 100 0.506319
12 3 46 100 8.52041e-05
22 3 46 100 0.00346772
28 3 46 100 8.1845e-06
2 4 46 100 0.499855
4 4 46 100 0.5
34 4 46 100 0.000145257
2 5 46 100 0.5
7 5 46 100 0.5
15 6 46 100 1.491e-05
23 6 46 100 0.998528
36 6 46 100 0.00144662
37 6 46 100 1.05124e-05
25 7 46 100 1
0 8 46 100 0.5
25 8 46 100 0.499973
43 8 46 100 2.73839e-05
0 9 46 100 0.0750818
1 9 46 100 1.81708e-05
2 9 46 100 0.000220972
6 9 46 100 0.00170204
11 9 46 100 0.000771515
24 9 46 100 0.500244
28 9 46 100 0.400951
29 9 46 100 0.0208978
31 9 46 100 5.73624e-05
32 9 46 100 9.67673e-06
39 9 46 100 3.47978e-05
44 9 46 100 1.08321e-05
0 10 46 100 0.5
30 10 46 100 0.5
26 11 46 100 0.499964
27 11 46 100 0.5
38 11 46 100 3.58813e-05
0 12 46 100 0.5
30 12 46 100 0.497602
34 12 46 100 0.00239752
9 13 46 100 0.5
30 13 46 100 0.5
0 14 46 100 0.00900198
8 14 46 100 0.502088
14 14 46 100 0.4882
19 14 46 100 0.000127801
29 14 46 100 1.04339e-05
30 14 46 100 0.000359818
39 14 46 100 3.60408e-05
45 14 46 100 0.000175199
7 15 46 100 1
4 16 46 100 0.5
7 16 46 100 0.5
0 17 46 100 0.5
7 17 46 100 0.5
7 18 46 100 0.5
11 18 46 100 5.25253e-05
15 18 46 100 0.425593
16 18 46 100 0.0743545
0 19 46 100 0.500001
9 19 46 100 0.499999
0 20 46 100 0.500001
13 20 46 100 0.000101676
17 20 46 100 0.499898
7 21 46 100 0.5
20 21 46 100 0.5
4 22 46 100 0.5
24 22 46 100 0.5
0 23 46 100 0.5
27 23 46 100 0.5
7 24 46 100 0.5
27 24 46 100 0.5
0 25 46 100 0.5
12 25 46 100 0.5
18 26 46 100 0.499914
27 26 46 100 0.5
43 26 46 100 8.61413e-05
0 27 46 100 0.908398
5 27 46 100 3.84214e-05
8 27 46 100 0.00438131
13 27 46 100 0.000157331
14 27 46 100 0.00186729
16 27 46 100 0.000157331
19 27 46 100 0.00102299
26 27 46 100 0.0672442
29 27 46 100 0.000809431
30 27 46 100 0.00939373
39 27 46 100 0.000322684
42 27 46 100 5.06868e-05
45 27 46 100 0.00615651
0 28 46 100 1.36386e-05
25 28 46 100 0.499984
27 28 46 100 0.500002
0 29 46 100 0.0697509
2 29 46 100 1.88512e-05
6 29 46 100 0.000111508
11 29 46 100 0.000702181
14 29 46 100 1.0434e-05
28 29 46 100 5.73549e-05
29 29 46 100 0.491214
31 29 46 100 0.416885
32 29 46 100 0.020898
39 29 46 100 0.000195186
42 29 46 100 3.91168e-05
44 29 46 100 0.000116607
27 30 46 100 0.5
33 30 46 100 0.5
27 31 46 100 1
10 32 46 100 0.000624653
19 32 46 100 0.5
31 32 46 100 0.499375
0 33 46 100 0.5
22 33 46 100 0.0218948
35 33 46 100 0.478105
0 34 46 100 0.461712
8 34 46 100 0.00257656
14 34 46 100 0.00151862
19 34 46 100 4.76971e-05
29 34 46 100 0.00793193
30 34 46 100 0.00939373
36 34 46 100 0.5
39 34 46 100 0.00598265
42 34 46 100 0.00120472
45 34 46 100 0.0096319
23 35 46 100 0.000168193
34 35 46 100 0.5
36 35 46 100 0.0731459
37 35 46 100 0.422749
39 35 46 100 0.00393721
0 36 46 100 0.0122401
8 36 46 100 9.22209e-05
14 36 46 100 3.22133e-05
18 36 46 100 0.494655
19 36 46 100 5.00612e-05
29 36 46 100 3.91164e-05
30 36 46 100 0.00179262
39 36 46 100 0.0674463
42 36 46 100 0.412642
43 36 46 100 0.00534536
45 36 46 100 0.00566494
5 37 46 100 0.000420288
13 37 46 100 0.00039586
16 37 46 100 0.00039586
37 37 46 100 0.495594
44 37 46 100 0.5
46 37 46 100 0.00319348
0 38 46 100 0.445309
2 38 46 100 1.79564e-05
6 38 46 100 0.000126064
11 38 46 100 0.000193256
24 38 46 100 5.94524e-06
28 38 46 100 0.00165086
29 38 46 100 1.07061e-05
31 38 46 100 0.000511325
32 38 46 100 4.34822e-05
39 38 46 100 0.0506587
44 38 46 100 0.501473
41 39 46 100 0.5
44 39 46 100 0.5
40 40 46 100 0.5
44 40 46 100 0.5
0 41 46 100 0.5
44 41 46 100 0.5
44 42 46 100 0.5
45 42 46 100 0.5
0 43 46 100 0.5
45 43 46 100 0.5
0 44 46 100 0.5
45 44 46 100 0.5
5 45 46 100 0.000697221
13 45 46 100 2.63598e-05
16 45 46 100 2.63598e-05
37 45 46 100 0.00319348
44 45 46 100 0.5
46 45 46 100 0.496057
44 46 46 100 1
32 47 46 100 0.0104922
46 47 46 100 0.989508
0 1 49 100 0.247003
1 1 49 100 0.239258
6 1 49 100 0.499994
10 1 49 100 0.000275963
24 1 49 100 0.00141997
35 1 49 100 0.00257915
39 1 49 100 0.00946933
8 2 49 100 0.5
31 2 49 100 0.5
0 3 49 100 0.499885
23 3 49 100 0.0112635
29 3 49 100 0.488736
47 3 49 100 0.000115514
34 4 49 100 0.5
36 4 49 100 0.5
0 5 49 100 0.5
35 5 49 100 0.5
34 6 49 100 0.00196867
37 6 49 100 0.998031
37 7 49 100 0.500242
40 7 49 100 0.499758
0 8 49 100 0.50005
43 8 49 100 0.000998966
47 8 49 100 0.498951
26 9 49 100 0.499999
48 9 49 100 0.500001
0 10 49 100 0.500001
13 10 49 100 0.000148759
27 10 49 100 0.0175946
36 10 49 100 0.00867005
49 10 49 100 0.473585
14 11 49 100 0.000298001
19 11 49 100 7.15833e-06
21 11 49 100 0.497458
30 11 49 100 0.00154496
32 11 49 100 0.499702
33 11 49 100 0.000990261
0 12 49 100 0.5
30 12 49 100 0.5
22 13 49 100 0.5
29 13 49 100 0.5
0 14 49 100 0.983358
1 14 49 100 0.00943962
10 14 49 100 0.000207617
24 14 49 100 0.000288549
35 14 49 100 0.000769602
39 14 49 100 0.00399485
40 14 49 100 0.00194204
10 15 49 100 0.5
22 15 49 100 0.5
0 16 49 100 0.00999933
10 16 49 100 0.479734
14 16 49 100 0.0100121
15 16 49 100 0.00357973
18 16 49 100 0.000232592
19 16 49 100 0.000254713
27 16 49 100 0.000176699
38 16 49 100 0.496011
0 17 49 100 0.014477
16 17 49 100 0.5
19 17 49 100 0.485523
17 18 49 100 0.5
20 18 49 100 0.5
15 19 49 100 0.00245731
18 19 49 100 0.0117817
22 19 49 100 0.5
27 19 49 100 0.000240412
38 19 49 100 0.48552
0 20 49 100 0.312472
3 20 49 100 0.0215028
4 20 49 100 0.478496
11 20 49 100 0.00181373
16 20 49 100 0.000107243
24 20 49 100 0.152821
25 20 49 100 0.0315347
33 20 49 100 0.00125257
2 21 49 100 0.5
26 21 49 100 0.5
0 22 49 100 0.5
2 22 49 100 0.5
0 23 49 100 0.5
28 23 49 100 0.5
2 24 49 100 0.5
38 24 49 100 0.5
2 25 49 100 0.5
39 25 49 100 0.00268297
42 25 49 100 0.497317
0 26 49 100 0.494045
1 26 49 100 0.00283619
10 26 49 100 0.00121014
24 26 49 100 0.00135306
35 26 49 100 6.19774e-05
39 26 49 100 0.000494179
45 26 49 100 0.5
2 27 49 100 0.5
45 27 49 100 0.5
0 28 49 100 0.00111934
6 28 49 100 0.494027
7 28 49 100 0.00597695
48 28 49 100 0.498877
7 29 49 100 3.85492e-05
9 29 49 100 0.5
46 29 49 100 0.499961
11 30 49 100 0.448219
12 30 49 100 0.00171481
13 30 49 100 7.75926e-05
14 30 49 100 0.0500666
27 30 49 100 0.482259
36 30 49 100 6.83507e-05
49 30 49 100 0.0175946
0 31 49 100 0.500002
18 31 49 100 0.00191166
41 31 49 100 0.498087
15 32 49 100 0.495566
18 32 49 100 9.3019e-06
27 32 49 100 5.53068e-05
38 32 49 100 0.50437
0 33 49 100 0.479767
9 33 49 100 0.5
11 33 49 100 0.00214756
16 33 49 100 0.000360433
24 33 49 100 0.0145274
25 33 49 100 0.00299772
33 33 49 100 0.000200101
9 34 49 100 0.5
26 34 49 100 0.5
0 35 49 100 0.500161
23 35 49 100 0.499839
0 36 49 100 0.5
22 36 49 100 0.5
0 37 49 100 0.000109884
9 37 49 100 0.483577
21 37 49 100 0.0163099
23 37 49 100 0.488507
29 37 49 100 0.0114962
18 38 49 100 0.498998
22 38 49 100 0.500001
41 38 49 100 0.00100149
15 39 49 100 0.0394036
17 39 49 100 0.460596
22 39 49 100 0.5
0 40 49 100 0.000263628
4 40 49 100 0.00433257
14 40 49 100 0.495403
15 40 49 100 0.000193732
18 40 49 100 0.497963
27 40 49 100 0.000175636
38 40 49 100 0.00166799
5 41 49 100 0.5
26 41 49 100 0.5
5 42 49 100 0.5
22 42 49 100 0.5
2 43 49 100 0.5
22 43 49 100 0.5
5 44 49 100 0.5
22 44 49 100 0.5
4 45 49 100 0.499999
41 45 49 100 0.500001
12 46 49 100 0.5
20 46 49 100 0.5
13 47 49 100 0.499749
15 47 49 100 5.44204e-05
18 47 49 100 0.00021564
27 47 49 100 0.499729
36 47 49 100 2.46353e-05
38 47 49 100 7.84539e-05
49 47 49 100 0.000148761
28 48 49 100 1
0 49 49 100 4.61809e-05
32 49 49 100 0.999954
15 50 49 100 0.000237232
18 50 49 100 0.995819
27 50 49 100 0.00116287
38 50 49 100 0.00278069
0 51 49 100 1
43 52 49 100 1
44 53 49 100 0.055196
45 53 49 100 0.944804
25 54 49 100 0.00044005
46 54 49 100 0.0490039
47 54 49 100 0.950556
48 55 49 100 1
48 56 49 100 1
48 57 49 100 1
44 58 49 100 1
5 59 49 100 0.000589079
8 59 49 100 3.2797e-05
42 59 49 100 0.00300455
49 59 49 100 0.996374
1 1 51 100 1
34 2 51 100 0.27842
35 2 51 100 0.72158
34 3 51 100 0.000151844
36 3 51 100 0.999848
0 4 51 100 1
37 5 51 100 0.999252
40 5 51 100 0.000710158
43 5 51 100 3.77335e-05
4 6 51 100 0.0258541
5 6 51 100 0.973703
27 6 51 100 0.000427307
43 6 51 100 1.57378e-05
6 7 51 100 1
0 8 51 100 0.00013606
2 8 51 100 0.999864
1 9 51 100 1
1 10 51 100 1
1 11 51 100 1
1 12 51 100 1
0 13 51 100 1.01375e-05
2 13 51 100 0.99999
4 14 51 100 1
0 15 51 100 1
0 16 51 100 0.824429
3 16 51 100 0.0288571
15 16 51 100 0.130023
32 16 51 100 0.0165956
42 16 51 100 9.53127e-05
0 17 51 100 0.985835
18 17 51 100 0.0141645
16 18 51 100 0.99962
24 18 51 100 0.000151125
51 18 51 100 0.000229232
20 19 51 100 1
21 20 51 100 1
21 21 51 100 1
21 22 51 100 1
22 23 51 100 1
16 24 51 100 0.000164443
24 24 51 100 0.999808
51 24 51 100 2.77351e-05
0 25 51 100 1
25 26 51 100 1
26 27 51 100 1
0 28 51 100 0.939087
11 28 51 100 0.0217943
13 28 51 100 0.0215223
30 28 51 100 0.00859837
33 28 51 100 0.00859837
47 28 51 100 0.00039944
14 29 51 100 0.00377463
17 29 51 100 0.00484083
19 29 51 100 0.00140325
28 29 51 100 0.989981
12 30 51 100 1
9 31 51 100 1
0 32 51 100 1
37 33 51 100 0.000710164
40 33 51 100 0.998065
43 33 51 100 0.00122534
0 34 51 100 0.00201829
8 34 51 100 0.997982
10 35 51 100 1
2 36 51 100 1
0 37 51 100 0.907216
3 37 51 100 0.00295704
15 37 51 100 0.00815102
32 37 51 100 0.0807377
42 37 51 100 0.000938006
2 38 51 100 1
6 39 51 100 1
0 40 51 100 0.00032797
8 40 51 100 0.999672
0 41 51 100 1
0 42 51 100 1.04962e-05
38 42 51 100 0.000197757
39 42 51 100 0.00018773
41 42 51 100 0.998984
44 42 51 100 0.000620393
44 43 51 100 1
44 44 51 100 1
24 45 51 100 4.21899e-05
45 45 51 100 0.973601
51 45 51 100 0.0263572
1 46 51 100 0.000296893
46 46 51 100 0.999703
44 47 51 100 1
44 48 51 100 1
0 49 51 100 6.15343e-05
38 49 51 100 0.00106852
39 49 51 100 0.00101434
41 49 51 100 0.000620233
44 49 51 100 0.997235
16 50 51 100 0.000385328
24 50 51 100 0.000177076
45 50 51 100 0.0264759
51 50 51 100 0.972962
49 51 51 100 1
23 52 51 100 6.7293e-05
50 52 51 100 0.999933
1 1 53 100 1
0 2 53 100 5.90173e-05
2 2 53 100 0.998126
5 2 53 100 0.00091342
10 2 53 100 0.000901512
2 3 53 100 0.99776
5 3 53 100 0.00223991
0 4 53 100 1
7 5 53 100 1
0 6 53 100 1.9552e-05
2 6 53 100 0.0600035
5 6 53 100 0.938317
10 6 53 100 0.00166025
6 7 53 100 1
6 8 53 100 1
8 9 53 100 0.867952
9 9 53 100 0.132048
9 10 53 100 0.00156075
11 10 53 100 0.998439
14 11 53 100 1
15 12 53 100 1
15 13 53 100 1
0 14 53 100 1
0 15 53 100 0.997981
24 15 53 100 0.000327881
30 15 53 100 0.00128033
40 15 53 100 0.000387875
48 15 53 100 2.33081e-05
15 16 53 100 1
15 17 53 100 1
15 18 53 100 1
17 19 53 100 1
0 20 53 100 0.00025967
18 20 53 100 0.996474
35 20 53 100 0.00315573
38 20 53 100 0.000111042
20 21 53 100 0.996864
32 21 53 100 0.00312476
36 21 53 100 1.15642e-05
3 22 53 100 1
0 23 53 100 0.000181519
20 23 53 100 0.99911
32 23 53 100 0.000708615
21 24 53 100 1
21 25 53 100 1
23 26 53 100 1
0 27 53 100 0.0117283
4 27 53 100 2.31675e-05
16 27 53 100 4.92902e-05
26 27 53 100 0.988182
42 27 53 100 1.68375e-05
27 28 53 100 1
27 29 53 100 1
28 30 53 100 1
0 31 53 100 1
36 32 53 100 1
0 33 53 100 0.980986
24 33 53 100 0.000965252
30 33 53 100 0.00486746
40 33 53 100 0.0128079
46 33 53 100 6.39212e-05
48 33 53 100 0.000309771
20 34 53 100 0.000207705
32 34 53 100 0.0214273
36 34 53 100 0.978365
39 35 53 100 0.942986
41 35 53 100 0.0570141
34 36 53 100 1
0 37 53 100 1
44 38 53 100 0.907844
47 38 53 100 0.0921562
43 39 53 100 0.00568282
49 39 53 100 0.994317
51 40 53 100 1
51 41 53 100 1
39 42 53 100 0.0570142
41 42 53 100 0.942986
19 43 53 100 0.0973282
31 43 53 100 0.902672
19 44 53 100 0.899088
31 44 53 100 0.100912
19 45 53 100 0.892995
31 45 53 100 0.107005
0 46 53 100 0.871705
12 46 53 100 0.128188
29 46 53 100 0.000107656
15 47 53 100 1
15 48 53 100 1
4 49 53 100 0.000234409
13 49 53 100 1.06632e-05
16 49 53 100 0.000197539
37 49 53 100 0.000316666
42 49 53 100 0.00542297
52 49 53 100 0.993818
53 50 53 100 1
0 1 58 100 1.191e-05
1 1 58 100 0.00296972
54 1 58 100 0.991388
56 1 58 100 0.00563054
0 2 58 100 0.908852
21 2 58 100 0.00025323
45 2 58 100 0.0713213
48 2 58 100 0.0195735
55 3 58 100 1
55 4 58 100 1
47 5 58 100 1
47 6 58 100 1
47 7 58 100 1
44 8 58 100 0.976788
49 8 58 100 0.0232115
5 9 58 100 0.000498146
11 9 58 100 0.95342
14 9 58 100 0.0458373
41 9 58 100 9.32054e-05
43 9 58 100 0.000151166
16 10 58 100 1
0 11 58 100 1
16 12 58 100 1
0 13 58 100 7.88654e-05
19 13 58 100 0.9918
24 13 58 100 0.00812101
0 14 58 100 1
10 15 58 100 0.876653
28 15 58 100 0.00273571
39 15 58 100 0.0294302
50 15 58 100 0.0903439
52 15 58 100 0.000837253
9 16 58 100 1
9 17 58 100 1
8 18 58 100 0.999967
20 18 58 100 3.29875e-05
9 19 58 100 1
0 20 58 100 0.975831
18 20 58 100 0.00029995
33 20 58 100 0.00165878
35 20 58 100 0.000760918
38 20 58 100 0.000760918
40 20 58 100 0.0206882
9 21 58 100 1
0 22 58 100 1
0 23 58 100 1
9 24 58 100 1
9 25 58 100 1
0 26 58 100 1
0 27 58 100 0.959547
21 27 58 100 0.00878763
45 27 58 100 0.00269506
48 27 58 100 0.0289708
17 28 58 100 1
20 29 58 100 1
23 30 58 100 0.0731745
25 30 58 100 0.70389
26 30 58 100 0.0212191
27 30 58 100 0.0212191
30 30 58 100 0.180498
0 31 58 100 0.0043061
18 31 58 100 4.75367e-05
33 31 58 100 0.995145
35 31 58 100 1.71636e-05
38 31 58 100 1.71636e-05
40 31 58 100 0.000466651
0 32 58 100 1
34 33 58 100 1
34 34 58 100 1
36 35 58 100 0.0195272
37 35 58 100 0.00549022
40 35 58 100 0.073184
41 35 58 100 0.0176573
43 35 58 100 0.0131185
51 35 58 100 0.871023
53 36 58 100 1
54 37 58 100 0.00563055
56 37 58 100 0.994369
55 38 58 100 1
55 39 58 100 1
18 40 58 100 0.00753941
35 40 58 100 0.00832589
38 40 58 100 0.00832589
58 40 58 100 0.975809
