3 0 100 21 0.456191
7 0 100 21 0.0630457
8 0 100 21 0.00911873
9 0 100 21 6.44157e-06
10 0 100 21 0.455821
14 0 100 21 0.0158092
16 0 100 21 8.00279e-06
7 1 100 21 0.468354
8 1 100 21 0.531635
14 1 100 21 1.09381e-05
8 2 100 21 0.535439
21 2 100 21 0.464561
9 3 100 21 1
17 4 100 21 0.5
18 4 100 21 0.5
19 5 100 21 1
16 6 100 21 1
20 7 100 21 1
3 8 100 21 0.326973
10 8 100 21 0.673027
20 9 100 21 1
21 10 100 21 1
11 11 100 21 0.333333
12 11 100 21 0.333333
13 11 100 21 0.333333
14 12 100 21 0.276287
21 12 100 21 0.723713
8 13 100 21 0.000414518
14 13 100 21 0.999586
15 14 100 21 1
1 15 100 21 0.2
2 15 100 21 0.2
4 15 100 21 0.2
5 15 100 21 0.2
6 15 100 21 0.2
21 16 100 21 1
1 0 100 23 0.0172249
2 0 100 23 0.0050551
3 0 100 23 0.113276
4 0 100 23 0.0561735
6 0 100 23 0.0754301
7 0 100 23 0.115001
11 0 100 23 7.36442e-05
12 0 100 23 0.115001
13 0 100 23 6.80277e-06
14 0 100 23 0.115001
15 0 100 23 0.115001
19 0 100 23 0.158051
21 0 100 23 0.114707
1 1 100 23 0.84611
3 1 100 23 0.15389
2 2 100 23 0.000241236
4 2 100 23 0.0014713
5 2 100 23 0.199543
6 2 100 23 0.200114
7 2 100 23 0.199543
8 2 100 23 0.199543
9 2 100 23 0.199543
5 3 100 23 0.0832603
6 3 100 23 0.0832603
8 3 100 23 0.0832603
9 3 100 23 0.0832603
10 3 100 23 0.0832603
11 3 100 23 0.000929424
12 3 100 23 0.16652
13 3 100 23 0.0832083
15 3 100 23 0.0832603
16 3 100 23 0.0832603
17 3 100 23 0.0832595
18 3 100 23 0.0832603
20 4 100 23 1
1 5 100 23 0.30986
2 5 100 23 0.647224
4 5 100 23 0.0339682
6 5 100 23 0.00894764
3 6 100 23 1
4 7 100 23 1
13 8 100 23 1
1 9 100 23 0.0151015
14 9 100 23 0.984898
2 10 100 23 0.079381
3 10 100 23 0.013778
4 10 100 23 0.89465
6 10 100 23 0.0121912
16 11 100 23 0.361012
17 11 100 23 0.638988
1 12 100 23 0.0153849
2 12 100 23 0.00192773
3 12 100 23 0.00452143
4 12 100 23 0.56979
6 12 100 23 0.408376
7 13 100 23 0.319423
10 13 100 23 0.347545
18 13 100 23 0.333033
11 14 100 23 1
8 15 100 23 0.477566
9 15 100 23 0.477566
23 15 100 23 0.0448677
19 16 100 23 0.998556
23 16 100 23 0.0014437
7 17 100 23 0.00990142
10 17 100 23 0.231723
20 17 100 23 0.246875
21 17 100 23 0.243278
22 17 100 23 0.268222
22 18 100 23 0.540435
23 18 100 23 0.459565
5 19 100 23 0.617473
13 19 100 23 0.000150393
19 19 100 23 0.382377
20 20 100 23 0.00396581
21 20 100 23 0.525803
22 20 100 23 0.470231
19 21 100 23 0.0164726
23 21 100 23 0.983527
22 22 100 23 1
1 23 100 23 0.5
18 23 100 23 0.5
13 24 100 23 0.500283
23 24 100 23 0.499717
2 25 100 23 1.98116e-05
4 25 100 23 0.000131988
5 25 100 23 0.000183323
6 25 100 23 1.09751e-06
9 25 100 23 9.86728e-07
10 25 100 23 1.89392e-06
11 25 100 23 0.00083115
13 25 100 23 0.000198998
14 25 100 23 0.148106
15 25 100 23 0.00223856
16 25 100 23 0.5154
17 25 100 23 0.3312
18 25 100 23 0.000196336
19 25 100 23 0.0013341
20 25 100 23 6.99607e-05
21 25 100 23 4.53942e-05
22 25 100 23 3.99057e-05
2 26 100 23 5.45388e-05
4 26 100 23 0.000279157
5 26 100 23 0.000396001
6 26 100 23 1.67823e-06
9 26 100 23 1.4376e-06
10 26 100 23 2.76022e-06
11 26 100 23 0.00222966
13 26 100 23 0.000141719
14 26 100 23 0.981363
15 26 100 23 0.00171338
16 26 100 23 0.00334485
17 26 100 23 0.00655349
18 26 100 23 0.000166471
19 26 100 23 0.00358243
20 26 100 23 7.82119e-05
21 26 100 23 4.88296e-05
22 26 100 23 4.21757e-05
3 27 100 23 1
2 28 100 23 0.000522432
4 28 100 23 0.00126803
5 28 100 23 0.00148893
6 28 100 23 3.22365e-06
9 28 100 23 2.58109e-06
10 28 100 23 4.86961e-06
11 28 100 23 0.00272707
13 28 100 23 0.000229554
14 28 100 23 0.0363579
15 28 100 23 0.891355
16 28 100 23 0.0572719
17 28 100 23 0.00620823
18 28 100 23 0.000170406
19 28 100 23 0.00220085
20 28 100 23 7.96841e-05
21 28 100 23 5.25743e-05
22 28 100 23 5.63343e-05
2 29 100 23 0.002079
4 29 100 23 0.00357478
5 29 100 23 0.00315987
6 29 100 23 3.51658e-06
10 29 100 23 4.96981e-06
11 29 100 23 0.00200579
13 29 100 23 0.000217495
14 29 100 23 0.0105745
15 29 100 23 0.0662976
16 29 100 23 0.845709
17 29 100 23 0.0643228
18 29 100 23 0.000152525
19 29 100 23 0.00172974
20 29 100 23 7.17871e-05
21 29 100 23 5.04583e-05
22 29 100 23 4.5996e-05
2 30 100 23 0.00700111
4 30 100 23 0.966582
5 30 100 23 0.0113345
6 30 100 23 2.88543e-06
10 30 100 23 3.87536e-06
11 30 100 23 0.00175936
13 30 100 23 0.000170604
14 30 100 23 0.00496089
15 30 100 23 0.00148087
16 30 100 23 0.00277933
17 30 100 23 0.00197123
18 30 100 23 0.000108212
19 30 100 23 0.00171267
20 30 100 23 5.61069e-05
21 30 100 23 3.86463e-05
22 30 100 23 3.82295e-05
1 31 100 23 0.999997
12 31 100 23 2.60884e-06
3 32 100 23 0.99713
12 32 100 23 0.00284707
23 32 100 23 2.33448e-05
2 33 100 23 0.978398
3 33 100 23 1.73559e-06
4 33 100 23 0.0126355
5 33 100 23 0.00727756
6 33 100 23 1.61487e-06
10 33 100 23 1.96627e-06
11 33 100 23 0.000511491
13 33 100 23 6.18412e-05
14 33 100 23 0.00033925
15 33 100 23 0.000145663
16 33 100 23 0.00019379
17 33 100 23 0.00018279
18 33 100 23 2.2376e-05
19 33 100 23 0.00017153
20 33 100 23 1.67133e-05
21 33 100 23 1.45909e-05
22 33 100 23 2.3897e-05
2 34 100 23 0.497359
3 34 100 23 1.15186e-05
4 34 100 23 0.497222
5 34 100 23 0.00410381
6 34 100 23 2.69159e-06
9 34 100 23 1.75733e-06
10 34 100 23 3.15052e-06
11 34 100 23 0.000475627
13 34 100 23 5.82875e-05
14 34 100 23 0.000180774
15 34 100 23 0.000102145
16 34 100 23 0.000134218
17 34 100 23 0.00010947
18 34 100 23 2.40445e-05
19 34 100 23 0.000138649
20 34 100 23 2.00689e-05
21 34 100 23 1.89272e-05
22 34 100 23 3.39315e-05
3 35 100 23 3.66835e-05
12 35 100 23 6.41773e-06
23 35 100 23 0.999957
1 0 100 25 0.211382
5 0 100 25 0.00122319
9 0 100 25 0.000523944
15 0 100 25 1.04881e-05
16 0 100 25 0.783732
22 0 100 25 0.00309598
23 0 100 25 2.18658e-05
25 0 100 25 1.05086e-05
1 1 100 25 1
13 2 100 25 1
2 3 100 25 0.5
3 3 100 25 0.5
23 4 100 25 1
4 5 100 25 0.50894
5 5 100 25 0.408479
9 5 100 25 0.0825631
17 5 100 25 1.7615e-05
8 6 100 25 0.496312
21 6 100 25 0.00491783
22 6 100 25 0.49877
25 7 100 25 1
5 8 100 25 0.00907844
9 8 100 25 0.00977775
17 8 100 25 0.981144
10 9 100 25 0.0182191
18 9 100 25 0.981781
22 10 100 25 0.000957029
23 10 100 25 0.999043
24 11 100 25 1
6 12 100 25 1
5 13 100 25 0.183629
9 13 100 25 0.814
17 13 100 25 0.00237042
16 14 100 25 1
7 15 100 25 0.499455
11 15 100 25 0.00144385
19 15 100 25 0.499101
15 16 100 25 1
8 17 100 25 0.00327052
14 17 100 25 0.333333
20 17 100 25 0.333333
21 17 100 25 0.330063
10 18 100 25 0.161889
14 18 100 25 0.219625
15 18 100 25 0.472045
17 18 100 25 0.146442
25 19 100 25 1
13 20 100 25 1
13 21 100 25 1
11 22 100 25 0.499099
12 22 100 25 0.500546
19 22 100 25 0.000354315
16 23 100 25 1
10 24 100 25 0.980695
18 24 100 25 0.0193049
25 25 100 25 1
3 0 100 26 0.153221
8 0 100 26 0.141152
10 0 100 26 0.154852
11 0 100 26 0.1524
13 0 100 26 0.154852
14 0 100 26 0.140552
16 0 100 26 0.000703127
17 0 100 26 0.10117
20 0 100 26 0.00109772
10 1 100 26 0.356528
13 1 100 26 0.643472
3 2 100 26 0.802792
11 2 100 26 0.197208
2 3 100 26 0.166667
4 3 100 26 0.166667
5 3 100 26 0.166667
6 3 100 26 0.166667
7 3 100 26 0.166667
9 3 100 26 0.166667
12 4 100 26 1
1 5 100 26 1
3 6 100 26 0.5
11 6 100 26 0.5
12 7 100 26 1
16 8 100 26 0.014394
20 8 100 26 0.00615818
26 8 100 26 0.979448
3 9 100 26 0.172836
11 9 100 26 0.827164
12 10 100 26 1
16 11 100 26 0.014394
20 11 100 26 0.00615818
26 11 100 26 0.979448
15 12 100 26 1
16 13 100 26 0.998925
20 13 100 26 0.0010752
18 14 100 26 0.5
19 14 100 26 0.5
16 15 100 26 0.000961874
20 15 100 26 0.999038
8 16 100 26 0.167723
14 16 100 26 0.175064
17 16 100 26 0.657212
13 17 100 26 1
22 18 100 26 0.0211816
24 18 100 26 0.978818
21 19 100 26 1
22 20 100 26 0.978394
24 20 100 26 0.0216061
23 21 100 26 0.5
25 21 100 26 0.5
26 22 100 26 1
7 0 100 27 0.13107
8 0 100 27 0.129549
9 0 100 27 0.0319737
11 0 100 27 0.0135108
13 0 100 27 0.00224078
14 0 100 27 0.130751
15 0 100 27 7.23691e-06
16 0 100 27 0.14583
17 0 100 27 0.260063
18 0 100 27 0.0176959
19 0 100 27 0.00399805
22 0 100 27 0.133311
1 1 100 27 0.978764
8 1 100 27 0.010283
11 1 100 27 0.00527701
16 1 100 27 0.00336649
19 1 100 27 0.00230935
11 2 100 27 0.097371
18 2 100 27 0.284098
19 2 100 27 0.00583128
27 2 100 27 0.6127
2 3 100 27 0.101806
3 3 100 27 0.101806
4 3 100 27 0.203613
5 3 100 27 0.203613
6 3 100 27 0.203613
7 3 100 27 0.083743
8 3 100 27 0.101806
7 4 100 27 0.98501
10 4 100 27 0.00476045
11 4 100 27 0.0062154
18 4 100 27 0.00401434
9 5 100 27 1
9 6 100 27 0.907516
10 6 100 27 0.0842072
17 6 100 27 0.00827673
10 7 100 27 0.999087
13 7 100 27 1.10869e-05
27 7 100 27 0.00090146
10 8 100 27 1
9 9 100 27 0.220657
10 9 100 27 0.741222
17 9 100 27 0.0381207
10 10 100 27 0.480925
12 10 100 27 0.519075
11 11 100 27 0.295051
13 11 100 27 0.346897
14 11 100 27 0.346897
15 11 100 27 0.0110962
18 11 100 27 5.92533e-05
11 12 100 27 0.517954
18 12 100 27 0.000211481
19 12 100 27 0.481835
12 13 100 27 1
8 14 100 27 0.00123918
14 14 100 27 0.00274784
16 14 100 27 0.996013
12 15 100 27 0.946175
19 15 100 27 0.000319181
27 15 100 27 0.0535058
13 16 100 27 0.49524
18 16 100 27 0.503891
22 16 100 27 0.000869122
15 17 100 27 1
11 18 100 27 0.000266587
18 18 100 27 0.96934
19 18 100 27 0.000186218
27 18 100 27 0.0302069
19 19 100 27 0.333333
20 19 100 27 0.333333
21 19 100 27 0.333333
3 20 100 27 0.00717715
13 20 100 27 6.17212e-05
22 20 100 27 0.992761
1 21 100 27 0.50767
2 21 100 27 0.49233
27 22 100 27 1
1 23 100 27 0.025206
2 23 100 27 0.960114
17 23 100 27 0.01468
23 24 100 27 0.25
24 24 100 27 0.25
25 24 100 27 0.25
26 24 100 27 0.25
27 25 100 27 1
9 26 100 27 0.922705
17 26 100 27 0.0772949
3 27 100 27 1
9 28 100 27 0.59167
17 28 100 27 0.40833
2 29 100 27 7.51467e-06
3 29 100 27 0.000180897
4 29 100 27 3.80226e-05
5 29 100 27 3.16857e-07
6 29 100 27 1.83874e-07
7 29 100 27 5.30199e-07
8 29 100 27 3.91466e-07
10 29 100 27 1.93181e-05
12 29 100 27 1.70603e-06
14 29 100 27 6.21139e-07
16 29 100 27 3.59354e-07
18 29 100 27 2.56921e-05
19 29 100 27 6.72987e-06
20 29 100 27 0.165042
21 29 100 27 0.166917
22 29 100 27 1.23181e-06
23 29 100 27 0.166945
24 29 100 27 0.16696
25 29 100 27 0.166963
26 29 100 27 0.166889
8 30 100 27 2.12571e-06
9 30 100 27 1.11111e-06
16 30 100 27 2.04932e-06
17 30 100 27 1.31557e-06
19 30 100 27 5.57885e-06
22 30 100 27 2.4494e-05
27 30 100 27 0.999963
5 0 100 31 0.200105
7 0 100 31 2.30911e-06
8 0 100 31 3.53488e-05
16 0 100 31 0.200105
19 0 100 31 0.200105
22 0 100 31 0.200105
24 0 100 31 0.199541
7 1 100 31 1
1 2 100 31 0.953994
2 2 100 31 0.0411277
30 2 100 31 0.00487857
3 3 100 31 0.5
4 3 100 31 0.5
6 4 100 31 1
2 5 100 31 0.338519
30 5 100 31 0.661481
8 6 100 31 1
9 7 100 31 0.968434
10 7 100 31 0.0315659
10 8 100 31 0.327716
11 8 100 31 0.338758
12 8 100 31 0.333526
12 9 100 31 0.0155915
13 9 100 31 0.984408
24 10 100 31 1
13 11 100 31 0.0122331
14 11 100 31 0.492768
15 11 100 31 0.49265
30 11 100 31 0.00234934
31 12 100 31 1
17 13 100 31 1
2 14 100 31 0.426947
30 14 100 31 0.573053
1 15 100 31 1
2 16 100 31 0.499857
15 16 100 31 0.000119544
30 16 100 31 0.500024
20 17 100 31 1
24 18 100 31 1
18 19 100 31 1
20 20 100 31 1
20 21 100 31 1
20 22 100 31 1
24 23 100 31 1
21 24 100 31 0.142857
23 24 100 31 0.142857
25 24 100 31 0.142857
26 24 100 31 0.142857
27 24 100 31 0.142857
28 24 100 31 0.142857
29 24 100 31 0.142857
31 25 100 31 1
2 0 100 32 0.000168771
3 0 100 32 0.133008
5 0 100 32 0.146478
10 0 100 32 0.146478
13 0 100 32 0.146478
21 0 100 32 0.146478
22 0 100 32 1.69275e-06
24 0 100 32 0.134433
28 0 100 32 0.146478
1 1 100 32 0.99999
2 1 100 32 1.00698e-05
6 2 100 32 0.25
7 2 100 32 0.25
8 2 100 32 0.25
9 2 100 32 0.25
4 3 100 32 1
3 4 100 32 1
11 5 100 32 0.333333
12 5 100 32 0.333333
14 5 100 32 0.333333
24 6 100 32 1
2 7 100 32 0.00558397
15 7 100 32 0.994416
16 8 100 32 0.250003
17 8 100 32 0.250003
18 8 100 32 0.250003
19 8 100 32 0.249827
23 8 100 32 0.00016355
10 9 100 32 1
20 10 100 32 1
32 11 100 32 1
2 12 100 32 0.993635
15 12 100 32 0.00636474
22 13 100 32 1
22 14 100 32 1
2 15 100 32 0.993563
15 15 100 32 0.00643683
24 16 100 32 1
10 17 100 32 1
19 18 100 32 0.000705362
23 18 100 32 0.999295
25 19 100 32 0.166667
26 19 100 32 0.166667
27 19 100 32 0.166667
29 19 100 32 0.166667
30 19 100 32 0.166667
31 19 100 32 0.166667
32 20 100 32 1
1 0 100 40 1.34597e-06
2 0 100 40 0.102711
11 0 100 40 0.113012
13 0 100 40 8.91263e-06
14 0 100 40 0.113012
20 0 100 40 0.11028
22 0 100 40 0.113012
23 0 100 40 0.113012
26 0 100 40 0.113012
27 0 100 40 0.10844
31 0 100 40 0.000486641
32 0 100 40 0.113012
1 1 100 40 1
20 2 100 40 1
15 3 100 40 1
14 4 100 40 0.312588
22 4 100 40 0.17835
23 4 100 40 0.17835
26 4 100 40 0.330712
9 5 100 40 1
15 6 100 40 1
32 7 100 40 1
18 8 100 40 1
16 9 100 40 0.166667
17 9 100 40 0.166667
19 9 100 40 0.166667
21 9 100 40 0.166667
24 9 100 40 0.166667
25 9 100 40 0.166667
15 10 100 40 1
9 11 100 40 1
20 12 100 40 1
32 13 100 40 1
9 14 100 40 1
15 15 100 40 1
10 16 100 40 0.5
12 16 100 40 0.5
28 17 100 40 1
20 18 100 40 0.0380311
31 18 100 40 0.00602731
40 18 100 40 0.955942
13 19 100 40 1
18 20 100 40 3.29864e-05
29 20 100 40 0.999967
2 21 100 40 0.0280094
27 21 100 40 0.971991
32 22 100 40 1
30 23 100 40 1
13 24 100 40 1
30 25 100 40 1
30 26 100 40 1
30 27 100 40 1
15 28 100 40 1
32 29 100 40 1
30 30 100 40 1
15 31 100 40 1
30 32 100 40 1
20 33 100 40 0.00166409
31 33 100 40 0.998336
33 34 100 40 0.5
34 34 100 40 0.5
20 35 100 40 0.0835803
31 35 100 40 0.00188528
40 35 100 40 0.914534
35 36 100 40 1
35 37 100 40 1
20 38 100 40 0.0835803
31 38 100 40 0.00188528
40 38 100 40 0.914534
15 39 100 40 1
20 40 100 40 0.219295
31 40 100 40 0.00494655
35 40 100 40 0.775758
9 41 100 40 0.00525086
35 41 100 40 0.994749
2 42 100 40 0.0015078
14 42 100 40 0.0166542
15 42 100 40 0.00831047
26 42 100 40 0.0126591
31 42 100 40 0.00134554
32 42 100 40 0.956991
40 42 100 40 0.00253128
3 43 100 40 0.000120452
4 43 100 40 0.00573408
5 43 100 40 0.014208
6 43 100 40 0.00872697
7 43 100 40 0.017265
8 43 100 40 0.00267841
9 43 100 40 0.760332
30 43 100 40 0.000117657
33 43 100 40 0.000551798
34 43 100 40 0.0220873
35 43 100 40 0.166423
36 43 100 40 0.0005021
37 43 100 40 0.000244184
38 43 100 40 0.0003826
39 43 100 40 0.000626653
2 44 100 40 1.52661e-05
4 44 100 40 5.66995e-06
5 44 100 40 1.24918e-05
6 44 100 40 7.83325e-06
7 44 100 40 4.39749e-05
8 44 100 40 0.99964
9 44 100 40 0.000223014
18 44 100 40 5.83747e-06
27 44 100 40 3.80554e-06
34 44 100 40 1.43255e-05
35 44 100 40 2.7723e-05
2 45 100 40 0.897997
5 45 100 40 2.52411e-05
13 45 100 40 1.65399e-05
14 45 100 40 0.000102586
15 45 100 40 0.00023817
26 45 100 40 7.24189e-05
27 45 100 40 0.101301
35 45 100 40 0.00024645
2 46 100 40 0.013396
7 46 100 40 0.00327675
14 46 100 40 0.0285609
15 46 100 40 0.0112645
26 46 100 40 0.0224699
32 46 100 40 0.915839
40 46 100 40 0.00519283
3 47 100 40 1.58892e-05
4 47 100 40 0.000358532
5 47 100 40 0.331856
6 47 100 40 0.33347
7 47 100 40 0.333239
8 47 100 40 3.00066e-05
9 47 100 40 0.000497629
33 47 100 40 7.56526e-07
34 47 100 40 9.74849e-05
35 47 100 40 0.000358339
36 47 100 40 2.7986e-05
37 47 100 40 5.49506e-06
38 47 100 40 2.16222e-05
39 47 100 40 2.12955e-05
2 48 100 40 0.766985
5 48 100 40 6.01553e-06
14 48 100 40 9.6145e-06
15 48 100 40 2.4714e-05
26 48 100 40 7.63726e-06
27 48 100 40 0.232917
35 48 100 40 5.04051e-05
2 49 100 40 0.000170956
3 49 100 40 9.14777e-06
4 49 100 40 5.44465e-05
5 49 100 40 8.07863e-05
6 49 100 40 2.24458e-05
7 49 100 40 0.000314208
8 49 100 40 0.998529
9 49 100 40 0.000658334
18 49 100 40 2.01217e-05
27 49 100 40 9.41568e-06
34 49 100 40 3.01418e-05
35 49 100 40 7.2312e-05
36 49 100 40 1.42724e-05
38 49 100 40 8.85184e-06
39 49 100 40 5.40478e-06
2 50 100 40 0.00162841
7 50 100 40 0.000240123
8 50 100 40 4.1618e-05
9 50 100 40 3.23157e-05
13 50 100 40 3.08934e-05
14 50 100 40 6.40024e-05
15 50 100 40 0.997836
18 50 100 40 1.73018e-05
26 50 100 40 5.09583e-05
27 50 100 40 5.88751e-05
3 51 100 40 0.000984826
4 51 100 40 0.0197404
5 51 100 40 0.00668214
6 51 100 40 0.000472833
7 51 100 40 0.0011846
8 51 100 40 3.67779e-05
9 51 100 40 0.00480791
34 51 100 40 0.00112705
35 51 100 40 0.96095
36 51 100 40 0.00209913
37 51 100 40 0.000297596
38 51 100 40 0.000956198
39 51 100 40 0.000661087
2 52 100 40 0.00553169
7 52 100 40 0.00027503
8 52 100 40 5.52456e-05
9 52 100 40 4.45542e-05
13 52 100 40 5.56174e-05
14 52 100 40 0.000105934
15 52 100 40 0.993732
18 52 100 40 3.1572e-05
26 52 100 40 7.9287e-05
27 52 100 40 8.87161e-05
3 53 100 40 0.00062881
4 53 100 40 0.0013251
5 53 100 40 0.00108392
6 53 100 40 5.5524e-05
7 53 100 40 0.000107794
8 53 100 40 3.38302e-06
9 53 100 40 0.000145138
34 53 100 40 0.000428826
35 53 100 40 0.150474
36 53 100 40 0.844388
37 53 100 40 0.000300254
38 53 100 40 0.000593867
39 53 100 40 0.000465552
1 54 100 40 0.543135
2 54 100 40 6.02617e-05
3 54 100 40 1.80428e-05
4 54 100 40 2.08475e-06
5 54 100 40 1.76836e-06
34 54 100 40 1.00076e-06
35 54 100 40 0.00052404
36 54 100 40 3.19259e-05
37 54 100 40 0.456208
38 54 100 40 1.54385e-05
39 54 100 40 1.96596e-06
3 55 100 40 0.250148
4 55 100 40 0.2483
5 55 100 40 0.0003959
6 55 100 40 7.51073e-06
7 55 100 40 9.56439e-06
8 55 100 40 3.96716e-07
9 55 100 40 1.4696e-05
34 55 100 40 3.95984e-05
35 55 100 40 0.000330116
36 55 100 40 0.000367459
37 55 100 40 6.92277e-05
38 55 100 40 0.250155
39 55 100 40 0.250163
1 56 100 40 0.422052
2 56 100 40 3.82595e-05
3 56 100 40 9.93548e-06
4 56 100 40 3.97365e-06
5 56 100 40 3.85082e-06
34 56 100 40 1.47196e-06
35 56 100 40 0.000694949
36 56 100 40 1.84783e-05
37 56 100 40 0.577161
38 56 100 40 9.49178e-06
39 56 100 40 6.06506e-06
2 57 100 40 0.528205
3 57 100 40 0.0423123
4 57 100 40 0.00692688
5 57 100 40 0.00371848
13 57 100 40 0.171374
34 57 100 40 0.00148765
35 57 100 40 0.00523621
36 57 100 40 0.0305329
38 57 100 40 0.0309749
39 57 100 40 0.179232
2 58 100 40 1.80399e-05
40 58 100 40 0.999982
8 0 100 43 0.0149508
11 0 100 43 0.166581
13 0 100 43 0.166581
16 0 100 43 6.01286e-06
17 0 100 43 0.16513
19 0 100 43 0.157444
28 0 100 43 0.166581
29 0 100 43 2.57409e-06
36 0 100 43 0.162722
1 1 100 43 0.333334
2 1 100 43 0.333334
35 1 100 43 0.333333
43 2 100 43 1
19 3 100 43 0.522298
36 3 100 43 0.477702
32 4 100 43 0.142857
33 4 100 43 0.142857
34 4 100 43 0.142857
37 4 100 43 0.142857
38 4 100 43 0.142857
39 4 100 43 0.142857
40 4 100 43 0.142857
19 5 100 43 0.722066
36 5 100 43 0.277934
4 6 100 43 0.5
5 6 100 43 0.5
6 7 100 43 0.998451
16 7 100 43 0.00154875
7 8 100 43 1
8 9 100 43 1
9 10 100 43 1
41 11 100 43 1
43 12 100 43 1
8 13 100 43 1
43 14 100 43 1
29 15 100 43 0.511282
30 15 100 43 0.488718
31 16 100 43 1
28 17 100 43 1
30 18 100 43 0.185892
31 18 100 43 0.814108
19 19 100 43 0.501914
36 19 100 43 0.498086
32 20 100 43 1
19 21 100 43 0.501914
36 21 100 43 0.498086
27 22 100 43 1
9 23 100 43 0.194911
27 23 100 43 0.805089
27 24 100 43 1
27 25 100 43 1
25 26 100 43 1
26 27 100 43 1
19 28 100 43 0.907943
36 28 100 43 0.0920568
19 29 100 43 0.907943
36 29 100 43 0.0920568
6 30 100 43 0.00077148
16 30 100 43 0.999228
10 31 100 43 0.99999
14 31 100 43 1.03403e-05
25 32 100 43 1
12 33 100 43 0.500002
14 33 100 43 0.499998
15 34 100 43 1
22 35 100 43 1
23 36 100 43 0.5
24 36 100 43 0.5
41 37 100 43 1
22 38 100 43 1
17 39 100 43 1
3 40 100 43 1
18 41 100 43 0.333333
20 41 100 43 0.333333
21 41 100 43 0.333333
13 42 100 43 0.284552
19 42 100 43 0.448222
28 42 100 43 0.267225
42 43 100 43 1
43 44 100 43 1
2 0 100 45 0.0588808
5 0 100 45 0.00510024
8 0 100 45 0.0676202
9 0 100 45 0.0777742
14 0 100 45 8.78163e-07
17 0 100 45 0.0676202
20 0 100 45 0.124135
23 0 100 45 0.0676201
26 0 100 45 0.0676202
27 0 100 45 0.0584782
28 0 100 45 4.32708e-06
29 0 100 45 0.00826643
30 0 100 45 0.0666448
35 0 100 45 0.0676202
36 0 100 45 0.0671496
38 0 100 45 0.127844
39 0 100 45 1.26404e-06
41 0 100 45 0.06762
1 1 100 45 0.66383
2 1 100 45 0.336158
9 1 100 45 1.20623e-05
2 2 100 45 0.987888
9 2 100 45 0.00431378
29 2 100 45 0.000368008
32 2 100 45 0.00707991
38 2 100 45 0.000350541
3 3 100 45 0.5
13 3 100 45 0.5
4 4 100 45 0.2
16 4 100 45 0.2
22 4 100 45 0.2
42 4 100 45 0.2
43 4 100 45 0.2
3 5 100 45 0.997663
27 5 100 45 7.76889e-05
37 5 100 45 0.000849831
45 5 100 45 0.0014098
2 6 100 45 0.00801425
9 6 100 45 0.00336376
25 6 100 45 0.988153
29 6 100 45 0.000220372
38 6 100 45 0.000249141
5 7 100 45 0.2
15 7 100 45 0.2
18 7 100 45 0.2
21 7 100 45 0.2
24 7 100 45 0.2
14 8 100 45 1
12 9 100 45 0.2
19 9 100 45 0.2
27 9 100 45 0.199999
41 9 100 45 0.2
44 9 100 45 0.2
20 10 100 45 0.0198435
36 10 100 45 0.0142158
45 10 100 45 0.965941
2 11 100 45 0.000445622
9 11 100 45 0.00153722
10 11 100 45 0.996233
29 11 100 45 0.00139906
38 11 100 45 0.000385056
11 12 100 45 0.428228
25 12 100 45 0.50204
28 12 100 45 0.0696225
40 12 100 45 0.000108722
11 13 100 45 0.00721551
27 13 100 45 0.000278551
28 13 100 45 0.139377
37 13 100 45 0.000700863
40 13 100 45 0.852381
45 13 100 45 4.66695e-05
39 14 100 45 1
6 15 100 45 1
27 16 100 45 0.0088147
29 16 100 45 0.96753
37 16 100 45 0.0221787
45 16 100 45 0.00147685
29 17 100 45 1
26 18 100 45 0.494065
29 18 100 45 0.0170671
36 18 100 45 0.488868
32 19 100 45 1
23 20 100 45 0.5
24 20 100 45 0.5
39 21 100 45 1
33 22 100 45 1
6 23 100 45 0.499993
22 23 100 45 0.500007
2 24 100 45 0.000251703
4 24 100 45 0.999249
9 24 100 45 0.000487745
38 24 100 45 1.18946e-05
5 25 100 45 0.315813
7 25 100 45 0.342091
28 25 100 45 0.342079
30 25 100 45 1.62022e-05
6 26 100 45 0.881455
27 26 100 45 0.118545
11 27 100 45 0.499764
20 27 100 45 0.000355004
31 27 100 45 0.49976
36 27 100 45 0.000120861
2 28 100 45 0.0026543
9 28 100 45 0.993115
29 28 100 45 0.000142061
38 28 100 45 0.00408901
2 29 100 45 1.7539e-05
7 29 100 45 0.16551
9 29 100 45 0.0069176
18 29 100 45 0.16551
19 29 100 45 0.16551
21 29 100 45 0.16551
31 29 100 45 0.16551
37 29 100 45 0.16551
38 29 100 45 3.54392e-06
8 30 100 45 0.250023
10 30 100 45 0.250023
12 30 100 45 0.248824
13 30 100 45 0.250023
16 30 100 45 0.0011076
2 31 100 45 0.00395105
9 31 100 45 0.000113819
20 31 100 45 0.161562
29 31 100 45 0.827177
36 31 100 45 0.00618213
38 31 100 45 0.00101457
2 32 100 45 1.35653e-05
9 32 100 45 1.85749e-05
17 32 100 45 0.95977
29 32 100 45 0.0401142
38 32 100 45 8.34657e-05
5 33 100 45 0.00137003
30 33 100 45 0.99863
11 34 100 45 0.0740857
12 34 100 45 0.00256166
28 34 100 45 0.369639
35 34 100 45 0.534232
40 34 100 45 0.0194811
11 35 100 45 6.61511e-05
15 35 100 45 0.337343
16 35 100 45 0.335849
28 35 100 45 0.00402428
33 35 100 45 0.322571
40 35 100 45 0.000146963
34 36 100 45 1
4 37 100 45 0.00110244
37 37 100 45 0.992502
45 37 100 45 0.00639543
3 38 100 45 1
2 39 100 45 0.000158783
9 39 100 45 6.51035e-05
29 39 100 45 0.000365172
38 39 100 45 0.0947777
45 39 100 45 0.904633
40 40 100 45 1
39 41 100 45 1
38 42 100 45 1
26 43 100 45 0.0158596
36 43 100 45 0.98414
2 44 100 45 0.0071654
9 44 100 45 0.00672666
29 44 100 45 0.0724111
38 44 100 45 0.913697
42 45 100 45 0.333333
43 45 100 45 0.333333
44 45 100 45 0.333333
37 46 100 45 0.00639656
45 46 100 45 0.993603
1 0 100 47 0.0112523
3 0 100 47 0.125807
8 0 100 47 6.32597e-06
10 0 100 47 0.06364
12 0 100 47 0.06364
14 0 100 47 0.0639906
16 0 100 47 0.00127271
17 0 100 47 0.00184263
19 0 100 47 0.06364
20 0 100 47 0.0397713
22 0 100 47 0.06364
25 0 100 47 0.06364
27 0 100 47 0.0605847
28 0 100 47 0.000142468
29 0 100 47 0.0011126
33 0 100 47 0.124705
34 0 100 47 0.0587667
35 0 100 47 2.03717e-05
36 0 100 47 0.065198
37 0 100 47 1.39859e-05
40 0 100 47 3.35545e-05
43 0 100 47 0.06364
44 0 100 47 0.06364
1 1 100 47 0.985723
3 1 100 47 0.00383561
14 1 100 47 0.0104417
2 2 100 47 0.250018
4 2 100 47 0.249946
5 2 100 47 0.250018
43 2 100 47 0.250018
1 3 100 47 0.426573
3 3 100 47 0.573427
40 4 100 47 0.00859073
45 4 100 47 0.991409
41 5 100 47 0.333333
42 5 100 47 0.333333
44 5 100 47 0.333333
1 6 100 47 1
15 7 100 47 0.333325
16 7 100 47 0.333325
17 7 100 47 0.333325
29 7 100 47 2.56988e-05
2 8 100 47 0.982037
14 8 100 47 0.00411583
27 8 100 47 0.00860522
34 8 100 47 0.00506055
36 8 100 47 0.000181129
13 9 100 47 0.50835
37 9 100 47 0.49165
15 10 100 47 0.510017
16 10 100 47 0.489345
32 10 100 47 0.000637169
18 11 100 47 0.0130861
20 11 100 47 0.451872
33 11 100 47 0.535042
1 12 100 47 8.38824e-05
3 12 100 47 0.000170365
46 12 100 47 0.999746
10 13 100 47 0.000297472
20 13 100 47 0.00020332
30 13 100 47 0.000155161
47 13 100 47 0.999344
11 14 100 47 0.000298795
14 14 100 47 0.489501
16 14 100 47 0.0100388
27 14 100 47 0.00187227
29 14 100 47 1.04617e-05
34 14 100 47 0.00152267
36 14 100 47 3.22992e-05
40 14 100 47 0.496724
18 15 100 47 0.915261
39 15 100 47 0.0847395
18 16 100 47 0.993749
20 16 100 47 0.0014333
33 16 100 47 0.00481719
20 17 100 47 0.520459
39 17 100 47 0.479541
31 18 100 47 0.00381637
38 18 100 47 0.996184
14 19 100 47 0.000262411
16 19 100 47 0.000522996
17 19 100 47 0.996913
27 19 100 47 0.00210048
34 19 100 47 9.79355e-05
36 19 100 47 0.00010279
18 20 100 47 0.5
21 20 100 47 0.5
37 21 100 47 1
1 22 100 47 0.00195119
3 22 100 47 0.00687423
19 22 100 47 0.991175
6 23 100 47 0.499267
35 23 100 47 0.500733
9 24 100 47 0.428321
20 24 100 47 0.130913
22 24 100 47 0.428321
33 24 100 47 0.0124448
7 25 100 47 0.483323
8 25 100 47 0.483296
20 25 100 47 0.0304828
33 25 100 47 0.00289773
11 26 100 47 0.333317
21 26 100 47 0.333341
34 26 100 47 0.333342
10 27 100 47 0.00502712
23 27 100 47 0.14286
24 27 100 47 0.14286
26 27 100 47 0.14286
28 27 100 47 0.14286
30 27 100 47 0.280651
31 27 100 47 0.14286
47 27 100 47 2.21692e-05
1 28 100 47 7.66434e-05
3 28 100 47 1.63675e-05
23 28 100 47 0.999907
13 29 100 47 0.5
14 29 100 47 1.04339e-05
27 29 100 47 0.000809431
29 29 100 47 0.491209
34 29 100 47 0.00793193
36 29 100 47 3.91165e-05
12 30 100 47 0.959804
14 30 100 47 0.000690708
27 30 100 47 0.0180323
34 30 100 47 0.0180323
36 30 100 47 0.00344113
32 31 100 47 1
11 32 100 47 0.989611
47 32 100 47 0.0103894
20 33 100 47 0.862252
33 33 100 47 0.137748
4 34 100 47 1
5 35 100 47 1
6 36 100 47 0.0173548
10 36 100 47 0.104013
30 36 100 47 0.000819991
35 36 100 47 0.877517
47 36 100 47 0.000295544
6 37 100 47 0.351437
7 37 100 47 0.35143
35 37 100 47 0.297133
11 38 100 47 3.58801e-05
24 38 100 47 0.499983
32 38 100 47 0.499982
14 39 100 47 0.000448224
25 39 100 47 0.033367
27 39 100 47 0.0040131
34 39 100 47 0.0744038
35 39 100 47 0.0489655
36 39 100 47 0.838802
14 40 100 47 1
31 41 100 47 0.997993
38 41 100 47 0.00200665
25 42 100 47 0.54575
27 42 100 47 5.56231e-05
29 42 100 47 4.29259e-05
34 42 100 47 0.00132205
36 42 100 47 0.452829
8 43 100 47 1
37 44 100 47 0.125
38 44 100 47 0.125
39 44 100 47 0.125
40 44 100 47 0.125
41 44 100 47 0.125
42 44 100 47 0.125
45 44 100 47 0.125
46 44 100 47 0.125
14 45 100 47 0.00017149
26 45 100 47 0.489415
27 45 100 47 0.495441
34 45 100 47 0.00942798
36 45 100 47 0.00554501
29 46 100 47 0.502618
47 46 100 47 0.497382
3 47 100 47 0.00023146
8 47 100 47 0.999769
9 48 100 47 0.500564
28 48 100 47 0.499436
3 49 100 47 1.43391e-06
10 49 100 47 0.447992
30 49 100 47 0.278443
47 49 100 47 0.273564
2 0 100 50 8.59946e-06
4 0 100 50 0.145711
6 0 100 50 2.84895e-06
14 0 100 50 0.145711
15 0 100 50 0.145416
20 0 100 50 3.78367e-05
23 0 100 50 2.64493e-05
27 0 100 50 0.00170893
31 0 100 50 0.145711
33 0 100 50 0.14294
37 0 100 50 0.145711
46 0 100 50 0.127015
1 1 100 50 1
2 2 100 50 0.485497
3 2 100 50 0.485317
6 2 100 50 0.0291862
22 3 100 50 1
27 4 100 50 0.0899437
49 4 100 50 0.910056
2 5 100 50 0.000970206
3 5 100 50 0.00237916
6 5 100 50 0.996651
7 6 100 50 0.5
8 6 100 50 0.5
5 7 100 50 1
9 8 100 50 1
9 9 100 50 0.988319
10 9 100 50 0.0116815
2 10 100 50 0.35191
6 10 100 50 0.64809
10 11 100 50 1
46 12 100 50 1
49 13 100 50 1
11 14 100 50 1
12 15 100 50 0.142857
13 15 100 50 0.142857
16 15 100 50 0.142857
17 15 100 50 0.142857
18 15 100 50 0.142857
47 15 100 50 0.142857
48 15 100 50 0.142857
27 16 100 50 0.199692
49 16 100 50 0.800308
19 17 100 50 1
20 18 100 50 1
43 19 100 50 0.0515122
44 19 100 50 0.475856
45 19 100 50 0.472631
21 20 100 50 0.499385
23 20 100 50 0.500511
34 20 100 50 0.000104051
24 21 100 50 0.5
25 21 100 50 0.5
26 22 100 50 1
26 23 100 50 1
15 24 100 50 0.253555
33 24 100 50 0.746445
26 25 100 50 1
27 26 100 50 1
28 27 100 50 0.5
29 27 100 50 0.5
30 28 100 50 1
46 29 100 50 1
15 30 100 50 0.208258
33 30 100 50 0.791742
43 31 100 50 0.812785
44 31 100 50 0.0908641
45 31 100 50 0.0963504
21 32 100 50 0.1237
23 32 100 50 0.0280521
34 32 100 50 0.848248
15 33 100 50 0.0194765
23 33 100 50 0.117486
33 33 100 50 0.863038
36 34 100 50 1
20 35 100 50 1
21 36 100 50 5.84532e-06
32 36 100 50 0.505464
34 36 100 50 0.49453
49 37 100 50 1
20 38 100 50 1
35 39 100 50 0.942986
42 39 100 50 0.0570141
15 40 100 50 0.0293937
33 40 100 50 0.970606
35 41 100 50 0.0570142
42 41 100 50 0.942986
27 42 100 50 0.00309522
49 42 100 50 0.996905
39 43 100 50 1
38 44 100 50 1
37 45 100 50 1
33 46 100 50 1
38 47 100 50 1
15 48 100 50 0.0699773
33 48 100 50 0.930023
39 49 100 50 1
38 50 100 50 0.544448
40 50 100 50 0.455552
40 51 100 50 0.5
41 51 100 50 0.5
37 52 100 50 3.43296e-06
49 52 100 50 0.999997
19 53 100 50 0.0249635
50 53 100 50 0.975037
4 0 100 52 0.115485
8 0 100 52 1.57127e-05
13 0 100 52 1.1707e-06
15 0 100 52 0.115485
16 0 100 52 0.0952091
17 0 100 52 0.113849
25 0 100 52 0.115485
28 0 100 52 0.10845
32 0 100 52 0.115485
34 0 100 52 0.000233082
37 0 100 52 0.10477
40 0 100 52 3.78754e-05
41 0 100 52 0.115485
42 0 100 52 1.21215e-06
49 0 100 52 7.10628e-06
1 1 100 52 0.199988
9 1 100 52 0.199988
10 1 100 52 0.199988
11 1 100 52 0.199988
12 1 100 52 0.199988
46 1 100 52 5.9375e-05
8 2 100 52 0.249974
13 2 100 52 0.250004
36 2 100 52 0.250011
38 2 100 52 0.250011
16 3 100 52 0.907053
37 3 100 52 0.0929472
6 4 100 52 0.0252026
14 4 100 52 0.974797
6 5 100 52 1
7 6 100 52 0.5
39 6 100 52 0.5
15 7 100 52 0.169489
32 7 100 52 0.193918
41 7 100 52 0.132424
42 7 100 52 0.504169
34 8 100 52 0.499578
40 8 100 52 0.500422
31 9 100 52 1
35 10 100 52 1
28 11 100 52 1
30 12 100 52 1
28 13 100 52 1
29 14 100 52 1
16 15 100 52 0.941009
37 15 100 52 0.0589908
18 16 100 52 0.99945
24 16 100 52 0.000164415
50 16 100 52 0.000385265
29 17 100 52 1
17 18 100 52 1
29 19 100 52 1
19 20 100 52 1
20 21 100 52 0.333333
21 21 100 52 0.333333
22 21 100 52 0.333333
23 22 100 52 1
52 23 100 52 1
18 24 100 52 0.000151098
24 24 100 52 0.99963
45 24 100 52 4.21823e-05
50 24 100 52 0.000177045
26 25 100 52 1
27 26 100 52 1
6 27 100 52 1
29 28 100 52 1
17 29 100 52 1
28 30 100 52 1
3 31 100 52 0.642791
29 31 100 52 0.357209
16 32 100 52 0.170503
37 32 100 52 0.829497
28 33 100 52 1
2 34 100 52 0.999455
3 34 100 52 0.000545079
2 35 100 52 1
3 36 100 52 1
5 37 100 52 0.99929
33 37 100 52 0.000710185
42 38 100 52 0.156172
49 38 100 52 0.843828
42 39 100 52 0.156172
49 39 100 52 0.843828
5 40 100 52 0.000711035
33 40 100 52 0.999289
42 41 100 52 0.99938
49 41 100 52 0.000620479
16 42 100 52 0.0922394
37 42 100 52 0.907761
5 43 100 52 0.029507
6 43 100 52 0.0123067
33 43 100 52 0.958186
42 44 100 52 0.000124132
43 44 100 52 0.200086
44 44 100 52 0.200086
47 44 100 52 0.200086
48 44 100 52 0.200086
49 44 100 52 0.199533
45 45 100 52 0.973526
50 45 100 52 0.026474
46 46 100 52 1
28 47 100 52 1
16 48 100 52 0.172735
42 48 100 52 0.827265
51 49 100 52 1
52 50 100 52 1
18 51 100 52 0.000229328
24 51 100 52 2.77468e-05
45 51 100 52 0.0263682
50 51 100 52 0.973375
4 0 100 54 0.144782
8 0 100 54 0.144782
11 0 100 54 3.34731e-05
18 0 100 54 0.144782
19 0 100 54 0.133111
21 0 100 54 3.24588e-06
28 0 100 54 7.89645e-05
29 0 100 54 0.000313031
35 0 100 54 3.18439e-06
37 0 100 54 0.144782
38 0 100 54 0.141761
45 0 100 54 0.144782
47 0 100 54 2.81924e-06
48 0 100 54 0.000759305
49 0 100 54 3.35417e-06
51 0 100 54 2.02772e-05
1 1 100 54 1
47 2 100 54 1
2 3 100 54 0.5
3 3 100 54 0.5
5 4 100 54 1
6 5 100 54 1
7 6 100 54 1
9 7 100 54 0.5
10 7 100 54 0.5
21 8 100 54 1
11 9 100 54 1
12 10 100 54 0.333332
16 10 100 54 0.333334
17 10 100 54 0.333334
51 11 100 54 1
20 12 100 54 0.786935
49 12 100 54 0.213065
14 13 100 54 1
15 14 100 54 0.935086
18 14 100 54 0.0649142
13 15 100 54 1
19 16 100 54 0.976596
38 16 100 54 0.0234043
51 17 100 54 1
15 18 100 54 1
22 19 100 54 0.5
23 19 100 54 0.5
24 20 100 54 0.999983
54 20 100 54 1.69778e-05
11 21 100 54 1.65969e-05
25 21 100 54 0.333553
28 21 100 54 0.333371
29 21 100 54 0.0012606
48 21 100 54 0.331799
26 22 100 54 0.49999
27 22 100 54 0.50001
21 23 100 54 1
20 24 100 54 0.135668
49 24 100 54 0.86426
51 24 100 54 7.19573e-05
29 25 100 54 1
18 26 100 54 1
50 27 100 54 0.500057
51 27 100 54 0.499944
34 28 100 54 1
32 29 100 54 1
33 30 100 54 1
19 31 100 54 0.787744
38 31 100 54 0.212256
21 32 100 54 1
30 33 100 54 1
31 34 100 54 1
40 35 100 54 1
44 36 100 54 1
46 37 100 54 1
26 38 100 54 3.82741e-05
47 38 100 54 0.999962
35 39 100 54 1
43 40 100 54 1
11 41 100 54 1
39 42 100 54 1
36 43 100 54 0.2
41 43 100 54 0.2
42 43 100 54 0.2
52 43 100 54 0.2
53 43 100 54 0.2
24 44 100 54 1.69776e-05
54 44 100 54 0.999983
1 0 100 59 0.047221
5 0 100 59 0.0955902
8 0 100 59 0.0955902
10 0 100 59 0.0955902
12 0 100 59 0.0955902
14 0 100 59 0.0936017
23 0 100 59 0.0955902
26 0 100 59 0.0944516
31 0 100 59 0.0955902
35 0 100 59 0.0955902
49 0 100 59 4.41443e-06
51 0 100 59 0.0955902
1 1 100 59 0.967736
14 1 100 59 0.0207925
26 1 100 59 0.0114716
21 2 100 59 0.2
22 2 100 59 0.2
24 2 100 59 0.2
25 2 100 59 0.2
27 2 100 59 0.2
20 3 100 59 1
20 4 100 59 1
59 5 100 59 1
28 6 100 59 1
28 7 100 59 1
59 8 100 59 1
29 9 100 59 0.333333
33 9 100 59 0.333333
34 9 100 59 0.333333
1 10 100 59 0.162934
14 10 100 59 0.122581
26 10 100 59 0.714486
30 11 100 59 1
30 12 100 59 1
30 13 100 59 1
30 14 100 59 1
16 15 100 59 0.00713137
19 15 100 59 0.00489534
32 15 100 59 0.987243
40 15 100 59 0.000385944
47 15 100 59 0.000108414
50 15 100 59 0.000236301
17 16 100 59 1
18 17 100 59 1
16 18 100 59 0.00023072
19 18 100 59 0.0116869
32 18 100 59 9.22705e-06
40 18 100 59 0.493956
47 18 100 59 0.000213905
50 18 100 59 0.493903
11 19 100 59 1
46 20 100 59 1
11 21 100 59 1
13 22 100 59 0.125
15 22 100 59 0.125
36 22 100 59 0.125
38 22 100 59 0.125
39 22 100 59 0.125
42 22 100 59 0.125
43 22 100 59 0.125
44 22 100 59 0.125
3 23 100 59 0.0225375
37 23 100 59 0.977462
1 24 100 59 0.463804
14 24 100 59 0.0942485
26 24 100 59 0.441947
54 25 100 59 1
9 26 100 59 0.499999
41 26 100 59 0.500001
16 27 100 59 0.000352776
19 27 100 59 0.000479978
32 27 100 59 0.000110419
40 27 100 59 0.000350655
47 27 100 59 0.997545
50 27 100 59 0.00116082
48 28 100 59 1
3 29 100 59 0.977018
37 29 100 59 0.0229815
11 30 100 59 1
2 31 100 59 1
49 32 100 59 1
11 33 100 59 1
6 34 100 59 1
1 35 100 59 0.756187
14 35 100 59 0.225642
26 35 100 59 0.0181713
4 36 100 59 1
6 37 100 59 0.999515
7 37 100 59 0.000484851
16 38 100 59 0.501508
19 38 100 59 0.490902
32 38 100 59 0.00441867
40 38 100 59 0.00168648
47 38 100 59 7.93234e-05
50 38 100 59 0.00140576
1 39 100 59 0.678399
14 39 100 59 0.286198
26 39 100 59 0.0354038
7 40 100 59 1
45 41 100 59 1
59 42 100 59 1
52 43 100 59 1
53 44 100 59 0.0523096
58 44 100 59 0.94769
53 45 100 59 1
54 46 100 59 1
54 47 100 59 1
55 48 100 59 0.333333
56 48 100 59 0.333333
57 48 100 59 0.333333
59 49 100 59 1
