2 0.849531 0.0990693 0.0383197 0.00522477 0.00785536 0 0 0 0 0 
3 0.280548 0.517648 0.0464721 0.0618026 0 0.0622711 1.27861e-07 0.0312576 0 0 
4 0.572934 0.427066 1.00387e-07 0 0 0 0 0 0 0 
5 0.295932 0.517648 0.0464721 0.0618026 0 0.0468865 1.27861e-07 0.0312576 0 0 
6 0.313929 0.475081 7.42596e-07 0.17583 0.0351584 0 0 0 0 0 
7 0.573792 0.426208 0 0 0 0 0 0 0 0 
8 0.294434 0.519147 0.0464721 0.0618026 0 0.0468865 1.27861e-07 0.0312576 0 0 
9 0.753845 0 0.246154 0 0 0 0 0 0 0 
10 0.599683 0.400316 0 0 0 0 0 0 0 0 
11 0.286519 0.546773 0.0417235 0.0731629 0.031093 0 0.0207288 0 0 0 
12 0.65401 0.34599 1.28017e-07 0 0 0 0 0 0 0 
13 0.280548 0.533033 0.0464721 0.0618026 0 0.0468865 1.27861e-07 0.0312576 0 0 
14 0.28298 0.550311 0.0417235 0.0731629 0.031093 0 0.0207288 0 0 0 
15 0.715083 0.277623 0 0.00729428 0 0 0 0 0 0 
16 0.169251 0.556292 0.210933 1.13744e-07 0 0 0.0476427 0 0.015881 0 
17 0.300083 0.473542 1.02373e-06 0.191214 0.0351584 0 0 0 0 0 
18 0.314715 0.533819 0.0377587 0.0502146 0 0.0380952 1.03887e-07 0.0253968 0 0 
19 0.184479 0.541064 0.210933 1.13744e-07 0 0 0.0476427 0 0.015881 0 
20 0.433865 0.303266 0.197228 0 0.0164455 0.0327854 0 0 0.0164103 0 
21 0.112533 0.64576 0.13537 0.0154489 0 0.0303009 0.0452698 0.0153171 0 0 
22 0.278779 0.557038 0.0410914 0.0720544 0.0306219 0 0.0204147 0 0 0 
23 0.5479 0.4521 0 0 0 0 0 0 0 0 
24 0.432963 0.304168 0.197228 0 0.0164455 0.0327854 0 0 0.0164103 0 
25 0.169094 0.556449 0.210933 1.13744e-07 0 0 0.0476427 0 0.015881 0 
26 0.670876 0.236975 0.0717635 0.0081425 0.0122421 0 0 0 0 0 
27 0.0971498 0.66114 0.135374 0.0154489 0 0.0303009 0.0452698 0.0153171 0 0 
28 0.418659 0.315971 0.199729 0 0.0164455 0.0327854 0 0 0.0164103 0 
29 0.172383 0.55316 0.210933 1.13744e-07 0 0 0.0476427 0 0.015881 0 
30 0.575424 0.424575 0 0 0 0 0 0 0 0 
31 0.283169 0.550122 0.0417235 0.0731629 0.031093 0 0.0207288 0 0 0 
32 0.750811 0.154424 0.0706169 0.00964573 0.0145022 0 0 0 0 0 
33 0.50536 0.485458 0 0.00918222 0 0 0 0 0 0 
34 0.566363 0.433637 1.01932e-07 0 0 0 0 0 0 0 
35 0.26746 0.561016 0.0529281 0.0697776 0.0292905 0 0.0195271 0 0 0 
36 0.289459 0.548809 0.0404782 0.0709789 0.0301649 0 0.02011 0 0 0 
37 0.280548 0.517648 0.0618567 0.0618026 0 0.0468865 1.27861e-07 0.0312576 0 0 
38 0.28298 0.550311 0.0417235 0.0731629 0.031093 0 0.0207288 0 0 0 
39 0.171126 0.554417 0.210933 1.13744e-07 0 0 0.0476427 0 0.015881 0 
40 0.296309 0.536982 0.0417235 0.0731629 0.031093 0 0.0207288 0 0 0 
41 0.450877 0.2941 0.191341 0 0.0159546 0.0318067 0 0 0.0159205 0 
42 0.169118 0.556425 0.210933 1.13744e-07 0 0 0.0476427 0 0.015881 0 
43 0.579776 0.420224 1.01932e-07 0 0 0 0 0 0 0 
44 0.178972 0.539838 0.219562 1.10348e-07 0 0 0.0462205 0 0.0154069 0 
45 0.0971483 0.64576 0.13537 0.0154489 0 0.0303009 0.0452698 0.0307017 0 0 
46 0.0811161 0.691916 0.138099 0.0131289 0 0.0252507 0.0377248 0.0127643 0 0 
47 0.645965 0.343899 0 0.0101362 0 0 0 0 0 0 
48 0.166532 0.548017 0.222888 1.43315e-07 0 0 0.0469209 0 0.0156404 0 
49 0.743374 0.149824 0.0833714 0.00936075 0.0140693 0 0 0 0 0 
50 0.0971483 0.64576 0.150755 0.0154489 0 0.0303009 0.0452698 0.0153171 0 0 
51 0.753845 0 0.246154 0 0 0 0 0 0 0 
52 0.0971483 0.661144 0.13537 0.0154489 0 0.0303009 0.0452698 0.0153171 0 0 
53 0.562393 0 0.215591 0.112614 0 0 0.109402 0 0 0 
54 0.169094 0.541064 0.226317 1.13744e-07 0 0 0.0476427 0 0.015881 0 
55 0 0.999999 0 0 0 0 0 0 0 0 
56 0.74542 0.167821 0.0646515 0.0088306 0.0132767 0 0 0 0 0 
57 0.564382 0.435618 0 0 0 0 0 0 0 0 
58 0.418636 0.303442 0.21228 0 0.0164455 0.0327854 0 0 0.0164103 0 
59 0.169218 0.556202 0.211056 1.13744e-07 0 0 0.0476427 0 0.015881 0 
60 0.169218 0.556202 0.211056 1.13744e-07 0 0 0.0476427 0 0.015881 0 
61 0.572847 0.427152 1.00387e-07 0 0 0 0 0 0 0 
62 0.281966 0.531615 0.0464721 0.0618026 0 0.0468865 1.27861e-07 0.0312576 0 0 
63 0.548023 0.451976 0 0 0 0 0 0 0 0 
64 0.432603 0.304527 0.197228 0 0.0164455 0.0327854 0 0 0.0164103 0 
65 0.564382 0.435618 0 0 0 0 0 0 0 0 
66 0.169094 0.541064 0.226317 1.13744e-07 0 0 0.0476427 0 0.015881 0 
67 0.418636 0.303109 0.212613 0 0.0164455 0.0327854 0 0 0.0164103 0 
68 0.739874 0.166774 0.0695701 0.00949958 0.0142825 0 0 0 0 0 
69 0.28298 0.550311 0.0417235 0.0731629 0.031093 0 0.0207288 0 0 0 
70 0.738461 0 0.261538 0 0 0 0 0 0 0 
71 0.300287 0.488724 7.42596e-07 0.17583 0.0351584 0 0 0 0 0 
72 0.169094 0.556449 0.210933 1.13744e-07 0 0 0.0476427 0 0.015881 0 
73 0.291449 0.524957 0.045768 0.0608662 0 0.0461761 1.25924e-07 0.030784 0 0 
74 0.28298 0.534926 0.0417235 0.0731632 0.0464774 0 0.0207288 0 0 0 
75 0.534715 0.465285 1.3516e-07 0 0 0 0 0 0 0 
76 0.278699 0.555137 0.0430722 0.0720544 0.0306219 0 0.0204147 0 0 0 
77 0.581133 0.418867 0 0 0 0 0 0 0 0 
78 0.75072 0.154515 0.0706169 0.00964573 0.0145022 0 0 0 0 0 
79 0.281614 0.531967 0.0464721 0.0618026 0 0.0468865 1.27861e-07 0.0312576 0 0 
80 0.75072 0.154515 0.0706169 0.00964573 0.0145022 0 0 0 0 0 
81 0.289492 0.54876 0.0404939 0.0709789 0.0301649 0 0.02011 0 0 0 
82 0.169094 0.541064 0.226317 1.13744e-07 0 0 0.0476427 0 0.015881 0 
83 0.0971483 0.661144 0.13537 0.0154489 0 0.0303009 0.0452698 0.0153171 0 0 
84 0.300083 0.488927 7.42596e-07 0.17583 0.0351584 0 0 0 0 0 
85 0.418653 0.318477 0.197228 0 0.0164455 0.0327854 0 0 0.0164103 0 
86 0.280548 0.533033 0.0464721 0.0618026 0 0.0468865 1.27861e-07 0.0312576 0 0 
87 0.169094 0.541064 0.210933 1.13744e-07 0 0 0.0630273 0 0.015881 0 
88 0.166532 0.563029 0.207877 1.1202e-07 0 0 0.0469209 0 0.0156404 0 
89 0.418636 0.318494 0.197228 0 0.0164455 0.0327854 0 0 0.0164103 0 
90 0.393251 0.471297 0.0339018 0.0594449 0.0252631 0 0.0168421 0 0 0 
91 0.732624 0.147445 0.0819575 0.00940566 0.0285675 0 0 0 0 0 
92 0.0971483 0.661144 0.13537 0.0154489 0 0.0303009 0.0452698 0.0153171 0 0 
93 0.184462 0.541081 0.210933 1.13744e-07 0 0 0.0476427 0 0.015881 0 
94 0.433818 0.303313 0.197228 0 0.0164455 0.0327854 0 0 0.0164103 0 
95 0.280548 0.517648 0.0464766 0.0771828 0 0.0468865 1.27861e-07 0.0312576 0 0 
96 0.315468 0.473542 7.42596e-07 0.17583 0.0351584 0 0 0 0 0 
97 0.112533 0.64576 0.13537 0.0154489 0 0.0303009 0.0452698 0.0153171 0 0 
98 0.562393 0 0.215591 0.112614 0 0 0.109402 0 0 0 
99 0.300083 0.473542 7.42596e-07 0.191214 0.0351584 0 0 0 0 0 
100 0.573266 0.426734 1.00387e-07 0 0 0 0 0 0 0 
101 0.75125 0.153985 0.0706169 0.00964573 0.0145022 0 0 0 0 0 
102 0.293841 0.52686 0.0562072 0.0720544 0.0306219 0 0.0204147 0 0 0 
103 0.291114 0.525224 0.0458352 0.0608662 0 0.0461761 1.25924e-07 0.030784 0 0 
104 0.28527 0.548022 0.0417235 0.0731629 0.031093 0 0.0207288 0 0 0 
105 0.293645 0.519936 0.0464721 0.0618026 0 0.0468865 1.27861e-07 0.0312576 0 0 
106 0.74752 0.161896 0.0675015 0.00922018 0.0138624 0 0 0 0 0 
107 0.28298 0.550311 0.0417235 0.0731629 0.031093 0 0.0207288 0 0 0 
108 0.427445 0.313668 0.19424 0 0.0161963 0.0322886 0 0 0.0161617 0 
109 0.166577 0.56312 0.207742 1.1202e-07 0 0 0.0469209 0 0.0156404 0 
110 0.568306 0.116314 0.315379 0 0 0 0 0 0 0 
111 0.0971483 0.645761 0.150754 0.0154489 0 0.0303009 0.0452698 0.0153171 0 0 
112 0.28298 0.534926 0.0417235 0.0731629 0.031093 0 0.0361134 0 0 0 
113 0 0.999999 0 0 0 0 0 0 0 0 
114 0.583125 0.131798 0.285076 0 0 0 0 0 0 0 
115 0.315464 0.473547 7.42596e-07 0.17583 0.0351584 0 0 0 0 0 
116 0.293637 0.519944 0.0464721 0.0618026 0 0.0468865 1.27861e-07 0.0312576 0 0 
117 0.282925 0.530656 0.0464722 0.0618026 0 0.0468865 1.27861e-07 0.0312576 0 0 
118 0.579356 0.420644 1.01932e-07 0 0 0 0 0 0 0 
119 0.427445 0.313668 0.19424 0 0.0161963 0.0322886 0 0 0.0161617 0 
120 0.184479 0.541064 0.210933 1.13744e-07 0 0 0.0476427 0 0.015881 0 
121 0.751251 0.153985 0.0706169 0.00964573 0.0145022 0 0 0 0 0 
122 0.169094 0.541064 0.210933 1.13744e-07 0 0 0.0476427 0 0.0312656 0 
123 0.173785 0.537509 0.228864 1.0715e-07 0 0 0.0448808 0 0.0149603 0 
124 0.592426 0.118111 0.289462 0 0 0 0 0 0 0 
125 0.547008 0 0.215591 0.112614 0 0 0.124786 0 0 0 
126 0.0978649 0.660428 0.13537 0.0154489 0 0.0303009 0.0452698 0.0153171 0 0 
127 0.295227 0.518354 0.0464721 0.0618026 0 0.0468865 1.27861e-07 0.0312576 0 0 
128 0.169094 0.541064 0.226317 1.13744e-07 0 0 0.0476427 0 0.015881 0 
129 0.300083 0.488927 7.42596e-07 0.17583 0.0351584 0 0 0 0 0 
130 0.274533 0.548809 0.0404787 0.0859043 0.0301649 0 0.02011 0 0 0 
131 0.432895 0.304235 0.197228 0 0.0164455 0.0327854 0 0 0.0164103 0 
132 0.287536 0.545756 0.0417235 0.0731629 0.031093 0 0.0207288 0 0 0 
133 0.754377 0.152294 0.069547 0.00949958 0.0142825 0 0 0 0 0 
134 0.312691 0.476319 7.42596e-07 0.17583 0.0351584 0 0 0 0 0 
135 0.999999 0 0 0 0 0 0 0 0 0 
136 0.418636 0.303109 0.212613 0 0.0164455 0.0327854 0 0 0.0164103 0 
137 0.433721 0.30341 0.197228 0 0.0164455 0.0327854 0 0 0.0164103 0 
138 0.59235 0.118188 0.289462 0 0 0 0 0 0 0 
139 0.183028 0.542516 0.210933 1.13744e-07 0 0 0.0476427 0 0.015881 0 
140 0.581475 0.418525 1.01932e-07 0 0 0 0 0 0 0 
141 0.433817 0.303314 0.197228 0 0.0164455 0.0327854 0 0 0.0164103 0 
142 0.547008 0 0.215591 0.127999 0 0 0.109402 0 0 0 
143 0.284964 0.548327 0.0417235 0.0731629 0.031093 0 0.0207288 0 0 0 
144 0.28298 0.550311 0.0417235 0.0731629 0.031093 0 0.0207288 0 0 0 
145 0.418636 0.303109 0.197228 0 0.0318301 0.0327854 0 0 0.0164103 0 
146 0.280548 0.517648 0.0618567 0.0618026 0 0.0468865 1.27861e-07 0.0312576 0 0 
147 0.434001 0.30313 0.197228 0 0.0164455 0.0327854 0 0 0.0164103 0 
148 0.418636 0.317993 0.197729 0 0.0164455 0.0327854 0 0 0.0164103 0 
149 0.280548 0.517648 0.0472112 0.0764482 0 0.0468865 1.27861e-07 0.0312576 0 0 
150 0.419018 0.317875 0.197466 0 0.0164455 0.0327854 0 0 0.0164103 0 
151 0.547008 0 0.230524 0.113066 0 0 0.109402 0 0 0 
152 0.574793 0.425207 1.02458e-07 0 0 0 0 0 0 0 
153 0.418636 0.30339 0.212332 0 0.0164455 0.0327854 0 0 0.0164103 0 
154 0.298313 0.534978 0.0417235 0.0731629 0.031093 0 0.0207288 0 0 0 
155 0.743745 0.164319 0.068509 0.0093578 0.0140693 0 0 0 0 0 
156 0.306152 0.482858 7.42596e-07 0.17583 0.0351584 0 0 0 0 0 
157 0.307677 0.52814 0.0410914 0.0720544 0.0306219 0 0.0204147 0 0 0 
158 0.310402 0.478609 7.42596e-07 0.17583 0.0351584 0 0 0 0 0 
159 0.280548 0.517648 0.0464721 0.0618026 0 0.0468865 1.27861e-07 0.0466422 0 0 
160 0.547008 0 0.230976 0.112614 0 0 0.109402 0 0 0 
161 0.611363 0.376629 0 0.0120075 0 0 0 0 0 0 
162 0.169094 0.556449 0.210933 1.13744e-07 0 0 0.0476427 0 0.015881 0 
163 0.0971483 0.64576 0.135371 0.0308334 0 0.0303009 0.0452698 0.0153171 0 0 
164 0.170571 0.555091 0.211776 1.1202e-07 0 0 0.0469209 0 0.0156404 0 
165 0.169094 0.556449 0.210933 1.13744e-07 0 0 0.0476427 0 0.015881 0 
166 0.0971483 0.661144 0.13537 0.0154489 0 0.0303009 0.0452698 0.0153171 0 0 
167 0.418636 0.303109 0.212613 0 0.0164455 0.0327854 0 0 0.0164103 0 
168 0.724857 0.16635 0.0699475 0.0245047 0.0143408 0 0 0 0 0 
169 0.283072 0.55022 0.0417235 0.0731629 0.031093 0 0.0207288 0 0 0 
170 0.735867 0.153987 0.085998 0.00964575 0.0145022 0 0 0 0 0 
171 0.28298 0.550311 0.0417235 0.0731629 0.031093 0 0.0207288 0 0 0 
172 0.418636 0.318494 0.197228 0 0.0164455 0.0327854 0 0 0.0164103 0 
173 0.300083 0.488927 7.42596e-07 0.17583 0.0351584 0 0 0 0 0 
174 0.285202 0.555444 0.0398828 0.0699351 0.0297213 0 0.0198143 0 0 0 
175 0.28298 0.550311 0.0417235 0.0731629 0.031093 0 0.0207288 0 0 0 
176 0.735867 0.169368 0.0706171 0.00964573 0.0145022 0 0 0 0 0 
177 0.169094 0.556449 0.210933 1.13744e-07 0 0 0.0476427 0 0.015881 0 
178 0.0956767 0.666278 0.133319 0.0152148 0 0.0298418 0.0445839 0.015085 0 0 
179 0.280548 0.517648 0.0464721 0.0618026 0 0.0622711 1.27861e-07 0.0312576 0 0 
180 0.0971483 0.64576 0.13537 0.0154489 0 0.0303009 0.0606543 0.0153171 0 0 
181 0.278693 0.557124 0.0410914 0.0720544 0.0306219 0 0.0204147 0 0 0 
182 0.300471 0.488539 7.42596e-07 0.17583 0.0351584 0 0 0 0 0 
183 0.753845 0 0.246154 0 0 0 0 0 0 0 
184 0.280548 0.533033 0.0464721 0.0618026 0 0.0468865 1.27861e-07 0.0312576 0 0 
185 0.418636 0.303109 0.212613 0 0.0164455 0.0327854 0 0 0.0164103 0 
186 0.285884 0.54993 0.0410947 0.0720544 0.0306219 0 0.0204147 0 0 0 
187 0.280548 0.533033 0.0464721 0.0618026 0 0.0468865 1.27861e-07 0.0312576 0 0 
188 0.169094 0.541064 0.226317 1.13744e-07 0 0 0.0476427 0 0.015881 0 
189 0.0971483 0.64576 0.13537 0.0154489 0 0.0456807 0.0452745 0.0153171 0 0 
190 0.300083 0.473542 7.42596e-07 0.175833 0.0505402 0 0 0 0 0 
191 0.418636 0.303109 0.212613 0 0.0164455 0.0327854 0 0 0.0164103 0 
192 0.278693 0.557124 0.0410914 0.0720544 0.0306219 0 0.0204147 0 0 0 
193 0.169094 0.556449 0.210933 1.13744e-07 0 0 0.0476427 0 0.015881 0 
194 0.592376 0.118162 0.289462 0 0 0 0 0 0 0 
195 0.112458 0.645834 0.13537 0.0154489 0 0.0303009 0.0452698 0.0153171 0 0 
196 0.298343 0.534948 0.0417235 0.0731629 0.031093 0 0.0207288 0 0 0 
197 0.28298 0.534926 0.0417235 0.0885475 0.031093 0 0.0207288 0 0 0 
198 0.28298 0.550311 0.0417235 0.0731629 0.031093 0 0.0207288 0 0 0 
199 0.280702 0.532879 0.0464721 0.0618026 0 0.0468865 1.27861e-07 0.0312576 0 0 
200 0.736225 0.145979 0.0950476 0.00908656 0.0136615 0 0 0 0 0 
201 0.562393 0 0.215591 0.112614 0 0 0.109402 0 0 0 
202 0.294079 0.539212 0.0417235 0.0731629 0.031093 0 0.0207288 0 0 0 
203 0.287264 0.546028 0.0417235 0.0731629 0.031093 0 0.0207288 0 0 0 
204 0.0971507 0.661142 0.13537 0.0154489 0 0.0303009 0.0452698 0.0153171 0 0 
205 0.751232 0.154003 0.0706169 0.00964573 0.0145022 0 0 0 0 0 
206 0.592416 0.118122 0.289462 0 0 0 0 0 0 0 
207 0.300089 0.488921 7.42596e-07 0.17583 0.0351584 0 0 0 0 0 
208 0.299881 0.512003 0.0539392 0.0699352 0.0444271 0 0.0198143 0 0 0 
209 0.418636 0.303109 0.197228 0 0.0164785 0.048137 0 0 0.0164103 0 
210 0.282985 0.550307 0.0417235 0.0731629 0.031093 0 0.0207288 0 0 0 
211 0.300083 0.488927 7.42596e-07 0.17583 0.0351584 0 0 0 0 0 
212 0.0971483 0.660947 0.135568 0.0154489 0 0.0303009 0.0452698 0.0153171 0 0 
213 0.169094 0.556449 0.210933 1.13744e-07 0 0 0.0476427 0 0.015881 0 
214 0.300083 0.473542 7.42596e-07 0.191214 0.0351584 0 0 0 0 0 
215 0.0971483 0.64576 0.13537 0.0154489 0 0.0456854 0.0452698 0.0153171 0 0 
216 0.57705 0.133488 0.289462 0 0 0 0 0 0 0 
217 0.280548 0.533033 0.0464721 0.0618026 0 0.0468865 1.27861e-07 0.0312576 0 0 
218 0.169094 0.556449 0.210933 1.13744e-07 0 0 0.0476427 0 0.015881 0 
219 0.112533 0.64576 0.13537 0.0154489 0 0.0303009 0.0452698 0.0153171 0 0 
220 0.184479 0.541065 0.210933 1.13744e-07 0 0 0.0476427 0 0.015881 0 
221 0.592434 0.118103 0.289462 0 0 0 0 0 0 0 
222 0.0971483 0.645927 0.150588 0.0154489 0 0.0303009 0.0452698 0.0153171 0 0 
223 0.169094 0.556449 0.210933 1.13744e-07 0 0 0.0476427 0 0.015881 0 
224 0.434021 0.303109 0.197228 0 0.0164455 0.0327854 0 0 0.0164103 0 
225 0.750578 0.154657 0.0706169 0.00964573 0.0145022 0 0 0 0 0 
226 0.280548 0.533033 0.0464721 0.0618026 0 0.0468865 1.27861e-07 0.0312576 0 0 
227 0.0971483 0.64576 0.150754 0.0154489 0 0.0303009 0.0452698 0.0153171 0 0 
228 0.280548 0.517648 0.0465459 0.0771134 0 0.0468865 1.27861e-07 0.0312576 0 0 
229 0.418636 0.318494 0.197228 0 0.0164455 0.0327854 0 0 0.0164103 0 
230 0.41931 0.31782 0.197228 0 0.0164455 0.0327854 0 0 0.0164103 0 
231 0.0971483 0.661144 0.13537 0.0154489 0 0.0303009 0.0452698 0.0153171 0 0 
232 0.0971484 0.661144 0.13537 0.0154489 0 0.0303009 0.0452698 0.0153171 0 0 
233 0.169094 0.556449 0.210933 1.13744e-07 0 0 0.0476427 0 0.015881 0 
234 0.433854 0.303277 0.197228 0 0.0164455 0.0327854 0 0 0.0164103 0 
235 0.28298 0.534926 0.0417235 0.0885475 0.031093 0 0.0207288 0 0 0 
236 0.28298 0.534926 0.0417235 0.0731629 0.031093 0 0.0361134 0 0 0 
237 0.753842 0.152829 0.069547 0.00949958 0.0142825 0 0 0 0 0 
238 0.098348 0.659945 0.13537 0.0154489 0 0.0303009 0.0452698 0.0153171 0 0 
239 0.313181 0.475829 7.42596e-07 0.17583 0.0351584 0 0 0 0 0 
240 0.170255 0.555288 0.210933 1.13744e-07 0 0 0.0476427 0 0.015881 0 
241 0.0987955 0.659497 0.13537 0.0154489 0 0.0303009 0.0452698 0.0153171 0 0 
242 0.294285 0.519296 0.0464721 0.0618026 0 0.0468865 1.27861e-07 0.0312576 0 0 
243 0.0971483 0.661144 0.13537 0.0154489 0 0.0303009 0.0452698 0.0153171 0 0 
244 0.300083 0.473542 7.42596e-07 0.191214 0.0351584 0 0 0 0 0 
245 0.592434 0.118103 0.289462 0 0 0 0 0 0 0 
246 0.999999 0 0 0 0 0 0 0 0 0 
247 0.754974 0.151697 0.069547 0.00949958 0.0142825 0 0 0 0 0 
248 0.28298 0.534926 0.0417235 0.0731629 0.0464776 0 0.0207288 0 0 0 
249 0.28298 0.550311 0.0417236 0.0731629 0.031093 0 0.0207288 0 0 0 
250 0.300083 0.473542 7.42596e-07 0.191214 0.0351584 0 0 0 0 0 
251 0.280548 0.533033 0.0464721 0.0618026 0 0.0468865 1.27861e-07 0.0312576 0 0 
252 0.0974611 0.660832 0.13537 0.0154489 0 0.0303009 0.0452698 0.0153171 0 0 
253 0.750939 0.154296 0.0706169 0.00964573 0.0145022 0 0 0 0 0 
254 0.0971483 0.661144 0.135371 0.0154489 0 0.0303009 0.0452698 0.0153171 0 0 
255 0.169094 0.541064 0.210933 1.13744e-07 0 0 0.0630273 0 0.015881 0 
256 0.166532 0.563169 0.207737 1.1202e-07 0 0 0.0469209 0 0.0156404 0 
257 0.724717 0.166671 0.0843451 0.00998423 0.0142825 0 0 0 0 0 
258 0.28298 0.534926 0.0417236 0.0885475 0.031093 0 0.0207288 0 0 0 
259 0.28298 0.550311 0.0417235 0.0731629 0.031093 0 0.0207288 0 0 0 
260 0.0971483 0.646383 0.150131 0.0154489 0 0.0303009 0.0452698 0.0153171 0 0 
261 0.169094 0.556449 0.210933 1.13744e-07 0 0 0.0476427 0 0.015881 0 
262 0.297152 0.536139 0.0417235 0.0731629 0.031093 0 0.0207288 0 0 0 
263 0.0983608 0.659932 0.135371 0.0154489 0 0.0303009 0.0452698 0.0153171 0 0 
264 0.300083 0.488927 7.42596e-07 0.17583 0.0351584 0 0 0 0 0 
265 0.0971483 0.661144 0.13537 0.0154489 0 0.0303009 0.0452698 0.0153171 0 0 
266 0.282985 0.550306 0.0417235 0.0731629 0.031093 0 0.0207288 0 0 0 
267 0.577049 0.118104 0.304846 0 0 0 0 0 0 0 
268 0.28298 0.550311 0.0417235 0.0731629 0.031093 0 0.0207288 0 0 0 
269 0.169094 0.556449 0.210933 1.13744e-07 0 0 0.0476427 0 0.015881 0 
270 0.418646 0.318485 0.197228 0 0.0164455 0.0327854 0 0 0.0164103 0 
271 0.418636 0.318494 0.197228 0 0.0164455 0.0327854 0 0 0.0164103 0 
272 0.0971483 0.661144 0.13537 0.0154489 0 0.0303009 0.0452698 0.0153171 0 0 
273 0.169094 0.541064 0.226317 1.13744e-07 0 0 0.0476427 0 0.015881 0 
274 0.418636 0.30311 0.212612 0 0.0164455 0.0327854 0 0 0.0164103 0 
275 0.751169 0.154066 0.0706169 0.00964573 0.0145022 0 0 0 0 0 
276 0.735949 0.169286 0.0706169 0.00964573 0.0145022 0 0 0 0 0 
277 0.43399 0.30314 0.197228 0 0.0164455 0.0327854 0 0 0.0164103 0 
278 0.562393 0 0.215591 0.112614 0 0 0.109402 0 0 0 
279 0.735867 0.153984 0.0860015 0.00964579 0.0145022 0 0 0 0 0 
280 0.577049 0.118138 0.304812 0 0 0 0 0 0 0 
281 0.280548 0.517648 0.0464721 0.0618026 0 0.0622711 1.27861e-07 0.0312576 0 0 
282 0.433359 0.303771 0.197228 0 0.0164455 0.0327854 0 0 0.0164103 0 
283 0.300745 0.488265 7.42596e-07 0.17583 0.0351584 0 0 0 0 0 
284 0.0973322 0.66096 0.13537 0.0154489 0 0.0303009 0.0452698 0.0153171 0 0 
285 0.433837 0.303293 0.197228 0 0.0164455 0.0327854 0 0 0.0164103 0 
286 0.0987416 0.659551 0.13537 0.0154489 0 0.0303009 0.0452698 0.0153171 0 0 
287 0.592381 0.118156 0.289462 0 0 0 0 0 0 0 
288 0.196803 0.532898 0.207737 1.1202e-07 0 0 0.0469209 0 0.0156404 0 
289 0.110992 0.6473 0.13537 0.0154489 0 0.0303009 0.0452698 0.0153171 0 0 
290 0.28298 0.550311 0.0417235 0.0731629 0.031093 0 0.0207288 0 0 0 
291 0.0971483 0.661144 0.13537 0.0154489 0 0.0303009 0.0452698 0.0153171 0 0 
292 0.418636 0.303109 0.197228 0 0.0164455 0.0327854 0 0 0.031795 0 
293 0.28298 0.550311 0.0417235 0.0731629 0.031093 0 0.0207288 0 0 0 
294 0.751191 0.154044 0.0706169 0.00964573 0.0145022 0 0 0 0 0 
295 0.169094 0.556449 0.210933 1.13744e-07 0 0 0.0476427 0 0.015881 0 
296 0.418697 0.318426 0.197235 0 0.0164455 0.0327854 0 0 0.0164103 0 
297 0.169102 0.556441 0.210933 1.13744e-07 0 0 0.0476427 0 0.015881 0 
298 0.580994 0.419006 1.01932e-07 0 0 0 0 0 0 0 
299 0.281308 0.532272 0.0464721 0.0618026 0 0.0468865 1.27861e-07 0.0312576 0 0 
300 0.28298 0.534926 0.0417235 0.0885474 0.0310931 0 0.0207288 0 0 0 
301 0.0971483 0.64576 0.13537 0.0154489 0 0.0303106 0.0606446 0.0153171 0 0 
302 0.097442 0.66083 0.135391 0.0154489 0 0.0303009 0.0452698 0.0153171 0 0 
303 0.418636 0.318494 0.197228 0 0.0164455 0.0327854 0 0 0.0164103 0 
304 0.315458 0.473552 7.42596e-07 0.17583 0.0351584 0 0 0 0 0 
305 0.592434 0.118104 0.289462 0 0 0 0 0 0 0 
306 0 0.999999 0 0 0 0 0 0 0 0 
307 0.577049 0.118103 0.304846 0 0 0 0 0 0 0 
308 0.0974434 0.660849 0.13537 0.0154489 0 0.0303009 0.0452698 0.0153171 0 0 
309 0.0971483 0.661144 0.13537 0.0154489 0 0.0303009 0.0452698 0.0153171 0 0 
310 0.433726 0.303405 0.197228 0 0.0164455 0.0327854 0 0 0.0164103 0 
311 0.0971483 0.661144 0.13537 0.0154489 0 0.0303009 0.0452698 0.0153171 0 0 
312 0.0971483 0.64576 0.13537 0.0154489 0 0.0303009 0.0604826 0.0154888 0 0 
313 0.169502 0.556041 0.210933 1.13744e-07 0 0 0.0476427 0 0.015881 0 
314 0.169094 0.542189 0.225193 1.13744e-07 0 0 0.0476427 0 0.015881 0 
315 0.300083 0.488927 7.42596e-07 0.17583 0.0351584 0 0 0 0 0 
316 0.280548 0.533033 0.0464721 0.0618026 0 0.0468865 1.27861e-07 0.0312576 0 0 
317 0.315383 0.473627 7.42596e-07 0.17583 0.0351584 0 0 0 0 0 
318 0.0971483 0.64576 0.150755 0.0154489 0 0.0303009 0.0452698 0.0153171 0 0 
319 0.427624 0.313489 0.19424 0 0.0161963 0.0322886 0 0 0.0161617 0 
320 0.432019 0.305112 0.197228 0 0.0164455 0.0327854 0 0 0.0164103 0 
321 0.562393 0 0.215591 0.112614 0 0 0.109402 0 0 0 
322 0.280548 0.519359 0.0600301 0.0619185 0 0.0468865 1.27861e-07 0.0312576 0 0 
323 0.443949 0.292422 0.200884 0 0.01572 0.031339 0 0 0.0156863 0 
324 0.735867 0.153984 0.0706169 0.0123754 0.0271571 0 0 0 0 0 
325 0.312725 0.476285 7.42596e-07 0.17583 0.0351584 0 0 0 0 0 
326 0.42249 0.314536 0.197333 0 0.0164455 0.0327854 0 0 0.0164103 0 
327 0.0973627 0.66093 0.13537 0.0154489 0 0.0303009 0.0452698 0.0153171 0 0 
328 0.751135 0.1541 0.0706169 0.00964573 0.0145022 0 0 0 0 0 
329 0.283013 0.550278 0.0417235 0.0731629 0.031093 0 0.0207288 0 0 0 
330 0.28298 0.550311 0.0417235 0.0731629 0.031093 0 0.0207288 0 0 0 
331 0.281041 0.53254 0.0464721 0.0618026 0 0.0468865 1.27861e-07 0.0312576 0 0 
332 0.295823 0.517758 0.0464721 0.0618026 0 0.0468865 1.27861e-07 0.0312576 0 0 
333 0.0972575 0.661035 0.13537 0.0154489 0 0.0303009 0.0452698 0.0153171 0 0 
334 0.169094 0.541064 0.210933 1.13744e-07 0 0 0.0630273 0 0.015881 0 
335 0.28298 0.534927 0.0571081 0.0731629 0.031093 0 0.0207288 0 0 0 
336 0.169094 0.541605 0.225777 1.13744e-07 0 0 0.0476427 0 0.015881 0 
337 0.418636 0.303185 0.212537 0 0.0164455 0.0327854 0 0 0.0164103 0 
338 0.169102 0.556176 0.211198 1.13744e-07 0 0 0.0476427 0 0.015881 0 
339 0.418767 0.318251 0.197341 0 0.0164455 0.0327854 0 0 0.0164103 0 
340 0.0956773 0.651112 0.148485 0.0152148 0 0.0298418 0.0445839 0.015085 0 0 
341 0.418637 0.318494 0.197228 0 0.0164455 0.0327854 0 0 0.0164103 0 
342 0.280682 0.532517 0.0468547 0.0618026 0 0.0468865 1.27861e-07 0.0312576 0 0 
343 0.735867 0.153984 0.0859679 0.00967931 0.0145022 0 0 0 0 0 
344 0.6021 0.386074 0 0.0118256 0 0 0 0 0 0 
345 0.611363 0.361245 0 0.0273921 0 0 0 0 0 0 
346 0.300092 0.488919 7.42596e-07 0.17583 0.0351584 0 0 0 0 0 
347 0.418636 0.303143 0.212579 0 0.0164455 0.0327854 0 0 0.0164103 0 
348 0.280661 0.53279 0.0466025 0.0618026 0 0.0468865 1.27861e-07 0.0312576 0 0 
349 0.280548 0.517648 0.0464722 0.0771872 0 0.0468865 1.27861e-07 0.0312576 0 0 
350 0.291449 0.509805 0.045768 0.0608662 0 0.0461761 1.83238e-07 0.0459355 0 0 
351 0.169094 0.541064 0.226317 1.13744e-07 0 0 0.0476427 0 0.015881 0 
352 0.272194 0.546932 0.0451044 0.0599578 0 0.0454869 1.24045e-07 0.0303246 0 0 
353 0.566363 0.433637 1.01932e-07 0 0 0 0 0 0 0 
354 0.280548 0.533033 0.0464721 0.0618026 0 0.0468865 1.27861e-07 0.0312576 0 0 
355 0.110828 0.651127 0.133319 0.0152148 0 0.0298418 0.0445839 0.015085 0 0 
356 0.283522 0.530058 0.0464721 0.0618026 0 0.0468865 1.27861e-07 0.0312576 0 0 
357 0.292279 0.521302 0.0464721 0.0618026 0 0.0468865 1.27861e-07 0.0312576 0 0 
358 0.432546 0.304585 0.197228 0 0.0164455 0.0327854 0 0 0.0164103 0 
359 0.999999 0 0 0 0 0 0 0 0 0 
360 0.62555 0.362443 0 0.0120075 0 0 0 0 0 0 
361 0.285653 0.547638 0.0417235 0.0731629 0.031093 0 0.0207288 0 0 0 
362 0.566375 0.433625 1.01932e-07 0 0 0 0 0 0 0 
363 0.184467 0.541076 0.210933 1.13744e-07 0 0 0.0476427 0 0.015881 0 
364 0.418636 0.30311 0.212612 0 0.0164455 0.0327854 0 0 0.0164103 0 
365 0.282988 0.550303 0.0417235 0.0731629 0.031093 0 0.0207288 0 0 0 
366 0.592426 0.118111 0.289462 0 0 0 0 0 0 0 
367 0.28298 0.534926 0.0417235 0.0885475 0.031093 0 0.0207288 0 0 0 
368 0.28298 0.550311 0.0417235 0.0731629 0.031093 0 0.0207288 0 0 0 
369 0.283712 0.529869 0.0464721 0.0618026 0 0.0468865 1.27861e-07 0.0312576 0 0 
370 0.430857 0.306274 0.197228 0 0.0164455 0.0327854 0 0 0.0164103 0 
371 0.28298 0.534926 0.0417236 0.0885475 0.031093 0 0.0207288 0 0 0 
372 0.300083 0.488927 7.42596e-07 0.17583 0.0351584 0 0 0 0 0 
373 0.418636 0.303109 0.197228 0 0.0164455 0.04817 0 0 0.0164103 0 
