0 2 0.140956
0 4 0.167153
0 13 0.498617
0 14 6.86785e-06
0 24 1.1527e-07
0 26 1.85411e-05
21 23 0.99996
0 40 0.000177664
0 43 5.46408e-06
0 47 0.0333201
42 32 0.99996
0 60 0.0074938
0 64 2.81949e-06
0 71 1.09281e-06
0 78 1.91645e-05
0 89 2.18284e-06
168 40 0.00500648
84 80 0.99996
0 120 0.0534409
252 43 0.99996
0 139 0.0985994
357 7 0.185885
105 104 0.99996
0 163 9.90528e-06
0 174 1.99163e-07
0 175 1.92733e-07
126 127 0.99996
0 179 5.52136e-05
0 180 1.85871e-05
0 184 1.89082e-07
0 186 5.65595e-06
63 171 0.99996
147 146 0.99996
336 78 0.49104
0 210 1.16967e-06
0 222 3.97009e-07
0 240 1.11645e-07
168 178 0.249549
168 179 0.744462
168 180 0.00094256
0 249 2.34498e-07
189 206 0.19998
189 211 0.19998
0 284 8.54546e-07
189 212 0.200039
189 213 0.19998
189 214 0.19998
210 212 0.99996
0 296 1.92454e-05
0 299 2.75193e-06
273 210 0.49998
231 253 0.99996
0 373 1.15045e-07
0 375 3.39602e-05
273 283 0.49998
294 306 0.99996
315 338 0.99996
336 365 0.508919
357 388 0.814075
10 2 0.99996
31 3 0.99996
52 46 0.99996
94 65 0.99996
73 74 0.99996
115 95 0.99996
136 140 0.49998
136 141 0.49998
157 156 0.71025
178 186 0.99996
157 199 0.289709
199 220 0.99996
220 236 0.99996
241 264 0.99996
262 300 0.99996
346 273 0.99996
283 311 0.99996
304 332 0.99996
325 353 0.99515
325 354 0.00480946
367 382 0.33332
367 383 0.33332
367 384 0.33332
20 20 0.99996
41 26 0.99996
62 54 0.99996
83 86 0.99996
209 43 0.199649
314 14 0.483881
104 104 0.99996
125 130 0.16666
125 131 0.16666
125 132 0.16666
125 133 0.16666
125 134 0.16666
125 135 0.16666
146 147 0.49998
146 148 0.49998
167 176 0.49998
167 177 0.49998
188 204 0.49998
188 205 0.49998
314 163 0.516078
209 227 0.200078
209 228 0.200078
209 229 0.200078
209 230 0.200078
230 252 0.99996
251 276 0.99996
272 282 0.99996
293 323 0.99996
335 363 0.49998
335 364 0.49998
356 388 0.99996
30 2 0.99996
93 66 0.99996
72 83 0.99996
114 113 0.99996
156 156 0.99996
177 189 0.99996
324 157 0.261593
198 219 0.99996
261 248 0.99996
240 263 0.99996
282 311 0.99996
303 327 0.99996
324 351 0.261593
324 352 0.261593
324 353 0.215179
345 368 0.33332
345 372 0.33332
345 374 0.33332
366 385 0.99996
103 2 0.99996
61 19 0.99996
40 31 0.988279
40 32 0.011681
208 7 0.328279
208 27 0.167847
82 81 0.49998
82 82 0.49998
166 76 0.99996
208 89 0.335898
124 127 0.99996
145 122 0.24999
145 123 0.24999
145 144 0.24999
145 145 0.24999
250 142 0.33332
187 203 0.99996
229 250 0.99996
208 273 0.167936
250 274 0.33332
250 275 0.33332
292 267 0.124995
271 276 0.99996
292 308 0.124995
292 309 0.124995
292 317 0.124995
292 318 0.124995
292 319 0.124995
292 320 0.124995
292 321 0.124995
313 347 0.99996
334 357 0.16666
334 358 0.16666
334 359 0.16666
334 360 0.16666
334 361 0.16666
334 362 0.16666
355 395 0.99996
8 5 0.99996
29 5 0.99996
113 2 0.99996
50 44 0.49998
50 45 0.49998
71 65 0.99996
302 4 0.99996
92 87 0.99996
260 40 0.489638
323 47 0.529266
281 75 0.199992
134 138 0.99996
239 111 0.524543
155 155 0.99996
323 120 0.470694
176 184 0.99996
281 172 0.199992
197 216 0.33332
197 217 0.33332
197 218 0.33332
218 247 0.99996
239 263 0.475417
281 273 0.199992
260 288 0.510322
281 312 0.199992
281 313 0.199992
344 373 0.99996
365 385 0.99996
18 14 0.00643074
39 31 0.99996
81 33 0.99996
102 26 0.499609
18 60 1.1884e-05
123 27 0.342202
60 52 0.99996
18 70 0.993516
102 64 0.500351
207 43 0.99996
228 76 0.332253
18 163 1.11163e-06
144 143 0.99996
186 139 0.345888
123 168 0.657758
165 170 0.99996
270 178 0.99996
312 186 0.00185695
228 238 0.333854
228 239 0.333854
186 284 0.654072
249 272 0.99996
291 322 0.99996
312 339 0.166351
312 340 0.166351
312 341 0.166351
312 342 0.166351
312 343 0.166351
312 344 0.16635
333 350 0.99996
354 380 0.99996
28 16 8.46949e-05
28 17 0.859972
28 18 0.139903
7 27 0.743311
49 41 0.505369
49 43 0.494591
91 71 0.169514
91 75 0.332159
91 76 0.331415
70 91 0.49998
70 92 0.49998
7 146 0.256649
112 107 0.16666
112 108 0.16666
112 109 0.16666
112 110 0.16666
112 111 0.16666
112 112 0.16666
133 138 0.99996
322 76 0.525143
238 111 0.99996
154 156 0.99996
175 190 0.99996
196 220 0.99996
91 263 0.166872
217 244 0.99996
259 281 0.99996
280 285 0.500544
280 296 0.499416
301 331 0.166678
301 332 0.166573
301 333 0.166678
301 334 0.166678
301 335 0.166676
301 336 0.166678
364 316 0.499977
322 347 0.00397099
322 348 0.470845
343 367 0.499435
343 370 0.500525
364 381 0.499982
17 21 0.333322
17 22 0.333322
17 23 0.333316
38 28 0.99996
80 43 0.99996
59 52 0.99996
164 43 3.17024e-05
122 64 0.124995
206 43 0.99996
101 104 0.99996
122 114 0.124995
122 115 0.124995
122 116 0.124995
122 117 0.124995
122 118 0.124995
122 119 0.124995
122 121 0.124995
143 142 0.99996
248 124 0.24999
164 174 0.999928
185 201 0.49998
185 202 0.49998
227 237 0.499989
227 249 0.499971
248 269 0.24999
248 270 0.24999
248 271 0.24999
269 286 0.99996
290 310 0.99996
311 326 0.99996
332 350 0.99996
353 379 0.99996
6 5 0.99996
27 16 0.999756
27 17 0.000203476
90 2 0.99996
48 57 0.333319
48 58 0.33332
48 59 0.33332
237 2 0.99996
69 73 0.99996
111 98 0.499993
111 99 0.499966
300 52 0.33332
132 138 0.99996
153 146 0.99996
342 78 0.99996
174 187 0.99996
195 220 0.99996
216 240 0.99996
258 301 0.33332
258 302 0.33332
279 294 0.49998
258 303 0.33332
279 295 0.49998
300 324 0.33332
300 325 0.33332
363 386 0.99996
16 20 0.99996
37 29 0.49998
37 30 0.49998
58 41 0.494516
58 51 0.505444
79 43 0.99996
205 43 0.99996
121 99 0.99996
100 113 0.99996
142 124 0.33332
142 125 0.33332
142 126 0.33332
163 169 0.333319
247 139 0.99996
163 172 0.33332
163 173 0.333321
184 200 0.99996
331 179 0.99996
352 179 0.99996
226 236 0.99996
268 287 0.99996
289 315 0.99996
310 337 0.99996
373 397 0.199992
373 398 0.199992
373 399 0.199992
373 400 0.199992
373 401 0.199992
26 40 5.03885e-05
26 47 0.999909
47 40 0.99996
68 33 0.99996
89 77 0.99996
236 26 0.16666
257 29 0.328864
110 100 0.499979
110 106 0.49998
131 138 0.99996
320 76 0.0316162
152 146 0.334452
152 163 0.665507
173 181 0.99996
299 155 0.99996
257 179 0.0133691
236 197 0.16666
194 220 0.99996
215 235 0.199992
215 241 0.199992
215 243 0.199992
215 245 0.199992
215 246 0.199992
236 259 0.16666
236 260 0.16666
236 261 0.16666
236 262 0.16666
257 304 0.657727
320 347 0.14568
320 348 0.822663
341 366 0.99996
362 386 0.99996
15 24 0.998709
15 47 0.00125026
36 42 0.99996
78 43 0.99996
57 53 0.99996
99 101 0.33332
99 102 0.33332
99 103 0.33332
141 127 0.0113914
141 142 0.988568
162 167 0.99996
204 208 0.99996
225 252 0.99996
267 291 0.499979
267 298 0.49998
309 328 0.99996
288 355 0.99996
330 356 0.99996
351 377 0.49998
351 378 0.49998
372 404 0.99996
25 15 0.99996
46 39 0.99996
67 63 0.49998
67 64 0.49998
88 69 0.995368
88 76 0.00459115
109 97 0.99996
130 97 0.199997
340 26 0.3332
256 75 0.99996
130 137 0.599971
151 146 0.494979
214 126 0.33332
151 153 0.0122326
151 154 0.492748
4 223 0.99996
172 183 0.99996
298 155 0.99996
193 221 0.99996
319 186 0.99996
214 234 0.33332
214 242 0.33332
235 256 0.33332
235 257 0.33332
235 258 0.33332
130 316 0.199992
277 284 0.99996
340 375 0.000319188
361 387 0.99996
340 405 0.33322
340 406 0.333221
14 12 0.99996
35 26 0.833214
35 27 0.166745
77 89 0.99996
56 120 0.99996
119 117 0.99996
140 127 0.00525064
140 142 0.994709
161 166 0.99996
350 97 0.142852
182 199 0.99996
203 207 0.99996
266 299 0.99996
371 267 0.33332
287 315 0.99996
308 337 0.99996
329 355 0.99996
350 389 0.142851
350 390 0.142851
350 391 0.142852
350 392 0.142852
350 393 0.142852
350 394 0.142852
371 402 0.33332
371 403 0.33332
3 6 0.199992
3 7 0.199992
3 8 0.199992
3 9 0.199992
3 10 0.199992
24 17 0.0181791
24 18 0.98178
45 34 0.142851
45 35 0.142851
45 36 0.142851
45 37 0.142851
45 38 0.142851
45 61 0.142851
45 62 0.142851
66 55 0.49998
66 56 0.49998
87 68 0.16666
87 78 0.33332
87 79 0.16666
87 85 0.16666
87 88 0.16666
129 136 0.99996
255 106 0.16666
108 165 0.99996
150 152 0.0155909
150 153 0.984369
255 135 0.16666
171 182 0.99996
318 142 0.49998
192 222 0.99996
213 233 0.99996
234 248 0.99996
255 277 0.16666
255 278 0.16666
255 279 0.16666
255 280 0.16666
276 293 0.99996
297 307 0.99996
318 346 0.49998
339 369 0.99996
360 387 0.99996
13 11 0.99996
34 25 0.99996
118 2 0.949306
55 50 0.99996
139 47 0.224233
76 71 0.99996
118 97 0.0506537
139 142 0.775727
160 157 0.49998
160 164 0.49998
349 106 0.66664
181 193 0.99996
202 207 0.999415
202 208 0.000545057
223 251 0.99996
244 266 0.33332
244 267 0.33332
244 268 0.33332
265 290 0.99996
286 315 0.99996
307 329 0.49998
307 330 0.49998
328 354 0.99996
349 376 0.33332
370 407 0.99996
2 4 0.99996
23 14 0.501043
23 16 0.498917
44 33 0.99996
212 4 0.0126589
86 67 0.99996
170 43 0.499923
107 105 0.99996
254 76 0.99996
128 128 0.49998
128 129 0.49998
338 78 0.99996
149 150 0.327703
149 151 0.338744
149 152 0.333512
170 191 0.500036
65 257 0.99996
191 209 0.49998
317 163 0.99996
191 226 0.49998
212 232 0.987301
233 254 0.99996
275 293 0.99996
296 306 0.999475
296 307 0.000484831
12 4 0.99996
33 24 0.99996
54 48 0.49998
54 49 0.49998
75 71 0.99996
159 61 0.142851
117 97 0.99996
138 142 0.99996
159 157 0.142851
159 158 0.142851
159 159 0.142851
159 160 0.142851
159 161 0.142851
159 162 0.142851
180 171 0.16666
180 194 0.16666
180 195 0.16666
180 196 0.16666
180 197 0.16666
180 198 0.16666
306 203 0.99996
222 248 0.99996
243 265 0.99996
264 289 0.99996
285 314 0.99996
327 354 0.99996
348 369 0.99996
369 407 0.99996
22 19 0.99996
43 60 0.99996
64 54 0.99996
85 66 0.99996
253 43 0.99996
127 127 0.99996
148 149 0.968395
148 150 0.0315646
106 175 0.99996
169 180 0.99996
190 210 0.249964
190 215 0.249994
190 224 0.250001
190 225 0.250001
211 231 0.99996
232 255 0.99996
274 292 0.49998
274 297 0.499979
295 305 0.99996
316 345 0.99996
337 368 0.50121
337 375 0.49875
358 387 0.99996
32 3 0.429241
32 5 0.570718
11 18 0.99996
179 7 0.199992
74 72 0.24999
74 84 0.249989
74 90 0.24999
74 93 0.24999
326 4 0.992643
95 94 0.333352
95 95 0.333255
95 96 0.333352
116 97 0.99996
137 142 0.99996
158 156 0.99996
179 170 0.199992
179 185 0.199992
179 188 0.199992
179 192 0.199992
200 202 0.49998
242 264 0.99996
263 300 0.99996
284 314 0.99996
200 349 0.49998
326 354 0.00731645
347 370 0.499433
347 371 0.500526
368 396 0.99996
