1 1 14 100 1
0 2 14 100 0.472402
2 2 14 100 0.527598
2 3 14 100 0.5
3 3 14 100 0.5
3 4 14 100 0.5
4 4 14 100 0.497635
5 4 14 100 0.00236478
4 5 14 100 1
0 6 14 100 0.996939
2 6 14 100 0.00033529
7 6 14 100 0.00272603
5 7 14 100 1
0 8 14 100 0.374051
6 8 14 100 0.625949
0 9 14 100 0.0116688
5 9 14 100 0.0763594
6 9 14 100 5.54633e-06
7 9 14 100 0.500015
9 9 14 100 0.411951
0 10 14 100 0.124188
6 10 14 100 0.375812
8 10 14 100 0.5
8 11 14 100 0.5
9 11 14 100 0.5
0 12 14 100 0.00126329
9 12 14 100 0.482444
10 12 14 100 0.516293
10 13 14 100 0.5
11 13 14 100 0.5
11 14 14 100 0.5
12 14 14 100 0.5
0 15 14 100 0.499756
10 15 14 100 0.000243921
12 15 14 100 0.5
13 16 14 100 1
14 17 14 100 1
1 1 21 100 1
0 2 21 100 0.00220905
1 2 21 100 0.113467
2 2 21 100 0.884324
0 3 21 100 0.499982
2 3 21 100 0.500002
16 3 21 100 1.60583e-05
0 4 21 100 0.00844545
3 4 21 100 0.991555
0 5 21 100 0.496011
2 5 21 100 0.00397028
4 5 21 100 0.5
12 5 21 100 1.90338e-05
4 6 21 100 0.5
5 6 21 100 0.5
0 7 21 100 0.000238555
5 7 21 100 0.5
6 7 21 100 0.499761
6 8 21 100 0.5
7 8 21 100 0.5
7 9 21 100 0.5
8 9 21 100 0.5
0 10 21 100 0.499462
8 10 21 100 0.5
12 10 21 100 0.000537909
0 11 21 100 0.499954
8 11 21 100 0.5
18 11 21 100 4.64501e-05
9 12 21 100 1
10 13 21 100 1
0 14 21 100 0.578304
8 14 21 100 1.23384e-05
10 14 21 100 0.419271
12 14 21 100 0.00241231
1 15 21 100 1.90182e-05
11 15 21 100 0.999981
0 16 21 100 0.500236
3 16 21 100 1.70582e-05
12 16 21 100 0.499747
13 17 21 100 0.5
14 17 21 100 0.5
0 18 21 100 0.499572
11 18 21 100 0.5
16 18 21 100 0.000402294
18 18 21 100 2.54089e-05
0 19 21 100 0.0329598
12 19 21 100 0.46704
14 19 21 100 0.5
0 20 21 100 0.499928
3 20 21 100 5.85006e-05
15 20 21 100 0.5
18 20 21 100 1.2928e-05
13 21 21 100 0.5
17 21 21 100 0.5
0 22 21 100 0.00178091
15 22 21 100 0.5
18 22 21 100 0.498219
16 23 21 100 0.5
19 23 21 100 0.5
17 24 21 100 0.5
20 24 21 100 0.5
0 25 21 100 0.000722883
18 25 21 100 0.499277
21 25 21 100 0.5
19 26 21 100 1
20 27 21 100 1
21 28 21 100 1
1 1 24 100 1
0 2 24 100 0.00127613
2 2 24 100 0.998724
3 3 24 100 1
0 4 24 100 1.39192e-05
4 4 24 100 0.999986
5 5 24 100 1
0 6 24 100 0.999986
20 6 24 100 1.38294e-05
5 7 24 100 1
0 8 24 100 0.190158
6 8 24 100 0.809842
0 9 24 100 0.00776506
7 9 24 100 0.992235
0 10 24 100 1.06645e-05
5 10 24 100 0.999989
0 11 24 100 0.999942
4 11 24 100 5.76047e-05
8 12 24 100 1
9 13 24 100 1
0 14 24 100 0.000416958
9 14 24 100 0.623665
10 14 24 100 0.00230377
14 14 24 100 0.373614
10 15 24 100 1
11 16 24 100 1
0 17 24 100 0.000431752
12 17 24 100 0.999568
13 18 24 100 1
15 19 24 100 1
16 20 24 100 1
17 21 24 100 1
0 22 24 100 0.999787
20 22 24 100 0.000212851
0 23 24 100 0.00602909
18 23 24 100 0.993971
19 24 24 100 1
0 25 24 100 0.012228
20 25 24 100 0.987772
21 26 24 100 1
22 27 24 100 1
23 28 24 100 1
24 29 24 100 1
2 1 25 100 1
0 2 25 100 0.89854
1 2 25 100 0.10091
16 2 25 100 0.000534683
22 2 25 100 1.53225e-05
3 3 25 100 1
4 4 25 100 1
5 5 25 100 1
6 6 25 100 1
7 7 25 100 1
0 8 25 100 0.991028
10 8 25 100 0.0089571
14 8 25 100 1.53612e-05
8 9 25 100 1
0 10 25 100 0.00327159
7 10 25 100 0.996728
0 11 25 100 0.999766
1 11 25 100 0.000116973
16 11 25 100 0.000117244
0 12 25 100 0.00013755
8 12 25 100 0.999351
9 12 25 100 0.000511095
0 13 25 100 0.99958
1 13 25 100 0.000164787
16 13 25 100 0.000255255
9 14 25 100 1
11 15 25 100 1
12 16 25 100 1
13 17 25 100 1
0 18 25 100 0.000298312
10 18 25 100 4.24228e-05
14 18 25 100 0.999659
15 19 25 100 1
16 20 25 100 0.0170073
17 20 25 100 0.982993
17 21 25 100 1
18 22 25 100 0.999634
19 22 25 100 0.000366117
18 23 25 100 0.764774
19 23 25 100 0.235226
20 24 25 100 1
21 25 25 100 1
0 26 25 100 0.0022249
22 26 25 100 0.997775
23 27 25 100 1
0 28 25 100 0.999843
21 28 25 100 0.000156564
0 29 25 100 0.00218213
23 29 25 100 0.95444
24 29 25 100 0.0433776
0 30 25 100 0.999726
1 30 25 100 0.000116885
16 30 25 100 0.000116972
22 30 25 100 3.97435e-05
0 31 25 100 0.000150503
23 31 25 100 0.999849
24 32 25 100 1
25 33 25 100 1
1 1 26 100 1
2 2 26 100 1
3 3 26 100 0.666667
4 3 26 100 0.333333
3 4 26 100 0.333333
4 4 26 100 0.333333
5 4 26 100 0.333333
4 5 26 100 0.333333
5 5 26 100 0.333333
6 5 26 100 0.333333
5 6 26 100 0.333333
6 6 26 100 0.333333
7 6 26 100 0.333333
6 7 26 100 0.333333
7 7 26 100 0.333333
8 7 26 100 0.333333
7 8 26 100 0.333334
8 8 26 100 0.333333
9 8 26 100 0.333334
8 9 26 100 0.634415
9 9 26 100 0.0322514
10 9 26 100 0.333334
0 10 26 100 0.315456
9 10 26 100 0.351087
11 10 26 100 0.333333
24 10 26 100 0.000124067
0 11 26 100 0.00519876
10 11 26 100 0.661468
12 11 26 100 0.333333
0 12 26 100 0.00160801
3 12 26 100 8.95507e-06
11 12 26 100 0.665059
13 12 26 100 0.333324
0 13 26 100 0.33327
13 13 26 100 0.333333
14 13 26 100 0.333333
24 13 26 100 6.37452e-05
12 14 26 100 0.333776
14 14 26 100 0.332891
15 14 26 100 0.333333
13 15 26 100 0.333333
15 15 26 100 0.333333
16 15 26 100 0.333333
14 16 26 100 0.333333
15 16 26 100 0.333333
17 16 26 100 0.333333
0 17 26 100 0.333539
15 17 26 100 0.333333
16 17 26 100 0.333127
16 18 26 100 0.333333
17 18 26 100 0.333333
18 18 26 100 0.333333
0 19 26 100 0.333332
17 19 26 100 0.333334
19 19 26 100 0.333334
18 20 26 100 0.666667
20 20 26 100 0.333333
19 21 26 100 0.666667
21 21 26 100 0.333333
0 22 26 100 0.346417
20 22 26 100 0.653583
21 23 26 100 0.666667
22 23 26 100 0.333333
0 24 26 100 0.333338
22 24 26 100 0.333328
23 24 26 100 0.333333
0 25 26 100 0.333308
11 25 26 100 2.57722e-05
23 25 26 100 0.333333
24 25 26 100 0.333333
0 26 26 100 0.0050223
21 26 26 100 0.32831
22 26 26 100 0.3333
24 26 26 100 3.32708e-05
25 26 26 100 0.333334
0 27 26 100 0.013837
22 27 26 100 0.319495
23 27 26 100 0.333334
26 27 26 100 0.333334
0 28 26 100 0.538628
24 28 26 100 0.461372
22 29 26 100 2.10501e-05
24 29 26 100 0.499979
25 29 26 100 0.5
0 30 26 100 0.5
26 30 26 100 0.5
25 31 26 100 1
26 32 26 100 1
0 1 32 100 0.336725
1 1 32 100 0.663221
2 1 32 100 5.38705e-05
0 2 32 100 0.00747377
1 2 32 100 0.0345747
2 2 32 100 0.498849
3 2 32 100 0.459102
1 3 32 100 0.5
3 3 32 100 0.5
2 4 32 100 0.5
4 4 32 100 0.499931
25 4 32 100 6.9117e-05
3 5 32 100 0.5
4 5 32 100 0.499931
25 5 32 100 6.90794e-05
0 6 32 100 0.5
5 6 32 100 0.5
4 7 32 100 0.5
6 7 32 100 0.5
0 8 32 100 0.486672
2 8 32 100 1.42227e-05
7 8 32 100 0.013314
8 8 32 100 0.5
5 9 32 100 0.5
9 9 32 100 0.5
6 10 32 100 0.500001
9 10 32 100 0.499999
0 11 32 100 0.5
8 11 32 100 0.5
0 12 32 100 0.00535856
9 12 32 100 0.5
11 12 32 100 0.494641
0 13 32 100 0.5
12 13 32 100 0.5
10 14 32 100 0.5
13 14 32 100 0.5
11 15 32 100 0.5
14 15 32 100 0.5
12 16 32 100 0.5
15 16 32 100 0.5
14 17 32 100 0.5
16 17 32 100 0.5
13 18 32 100 0.5
17 18 32 100 0.5
0 19 32 100 0.00377325
15 19 32 100 0.5
18 19 32 100 0.496227
16 20 32 100 0.5
20 20 32 100 0.5
0 21 32 100 0.0539242
10 21 32 100 5.93653e-06
17 21 32 100 0.5
21 21 32 100 0.44607
18 22 32 100 0.5
22 22 32 100 0.5
0 23 32 100 1.366e-05
8 23 32 100 1.59134e-05
19 23 32 100 0.99997
20 24 32 100 0.5
22 24 32 100 0.5
0 25 32 100 0.500698
23 25 32 100 0.499302
22 26 32 100 0.5
24 26 32 100 0.5
21 27 32 100 0.5
26 27 32 100 0.5
0 28 32 100 0.000707529
23 28 32 100 0.499778
27 28 32 100 0.499515
0 29 32 100 0.5
24 29 32 100 0.5
0 30 32 100 0.835175
26 30 32 100 0.164825
25 31 32 100 0.5
27 31 32 100 0.5
10 32 32 100 1.07009e-05
26 32 32 100 0.5
28 32 32 100 0.499989
0 33 32 100 0.5
29 33 32 100 0.5
27 34 32 100 0.5
30 34 32 100 0.5
28 35 32 100 0.5
31 35 32 100 0.5
0 36 32 100 0.499982
1 36 32 100 6.53601e-06
2 36 32 100 1.12198e-05
32 36 32 100 0.5
29 37 32 100 1
21 38 32 100 0.000189671
29 38 32 100 0.99981
30 39 32 100 1
31 40 32 100 1
32 41 32 100 1
1 1 35 100 1
0 2 35 100 0.00106449
2 2 35 100 0.998936
3 3 35 100 1
0 4 35 100 0.00018559
4 4 35 100 0.99961
5 4 35 100 0.000204821
5 5 35 100 1
0 6 35 100 0.999936
4 6 35 100 6.36585e-05
6 7 35 100 1
7 8 35 100 1
8 9 35 100 1
9 10 35 100 1
10 11 35 100 1
0 12 35 100 1
11 13 35 100 1
12 14 35 100 1
13 15 35 100 1
0 16 35 100 0.000356448
14 16 35 100 0.999644
15 17 35 100 1
16 18 35 100 1
17 19 35 100 1
18 20 35 100 1
0 21 35 100 0.499103
18 21 35 100 0.000385087
19 21 35 100 0.0217924
22 21 35 100 0.478719
23 22 35 100 1
19 23 35 100 1
20 24 35 100 1
0 25 35 100 1
21 26 35 100 1
0 27 35 100 0.476217
22 27 35 100 0.523783
0 28 35 100 0.999944
18 28 35 100 5.59305e-05
24 29 35 100 1
0 30 35 100 0.00225828
25 30 35 100 0.997742
26 31 35 100 1
27 32 35 100 1
0 33 35 100 1
28 34 35 100 1
29 35 35 100 1
30 36 35 100 1
31 37 35 100 1
32 38 35 100 1
33 39 35 100 1
34 40 35 100 1
35 41 35 100 1
0 1 39 100 0.00286149
1 1 39 100 0.997139
0 2 39 100 0.00832388
2 2 39 100 0.991676
0 3 39 100 0.000258574
4 3 39 100 0.999741
0 4 39 100 0.999597
1 4 39 100 0.000232592
18 4 39 100 4.09855e-05
28 4 39 100 0.000128979
2 5 39 100 1
3 6 39 100 1
5 7 39 100 1
0 8 39 100 1
6 9 39 100 1
7 10 39 100 1
8 11 39 100 1
0 12 39 100 0.00228986
8 12 39 100 0.99768
9 12 39 100 2.98309e-05
9 13 39 100 1
10 14 39 100 1
11 15 39 100 1
12 16 39 100 1
0 17 39 100 0.000922393
13 17 39 100 0.999078
14 18 39 100 1
15 19 39 100 1
16 20 39 100 1
17 21 39 100 1
0 22 39 100 0.0325739
18 22 39 100 0.967426
19 23 39 100 1
20 24 39 100 1
0 25 39 100 0.00275498
21 25 39 100 0.997245
22 26 39 100 1
0 27 39 100 0.0080255
23 27 39 100 0.991974
24 28 39 100 1
25 29 39 100 1
0 30 39 100 0.000980646
26 30 39 100 0.999019
0 31 39 100 0.953256
25 31 39 100 0.0467435
26 32 39 100 1
27 33 39 100 1
0 34 39 100 0.000759937
28 34 39 100 0.0855835
29 34 39 100 0.913657
30 35 39 100 1
0 36 39 100 0.974196
18 36 39 100 0.000165949
21 36 39 100 1.1241e-05
28 36 39 100 0.0256263
31 37 39 100 1
34 38 39 100 0.999426
37 38 39 100 0.000573692
0 39 39 100 1
35 40 39 100 1
36 41 39 100 1
32 42 39 100 1
33 43 39 100 1
34 44 39 100 0.00176822
37 44 39 100 0.998232
0 45 39 100 0.0210673
31 45 39 100 0.978309
35 45 39 100 0.000545482
36 45 39 100 7.8226e-05
33 46 39 100 1
34 47 39 100 0.000636519
37 47 39 100 0.999363
38 48 39 100 1
39 49 39 100 1
1 1 40 100 1
2 2 40 100 1
3 3 40 100 1
4 4 40 100 1
5 5 40 100 1
6 6 40 100 1
7 7 40 100 1
0 8 40 100 1.81522e-05
10 8 40 100 0.999982
0 9 40 100 1
8 10 40 100 1
0 11 40 100 0.999971
17 11 40 100 2.85471e-05
9 12 40 100 1
11 13 40 100 1
12 14 40 100 1
0 15 40 100 0.999955
17 15 40 100 4.47291e-05
13 16 40 100 1
14 17 40 100 0.999971
26 17 40 100 2.93055e-05
0 18 40 100 0.998387
15 18 40 100 0.00161264
0 19 40 100 0.00207593
12 19 40 100 0.997924
0 20 40 100 0.193714
13 20 40 100 0.0162958
14 20 40 100 0.000554912
15 20 40 100 0.789435
15 21 40 100 1
0 22 40 100 2.42598e-05
16 22 40 100 0.999976
18 23 40 100 1
19 24 40 100 1
0 25 40 100 0.000448334
20 25 40 100 0.999552
21 26 40 100 1
22 27 40 100 1
23 28 40 100 1
24 29 40 100 1
25 30 40 100 1
0 31 40 100 0.840153
17 31 40 100 5.64641e-05
26 31 40 100 0.15979
27 32 40 100 1
28 33 40 100 1
29 34 40 100 1
0 35 40 100 0.999445
26 35 40 100 0.000554814
30 36 40 100 1
31 37 40 100 1
32 38 40 100 1
33 39 40 100 1
0 40 40 100 0.999954
16 40 40 100 1.74124e-05
17 40 40 100 2.85542e-05
34 41 40 100 1
35 42 40 100 1
36 43 40 100 1
37 44 40 100 1
39 45 40 100 1
39 46 40 100 1
40 47 40 100 1
1 1 45 100 1
0 2 45 100 0.500183
2 2 45 100 0.49976
22 2 45 100 1.34419e-05
36 2 45 100 4.36595e-05
0 3 45 100 0.00431136
2 3 45 100 0.496407
3 3 45 100 0.499282
3 4 45 100 0.5
4 4 45 100 0.5
0 5 45 100 0.0142503
4 5 45 100 0.485749
5 5 45 100 0.5
5 6 45 100 0.5
6 6 45 100 0.5
6 7 45 100 0.5
7 7 45 100 0.5
7 8 45 100 0.5
8 8 45 100 0.5
0 9 45 100 0.506262
2 9 45 100 1.00798e-05
8 9 45 100 0.000388047
9 9 45 100 0.493308
17 9 45 100 7.90066e-06
19 9 45 100 2.30939e-05
9 10 45 100 0.5
10 10 45 100 0.5
0 11 45 100 7.80532e-06
8 11 45 100 0.0020259
11 11 45 100 0.997966
0 12 45 100 0.499626
8 12 45 100 0.500002
28 12 45 100 0.000323962
34 12 45 100 4.11552e-05
40 12 45 100 7.17197e-06
0 13 45 100 3.10974e-05
10 13 45 100 0.499968
12 13 45 100 0.500001
12 14 45 100 0.5
13 14 45 100 0.5
13 15 45 100 0.5
14 15 45 100 0.5
13 16 45 100 0.5
16 16 45 100 0.5
0 17 45 100 0.499943
9 17 45 100 9.21179e-06
14 17 45 100 0.500001
22 17 45 100 4.67404e-05
15 18 45 100 0.5
17 18 45 100 0.5
0 19 45 100 0.000240106
16 19 45 100 0.5
18 19 45 100 0.49976
0 20 45 100 0.00183383
17 20 45 100 0.498166
19 20 45 100 0.5
18 21 45 100 0.5
20 21 45 100 0.5
0 22 45 100 0.000208402
16 22 45 100 0.499792
21 22 45 100 0.5
0 23 45 100 0.0128985
18 23 45 100 0.5
22 23 45 100 0.487102
0 24 45 100 0.613363
19 24 45 100 0.386494
28 24 45 100 0.00012678
34 24 45 100 1.59508e-05
20 25 45 100 0.5
23 25 45 100 0.5
0 26 45 100 0.998657
19 26 45 100 5.98699e-05
22 26 45 100 0.00128314
20 27 45 100 0.5
24 27 45 100 0.5
0 28 45 100 0.499874
17 28 45 100 4.44261e-05
19 28 45 100 7.97014e-05
25 28 45 100 0.500002
21 29 45 100 0.5
26 29 45 100 0.5
0 30 45 100 0.499996
27 30 45 100 0.500004
0 31 45 100 0.00625654
21 31 45 100 0.5
28 31 45 100 0.493744
21 32 45 100 0.5
30 32 45 100 0.5
0 33 45 100 0.000474589
22 33 45 100 0.499525
28 33 45 100 0.00016722
31 33 45 100 0.499833
0 34 45 100 5.84186e-05
12 34 45 100 0.000109481
23 34 45 100 0.500001
32 34 45 100 0.499831
6 35 45 100 8.83466e-06
24 35 45 100 0.500001
29 35 45 100 0.49999
0 36 45 100 0.660498
2 36 45 100 1.35651e-05
17 36 45 100 3.55042e-05
30 36 45 100 2.36297e-05
31 36 45 100 0.339429
25 37 45 100 0.5
32 37 45 100 0.5
0 38 45 100 0.0242757
14 38 45 100 2.65956e-05
26 38 45 100 0.5
29 38 45 100 0.475698
0 39 45 100 1.03907e-05
27 39 45 100 0.500002
33 39 45 100 0.499988
0 40 45 100 0.499956
22 40 45 100 1.94388e-05
28 40 45 100 0.500001
39 40 45 100 2.34678e-05
0 41 45 100 0.00334582
29 41 45 100 0.5
34 41 45 100 0.496654
0 42 45 100 0.00196971
30 42 45 100 0.497469
34 42 45 100 0.000561642
35 42 45 100 0.5
0 43 45 100 0.499912
22 43 45 100 9.1576e-06
31 43 45 100 0.500004
33 43 45 100 1.46736e-05
39 43 45 100 6.00099e-05
32 44 45 100 0.5
37 44 45 100 0.5
33 45 45 100 0.5
38 45 45 100 0.5
0 46 45 100 0.506644
2 46 45 100 1.35647e-05
17 46 45 100 3.53076e-05
30 46 45 100 6.64309e-05
39 46 45 100 0.49324
0 47 45 100 0.00188227
35 47 45 100 0.499992
40 47 45 100 0.498125
0 48 45 100 0.478917
33 48 45 100 1.55149e-05
34 48 45 100 0.0202846
38 48 45 100 0.000782718
41 48 45 100 0.5
0 49 45 100 0.00772621
34 49 45 100 5.00547e-05
35 49 45 100 0.492224
36 49 45 100 4.17467e-05
42 49 45 100 0.499958
0 50 45 100 0.499933
28 50 45 100 2.88595e-05
34 50 45 100 0.500002
40 50 45 100 3.60396e-05
0 51 45 100 0.000645747
36 51 45 100 0.499354
43 51 45 100 0.5
37 52 45 100 0.499951
38 52 45 100 4.88596e-05
44 52 45 100 0.5
38 53 45 100 0.5
45 53 45 100 0.5
11 54 45 100 1.78469e-05
37 54 45 100 0.00348665
38 54 45 100 0.996495
39 55 45 100 1
0 56 45 100 0.00411729
40 56 45 100 0.995883
41 57 45 100 1
42 58 45 100 1
43 59 45 100 1
0 60 45 100 0.999634
2 60 45 100 2.86354e-05
17 60 45 100 7.44984e-05
34 60 45 100 0.000116314
40 60 45 100 0.000146458
0 61 45 100 2.53967e-05
43 61 45 100 0.999975
44 62 45 100 1
45 63 45 100 1
0 1 50 100 0.00583951
1 1 50 100 0.99416
0 2 50 100 0.00210665
2 2 50 100 0.997893
3 3 50 100 1
4 4 50 100 1
5 5 50 100 1
0 6 50 100 0.499783
6 6 50 100 0.500002
8 6 50 100 0.000214399
0 7 50 100 0.0022621
6 7 50 100 0.5
7 7 50 100 0.497738
7 8 50 100 0.5
8 8 50 100 0.5
0 9 50 100 0.000881861
8 9 50 100 0.499118
9 9 50 100 0.5
10 10 50 100 1
11 11 50 100 1
12 12 50 100 1
0 13 50 100 0.000760654
13 13 50 100 0.999239
14 14 50 100 1
0 15 50 100 0.00515233
15 15 50 100 0.994848
16 16 50 100 1
17 17 50 100 1
18 18 50 100 1
0 19 50 100 0.00084566
18 19 50 100 0.0249725
19 19 50 100 0.974172
24 19 50 100 9.65746e-06
0 20 50 100 0.00210665
19 20 50 100 0.5
20 20 50 100 0.497893
20 21 50 100 0.499999
21 21 50 100 0.500001
0 22 50 100 0.499992
22 22 50 100 0.500008
0 23 50 100 0.0007129
23 23 50 100 0.999287
21 24 50 100 0.148108
24 24 50 100 0.851892
0 25 50 100 0.00130689
19 25 50 100 0.000120913
24 25 50 100 0.498559
25 25 50 100 0.500013
25 26 50 100 0.5
26 26 50 100 0.5
26 27 50 100 0.5
27 27 50 100 0.5
0 28 50 100 7.29888e-06
22 28 50 100 0.499993
28 28 50 100 0.5
27 29 50 100 0.5
29 29 50 100 0.5
0 30 50 100 0.499984
30 30 50 100 0.499999
32 30 50 100 1.66988e-05
0 31 50 100 0.499999
28 31 50 100 0.500001
29 32 50 100 0.500001
30 32 50 100 0.499999
30 33 50 100 0.5
31 33 50 100 0.5
0 34 50 100 0.00288255
31 34 50 100 0.499998
32 34 50 100 0.497119
0 35 50 100 0.00404412
32 35 50 100 0.995956
33 36 50 100 0.5
35 36 50 100 0.5
0 37 50 100 0.00057224
33 37 50 100 0.499401
34 37 50 100 0.500014
35 37 50 100 1.34397e-05
33 38 50 100 0.499996
35 38 50 100 0.500004
34 39 50 100 0.5
36 39 50 100 0.5
0 40 50 100 0.00237157
36 40 50 100 0.497628
37 40 50 100 0.5
37 41 50 100 0.5
38 41 50 100 0.5
0 42 50 100 0.499997
38 42 50 100 0.500003
39 43 50 100 1
0 44 50 100 0.502244
40 44 50 100 0.497738
42 44 50 100 1.79467e-05
40 45 50 100 0.5
41 45 50 100 0.5
41 46 50 100 0.5
42 46 50 100 0.5
0 47 50 100 0.500047
42 47 50 100 0.499953
42 48 50 100 0.000114896
43 48 50 100 0.999885
0 49 50 100 0.499949
42 49 50 100 5.08155e-05
44 49 50 100 0.5
0 50 50 100 0.0022621
44 50 50 100 0.5
45 50 50 100 0.497738
44 51 50 100 0.5
46 51 50 100 0.5
45 52 50 100 0.5
46 52 50 100 0.5
46 53 50 100 0.5
47 53 50 100 0.5
0 54 50 100 0.00210665
48 54 50 100 0.997893
49 55 50 100 1
50 56 50 100 1
0 1 66 100 0.00136586
1 1 66 100 0.498634
3 1 66 100 9.39069e-06
46 1 66 100 0.499991
2 2 66 100 0.5
46 2 66 100 0.5
0 3 66 100 0.00434626
1 3 66 100 0.495654
3 3 66 100 0.5
2 4 66 100 0.5
4 4 66 100 0.5
0 5 66 100 0.00136696
3 5 66 100 0.5
5 5 66 100 0.498633
4 6 66 100 0.5
6 6 66 100 0.5
0 7 66 100 0.000295385
5 7 66 100 0.499705
8 7 66 100 0.5
0 8 66 100 0.0103404
6 8 66 100 0.489659
9 8 66 100 0.5
6 9 66 100 0.499999
7 9 66 100 0.500001
7 10 66 100 0.5
8 10 66 100 0.5
8 11 66 100 0.5
9 11 66 100 0.5
10 12 66 100 0.5
11 12 66 100 0.5
0 13 66 100 0.00693472
11 13 66 100 0.493065
12 13 66 100 0.5
0 14 66 100 0.499864
13 14 66 100 0.500005
19 14 66 100 0.000116598
32 14 66 100 1.49214e-05
13 15 66 100 0.5
14 15 66 100 0.5
0 16 66 100 0.995833
1 16 66 100 1.97079e-05
10 16 66 100 0.00342227
21 16 66 100 3.99266e-05
34 16 66 100 0.000646572
47 16 66 100 3.22555e-05
57 16 66 100 5.94048e-06
0 17 66 100 0.499953
12 17 66 100 0.499996
19 17 66 100 4.54789e-05
32 17 66 100 5.78172e-06
13 18 66 100 0.00204715
14 18 66 100 0.497953
15 18 66 100 0.5
15 19 66 100 0.5
16 19 66 100 0.5
0 20 66 100 0.498917
10 20 66 100 0.000597168
17 20 66 100 0.5
21 20 66 100 0.000162184
34 20 66 100 0.0003236
0 21 66 100 0.00942705
16 21 66 100 0.0799773
17 21 66 100 0.910596
16 22 66 100 0.5
19 22 66 100 0.5
17 23 66 100 0.5
20 23 66 100 0.5
0 24 66 100 0.448182
19 24 66 100 0.0518105
21 24 66 100 0.500001
32 24 66 100 6.09952e-06
18 25 66 100 0.5
21 25 66 100 0.5
0 26 66 100 0.499971
1 26 66 100 1.90914e-05
20 26 66 100 0.500004
57 26 66 100 5.82011e-06
22 27 66 100 1
0 28 66 100 0.391181
24 28 66 100 0.6088
51 28 66 100 1.89927e-05
0 29 66 100 0.000203192
23 29 66 100 0.5
24 29 66 100 5.82706e-06
25 29 66 100 0.000863673
35 29 66 100 0.498917
36 29 66 100 9.85304e-06
24 30 66 100 2.87696e-05
25 30 66 100 3.35916e-05
26 30 66 100 0.500002
35 30 66 100 0.499935
0 31 66 100 0.00226174
26 31 66 100 0.5
27 31 66 100 0.497738
27 32 66 100 0.5
28 32 66 100 0.5
0 33 66 100 0.0161468
28 33 66 100 0.5
29 33 66 100 0.483853
0 34 66 100 0.498367
10 34 66 100 0.000301001
30 34 66 100 0.5
34 34 66 100 0.00133187
25 35 66 100 0.499807
30 35 66 100 0.000191257
31 35 66 100 0.500001
0 36 66 100 0.496741
10 36 66 100 0.000594021
21 36 66 100 3.98591e-05
32 36 66 100 0.5
34 36 66 100 0.00262479
0 37 66 100 0.00120004
23 37 66 100 1.2604e-05
29 37 66 100 0.500002
33 37 66 100 0.498785
30 38 66 100 0.5
33 38 66 100 0.5
31 39 66 100 0.5
34 39 66 100 0.499718
35 39 66 100 0.000281609
0 40 66 100 0.00624963
32 40 66 100 0.49375
35 40 66 100 0.5
0 41 66 100 0.00029542
33 41 66 100 0.499999
36 41 66 100 0.499705
0 42 66 100 0.0203697
10 42 66 100 6.35891e-05
34 42 66 100 0.479566
37 42 66 100 0.500001
36 43 66 100 0.5
38 43 66 100 0.499989
43 43 66 100 1.1621e-05
37 44 66 100 0.5
39 44 66 100 0.5
0 45 66 100 0.00521583
37 45 66 100 0.5
40 45 66 100 0.494778
45 45 66 100 6.06545e-06
38 46 66 100 0.5
42 46 66 100 0.5
39 47 66 100 0.500001
44 47 66 100 0.499999
40 48 66 100 0.5
41 48 66 100 0.5
0 49 66 100 0.499865
19 49 66 100 0.000116484
32 49 66 100 1.66701e-05
39 49 66 100 2.93041e-05
44 49 66 100 0.499972
0 50 66 100 0.0166939
40 50 66 100 1.16444e-05
41 50 66 100 0.5
45 50 66 100 0.483294
0 51 66 100 0.499157
10 51 66 100 0.000592911
21 51 66 100 3.98615e-05
34 51 66 100 0.000394365
46 51 66 100 0.499816
0 52 66 100 0.500452
19 52 66 100 4.51074e-05
32 52 66 100 1.20199e-05
47 52 66 100 0.499491
41 53 66 100 0.0036144
42 53 66 100 0.496385
48 53 66 100 0.5
0 54 66 100 0.5
50 54 66 100 0.5
0 55 66 100 0.499855
1 55 66 100 1.90602e-05
43 55 66 100 0.500001
47 55 66 100 0.000119225
57 55 66 100 5.8709e-06
22 56 66 100 3.63071e-05
44 56 66 100 0.500003
49 56 66 100 0.499961
0 57 66 100 0.000692919
45 57 66 100 0.5
51 57 66 100 0.499307
47 58 66 100 0.5
52 58 66 100 0.5
48 59 66 100 0.5
53 59 66 100 0.5
49 60 66 100 0.5
54 60 66 100 0.5
49 61 66 100 0.500001
55 61 66 100 0.499999
50 62 66 100 0.5
56 62 66 100 0.5
51 63 66 100 0.5
56 63 66 100 0.5
0 64 66 100 0.0151802
52 64 66 100 0.5
57 64 66 100 0.48482
0 65 66 100 0.499863
11 65 66 100 1.08211e-05
45 65 66 100 0.000122621
53 65 66 100 0.500004
0 66 66 100 0.499989
19 66 66 100 9.86767e-06
58 66 66 100 0.500002
0 67 66 100 0.499109
1 67 66 100 1.90597e-05
54 67 66 100 0.500003
57 67 66 100 0.00086896
55 68 66 100 0.5
58 68 66 100 0.5
0 69 66 100 0.499499
10 69 66 100 0.000300742
34 69 66 100 0.000200266
58 69 66 100 0.5
56 70 66 100 0.5
59 70 66 100 0.5
57 71 66 100 0.5
60 71 66 100 0.5
0 72 66 100 0.5
61 72 66 100 0.5
0 73 66 100 0.412573
11 73 66 100 5.22381e-05
40 73 66 100 2.07639e-05
45 73 66 100 0.000591495
55 73 66 100 1.82131e-05
58 73 66 100 0.500003
62 73 66 100 0.0867411
59 74 66 100 0.5
62 74 66 100 0.5
60 75 66 100 0.5
63 75 66 100 0.5
0 76 66 100 0.499365
11 76 66 100 4.94743e-05
40 76 66 100 2.02625e-05
45 76 66 100 0.000562197
61 76 66 100 0.500003
0 77 66 100 3.65403e-05
62 77 66 100 0.499963
64 77 66 100 0.499805
65 77 66 100 0.000194787
62 78 66 100 0.5
65 78 66 100 0.5
63 79 66 100 0.5
66 79 66 100 0.5
0 80 66 100 0.99998
19 80 66 100 1.97282e-05
56 81 66 100 3.67787e-05
64 81 66 100 0.999963
64 82 66 100 1
65 83 66 100 1
66 84 66 100 1
