2 0 100 17 0.190464
6 0 100 17 0.401948
8 0 100 17 0.15081
9 0 100 17 0.00470466
10 0 100 17 0.0500705
12 0 100 17 0.000509337
15 0 100 17 0.201493
1 1 100 17 1
2 2 100 17 0.513261
3 2 100 17 0.486413
6 2 100 17 0.000326178
3 3 100 17 0.5
4 3 100 17 0.5
4 4 100 17 0.332281
5 4 100 17 0.667719
4 5 100 17 0.0021922
7 5 100 17 0.927021
9 5 100 17 0.0707867
8 6 100 17 0.624844
9 6 100 17 5.53657e-06
10 6 100 17 0.37515
6 7 100 17 0.00542232
9 7 100 17 0.994578
10 8 100 17 0.5
11 8 100 17 0.5
9 9 100 17 0.295434
11 9 100 17 0.358578
12 9 100 17 0.345988
12 10 100 17 0.507894
13 10 100 17 0.491866
15 10 100 17 0.000239953
13 11 100 17 0.5
14 11 100 17 0.5
14 12 100 17 0.5
15 12 100 17 0.5
16 13 100 17 1
17 14 100 17 1
2 0 100 25 0.0010618
3 0 100 25 0.24032
5 0 100 25 0.238412
11 0 100 25 0.240307
14 0 100 25 0.038797
16 0 100 25 0.000121844
18 0 100 25 0.240124
22 0 100 25 0.00085601
1 1 100 25 1
2 2 100 25 0.992087
5 2 100 25 0.00791268
4 3 100 25 1
6 4 100 25 1
7 5 100 25 1
8 6 100 25 1
9 7 100 25 1
10 8 100 25 0.999975
14 8 100 25 2.46762e-05
12 9 100 25 1
13 10 100 25 0.543909
14 10 100 25 0.456091
15 11 100 25 1
5 12 100 25 3.80855e-05
16 12 100 25 0.999962
17 13 100 25 1
19 14 100 25 1
20 15 100 25 1
3 16 100 25 0.0383844
18 16 100 25 0.961616
21 17 100 25 1
11 18 100 25 9.32186e-05
18 18 100 25 5.0992e-05
22 18 100 25 0.999856
23 19 100 25 1
24 20 100 25 1
25 21 100 25 1
17 0 100 27 0.5
22 0 100 27 0.5
1 1 100 27 1
2 2 100 27 1
12 3 100 27 1
3 4 100 27 1
4 5 100 27 1
5 6 100 27 1
6 7 100 27 1
7 8 100 27 1
8 9 100 27 1
9 10 100 27 1
10 11 100 27 1
11 12 100 27 1
12 13 100 27 1
13 14 100 27 1
14 15 100 27 1
15 16 100 27 1
16 17 100 27 1
18 18 100 27 1
19 19 100 27 1
20 20 100 27 1
21 21 100 27 1
23 22 100 27 1
24 23 100 27 1
25 24 100 27 1
26 25 100 27 1
27 26 100 27 1
4 0 100 28 0.00414129
7 0 100 28 0.000116978
10 0 100 28 0.244915
14 0 100 28 0.243996
16 0 100 28 0.24517
19 0 100 28 0.0161621
20 0 100 28 0.245144
25 0 100 28 0.000354472
1 1 100 28 0.815015
2 1 100 28 0.184954
15 1 100 28 3.10002e-05
2 2 100 28 0.436003
3 2 100 28 0.563997
4 3 100 28 0.999846
16 3 100 28 3.46971e-05
20 3 100 28 0.000118993
5 4 100 28 1
6 5 100 28 1
7 6 100 28 1
8 7 100 28 1
9 8 100 28 0.5
11 8 100 28 0.5
12 9 100 28 1
13 10 100 28 1
15 11 100 28 0.49999
18 11 100 28 0.50001
10 12 100 28 0.00114451
14 12 100 28 0.00513268
19 12 100 28 0.993723
21 13 100 28 1
17 14 100 28 1
22 15 100 28 1
23 16 100 28 1
24 17 100 28 1
20 18 100 28 2.58927e-05
25 18 100 28 0.999974
26 19 100 28 1
27 20 100 28 1
28 21 100 28 1
2 0 100 29 0.000396555
4 0 100 29 4.32537e-06
6 0 100 29 0.310744
8 0 100 29 0.0590915
9 0 100 29 0.00241298
10 0 100 29 3.31399e-06
11 0 100 29 0.310728
14 0 100 29 0.000129569
17 0 100 29 0.000134166
22 0 100 29 0.310682
23 0 100 29 0.00187353
25 0 100 29 0.00379984
1 1 100 29 1
2 2 100 29 1
3 3 100 29 1
4 4 100 29 0.999942
11 4 100 29 5.76016e-05
5 5 100 29 0.333335
7 5 100 29 0.333335
10 5 100 29 0.333331
8 6 100 29 1
9 7 100 29 1
12 8 100 29 1
13 9 100 29 0.615891
14 9 100 29 0.384109
14 10 100 29 0.00229848
15 10 100 29 0.997702
16 11 100 29 1
17 12 100 29 1
18 13 100 29 1
14 14 100 29 1
19 15 100 29 1
20 16 100 29 1
21 17 100 29 1
23 18 100 29 1
24 19 100 29 1
6 20 100 29 1.39974e-05
22 20 100 29 0.000215436
25 20 100 29 0.999771
26 21 100 29 1
27 22 100 29 1
28 23 100 29 1
29 24 100 29 1
10 0 100 30 0.44329
11 0 100 30 0.0073055
13 0 100 30 0.468323
22 0 100 30 0.0183848
24 0 100 30 7.00884e-06
26 0 100 30 0.00705752
27 0 100 30 0.0194442
28 0 100 30 0.0361874
1 1 100 30 1
2 2 100 30 1
3 3 100 30 1
4 4 100 30 1
5 5 100 30 1
6 6 100 30 1
7 7 100 30 1
8 8 100 30 0.525418
9 8 100 30 0.474582
9 9 100 30 0.644962
10 9 100 30 0.355038
11 10 100 30 1
12 11 100 30 1
14 12 100 30 1
15 13 100 30 1
16 14 100 30 1
17 15 100 30 1
18 16 100 30 1
19 17 100 30 1
20 18 100 30 1
21 19 100 30 1
22 20 100 30 1
23 21 100 30 0.503796
26 21 100 30 0.496204
24 22 100 30 0.510595
27 22 100 30 0.489405
25 23 100 30 1
10 24 100 30 0.000403118
13 24 100 30 0.00020712
28 24 100 30 0.99939
29 25 100 30 1
30 26 100 30 1
12 0 100 32 0.000963776
17 0 100 32 0.00012352
19 0 100 32 0.199784
24 0 100 32 0.199786
25 0 100 32 0.19977
28 0 100 32 0.199786
30 0 100 32 0.199786
1 1 100 32 1
2 2 100 32 1
3 3 100 32 0.5
4 3 100 32 0.5
5 4 100 32 1
6 5 100 32 1
7 6 100 32 1
8 7 100 32 1
9 8 100 32 1
10 9 100 32 1
11 10 100 32 1
12 11 100 32 0.999922
25 11 100 32 7.76853e-05
14 12 100 32 1
13 13 100 32 1
14 14 100 32 1
15 15 100 32 0.5
16 15 100 32 0.5
17 16 100 32 1
18 17 100 32 1
20 18 100 32 1
21 19 100 32 1
22 20 100 32 1
23 21 100 32 1
26 22 100 32 0.999958
29 22 100 32 4.21025e-05
27 23 100 32 1
26 24 100 32 9.98065e-05
29 24 100 32 0.9999
31 25 100 32 1
32 26 100 32 1
2 0 100 33 0.152379
8 0 100 33 0.168064
10 0 100 33 0.000554814
11 0 100 33 0.169544
12 0 100 33 2.33264e-05
13 0 100 33 0.169513
18 0 100 33 5.05894e-05
26 0 100 33 0.000377308
28 0 100 33 0.169559
29 0 100 33 0.000370056
30 0 100 33 0.169539
31 0 100 33 2.5523e-05
2 1 100 33 0.996065
11 1 100 33 0.00115461
13 1 100 33 0.00162658
30 1 100 33 0.00115375
1 2 100 33 1
3 3 100 33 1
4 4 100 33 1
5 5 100 33 1
6 6 100 33 1
7 7 100 33 0.500819
10 7 100 33 0.499181
9 8 100 33 0.50016
12 8 100 33 0.49984
12 9 100 33 0.000510834
14 9 100 33 0.999489
8 10 100 33 0.995286
18 10 100 33 0.00471389
15 11 100 33 1
16 12 100 33 1
17 13 100 33 1
8 14 100 33 1.53662e-05
18 14 100 33 0.999985
19 15 100 33 1
2 16 100 33 0.0296527
11 16 100 33 0.00650213
13 16 100 33 0.014156
20 16 100 33 0.943202
30 16 100 33 0.0064871
20 17 100 33 0.495712
21 17 100 33 0.504288
22 18 100 33 0.566555
23 18 100 33 0.433445
22 19 100 33 0.00155403
23 19 100 33 0.998446
24 20 100 33 1
25 21 100 33 0.999843
28 21 100 33 0.000156539
2 22 100 33 1.53559e-05
26 22 100 33 0.999945
30 22 100 33 3.98302e-05
27 23 100 33 0.338491
29 23 100 33 0.323069
31 23 100 33 0.33844
29 24 100 33 0.041574
32 24 100 33 0.958426
33 25 100 33 1
2 0 100 36 0.000821641
11 0 100 36 0.356995
12 0 100 36 0.00382597
19 0 100 36 0.00269407
21 0 100 36 0.0385014
23 0 100 36 9.75314e-06
25 0 100 36 0.000498473
28 0 100 36 0.00034631
29 0 100 36 0.356996
30 0 100 36 0.239311
1 1 100 36 1
2 2 100 36 1
3 3 100 36 1
4 4 100 36 0.5
5 4 100 36 0.5
6 5 100 36 1
7 6 100 36 1
11 7 100 36 0.92187
29 7 100 36 0.0781301
8 8 100 36 0.999968
23 8 100 36 3.18259e-05
9 9 100 36 0.500001
10 9 100 36 0.499999
21 10 100 36 0.356818
32 10 100 36 0.643182
12 11 100 36 1
13 12 100 36 1
14 13 100 36 1
15 14 100 36 1
16 15 100 36 1
17 16 100 36 1
18 17 100 36 1
19 18 100 36 1
23 19 100 36 1
20 20 100 36 1
21 21 100 36 1
22 22 100 36 0.5
24 22 100 36 0.5
25 23 100 36 1
26 24 100 36 1
4 25 100 36 0.500136
5 25 100 36 0.499864
27 26 100 36 0.752078
30 26 100 36 0.247922
28 27 100 36 0.499757
31 27 100 36 0.500243
32 28 100 36 1
33 29 100 36 1
34 30 100 36 1
35 31 100 36 1
36 32 100 36 1
1 0 100 41 0.0493771
2 0 100 41 0.00100525
4 0 100 41 1.36074e-05
6 0 100 41 0.146635
8 0 100 41 0.0713652
12 0 100 41 0.0733196
13 0 100 41 0.0733197
16 0 100 41 2.61346e-05
21 0 100 41 0.0365941
25 0 100 41 0.146639
27 0 100 41 0.0349161
28 0 100 41 0.0733482
30 0 100 41 0.0734852
33 0 100 41 0.146639
36 0 100 41 0.073317
1 1 100 41 0.553698
2 1 100 41 0.0288651
3 1 100 41 0.417431
36 1 100 41 5.45666e-06
1 2 100 41 5.38949e-05
2 2 100 41 0.499694
4 2 100 41 0.500227
8 2 100 41 1.42292e-05
36 2 100 41 1.12249e-05
2 3 100 41 0.314647
3 3 100 41 0.342676
5 3 100 41 0.342676
4 4 100 41 0.499886
6 4 100 41 3.18345e-05
7 4 100 41 0.500082
4 5 100 41 0.0001024
5 5 100 41 0.499949
9 5 100 41 0.499949
7 6 100 41 0.5
10 6 100 41 0.5
8 7 100 41 1
9 8 100 41 0.5
11 8 100 41 0.5
10 9 100 41 0.5
12 9 100 41 0.5
11 10 100 41 0.5
14 10 100 41 0.5
13 11 100 41 0.5
15 11 100 41 0.5
14 12 100 41 0.5
16 12 100 41 0.5
15 13 100 41 0.5
18 13 100 41 0.5
16 14 100 41 0.499911
17 14 100 41 0.500089
17 15 100 41 0.5
19 15 100 41 0.5
18 16 100 41 0.5
20 16 100 41 0.5
19 17 100 41 0.5
21 17 100 41 0.5
20 18 100 41 0.49989
21 18 100 41 0.000192501
22 18 100 41 0.49989
28 18 100 41 2.79591e-05
21 19 100 41 0.0107788
23 19 100 41 0.989221
24 20 100 41 1
26 21 100 41 0.499953
27 21 100 41 0.499953
38 21 100 41 9.48264e-05
21 22 100 41 0.23906
26 22 100 41 0.499375
27 22 100 41 0.261564
22 23 100 41 0.500111
28 23 100 41 0.499889
29 24 100 41 1
30 25 100 41 0.499435
31 25 100 41 0.500565
31 26 100 41 0.5
32 26 100 41 0.5
32 27 100 41 0.5
34 27 100 41 0.5
34 28 100 41 0.5
35 28 100 41 0.5
35 29 100 41 0.333354
37 29 100 41 0.333354
38 29 100 41 0.333291
36 30 100 41 0.5
39 30 100 41 0.5
37 31 100 41 0.5
40 31 100 41 0.5
38 32 100 41 0.5
41 32 100 41 0.5
39 33 100 41 1
40 34 100 41 1
41 35 100 41 1
8 0 100 47 2.58057e-06
9 0 100 47 0.142164
11 0 100 47 0.142159
15 0 100 47 0.142157
18 0 100 47 0.141935
19 0 100 47 0.000295122
20 0 100 47 0.0275392
22 0 100 47 3.44887e-06
25 0 100 47 6.3737e-05
31 0 100 47 0.11944
35 0 100 47 0.142084
40 0 100 47 0.142158
1 1 100 47 1
2 2 100 47 1
3 3 100 47 1
4 4 100 47 1
5 5 100 47 1
6 6 100 47 1
7 7 100 47 1
10 8 100 47 1
12 9 100 47 1
8 10 100 47 1
13 11 100 47 1
14 12 100 47 0.50052
19 12 100 47 0.49948
16 13 100 47 0.983966
20 13 100 47 0.0160345
17 14 100 47 0.999445
20 14 100 47 0.000554621
18 15 100 47 0.000900388
20 15 100 47 0.440767
21 15 100 47 0.558333
22 16 100 47 0.999983
40 16 100 47 1.74125e-05
11 17 100 47 0.180341
15 17 100 47 0.282568
31 17 100 47 0.356704
40 17 100 47 0.180387
23 18 100 47 1
24 19 100 47 1
25 20 100 47 1
26 21 100 47 1
27 22 100 47 1
28 23 100 47 1
29 24 100 47 1
30 25 100 47 1
17 26 100 47 0.000182731
31 26 100 47 0.996358
35 26 100 47 0.00345946
32 27 100 47 1
33 28 100 47 1
34 29 100 47 1
36 30 100 47 1
37 31 100 47 1
38 32 100 47 1
39 33 100 47 1
41 34 100 47 1
42 35 100 47 1
43 36 100 47 1
44 37 100 47 1
17 38 100 47 1
45 39 100 47 0.499999
46 39 100 47 0.500001
47 40 100 47 1
1 0 100 49 0.000571402
2 0 100 49 0.00166215
3 0 100 49 5.16339e-05
4 0 100 49 0.199605
8 0 100 49 0.199685
12 0 100 49 0.000457255
17 0 100 49 0.00018419
22 0 100 49 0.00650456
25 0 100 49 0.000550131
27 0 100 49 0.00160259
30 0 100 49 0.000195822
31 0 100 49 0.190353
34 0 100 49 0.000151749
36 0 100 49 0.194532
39 0 100 49 0.199687
45 0 100 49 0.00420685
1 1 100 49 0.999767
4 1 100 49 0.000233204
2 2 100 49 0.497908
5 2 100 49 0.502092
6 3 100 49 1
3 4 100 49 1
7 5 100 49 1
9 6 100 49 1
10 7 100 49 1
11 8 100 49 0.50058
12 8 100 49 0.49942
12 9 100 49 2.983e-05
13 9 100 49 0.99997
14 10 100 49 1
15 11 100 49 1
16 12 100 49 1
17 13 100 49 1
18 14 100 49 1
19 15 100 49 1
20 16 100 49 1
21 17 100 49 1
4 18 100 49 4.23563e-05
22 18 100 49 0.999786
36 18 100 49 0.000171499
23 19 100 49 1
24 20 100 49 1
25 21 100 49 0.999989
36 21 100 49 1.12718e-05
26 22 100 49 1
27 23 100 49 1
28 24 100 49 1
29 25 100 49 0.955344
31 25 100 49 0.0446561
30 26 100 49 0.499755
32 26 100 49 0.500245
33 27 100 49 1
4 28 100 49 0.00115843
34 28 100 49 0.768678
36 28 100 49 0.230164
34 29 100 49 1
35 30 100 49 1
37 31 100 49 0.505482
45 31 100 49 0.494518
42 32 100 49 1
43 33 100 49 0.5
46 33 100 49 0.5
38 34 100 49 0.9976
44 34 100 49 0.00176498
47 34 100 49 0.000635355
40 35 100 49 0.999455
45 35 100 49 0.000545185
41 36 100 49 0.999922
45 36 100 49 7.82198e-05
38 37 100 49 0.00028711
44 37 100 49 0.499573
47 37 100 49 0.50014
48 38 100 49 1
49 39 100 49 1
2 0 100 53 6.45122e-05
3 0 100 53 0.000192915
9 0 100 53 0.00179809
12 0 100 53 0.13424
17 0 100 53 0.134325
19 0 100 53 6.45122e-05
23 0 100 53 0.00346559
24 0 100 53 0.134302
26 0 100 53 0.133995
31 0 100 53 0.00168102
34 0 100 53 1.5696e-05
36 0 100 53 0.0431425
38 0 100 53 0.00652247
39 0 100 53 2.79178e-06
40 0 100 53 0.134329
41 0 100 53 0.000898963
43 0 100 53 0.134317
46 0 100 53 0.00181647
47 0 100 53 0.000503729
50 0 100 53 0.134323
1 1 100 53 1
2 2 100 53 1
3 3 100 53 1
4 4 100 53 1
5 5 100 53 1
6 6 100 53 0.999982
35 6 100 53 1.7669e-05
7 7 100 53 1
8 8 100 53 1
9 9 100 53 0.999981
17 9 100 53 1.86731e-05
10 10 100 53 1
11 11 100 53 1
13 12 100 53 0.999781
34 12 100 53 0.000218913
14 13 100 53 1
15 14 100 53 0.999947
38 14 100 53 5.31884e-05
39 15 100 53 0.605611
43 15 100 53 0.394389
16 16 100 53 1
18 17 100 53 1
19 18 100 53 1
20 19 100 53 1
21 20 100 53 1
22 21 100 53 1
17 22 100 53 9.5689e-05
23 22 100 53 0.997219
26 22 100 53 0.00262687
40 22 100 53 3.9796e-05
43 22 100 53 1.87478e-05
25 23 100 53 1
27 24 100 53 1
28 25 100 53 1
29 26 100 53 1
30 27 100 53 1
12 28 100 53 0.000655272
24 28 100 53 0.000256437
31 28 100 53 0.998692
33 28 100 53 0.000338235
50 28 100 53 5.83737e-05
35 29 100 53 0.512448
38 29 100 53 0.487552
32 30 100 53 1
33 31 100 53 0.595564
36 31 100 53 0.404436
34 32 100 53 0.499915
37 32 100 53 0.500085
39 33 100 53 0.999971
43 33 100 53 2.93469e-05
12 34 100 53 8.28551e-05
24 34 100 53 3.21128e-05
41 34 100 53 0.999885
42 35 100 53 1
49 36 100 53 1
44 37 100 53 1
45 38 100 53 1
40 39 100 53 4.75707e-05
43 39 100 53 0.000121643
46 39 100 53 0.999831
12 40 100 53 1.43966e-05
47 40 100 53 0.999913
50 40 100 53 7.23439e-05
48 41 100 53 1
49 42 100 53 1
51 43 100 53 1
52 44 100 53 1
53 45 100 53 1
1 0 100 56 0.00144606
2 0 100 56 0.000521679
6 0 100 56 0.123763
7 0 100 56 0.000560175
9 0 100 56 0.000218379
13 0 100 56 0.000188364
15 0 100 56 0.00127589
19 0 100 56 0.000209414
20 0 100 56 0.000521678
22 0 100 56 0.123815
23 0 100 56 0.000176539
25 0 100 56 0.00032363
28 0 100 56 1.80745e-06
30 0 100 56 0.123813
31 0 100 56 0.123817
34 0 100 56 0.000713815
35 0 100 56 0.00100146
37 0 100 56 0.000141706
40 0 100 56 0.000587282
42 0 100 56 0.123816
44 0 100 56 0.124373
47 0 100 56 0.123829
49 0 100 56 0.123805
50 0 100 56 0.000560175
54 0 100 56 0.000521678
1 1 100 56 1
2 2 100 56 1
3 3 100 56 1
4 4 100 56 1
5 5 100 56 1
6 6 100 56 0.5
7 6 100 56 0.5
7 7 100 56 0.498866
8 7 100 56 0.501134
6 8 100 56 0.000214541
8 8 100 56 0.500334
9 8 100 56 0.499451
9 9 100 56 1
10 10 100 56 1
11 11 100 56 1
12 12 100 56 1
13 13 100 56 1
14 14 100 56 1
15 15 100 56 1
16 16 100 56 1
17 17 100 56 1
18 18 100 56 0.975636
19 18 100 56 0.024364
19 19 100 56 0.660772
20 19 100 56 0.339146
25 19 100 56 8.20141e-05
20 20 100 56 0.498945
21 20 100 56 0.501055
21 21 100 56 0.771477
24 21 100 56 0.228523
22 22 100 56 0.500007
28 22 100 56 0.499993
23 23 100 56 1
19 24 100 56 7.15123e-06
24 24 100 56 0.630816
25 24 100 56 0.369177
25 25 100 56 0.500006
26 25 100 56 0.499994
26 26 100 56 0.5
27 26 100 56 0.5
27 27 100 56 0.5
29 27 100 56 0.5
28 28 100 56 0.5
31 28 100 56 0.5
29 29 100 56 0.5
32 29 100 56 0.5
30 30 100 56 0.333333
32 30 100 56 0.333333
33 30 100 56 0.333335
33 31 100 56 0.500002
34 31 100 56 0.499998
30 32 100 56 1.1184e-05
34 32 100 56 0.332945
35 32 100 56 0.667043
36 33 100 56 0.333468
37 33 100 56 0.333069
38 33 100 56 0.333463
37 34 100 56 0.500007
39 34 100 56 0.499993
36 35 100 56 0.499993
37 35 100 56 1.34395e-05
38 35 100 56 0.499993
39 36 100 56 0.501189
40 36 100 56 0.498811
40 37 100 56 0.5
41 37 100 56 0.5
41 38 100 56 0.5
42 38 100 56 0.5
43 39 100 56 1
44 40 100 56 0.498866
45 40 100 56 0.501134
45 41 100 56 0.5
46 41 100 56 0.5
44 42 100 56 1.79443e-05
46 42 100 56 0.499932
47 42 100 56 0.499885
48 42 100 56 0.00011488
49 42 100 56 5.08085e-05
48 43 100 56 1
49 44 100 56 0.333333
50 44 100 56 0.333333
51 44 100 56 0.333333
50 45 100 56 0.498866
52 45 100 56 0.501134
51 46 100 56 0.333333
52 46 100 56 0.333333
53 46 100 56 0.333333
53 47 100 56 1
54 48 100 56 1
55 49 100 56 1
56 50 100 56 1
2 0 100 63 0.108115
3 0 100 63 0.00077708
5 0 100 63 0.00308168
9 0 100 63 0.108034
11 0 100 63 1.68793e-06
13 0 100 63 6.72494e-06
20 0 100 63 0.000396574
22 0 100 63 4.5068e-05
24 0 100 63 0.0245464
26 0 100 63 0.108113
28 0 100 63 0.1081
30 0 100 63 0.108126
33 0 100 63 0.000102632
36 0 100 63 0.108111
42 0 100 63 0.000425959
46 0 100 63 0.108102
47 0 100 63 1.61247e-06
48 0 100 63 0.103568
49 0 100 63 0.00167083
51 0 100 63 0.000139646
56 0 100 63 0.000445192
60 0 100 63 0.108087
61 0 100 63 2.74608e-06
1 1 100 63 1
3 2 100 63 0.999896
9 2 100 63 2.03035e-05
36 2 100 63 2.73236e-05
46 2 100 63 2.73229e-05
60 2 100 63 2.88395e-05
4 3 100 63 1
5 4 100 63 1
6 5 100 63 1
7 6 100 63 1
8 7 100 63 1
9 8 100 63 0.000772365
11 8 100 63 0.00403232
12 8 100 63 0.995195
10 9 100 63 1
13 10 100 63 1
11 11 100 63 0.999982
54 11 100 63 1.79194e-05
14 12 100 63 1
15 13 100 63 0.5
16 13 100 63 0.5
17 14 100 63 1
18 15 100 63 1
19 16 100 63 0.500104
22 16 100 63 0.499896
9 17 100 63 1.58544e-05
20 17 100 63 0.999678
28 17 100 63 8.91502e-05
36 17 100 63 7.12464e-05
46 17 100 63 7.08522e-05
60 17 100 63 7.47481e-05
21 18 100 63 0.5
23 18 100 63 0.5
9 19 100 63 5.97273e-05
24 19 100 63 0.999579
26 19 100 63 0.000154839
28 19 100 63 0.00020613
25 20 100 63 0.5
27 20 100 63 0.5
29 21 100 63 0.333333
31 21 100 63 0.333333
32 21 100 63 0.333333
2 22 100 63 2.69087e-05
33 22 100 63 0.999973
34 23 100 63 1
35 24 100 63 1
37 25 100 63 1
38 26 100 63 1
39 27 100 63 1
40 28 100 63 1
41 29 100 63 1
36 30 100 63 4.7491e-05
42 30 100 63 0.999819
46 30 100 63 0.000133513
43 31 100 63 1
44 32 100 63 1
45 33 100 63 0.999969
48 33 100 63 3.10288e-05
42 34 100 63 0.0010781
48 34 100 63 0.0389374
49 34 100 63 9.60828e-05
50 34 100 63 0.959777
60 34 100 63 0.000111635
47 35 100 63 0.503915
49 35 100 63 0.496085
2 36 100 63 8.74243e-05
51 36 100 63 0.999913
52 37 100 63 0.996525
54 37 100 63 0.00347486
48 38 100 63 0.000783442
52 38 100 63 4.89047e-05
53 38 100 63 0.500461
54 38 100 63 0.498706
55 39 100 63 1
56 40 100 63 0.999853
60 40 100 63 0.000147041
57 41 100 63 1
58 42 100 63 1
59 43 100 63 0.500006
61 43 100 63 0.499994
62 44 100 63 1
63 45 100 63 1
3 0 100 79 0.00111955
7 0 100 79 7.60881e-05
8 0 100 79 0.00266359
13 0 100 79 0.00178631
16 0 100 79 0.128779
17 0 100 79 1.53604e-06
26 0 100 79 0.128786
28 0 100 79 0.100764
31 0 100 79 0.0005826
33 0 100 79 0.00415925
37 0 100 79 0.000309117
41 0 100 79 7.60971e-05
45 0 100 79 0.00134354
50 0 100 79 0.00430018
51 0 100 79 4.74135e-05
52 0 100 79 0.000131491
55 0 100 79 0.128757
57 0 100 79 0.000178489
64 0 100 79 0.00391028
65 0 100 79 0.128759
67 0 100 79 0.128564
73 0 100 79 0.106274
76 0 100 79 0.128631
3 1 100 79 0.999845
16 1 100 79 3.97552e-05
26 1 100 79 3.85112e-05
55 1 100 79 3.84486e-05
67 1 100 79 3.84475e-05
4 2 100 79 1
1 3 100 79 1.87811e-05
5 3 100 79 0.999981
6 4 100 79 1
7 5 100 79 1
8 6 100 79 1
9 7 100 79 1
10 8 100 79 1
11 9 100 79 1
12 10 100 79 1
13 11 100 79 0.999772
65 11 100 79 2.19414e-05
73 11 100 79 0.000105921
76 11 100 79 0.000100317
17 12 100 79 1
14 13 100 79 1
15 14 100 79 1
18 15 100 79 1
19 16 100 79 1
20 17 100 79 0.500001
21 17 100 79 0.499999
11 18 100 79 1
22 19 100 79 1
23 20 100 79 1
24 21 100 79 0.5
25 21 100 79 0.5
27 22 100 79 0.999927
56 22 100 79 7.26086e-05
29 23 100 79 0.999975
37 23 100 79 2.52072e-05
28 24 100 79 1
65 25 100 79 1
30 26 100 79 1
31 27 100 79 1
32 28 100 79 1
33 29 100 79 1
34 30 100 79 1
35 31 100 79 1
36 32 100 79 1
37 33 100 79 0.499391
38 33 100 79 0.500609
39 34 100 79 1
39 35 100 79 0.000562901
40 35 100 79 0.999437
41 36 100 79 1
42 37 100 79 1
43 38 100 79 1
44 39 100 79 0.999941
49 39 100 79 5.86041e-05
45 40 100 79 0.999894
50 40 100 79 2.3532e-05
73 40 100 79 4.19615e-05
76 40 100 79 4.09481e-05
48 41 100 79 1
46 42 100 79 1
43 43 100 79 1
47 44 100 79 0.500016
49 44 100 79 0.499984
45 45 100 79 1.2517e-05
50 45 100 79 0.997354
65 45 100 79 0.000253047
73 45 100 79 0.00122064
76 45 100 79 0.00116018
1 46 100 79 0.33337
2 46 100 79 0.333376
51 46 100 79 0.333254
16 47 100 79 6.45571e-05
52 47 100 79 0.999697
55 47 100 79 0.000238621
53 48 100 79 1
56 49 100 79 1
54 50 100 79 1
28 51 100 79 3.80367e-05
57 51 100 79 0.999962
58 52 100 79 1
59 53 100 79 1
60 54 100 79 1
61 55 100 79 0.999964
73 55 100 79 3.64247e-05
62 56 100 79 0.5
63 56 100 79 0.5
16 57 100 79 1.22306e-05
26 57 100 79 1.19827e-05
55 57 100 79 1.20873e-05
64 57 100 79 0.998175
67 57 100 79 0.00178905
66 58 100 79 0.333333
68 58 100 79 0.333333
69 58 100 79 0.333333
70 59 100 79 1
71 60 100 79 1
72 61 100 79 1
73 62 100 79 0.147835
74 62 100 79 0.852165
75 63 100 79 1
77 64 100 79 1
77 65 100 79 0.000389422
78 65 100 79 0.999611
79 66 100 79 1
1 0 100 84 0.000182719
5 0 100 84 0.000182867
14 0 100 84 0.0668694
16 0 100 84 0.0663385
17 0 100 84 0.0668807
20 0 100 84 0.0667433
21 0 100 84 0.00126111
24 0 100 84 0.059956
29 0 100 84 2.71822e-05
34 0 100 84 0.0666697
36 0 100 84 0.0664522
40 0 100 84 0.000836052
42 0 100 84 0.00272497
49 0 100 84 0.0668693
51 0 100 84 0.0667507
52 0 100 84 0.0668802
54 0 100 84 0.0668882
66 0 100 84 0.0668864
69 0 100 84 0.0668211
72 0 100 84 0.0668881
77 0 100 84 4.88823e-06
80 0 100 84 0.0668864
1 1 100 84 1
2 2 100 84 1
3 3 100 84 1
4 4 100 84 1
5 5 100 84 1
6 6 100 84 0.500001
9 6 100 84 0.499999
10 7 100 84 1
7 8 100 84 0.5
11 8 100 84 0.5
8 9 100 84 1
16 10 100 84 0.582841
20 10 100 84 0.101703
34 10 100 84 0.0512631
36 10 100 84 0.101167
42 10 100 84 0.0108298
51 10 100 84 0.100978
69 10 100 84 0.0512191
12 11 100 84 1
13 12 100 84 1
15 13 100 84 0.995922
18 13 100 84 0.00407761
18 14 100 84 1
19 15 100 84 1
21 16 100 84 0.137897
22 16 100 84 0.862103
21 17 100 84 0.450908
23 17 100 84 0.549092
25 18 100 84 1
14 19 100 84 0.00223563
17 19 100 84 0.000872012
24 19 100 84 0.993416
49 19 100 84 0.00223344
52 19 100 84 0.00086489
66 19 100 84 0.000189203
80 19 100 84 0.000189134
26 20 100 84 1
16 21 100 84 0.141668
20 21 100 84 0.575465
36 21 100 84 0.141429
51 21 100 84 0.141438
27 22 100 84 1
29 23 100 84 0.188611
30 23 100 84 0.811389
28 24 100 84 0.999931
29 24 100 84 1.16533e-05
30 24 100 84 5.7535e-05
29 25 100 84 0.00172492
30 25 100 84 6.70885e-05
35 25 100 84 0.998208
31 26 100 84 1
32 27 100 84 1
33 28 100 84 1
37 29 100 84 1
35 30 100 84 0.000382367
38 30 100 84 0.999618
39 31 100 84 1
14 32 100 84 3.0217e-05
17 32 100 84 1.17084e-05
24 32 100 84 1.2352e-05
40 32 100 84 0.999888
49 32 100 84 3.37581e-05
52 32 100 84 2.43414e-05
41 33 100 84 1
16 34 100 84 0.0013329
20 34 100 84 0.000667098
34 34 100 84 0.00274563
36 34 100 84 0.00541097
42 34 100 84 0.988618
51 34 100 84 0.000812978
69 34 100 84 0.000412846
29 35 100 84 0.499491
30 35 100 84 0.500509
29 36 100 84 1.97057e-05
43 36 100 84 0.99998
44 37 100 84 0.5
45 37 100 84 0.5
46 38 100 84 1
47 39 100 84 1
48 40 100 84 1
50 41 100 84 0.992823
53 41 100 84 0.00717691
53 42 100 84 1
55 43 100 84 1
56 44 100 84 1
57 45 100 84 1
66 46 100 84 0.727185
80 46 100 84 0.272815
58 47 100 84 1
59 48 100 84 1
60 49 100 84 0.5
61 49 100 84 0.5
62 50 100 84 1
63 51 100 84 1
64 52 100 84 1
65 53 100 84 1
67 54 100 84 1
68 55 100 84 1
70 56 100 84 0.999963
81 56 100 84 3.67773e-05
71 57 100 84 1
73 58 100 84 1
74 59 100 84 1
75 60 100 84 1
76 61 100 84 1
77 62 100 84 0.499982
78 62 100 84 0.500018
79 63 100 84 1
81 64 100 84 0.499991
82 64 100 84 0.500009
83 65 100 84 1
84 66 100 84 1
