2 0 0.73005 0.269949 1.02416e-07 0 0 0 0 0 0 
3 0.225517 0.739509 0.0349743 0 0 0 0 0 0 0 
4 0 0.72201 0.277989 1.02416e-07 0 0 0 0 0 0 
5 1.46462e-07 0.757357 0.206729 0.0359133 0 0 0 0 0 0 
6 0 0.929619 0.0703802 0 0 0 0 0 0 0 
7 0 0.999999 0 0 0 0 0 0 0 0 
8 0.0570078 0.880874 0.0281912 0.0339269 0 0 0 0 0 0 
9 0 0.929619 0.0703802 0 0 0 0 0 0 0 
10 0 0.929619 0.0703802 0 0 0 0 0 0 0 
11 1.42154e-07 0.778273 0.186872 0.0348535 0 0 0 0 0 0 
12 0.19694 0.764959 0.0381006 0 0 0 0 0 0 0 
13 0.0239635 0.951933 0.0241036 0 0 0 0 0 0 0 
14 0.0190378 0.877745 0.103217 0 0 0 0 0 0 0 
15 0 0.886557 0.113442 0 0 0 0 0 0 0 
16 0.0469427 0.932452 0.0206053 0 0 0 0 0 0 0 
17 0 0.891746 0.108253 0 0 0 0 0 0 0 
18 0.0438224 0.892178 0.0290436 0.034955 0 0 0 0 0 0 
19 0 0.94904 0.00993388 0.0410252 0 0 0 0 0 0 
20 0 0.891743 0.108256 0 0 0 0 0 0 0 
21 0 0.932724 0.0672755 0 0 0 0 0 0 0 
22 0.0411898 0.939475 0.0193348 0 0 0 0 0 0 0 
23 0.0184779 0.881341 0.100181 0 0 0 0 0 0 0 
24 0 0.999999 0 0 0 0 0 0 0 0 
25 0.0434223 0.937517 0.0190603 0 0 0 0 0 0 0 
26 1.48715e-07 0.768214 0.195323 0.0364621 0 0 0 0 0 0 
27 0 0.740134 0.259865 1.00864e-07 0 0 0 0 0 0 
28 0 0.720755 0.279244 1.02416e-07 0 0 0 0 0 0 
29 0.163377 0.760146 0.0764767 0 0 0 0 0 0 0 
30 0 0.94904 0.00993388 0.0410252 0 0 0 0 0 0 
31 0.0204916 0.958849 0.0206596 0 0 0 0 0 0 0 
32 0.04515 0.890851 0.0290436 0.034955 0 0 0 0 0 0 
33 0.0444966 0.890519 0.0294904 0.0354927 0 0 0 0 0 0 
34 0 0.769285 0.230714 0 0 0 0 0 0 0 
35 0 0.933655 0.00993405 0.0564097 0 0 0 0 0 0 
36 0.0757933 0.910585 0.0136223 0 0 0 0 0 0 0 
37 0.0438224 0.892178 0.0290436 0.034955 0 0 0 0 0 0 
38 1.48715e-07 0.758619 0.204918 0.0364621 0 0 0 0 0 0 
39 0.0193307 0.875828 0.10484 0 0 0 0 0 0 0 
40 0.0193307 0.875864 0.104805 0 0 0 0 0 0 0 
41 0.0525174 0.884439 0.0286101 0.0344333 0 0 0 0 0 0 
42 0 0.891746 0.108253 0 0 0 0 0 0 0 
43 0.0444966 0.890519 0.0294904 0.0354927 0 0 0 0 0 0 
44 0 0.740134 0.259865 1.00864e-07 0 0 0 0 0 0 
45 1.48715e-07 0.768214 0.195323 0.0364621 0 0 0 0 0 0 
46 0.169708 0.792897 0.037395 0 0 0 0 0 0 0 
47 0.0444966 0.890519 0.0294904 0.0354927 0 0 0 0 0 0 
48 0 0.736136 0.263863 1.02416e-07 0 0 0 0 0 0 
49 0.0534424 0.923099 0.0234583 0 0 0 0 0 0 0 
50 0.0503443 0.927557 0.0220984 0 0 0 0 0 0 0 
51 0.0187536 0.879569 0.101676 0 0 0 0 0 0 0 
52 0.177586 0.779346 0.0430671 0 0 0 0 0 0 0 
53 1.48715e-07 0.75283 0.210707 0.0364621 0 0 0 0 0 0 
54 0.0677641 0.909133 0.0231029 0 0 0 0 0 0 0 
55 0 0.929619 0.0703802 0 0 0 0 0 0 0 
56 0.0526528 0.924244 0.0231029 0 0 0 0 0 0 0 
57 0 0.736136 0.263863 1.02416e-07 0 0 0 0 0 0 
58 0 0.781991 0.218009 0 0 0 0 0 0 0 
59 0.170507 0.784468 0.0450246 0 0 0 0 0 0 0 
60 0.0534433 0.923098 0.0234583 0 0 0 0 0 0 0 
61 0 0.893386 0.106613 0 0 0 0 0 0 0 
62 0 0.720752 0.279247 1.02416e-07 0 0 0 0 0 0 
63 0.165492 0.790807 0.0437004 0 0 0 0 0 0 0 
64 0.0193307 0.870792 0.109876 0 0 0 0 0 0 0 
65 1.48715e-07 0.752845 0.210692 0.0364622 0 0 0 0 0 0 
66 0.063296 0.913601 0.0231029 0 0 0 0 0 0 0 
67 0 0.736136 0.263863 1.02416e-07 0 0 0 0 0 0 
68 0 0.949812 0.00978337 0.0404036 0 0 0 0 0 0 
69 0.0438224 0.892178 0.0290436 0.034955 0 0 0 0 0 0 
70 0 0.736136 0.263863 1.02416e-07 0 0 0 0 0 0 
71 0 0.891746 0.108253 0 0 0 0 0 0 0 
72 0.0503444 0.926833 0.0228223 0 0 0 0 0 0 0 
73 0 0.999999 0 0 0 0 0 0 0 0 
74 0.0582049 0.878751 0.0286101 0.0344333 0 0 0 0 0 0 
75 0.0444966 0.890519 0.0294904 0.0354927 0 0 0 0 0 0 
76 0.0518971 0.891784 0.0255584 0.0307604 0 0 0 0 0 0 
77 0.0534424 0.923099 0.0234583 0 0 0 0 0 0 0 
78 0 0.891746 0.108253 0 0 0 0 0 0 0 
79 0 0.891746 0.108253 0 0 0 0 0 0 0 
80 0 0.781991 0.218009 0 0 0 0 0 0 0 
81 0 0.778637 0.221363 0 0 0 0 0 0 0 
82 0.0534424 0.923099 0.0234583 0 0 0 0 0 0 0 
83 0 0.914234 0.0857646 0 0 0 0 0 0 0 
84 0 0.755516 0.244483 0 0 0 0 0 0 0 
85 1.48715e-07 0.768214 0.195323 0.0364621 0 0 0 0 0 0 
86 0.0190378 0.877745 0.103217 0 0 0 0 0 0 0 
87 0.0444966 0.890519 0.0294904 0.0354927 0 0 0 0 0 0 
88 0 0.999999 0 0 0 0 0 0 0 0 
89 0.0193307 0.875864 0.104805 0 0 0 0 0 0 0 
90 0 0.894972 0.105027 0 0 0 0 0 0 0 
91 0 0.736136 0.263863 1.02416e-07 0 0 0 0 0 0 
92 0 0.763252 0.236747 0 0 0 0 0 0 0 
93 0.0193307 0.875864 0.104805 0 0 0 0 0 0 0 
94 0.0249463 0.949903 0.0251509 0 0 0 0 0 0 0 
95 0 0.778637 0.221363 0 0 0 0 0 0 0 
96 0 0.781991 0.218009 0 0 0 0 0 0 0 
97 0.0193307 0.875864 0.104805 0 0 0 0 0 0 0 
98 0.167962 0.787685 0.0443526 0 0 0 0 0 0 0 
99 0 0.736136 0.263863 1.02416e-07 0 0 0 0 0 0 
100 0.0193307 0.875864 0.104805 0 0 0 0 0 0 0 
101 0.0444966 0.890519 0.0294904 0.0354927 0 0 0 0 0 0 
102 0 0.709838 0.290161 1.00864e-07 0 0 0 0 0 0 
103 0 0.950561 0.00963735 0.0398006 0 0 0 0 0 0 
104 0.0444966 0.890519 0.0294904 0.0354927 0 0 0 0 0 0 
105 0.0438224 0.892178 0.0290436 0.034955 0 0 0 0 0 0 
106 0.0253132 0.949166 0.0255207 0 0 0 0 0 0 0 
107 0.173131 0.781151 0.0457176 0 0 0 0 0 0 0 
108 0.0444969 0.890518 0.0294916 0.0354927 0 0 0 0 0 0 
109 0 0.736136 0.263863 1.02416e-07 0 0 0 0 0 0 
110 0 0.94904 0.00993388 0.0410252 0 0 0 0 0 0 
111 0 0.778637 0.221363 0 0 0 0 0 0 0 
112 0 0.893383 0.106616 0 0 0 0 0 0 0 
113 0 0.929619 0.0703802 0 0 0 0 0 0 0 
114 0 0.930685 0.0693138 0 0 0 0 0 0 0 
115 0.0526327 0.924264 0.0231029 0 0 0 0 0 0 0 
116 0.0444966 0.890519 0.0294904 0.0354927 0 0 0 0 0 0 
117 0.0193307 0.875864 0.104805 0 0 0 0 0 0 0 
118 0 0.999999 0 0 0 0 0 0 0 0 
119 1.75793e-07 0.771718 0.192372 0.0359097 0 0 0 0 0 0 
120 0 0.740134 0.259865 1.00864e-07 0 0 0 0 0 0 
121 0.0431684 0.872675 0.049722 0.0344338 0 0 0 0 0 0 
122 0.0444966 0.890519 0.0294908 0.0354927 0 0 0 0 0 0 
123 0.0444966 0.890519 0.0294904 0.0354927 0 0 0 0 0 0 
124 0.167859 0.791433 0.0407073 0 0 0 0 0 0 0 
125 0 0.736136 0.263863 1.02416e-07 0 0 0 0 0 0 
126 0 0.725312 0.274688 1.00864e-07 0 0 0 0 0 0 
127 0.0438224 0.892178 0.0290436 0.034955 0 0 0 0 0 0 
128 0 0.763271 0.236728 0 0 0 0 0 0 0 
129 0 0.94904 0.00993429 0.0410252 0 0 0 0 0 0 
130 0 0.778637 0.221363 0 0 0 0 0 0 0 
131 0.0444966 0.890519 0.0294904 0.0354927 0 0 0 0 0 0 
132 0.0193342 0.87586 0.104805 0 0 0 0 0 0 0 
133 0 0.720752 0.279247 1.02416e-07 0 0 0 0 0 0 
134 0.0193307 0.875864 0.104805 0 0 0 0 0 0 0 
135 0.0444966 0.890519 0.0294904 0.0354927 0 0 0 0 0 0 
136 0.0444966 0.890519 0.0294904 0.0354927 0 0 0 0 0 0 
137 0 0.94904 0.00993388 0.0410252 0 0 0 0 0 0 
138 0.0444966 0.890519 0.0294904 0.0354927 0 0 0 0 0 0 
139 0 0.999999 0 0 0 0 0 0 0 0 
140 0.0534424 0.909203 0.0373543 0 0 0 0 0 0 0 
141 0 0.778637 0.221363 0 0 0 0 0 0 0 
142 0 0.736136 0.263863 1.02416e-07 0 0 0 0 0 0 
143 0.0193307 0.875864 0.104805 0 0 0 0 0 0 0 
144 0 0.891746 0.108253 0 0 0 0 0 0 0 
145 0.0534424 0.923099 0.0234583 0 0 0 0 0 0 0 
146 0.163094 0.793839 0.0430671 0 0 0 0 0 0 0 
147 0 0.929619 0.0703802 0 0 0 0 0 0 0 
148 0 0.720984 0.279015 1.02416e-07 0 0 0 0 0 0 
149 0 0.763891 0.236108 0 0 0 0 0 0 0 
150 0 0.736136 0.263863 1.02416e-07 0 0 0 0 0 0 
151 0 0.930685 0.0693138 0 0 0 0 0 0 0 
152 0.170507 0.784468 0.0450246 0 0 0 0 0 0 0 
153 0.0193307 0.860552 0.120116 0 0 0 0 0 0 0 
154 0 0.781919 0.21808 0 0 0 0 0 0 0 
155 0 0.929619 0.0703802 0 0 0 0 0 0 0 
156 0 0.891746 0.108253 0 0 0 0 0 0 0 
157 0.0193307 0.875864 0.104805 0 0 0 0 0 0 0 
158 0 0.89417 0.105829 0 0 0 0 0 0 0 
159 0 0.891746 0.108253 0 0 0 0 0 0 0 
160 0 0.891746 0.108253 0 0 0 0 0 0 0 
161 0.0193307 0.875864 0.104805 0 0 0 0 0 0 0 
162 0.0193307 0.875864 0.104805 0 0 0 0 0 0 0 
163 0 0.999999 0 0 0 0 0 0 0 0 
164 0 0.891746 0.108253 0 0 0 0 0 0 0 
165 0.0444966 0.890519 0.0294904 0.0354927 0 0 0 0 0 0 
166 0.17313 0.781149 0.0457207 0 0 0 0 0 0 0 
167 0 0.929619 0.0703802 0 0 0 0 0 0 0 
168 0 0.878971 0.121028 0 0 0 0 0 0 0 
169 0 0.778637 0.221363 0 0 0 0 0 0 0 
170 0.0444966 0.890519 0.0294904 0.0354927 0 0 0 0 0 0 
171 0.0534424 0.923099 0.0234583 0 0 0 0 0 0 0 
172 0 0.891746 0.108253 0 0 0 0 0 0 0 
173 0 0.778637 0.221363 0 0 0 0 0 0 0 
174 1.48715e-07 0.768214 0.195323 0.0364621 0 0 0 0 0 0 
175 0 0.929619 0.0703802 0 0 0 0 0 0 0 
176 0 0.766839 0.23316 0 0 0 0 0 0 0 
177 0 0.720757 0.279242 1.02416e-07 0 0 0 0 0 0 
178 0 0.999999 0 0 0 0 0 0 0 0 
179 0 0.736136 0.263863 1.02416e-07 0 0 0 0 0 0 
180 0 0.736136 0.263863 1.02416e-07 0 0 0 0 0 0 
181 0 0.929619 0.0703802 0 0 0 0 0 0 0 
182 0 0.736136 0.263863 1.02416e-07 0 0 0 0 0 0 
183 0 0.929619 0.0703802 0 0 0 0 0 0 0 
184 0 0.94904 0.00993388 0.0410252 0 0 0 0 0 0 
185 0 0.94904 0.00993388 0.0410252 0 0 0 0 0 0 
186 0 0.876362 0.123638 0 0 0 0 0 0 0 
187 0 0.736136 0.263863 1.02416e-07 0 0 0 0 0 0 
188 0 0 0.999999 0 0 0 0 0 0 0 
189 0 0.736136 0.263863 1.02416e-07 0 0 0 0 0 0 
190 0.0528042 0.924093 0.0231029 0 0 0 0 0 0 0 
191 0 0.723503 0.276496 1.02416e-07 0 0 0 0 0 0 
192 0 0.929619 0.0703802 0 0 0 0 0 0 0 
193 0 0.736136 0.263863 1.02416e-07 0 0 0 0 0 0 
194 0 0.736135 0.263864 1.02416e-07 0 0 0 0 0 0 
195 0.0264874 0.946786 0.0267262 0 0 0 0 0 0 0 
196 0.0253132 0.949166 0.0255207 0 0 0 0 0 0 0 
197 0.17313 0.781152 0.0457173 0 0 0 0 0 0 0 
198 0.0193307 0.860515 0.120154 0 0 0 0 0 0 0 
199 0.025691 0.918557 0.0557523 0 0 0 0 0 0 0 
200 0.0264815 0.94682 0.0266986 0 0 0 0 0 0 0 
201 0.0431684 0.893788 0.0286101 0.0344333 0 0 0 0 0 0 
202 0 0.736136 0.263863 1.02416e-07 0 0 0 0 0 0 
203 0.0444966 0.890519 0.0294904 0.0354927 0 0 0 0 0 0 
204 0 0.929619 0.0703802 0 0 0 0 0 0 0 
205 0.0264815 0.94682 0.0266986 0 0 0 0 0 0 0 
206 0 0.891746 0.108253 0 0 0 0 0 0 0 
207 0.0534424 0.923099 0.0234583 0 0 0 0 0 0 0 
208 0 0.736136 0.263863 1.02416e-07 0 0 0 0 0 0 
209 0.0190378 0.877745 0.103217 0 0 0 0 0 0 0 
210 0 0.785244 0.214755 0 0 0 0 0 0 0 
211 0.0431684 0.893788 0.0286101 0.0344333 0 0 0 0 0 0 
212 0.0444966 0.890519 0.0294904 0.0354927 0 0 0 0 0 0 
213 0 0.720753 0.279246 1.02416e-07 0 0 0 0 0 0 
214 0.0193307 0.86048 0.120189 0 0 0 0 0 0 0 
215 0.0534424 0.923099 0.0234583 0 0 0 0 0 0 0 
216 0 0.788403 0.211597 0 0 0 0 0 0 0 
217 0.0444966 0.890519 0.0294904 0.0354927 0 0 0 0 0 0 
218 0 1 0 0 0 0 0 0 0 0 
219 0 0.778637 0.221363 0 0 0 0 0 0 0 
220 0 0.999999 0 0 0 0 0 0 0 0 
221 0 0.763284 0.236715 0 0 0 0 0 0 0 
222 0.0193307 0.875613 0.105055 0 0 0 0 0 0 0 
223 0 0.891746 0.108253 0 0 0 0 0 0 0 
224 1.48715e-07 0.768214 0.195323 0.0364621 0 0 0 0 0 0 
225 0 0.891746 0.108253 0 0 0 0 0 0 0 
226 0 0.929619 0.0703802 0 0 0 0 0 0 0 
227 0.0438224 0.892178 0.0290436 0.034955 0 0 0 0 0 0 
228 0.0526327 0.924264 0.0231029 0 0 0 0 0 0 0 
229 0 0.778637 0.221363 0 0 0 0 0 0 0 
230 0 0.891746 0.108253 0 0 0 0 0 0 0 
231 0 0.778637 0.221363 0 0 0 0 0 0 0 
232 0 0.740134 0.259865 1.00864e-07 0 0 0 0 0 0 
233 1.48715e-07 0.75283 0.210707 0.0364621 0 0 0 0 0 0 
234 0 0.728183 0.271816 1.00864e-07 0 0 0 0 0 0 
235 0 0.891743 0.108256 0 0 0 0 0 0 0 
236 0.0193307 0.875864 0.104805 0 0 0 0 0 0 0 
237 0 0.736136 0.263863 1.02416e-07 0 0 0 0 0 0 
238 0.0534424 0.923099 0.0234583 0 0 0 0 0 0 0 
239 0.0503455 0.927555 0.0220995 0 0 0 0 0 0 0 
240 1.46462e-07 0.771726 0.192363 0.0359097 0 0 0 0 0 0 
241 0 0.778637 0.221363 0 0 0 0 0 0 0 
242 0.0526327 0.924264 0.0231029 0 0 0 0 0 0 0 
243 0.0444966 0.890519 0.0294904 0.0354927 0 0 0 0 0 0 
244 0 0.948705 0.0102691 0.0410252 0 0 0 0 0 0 
245 0.0526327 0.924264 0.0231029 0 0 0 0 0 0 0 
246 0.0193323 0.875822 0.104845 0 0 0 0 0 0 0 
247 0.0444966 0.890519 0.0294904 0.0354927 0 0 0 0 0 0 
248 0 0.736136 0.263863 1.02416e-07 0 0 0 0 0 0 
249 0 0.740134 0.259865 1.00864e-07 0 0 0 0 0 0 
250 1.48715e-07 0.768214 0.195323 0.0364621 0 0 0 0 0 0 
251 0.0193307 0.875864 0.104805 0 0 0 0 0 0 0 
252 0 0.736136 0.263863 1.02416e-07 0 0 0 0 0 0 
253 0.0444966 0.890519 0.0294904 0.0354927 0 0 0 0 0 0 
254 0 0.94904 0.00993388 0.0410252 0 0 0 0 0 0 
255 0.0534424 0.923099 0.0234583 0 0 0 0 0 0 0 
256 0.0193307 0.875864 0.104805 0 0 0 0 0 0 0 
257 1.48715e-07 0.768214 0.195323 0.0364621 0 0 0 0 0 0 
258 0 0.893386 0.106613 0 0 0 0 0 0 0 
259 0 0.891746 0.108253 0 0 0 0 0 0 0 
260 0.0444966 0.890519 0.0294904 0.0354927 0 0 0 0 0 0 
261 0 0.778637 0.221363 0 0 0 0 0 0 0 
262 0.17313 0.781152 0.0457173 0 0 0 0 0 0 0 
263 0.0534424 0.923099 0.0234583 0 0 0 0 0 0 0 
264 0.0444966 0.890519 0.0294904 0.0354927 0 0 0 0 0 0 
265 0.0193307 0.875864 0.104805 0 0 0 0 0 0 0 
266 0.17313 0.765818 0.0610516 0 0 0 0 0 0 0 
267 0 0.720762 0.279237 1.17102e-07 0 0 0 0 0 0 
268 0.0438225 0.877019 0.0297442 0.0494137 0 0 0 0 0 0 
269 0 0.929619 0.0703802 0 0 0 0 0 0 0 
270 0.0444966 0.890519 0.0294904 0.0354927 0 0 0 0 0 0 
271 0 0.778637 0.221363 0 0 0 0 0 0 0 
272 0 0.876623 0.123376 0 0 0 0 0 0 0 
273 0.179371 0.776276 0.0443527 0 0 0 0 0 0 0 
274 0 0.891746 0.108253 0 0 0 0 0 0 0 
275 0.0193307 0.875197 0.105472 0 0 0 0 0 0 0 
276 0 0.914362 0.0856367 0 0 0 0 0 0 0 
277 0.0444966 0.890519 0.0294905 0.0354927 0 0 0 0 0 0 
278 0 0.929619 0.0703802 0 0 0 0 0 0 0 
279 0 0.720788 0.279212 1.02416e-07 0 0 0 0 0 0 
280 0 0.947346 0.0128526 0.0398006 0 0 0 0 0 0 
281 0 0.736136 0.263863 1.02416e-07 0 0 0 0 0 0 
282 0 0.736136 0.263863 1.02416e-07 0 0 0 0 0 0 
283 0 0.736136 0.263863 1.02416e-07 0 0 0 0 0 0 
284 0.0193307 0.875864 0.104805 0 0 0 0 0 0 0 
285 0 0.781857 0.218142 0 0 0 0 0 0 0 
286 0 0.891027 0.108972 0 0 0 0 0 0 0 
287 0 0.763267 0.236732 0 0 0 0 0 0 0 
288 0 0.94904 0.00993388 0.0410252 0 0 0 0 0 0 
289 0 0.720752 0.279247 1.02416e-07 0 0 0 0 0 0 
290 0.0526327 0.909113 0.0382543 0 0 0 0 0 0 0 
291 0.0534424 0.923098 0.0234595 0 0 0 0 0 0 0 
292 1.48715e-07 0.768214 0.195323 0.0364621 0 0 0 0 0 0 
293 1.48715e-07 0.768214 0.195323 0.0364621 0 0 0 0 0 0 
294 1.48715e-07 0.768214 0.195323 0.0364621 0 0 0 0 0 0 
295 0 0.94904 0.00993388 0.0410252 0 0 0 0 0 0 
296 0.0193307 0.875864 0.104805 0 0 0 0 0 0 0 
297 0.0444968 0.890519 0.0294904 0.0354927 0 0 0 0 0 0 
298 0.0193307 0.860479 0.120189 0 0 0 0 0 0 0 
299 0.0444966 0.890519 0.0294904 0.0354927 0 0 0 0 0 0 
300 0 0.876361 0.123638 0 0 0 0 0 0 0 
301 0 0.891746 0.108253 0 0 0 0 0 0 0 
302 0 0.736136 0.263863 1.02416e-07 0 0 0 0 0 0 
303 0 0.929619 0.0703802 0 0 0 0 0 0 0 
304 0.0190378 0.877736 0.103225 0 0 0 0 0 0 0 
305 0.0193393 0.875855 0.104805 0 0 0 0 0 0 0 
306 0 0.949039 0.00993478 0.0410252 0 0 0 0 0 0 
307 0 0.999999 0 0 0 0 0 0 0 0 
308 0 0.893386 0.106613 0 0 0 0 0 0 0 
309 0 0.720753 0.279246 1.02416e-07 0 0 0 0 0 0 
310 1.48715e-07 0.75283 0.195329 0.0518408 0 0 0 0 0 0 
311 0 0.891746 0.108253 0 0 0 0 0 0 0 
312 0.0193307 0.875864 0.104805 0 0 0 0 0 0 0 
313 0.0534424 0.907715 0.0388429 0 0 0 0 0 0 0 
314 0.0438224 0.861875 0.0290436 0.065258 0 0 0 0 0 0 
315 0.0444966 0.890519 0.0294904 0.0354927 0 0 0 0 0 0 
316 0 0.891746 0.108253 0 0 0 0 0 0 0 
317 0.0193367 0.875858 0.104805 0 0 0 0 0 0 0 
318 0 0.89338 0.106619 0 0 0 0 0 0 0 
319 1.48715e-07 0.756321 0.207216 0.0364621 0 0 0 0 0 0 
320 0 0.778637 0.221363 0 0 0 0 0 0 0 
321 0 0.929619 0.0703802 0 0 0 0 0 0 0 
322 0 0.876361 0.123638 0 0 0 0 0 0 0 
323 0.0444966 0.890519 0.0294904 0.0354927 0 0 0 0 0 0 
324 0 0.763253 0.236746 0 0 0 0 0 0 0 
325 0.0264815 0.94682 0.0266986 0 0 0 0 0 0 0 
326 0 0.736136 0.263863 1.02416e-07 0 0 0 0 0 0 
327 0.170507 0.769317 0.0601757 0 0 0 0 0 0 0 
328 0 0.736136 0.263863 1.02416e-07 0 0 0 0 0 0 
329 0.0518475 0.925394 0.022758 0 0 0 0 0 0 0 
330 0 0.948966 0.0100082 0.0410252 0 0 0 0 0 0 
331 0 0.999999 0 0 0 0 0 0 0 0 
332 0 0.763252 0.236747 0 0 0 0 0 0 0 
333 0 0.720752 0.279247 1.02416e-07 0 0 0 0 0 0 
334 0 0.736136 0.263863 1.02416e-07 0 0 0 0 0 0 
335 0 0.999999 0 0 0 0 0 0 0 0 
336 0 0.929619 0.0703802 0 0 0 0 0 0 0 
337 0 0.736136 0.263863 1.02416e-07 0 0 0 0 0 0 
338 0.0193307 0.875864 0.104805 0 0 0 0 0 0 0 
339 0.0193307 0.860719 0.11995 0 0 0 0 0 0 0 
340 0 0.891694 0.108305 0 0 0 0 0 0 0 
341 0.0444966 0.875187 0.0447984 0.0355168 0 0 0 0 0 0 
342 0 0.736136 0.263863 1.02416e-07 0 0 0 0 0 0 
343 0 0.999999 0 0 0 0 0 0 0 0 
344 0 0.736136 0.263863 1.02416e-07 0 0 0 0 0 0 
345 0 0.778637 0.221363 0 0 0 0 0 0 0 
346 0 0.891746 0.108253 0 0 0 0 0 0 0 
347 0.0190378 0.877745 0.103217 0 0 0 0 0 0 0 
348 0.0347149 0.86048 0.104805 0 0 0 0 0 0 0 
349 1.48715e-07 0.768214 0.195323 0.0364621 0 0 0 0 0 0 
350 0 0.736136 0.263863 1.02416e-07 0 0 0 0 0 0 
351 0.0444966 0.890519 0.0294904 0.0354927 0 0 0 0 0 0 
352 0 0.778637 0.221363 0 0 0 0 0 0 0 
353 0 0.94904 0.00993388 0.0410252 0 0 0 0 0 0 
354 0.17313 0.781152 0.0457173 0 0 0 0 0 0 0 
355 0 0.94904 0.00993388 0.0410252 0 0 0 0 0 0 
356 0.0193307 0.874997 0.105672 0 0 0 0 0 0 0 
357 0 0.891746 0.108253 0 0 0 0 0 0 0 
358 0 0.927269 0.0727297 0 0 0 0 0 0 0 
359 0.0444966 0.890519 0.0294904 0.0354927 0 0 0 0 0 0 
360 0 0.778637 0.221363 0 0 0 0 0 0 0 
