0 2 0.195657
0 3 0.000117721
0 7 0.158932
0 9 0.281837
0 14 0.139785
0 21 0.000140257
0 25 2.53766e-05
0 27 0.0830792
0 30 1.68976e-07
21 25 0.999963
0 34 5.78965e-07
0 39 0.044128
0 43 3.88142e-06
0 44 0.000165162
0 53 0.0564679
0 58 3.99638e-07
42 46 0.999963
0 70 9.03028e-06
0 71 0.00624021
63 68 0.999963
0 96 0.0089619
0 109 2.40705e-06
0 117 3.88e-06
84 96 0.399
0 129 2.36416e-07
84 97 0.600963
0 134 0.00302956
273 34 0.105215
0 140 0.00019625
0 143 1.06539e-05
168 79 0.338799
273 55 0.000163761
273 56 0.447292
105 121 0.999963
0 165 1.39289e-07
0 166 0.000386421
0 181 1.08763e-06
0 182 0.00225523
126 139 0.335749
126 140 0.328466
126 142 0.335749
0 191 1.93451e-07
0 202 0.00891641
0 205 0.000175511
147 163 0.999963
0 227 2.08132e-06
0 238 1.93246e-05
168 182 0.661164
0 250 0.000217248
0 259 0.00464611
0 262 0.00443307
189 203 0.999963
0 281 3.0455e-05
0 287 7.74857e-05
0 300 9.12876e-06
210 224 0.666642
0 311 1.11021e-07
0 322 3.42691e-06
210 249 0.333321
231 247 0.999963
0 353 1.38821e-07
252 267 0.999963
294 307 0.999963
315 303 0.999963
273 365 0.447293
336 349 0.999963
357 352 0.999963
10 13 0.999963
31 36 0.999963
73 80 0.999963
52 93 0.749972
94 110 0.999963
115 130 0.999963
325 63 0.999963
136 152 0.999963
157 173 0.999963
178 192 0.999963
199 211 0.199992
199 212 0.599978
199 218 0.199992
241 216 0.999963
220 235 0.999963
262 278 0.999963
52 364 0.249991
283 296 0.999963
304 318 0.500122
304 319 0.499841
346 358 0.999963
20 26 0.999963
41 43 0.157397
41 50 0.842566
209 10 0.499981
62 66 0.499981
62 67 0.499981
188 44 0.499981
83 94 0.499982
83 95 0.499981
104 120 0.999963
356 27 0.0533621
125 141 0.999963
293 83 0.999963
146 162 0.999963
314 102 0.333321
314 103 0.333321
314 104 0.333321
167 174 0.999963
272 151 0.495693
188 200 0.499982
209 223 0.499982
230 246 0.999963
251 266 0.999963
272 285 0.50427
335 348 0.999963
356 370 0.946601
9 12 0.999963
30 35 0.999963
51 57 0.333321
198 25 0.499473
72 79 0.39603
93 109 0.999963
72 134 0.207903
114 129 0.999963
72 146 0.39603
135 151 0.999963
156 172 0.999963
177 181 0.499896
177 190 0.500067
51 245 0.333321
198 209 0.50049
51 271 0.333321
219 234 0.999963
240 256 0.999963
261 277 0.999963
282 295 0.999963
324 298 0.499972
303 317 0.999963
324 337 0.499991
345 357 0.999963
19 24 0.999963
40 45 0.999963
61 65 0.499981
82 92 0.999963
124 109 0.999963
103 119 0.999963
145 161 0.999963
166 181 0.999963
187 202 0.999963
208 222 0.999963
229 244 0.999963
250 265 0.999963
61 340 0.499981
271 284 0.999963
292 306 0.999963
313 326 0.499981
313 327 0.499982
334 347 0.999963
355 369 0.999963
8 9 0.668428
29 34 0.68663
29 55 0.313333
50 56 0.999963
176 22 0.666642
8 96 0.331535
71 78 0.999963
92 106 0.499981
92 107 0.499982
113 128 0.999963
197 103 0.999963
134 150 0.999963
155 171 0.999963
218 233 0.999963
239 255 0.999963
260 276 0.999963
281 294 0.999963
176 342 0.333321
302 316 0.999963
323 336 0.999963
344 356 0.999963
18 23 0.999963
39 43 0.0022984
39 44 0.997665
60 58 0.999963
81 91 0.999963
102 117 0.499929
102 118 0.250017
123 139 0.999963
144 160 0.999963
165 180 0.999963
291 140 7.82169e-05
186 199 0.499983
186 201 0.49998
207 221 0.999963
228 243 0.499981
249 252 0.999963
102 343 0.250017
270 283 0.999963
291 303 0.999885
312 325 0.999963
228 366 0.499981
333 345 0.499982
333 346 0.499981
354 368 0.999963
7 11 0.999963
28 26 0.499934
28 33 0.500029
49 54 0.999963
70 77 0.999963
133 55 0.499981
154 79 0.498802
91 105 0.999963
280 39 0.0543364
280 44 4.04101e-05
112 127 0.500039
112 148 0.499924
133 149 0.499981
301 96 0.999963
154 169 0.501161
175 189 0.999963
196 210 0.999963
280 202 0.0126166
217 232 0.999963
238 254 0.999963
259 275 0.999963
280 292 0.93297
322 303 0.499981
322 335 0.499981
343 355 0.999963
59 5 0.999963
17 22 0.999963
38 42 0.615868
38 43 0.384095
80 90 0.999963
101 116 0.999963
332 32 0.499981
122 134 2.43253e-05
122 138 0.999939
143 159 0.999963
164 179 0.999963
185 198 0.999963
206 220 0.999963
227 242 0.999963
248 264 0.999963
269 282 0.999963
290 302 0.333322
290 305 0.666641
311 323 0.999963
332 344 0.499981
353 367 0.999963
6 10 0.999963
27 32 0.999963
48 52 0.999963
195 25 0.00172486
69 76 0.499981
69 86 0.499981
90 102 0.333405
90 104 0.666558
279 43 0.500561
279 44 0.499402
111 126 0.999963
216 90 0.499981
195 102 0.998171
132 127 0.999963
258 119 0.999963
153 169 0.498796
153 170 0.501167
174 188 0.999963
195 209 6.70861e-05
342 178 0.999963
216 231 0.499981
237 253 0.999963
300 314 0.499982
300 315 0.499981
321 334 0.999963
16 20 0.999963
58 4 0.999963
37 41 0.999963
79 89 0.999963
268 25 0.241457
121 83 0.22644
331 21 0.999963
100 115 0.999963
121 134 0.606153
121 137 0.167371
310 83 0.333358
352 68 0.999963
142 158 0.999963
163 178 0.999963
184 197 0.999963
205 219 0.999963
226 241 0.999963
268 227 0.505658
247 263 0.999963
268 286 0.252848
289 304 0.999963
310 297 0.333364
310 322 0.333241
5 8 0.339133
26 31 0.999963
47 51 0.999963
152 17 0.999963
194 25 1.16529e-05
68 75 0.499981
5 134 0.321697
5 135 0.339133
89 103 0.999963
110 125 0.999963
341 58 0.498737
131 147 0.999963
194 151 0.999894
173 187 0.999963
194 209 5.75328e-05
215 230 0.999963
341 202 0.000783413
68 310 0.499981
236 252 0.999963
257 274 0.999963
278 291 0.999963
299 313 0.999963
320 333 0.999963
341 354 0.500443
36 2 0.113515
15 18 0.863366
36 14 0.371855
15 39 0.000278459
36 39 0.0969953
36 53 0.39393
57 64 0.999963
36 83 0.0232705
78 88 0.999963
267 25 0.499821
330 2 0.000772336
15 143 4.64134e-06
99 114 0.999963
36 151 0.000395637
120 136 0.999963
330 58 0.00403217
15 182 0.136314
141 157 0.999963
162 177 0.999963
36 250 6.96569e-07
183 196 0.999963
204 217 0.999963
225 240 0.999963
246 259 0.477506
246 262 0.522457
267 280 0.500142
288 301 0.999963
330 307 0.995159
309 316 0.499965
309 321 0.499998
351 362 0.999963
4 3 0.478661
4 6 0.521302
46 7 0.160316
46 9 0.620727
25 30 0.999961
46 82 0.0730078
67 74 0.999963
46 96 0.145912
88 102 0.999963
109 124 0.999963
235 96 0.000204771
340 58 0.999963
130 145 0.999963
25 202 1.93929e-06
151 168 0.999963
172 186 0.999963
46 250 8.09851e-07
193 208 0.999963
214 222 0.499972
214 229 0.499991
235 251 0.999758
298 254 0.499981
256 272 0.999963
277 289 0.999963
298 312 0.499982
319 331 0.435987
319 332 0.563976
35 8 0.333322
14 19 0.499981
119 2 6.29588e-06
35 38 0.333322
35 40 0.333319
56 61 0.49965
56 63 0.500313
140 58 0.525399
77 87 0.999963
161 79 0.999963
98 113 0.999963
119 140 0.500111
119 141 0.499846
287 97 0.500227
140 156 0.474564
329 91 0.333315
182 195 0.999963
203 216 0.999963
224 239 0.999963
245 261 0.499981
14 351 0.499982
266 279 0.500801
266 281 0.499162
245 290 0.499981
287 300 0.499736
308 320 0.999963
329 341 0.666648
350 361 0.999963
3 2 0.0592052
3 5 0.917001
3 9 0.016292
24 29 0.999963
45 49 0.999963
66 73 0.771449
87 101 0.999963
3 156 0.00739363
66 137 0.228514
108 123 0.999963
339 44 0.496067
3 182 4.24045e-05
129 143 2.68943e-05
129 144 0.999936
150 167 0.999963
234 137 0.345975
171 185 0.999963
3 259 2.94271e-05
192 207 0.999963
213 227 0.499963
213 228 0.5
234 250 0.653988
255 270 0.999963
276 287 0.49789
276 288 0.502073
297 311 0.999963
318 329 0.500079
318 330 0.499884
339 353 0.503896
360 373 0.999963
34 7 0.647688
13 17 0.375175
13 21 0.125058
13 58 0.249614
55 62 0.999963
13 79 0.125058
223 7 0.999963
76 85 0.699974
76 99 0.299989
97 112 0.999963
118 133 0.999963
328 65 0.999963
181 125 0.999963
286 96 0.0446545
139 155 0.999963
265 114 0.999963
160 176 0.999963
34 273 0.352275
202 215 0.999963
13 298 0.125058
244 259 0.0213268
244 260 0.978636
307 254 0.999963
286 299 0.955309
349 360 0.999963
2 2 0.233908
2 3 0.0495461
2 4 0.716509
23 28 0.999963
44 48 0.999963
65 70 0.499739
65 72 0.500224
233 33 0.499982
275 25 0.0415725
128 83 0.500277
86 100 0.499981
86 108 0.499981
107 123 0.999963
128 143 0.499686
149 165 0.510576
149 166 0.489387
170 184 0.999963
191 205 0.450891
191 206 0.549072
233 217 0.499981
212 226 0.999963
254 269 0.999963
275 282 0.958391
296 309 0.999963
317 329 0.999963
338 352 0.999963
359 372 0.999963
12 7 0.0902042
12 16 0.808677
33 37 0.999963
54 61 0.999963
75 84 0.999963
96 99 0.499981
117 132 0.999963
12 191 0.101082
138 154 0.999963
348 91 0.999963
264 134 0.999963
159 175 0.999963
327 129 0.333315
180 194 0.999963
222 182 0.0160339
201 214 0.666642
222 237 0.983929
243 258 0.999963
201 293 0.333321
96 363 0.499981
285 298 0.309888
285 324 0.619753
306 316 0.999963
285 331 0.0703214
327 339 0.666648
22 27 0.999963
43 47 0.999963
148 21 0.496186
190 15 0.999963
64 69 0.75205
64 71 0.247913
232 39 0.49999
85 98 0.999963
127 85 0.999963
106 122 0.999963
148 164 0.503777
274 139 0.999963
169 183 0.999963
211 225 0.999963
232 248 0.499973
253 268 0.999963
358 250 0.132481
295 308 0.999963
316 328 0.999963
337 350 0.999963
358 371 0.867482
11 15 0.501393
32 14 0.522222
74 9 0.498109
32 39 0.477741
53 59 0.499982
53 60 0.499981
74 81 0.501854
95 111 0.999963
242 68 0.499981
116 131 0.999963
263 79 0.999963
137 153 0.999963
11 204 0.49857
158 174 0.961514
179 193 0.999963
158 205 0.0384495
200 213 0.999963
221 236 0.500502
221 238 0.499461
242 257 0.499981
284 297 0.999963
305 318 0.999963
326 338 0.999963
347 358 0.499981
347 359 0.499982
