1 1 12 100 1
0 2 12 100 0.00602022
2 2 12 100 0.99398
3 3 12 100 1
0 4 12 100 1
3 5 12 100 0.00530159
5 5 12 100 0.380999
6 5 12 100 0.613699
4 6 12 100 0.000292104
7 6 12 100 0.999708
8 7 12 100 1
10 8 12 100 1
10 9 12 100 1
11 10 12 100 1
12 11 12 100 1
1 1 15 100 1
0 2 15 100 0.0124325
2 2 15 100 0.987567
3 3 15 100 1
5 4 15 100 1
0 5 15 100 1
6 6 15 100 1
7 7 15 100 1
8 8 15 100 1
9 9 15 100 1
10 10 15 100 0.993305
13 10 15 100 0.0066946
0 11 15 100 0.0247043
11 11 15 100 0.0556361
12 11 15 100 0.91966
14 12 15 100 1
14 13 15 100 1
15 14 15 100 1
3 1 18 100 1
4 2 18 100 1
5 3 18 100 1
7 4 18 100 0.284807
9 4 18 100 0.361627
10 4 18 100 0.353539
13 4 18 100 2.68433e-05
0 5 18 100 0.00789129
11 5 18 100 0.992109
15 6 18 100 1
17 7 18 100 1
17 8 18 100 1
18 9 18 100 1
1 1 19 100 1
0 2 19 100 0.510541
2 2 19 100 0.48933
3 2 19 100 0.000129346
0 3 19 100 0.500138
3 3 19 100 4.74014e-05
4 3 19 100 0.499661
12 3 19 100 0.000142449
14 3 19 100 1.10988e-05
2 4 19 100 0.5
4 4 19 100 0.5
2 5 19 100 0.5
5 5 19 100 0.401328
6 5 19 100 0.098645
7 5 19 100 2.73217e-05
3 6 19 100 0.5
6 6 19 100 0.480945
7 6 19 100 0.0190552
4 7 19 100 0.5
7 7 19 100 0.029979
8 7 19 100 0.0635653
10 7 19 100 0.406456
5 8 19 100 0.500001
15 8 19 100 0.499999
6 9 19 100 0.5
16 9 19 100 0.5
7 10 19 100 0.5
16 10 19 100 0.5
0 11 19 100 0.00667925
9 11 19 100 0.493093
10 11 19 100 0.000228089
16 11 19 100 0.5
0 12 19 100 9.11343e-05
8 12 19 100 0.00318065
10 12 19 100 8.08203e-05
11 12 19 100 0.496647
17 12 19 100 0.5
12 13 19 100 0.5
18 13 19 100 0.5
12 14 19 100 0.5
18 14 19 100 0.5
13 15 19 100 0.5
19 15 19 100 0.5
13 16 19 100 1
15 17 19 100 1
16 18 19 100 1
17 19 19 100 1
18 20 19 100 1
18 21 19 100 1
19 22 19 100 1
8 1 27 100 1
0 2 27 100 0.970722
2 2 27 100 0.0146392
4 2 27 100 0.0146392
8 3 27 100 1
8 4 27 100 1
10 5 27 100 1
13 6 27 100 0.999859
14 6 27 100 0.000111066
25 6 27 100 2.98354e-05
14 7 27 100 1
15 8 27 100 1
16 9 27 100 0.0178459
18 9 27 100 0.982154
18 10 27 100 1
19 11 27 100 1
0 12 27 100 0.0933757
3 12 27 100 5.05234e-05
20 12 27 100 0.905611
21 12 27 100 0.000962975
22 13 27 100 1
26 14 27 100 1
14 15 27 100 8.11977e-05
26 15 27 100 0.999919
27 16 27 100 1
2 1 28 100 1
3 2 28 100 1
4 3 28 100 0.64928
5 3 28 100 0.35072
6 4 28 100 1
7 5 28 100 1
9 6 28 100 1
9 7 28 100 1
0 8 28 100 0.000182834
8 8 28 100 0.999817
10 9 28 100 1
0 10 28 100 0.999976
19 10 28 100 2.3575e-05
0 11 28 100 0.018779
11 11 28 100 0.704824
14 11 28 100 0.276397
0 12 28 100 3.049e-05
12 12 28 100 0.999939
16 12 28 100 3.03603e-05
13 13 28 100 1
13 14 28 100 1
15 15 28 100 1
18 16 28 100 0.997419
21 16 28 100 0.00258088
21 17 28 100 1
23 18 28 100 1
24 19 28 100 1
26 20 28 100 1
27 21 28 100 1
27 22 28 100 1
28 23 28 100 1
1 1 29 100 1
0 2 29 100 0.00100351
4 2 29 100 0.859627
6 2 29 100 0.13937
0 3 29 100 0.5
2 3 29 100 0.49904
3 3 29 100 0.000959638
0 4 29 100 0.499871
3 4 29 100 0.5
12 4 29 100 0.000116813
25 4 29 100 1.16008e-05
5 5 29 100 0.000329829
6 5 29 100 0.49943
8 5 29 100 0.50008
11 5 29 100 0.000161105
9 6 29 100 1
0 7 29 100 0.012253
10 7 29 100 0.987747
10 8 29 100 0.5
11 8 29 100 0.5
10 9 29 100 0.5
13 9 29 100 0.5
13 10 29 100 0.5
14 10 29 100 0.5
15 11 29 100 0.5
16 11 29 100 0.5
0 12 29 100 0.5
16 12 29 100 0.5
17 13 29 100 1
18 14 29 100 1
18 15 29 100 0.5
19 15 29 100 0.5
0 16 29 100 0.0054503
19 16 29 100 0.49455
20 16 29 100 0.5
20 17 29 100 0.5
21 17 29 100 0.5
0 18 29 100 0.0490329
21 18 29 100 0.5
22 18 29 100 0.450967
22 19 29 100 0.5
23 19 29 100 0.5
24 20 29 100 1
24 21 29 100 0.5
26 21 29 100 0.5
5 22 29 100 3.89787e-05
25 22 29 100 0.5
27 22 29 100 0.499961
26 23 29 100 0.5
28 23 29 100 0.5
28 24 29 100 0.5
29 24 29 100 0.5
29 25 29 100 1
2 1 30 100 1
3 2 30 100 1
4 3 30 100 1
0 4 30 100 0.215769
6 4 30 100 0.78355
7 4 30 100 0.000681482
8 5 30 100 1
8 6 30 100 1
12 7 30 100 1
11 8 30 100 1
0 9 30 100 0.163003
13 9 30 100 0.836432
14 9 30 100 0.000282876
17 9 30 100 0.000282876
0 10 30 100 0.00338435
11 10 30 100 0.995087
14 10 30 100 0.000764268
17 10 30 100 0.000764268
18 11 30 100 1
19 12 30 100 1
19 13 30 100 1
19 14 30 100 1
19 15 30 100 1
0 16 30 100 0.000320966
10 16 30 100 5.98047e-05
14 16 30 100 6.82127e-05
17 16 30 100 6.82127e-05
22 16 30 100 0.999445
25 16 30 100 3.8021e-05
23 17 30 100 1
24 18 30 100 0.993966
26 18 30 100 0.00603373
21 19 30 100 0.00109791
24 19 30 100 0.998902
29 20 30 100 1
30 21 30 100 1
2 1 32 100 1
4 2 32 100 0.000129942
5 2 32 100 0.99987
5 3 32 100 1
0 4 32 100 0.98659
3 4 32 100 0.0134101
7 5 32 100 1
8 6 32 100 1
8 7 32 100 1
9 8 32 100 1
11 9 32 100 0.996406
14 9 32 100 0.00344997
27 9 32 100 0.000143825
14 10 32 100 0.951772
15 10 32 100 0.0482277
15 11 32 100 1
0 12 32 100 0.99998
21 12 32 100 1.97906e-05
16 13 32 100 1
10 14 32 100 1
10 15 32 100 1
13 16 32 100 0.999653
25 16 32 100 0.000347373
13 17 32 100 0.999861
25 17 32 100 0.000138597
18 18 32 100 1
19 19 32 100 1
0 20 32 100 0.166412
13 20 32 100 0.796967
25 20 32 100 0.0366216
0 21 32 100 0.0258456
1 21 32 100 0.00196608
12 21 32 100 0.972188
20 22 32 100 1
23 23 32 100 1
6 24 32 100 4.23089e-05
23 24 32 100 0.999958
24 25 32 100 0.999774
31 25 32 100 0.000226525
26 26 32 100 1
30 27 32 100 1
30 28 32 100 1
30 29 32 100 1
32 30 32 100 1
1 1 33 100 1.18275e-05
2 1 33 100 0.999988
1 2 33 100 1
0 3 33 100 0.999892
21 3 33 100 0.00010752
4 4 33 100 1
4 5 33 100 1
4 6 33 100 1
5 7 33 100 0.000186749
6 7 33 100 0.999746
25 7 33 100 6.76051e-05
6 8 33 100 1
7 9 33 100 1
7 10 33 100 1
11 11 33 100 1
0 12 33 100 0.00815656
12 12 33 100 0.991843
16 13 33 100 1
0 14 33 100 0.000125308
5 14 33 100 0.000156491
8 14 33 100 0.999718
9 15 33 100 1
10 16 33 100 0.00244344
13 16 33 100 0.000241836
17 16 33 100 0.997315
18 17 33 100 1
10 18 33 100 1
20 19 33 100 1
20 20 33 100 1
0 21 33 100 0.997805
21 21 33 100 0.00219516
20 22 33 100 1
0 23 33 100 0.0902037
21 23 33 100 0.586245
23 23 33 100 0.323551
26 24 33 100 1
27 25 33 100 0.999796
31 25 33 100 0.000204165
27 26 33 100 0.999921
31 26 33 100 7.85455e-05
0 27 33 100 1
28 28 33 100 1
29 29 33 100 1
32 30 33 100 1
33 31 33 100 1
1 1 34 100 0.999913
11 1 34 100 8.66779e-05
0 2 34 100 0.153248
1 2 34 100 0.846733
19 2 34 100 1.94743e-05
2 3 34 100 1
2 4 34 100 0.999825
8 4 34 100 0.000174762
3 5 34 100 1
4 6 34 100 1
6 7 34 100 1
6 8 34 100 1
0 9 34 100 0.0236512
7 9 34 100 0.976141
17 9 34 100 0.000207471
8 10 34 100 0.00487108
10 10 34 100 0.995129
0 11 34 100 4.15042e-05
9 11 34 100 0.93778
12 11 34 100 0.0621786
0 12 34 100 0.999824
1 12 34 100 0.000108091
19 12 34 100 5.25336e-05
31 12 34 100 1.52266e-05
12 13 34 100 1
0 14 34 100 4.03378e-05
12 14 34 100 0.00144753
16 14 34 100 0.998512
0 15 34 100 0.998353
1 15 34 100 7.00138e-05
14 15 34 100 0.00155309
25 15 34 100 2.41878e-05
13 16 34 100 0.0139003
15 16 34 100 0.972398
17 16 34 100 0.0137021
0 17 34 100 5.67268e-05
15 17 34 100 0.00327929
18 17 34 100 0.996664
0 18 34 100 0.978787
7 18 34 100 0.000290648
14 18 34 100 2.06633e-05
17 18 34 100 0.0209017
18 19 34 100 1
20 20 34 100 1
0 21 34 100 2.74885e-05
14 21 34 100 1.66485e-05
21 21 34 100 0.867967
22 21 34 100 0.131973
28 21 34 100 1.53952e-05
23 22 34 100 1
23 23 34 100 1
23 24 34 100 1
24 25 34 100 1
27 26 34 100 1
30 27 34 100 1
30 28 34 100 1
33 29 34 100 1
8 30 34 100 3.20208e-05
33 30 34 100 0.999968
34 31 34 100 1
34 1 35 100 1
0 2 35 100 0.99836
5 2 35 100 4.28312e-05
31 2 35 100 0.000976023
33 2 35 100 0.000621235
34 3 35 100 1
34 4 35 100 1
1 5 35 100 0.99825
32 5 35 100 0.00175013
3 6 35 100 0.306074
4 6 35 100 0.100979
6 6 35 100 0.177022
7 6 35 100 0.415925
0 7 35 100 0.0370176
8 7 35 100 0.962982
9 8 35 100 1
0 9 35 100 0.00558091
10 9 35 100 0.994274
11 9 35 100 0.000144855
12 10 35 100 1
0 11 35 100 0.999305
5 11 35 100 1.74288e-05
31 11 35 100 0.00041389
33 11 35 100 0.000263439
12 12 35 100 1
12 13 35 100 1
13 14 35 100 1
17 15 35 100 1
18 16 35 100 1
19 17 35 100 1
19 18 35 100 1
22 19 35 100 1
23 20 35 100 1
24 21 35 100 1
25 22 35 100 1
0 23 35 100 0.00558091
27 23 35 100 0.994274
28 23 35 100 0.000144855
26 24 35 100 0.000198869
29 24 35 100 0.947664
30 24 35 100 0.0521371
34 25 35 100 1
34 26 35 100 1
35 27 35 100 1
0 1 36 100 2.64906e-05
22 1 36 100 0.999974
0 2 36 100 0.809251
7 2 36 100 0.121229
9 2 36 100 0.0683944
15 2 36 100 0.000798264
30 2 36 100 0.000154065
34 2 36 100 0.000173813
0 3 36 100 0.999975
9 3 36 100 2.54299e-05
2 4 36 100 0.0054189
3 4 36 100 0.00398858
23 4 36 100 0.990593
8 5 36 100 0.000241981
25 5 36 100 0.999758
26 6 36 100 1
26 7 36 100 1
26 8 36 100 1
10 9 36 100 0.000553747
26 9 36 100 0.999446
0 10 36 100 0.163493
12 10 36 100 0.835983
13 10 36 100 0.000262428
16 10 36 100 0.000262428
26 11 36 100 1
26 12 36 100 1
17 13 36 100 1
0 14 36 100 0.972373
7 14 36 100 0.0142829
9 14 36 100 0.00805808
15 14 36 100 0.00446998
30 14 36 100 0.000383319
34 14 36 100 0.000432456
18 15 36 100 0.000128174
19 15 36 100 1.18547e-05
20 15 36 100 0.00071246
24 15 36 100 0.000154859
27 15 36 100 0.998993
0 16 36 100 1
20 17 36 100 1
8 18 36 100 0.00141474
27 18 36 100 0.00017945
28 18 36 100 0.998406
6 19 36 100 0.000205327
14 19 36 100 2.60804e-05
29 19 36 100 0.999769
0 20 36 100 0.906785
12 20 36 100 0.0522253
32 20 36 100 0.0409897
35 21 36 100 1
35 22 36 100 1
35 23 36 100 1
36 24 36 100 1
3 1 37 100 1
3 2 37 100 0.000128864
5 2 37 100 0.999871
1 3 37 100 0.00138379
2 3 37 100 0.00183312
5 3 37 100 0.996747
12 3 37 100 3.64996e-05
6 4 37 100 1
7 5 37 100 1
8 6 37 100 1
8 7 37 100 1
10 8 37 100 1
11 9 37 100 1
14 10 37 100 1
15 11 37 100 1
16 12 37 100 1
17 13 37 100 1
17 14 37 100 0.00141303
20 14 37 100 0.0616747
22 14 37 100 0.936912
21 15 37 100 1
21 16 37 100 1
23 17 37 100 1
0 18 37 100 0.269556
18 18 37 100 0.00013841
23 18 37 100 0.730305
24 19 37 100 0.999787
29 19 37 100 0.000213409
11 20 37 100 2.21082e-05
25 20 37 100 0.999978
6 21 37 100 1.79441e-05
27 21 37 100 0.999934
29 21 37 100 4.84556e-05
0 22 37 100 1
27 23 37 100 0.998785
29 23 37 100 0.00121478
30 24 37 100 1
31 25 37 100 1
32 26 37 100 1
34 27 37 100 1
36 28 37 100 1
36 29 37 100 1
37 30 37 100 1
3 1 39 100 1
3 2 39 100 1
1 3 39 100 0.00133793
4 3 39 100 0.998662
4 4 39 100 1
0 5 39 100 0.00312314
5 5 39 100 0.996745
6 5 39 100 0.000131763
7 6 39 100 1
8 7 39 100 1
9 8 39 100 0.016865
10 8 39 100 0.983135
12 9 39 100 1
14 10 39 100 1
0 11 39 100 1
0 12 39 100 0.162733
15 12 39 100 0.837267
16 13 39 100 1
16 14 39 100 1
0 15 39 100 4.54583e-05
18 15 39 100 0.99994
24 15 39 100 1.48103e-05
19 16 39 100 1
0 17 39 100 1
21 18 39 100 1
22 19 39 100 0.601287
25 19 39 100 0.246102
27 19 39 100 0.152611
25 20 39 100 0.00539039
27 20 39 100 0.00334265
29 20 39 100 0.991267
0 21 39 100 0.982902
23 21 39 100 0.00854922
28 21 39 100 0.00854922
29 22 39 100 1
29 23 39 100 1
29 24 39 100 1
30 25 39 100 0.892037
32 25 39 100 0.107963
35 26 39 100 1
36 27 39 100 1
36 28 39 100 1
0 29 39 100 0.999682
5 29 39 100 1.48138e-05
23 29 39 100 0.000151612
28 29 39 100 0.000151612
36 30 39 100 1
37 31 39 100 1
38 32 39 100 1
39 33 39 100 1
1 1 40 100 0.0882388
2 1 40 100 0.911564
8 1 40 100 0.000197793
3 2 40 100 1
1 3 40 100 1.58768e-05
4 3 40 100 0.999984
5 4 40 100 1
6 5 40 100 1
9 6 40 100 1
10 7 40 100 1
0 8 40 100 2.93634e-05
11 8 40 100 0.880557
12 8 40 100 0.119336
33 8 40 100 7.83661e-05
13 9 40 100 1
14 10 40 100 1
15 11 40 100 1
16 12 40 100 1
17 13 40 100 1
17 14 40 100 1
17 15 40 100 1
0 16 40 100 1
18 17 40 100 0.0735148
19 17 40 100 0.926485
22 18 40 100 1
23 19 40 100 1
24 20 40 100 1
25 21 40 100 0.809057
26 21 40 100 0.0954719
28 21 40 100 0.0954714
30 22 40 100 0.905497
34 22 40 100 0.0339127
35 22 40 100 0.0605903
36 23 40 100 1
36 24 40 100 1
0 25 40 100 2.42097e-05
33 25 40 100 0.00199368
37 25 40 100 0.997982
38 26 40 100 1
0 27 40 100 0.00699052
31 27 40 100 0.99301
0 28 40 100 0.999618
33 28 40 100 0.000381999
38 29 40 100 1
0 30 40 100 1
38 31 40 100 1
39 32 40 100 1
39 33 40 100 1
39 34 40 100 1
40 35 40 100 1
0 1 42 100 1.1081e-05
1 1 42 100 0.0824081
5 1 42 100 1.74097e-05
8 1 42 100 1.74097e-05
18 1 42 100 0.917546
19 2 42 100 1
2 3 42 100 0.996724
6 3 42 100 0.000216361
9 3 42 100 0.000237787
17 3 42 100 0.00282188
3 4 42 100 1
10 5 42 100 1
0 6 42 100 0.921132
1 6 42 100 1.2591e-05
5 6 42 100 1.48237e-05
8 6 42 100 1.48237e-05
11 6 42 100 0.0780477
33 6 42 100 0.000778312
10 7 42 100 1
0 8 42 100 0.999817
24 8 42 100 0.000182996
12 9 42 100 0.999071
21 9 42 100 0.000929474
13 10 42 100 1
13 11 42 100 1
13 12 42 100 0.998447
17 12 42 100 0.00155295
16 13 42 100 1
0 14 42 100 0.989295
20 14 42 100 3.35254e-05
24 14 42 100 0.0106716
0 15 42 100 0.736234
4 15 42 100 2.44935e-05
7 15 42 100 2.44935e-05
20 15 42 100 0.258865
26 15 42 100 0.00235345
38 15 42 100 0.00235345
40 15 42 100 0.000145718
22 16 42 100 1
25 17 42 100 1
27 18 42 100 0.00471003
28 18 42 100 0.02981
29 18 42 100 0.00454775
31 18 42 100 0.0533436
32 18 42 100 0.0533436
34 18 42 100 0.00454775
35 18 42 100 0.02981
37 18 42 100 0.0724887
39 18 42 100 0.747399
41 19 42 100 1
0 20 42 100 0.991049
4 20 42 100 2.4498e-05
7 20 42 100 2.4498e-05
20 20 42 100 0.00320545
26 20 42 100 0.00235345
38 20 42 100 0.00235345
40 20 42 100 0.000989582
41 21 42 100 1
0 22 42 100 0.991549
11 22 42 100 0.00476707
33 22 42 100 0.00368433
41 23 42 100 1
0 24 42 100 0.99979
24 24 42 100 0.00020997
41 25 42 100 1
41 26 42 100 1
41 27 42 100 1
41 28 42 100 1
42 29 42 100 1
3 1 43 100 1
3 2 43 100 1
3 3 43 100 1
4 4 43 100 1
4 5 43 100 1
15 6 43 100 1
5 7 43 100 0.981061
16 7 43 100 0.0189389
12 8 43 100 1
7 9 43 100 1
7 10 43 100 0.993955
10 10 43 100 0.00604461
9 11 43 100 1
15 12 43 100 2.14601e-05
17 12 43 100 0.999979
16 13 43 100 1
5 14 43 100 0.0061189
16 14 43 100 0.993881
19 15 43 100 1
0 16 43 100 0.161808
20 16 43 100 0.838192
22 17 43 100 1
23 18 43 100 1
24 19 43 100 1
0 20 43 100 1
25 21 43 100 1
28 22 43 100 1
31 23 43 100 1
31 24 43 100 1
31 25 43 100 1
31 26 43 100 1
35 27 43 100 1
41 28 43 100 1
0 29 43 100 4.51871e-05
33 29 43 100 0.0974472
41 29 43 100 0.866771
42 29 43 100 0.0357372
42 30 43 100 1
43 31 43 100 1
