5 0 100 9 1
2 1 100 9 0.65076
5 1 100 9 0.34924
9 2 100 9 1
1 3 100 9 1
2 4 100 9 1
3 5 100 9 1
5 6 100 9 1
4 7 100 9 1
4 8 100 9 0.59839
6 8 100 9 0.40161
4 9 100 9 1
4 10 100 9 1
5 11 100 9 1
5 12 100 9 1
2 13 100 9 0.000735944
3 13 100 9 0.00244964
4 13 100 9 0.451088
5 13 100 9 0.000224918
6 13 100 9 0.527406
7 13 100 9 0.0122205
8 13 100 9 0.00587461
4 14 100 9 0.0323015
5 14 100 9 0.908687
6 14 100 9 0.0590115
2 15 100 9 3.74847e-06
3 15 100 9 1.83409e-05
4 15 100 9 0.00523734
5 15 100 9 5.29875e-06
6 15 100 9 0.993429
7 15 100 9 0.000903027
8 15 100 9 0.00040356
4 16 100 9 0.0328532
5 16 100 9 0.907127
6 16 100 9 0.0600195
3 17 100 9 2.38449e-06
4 17 100 9 0.0019094
5 17 100 9 2.44116e-06
6 17 100 9 0.0375326
7 17 100 9 0.480135
8 17 100 9 0.480418
5 18 100 9 2.59258e-06
9 18 100 9 0.999997
2 0 100 11 0.0059842
4 0 100 11 0.994016
1 1 100 11 1
2 2 100 11 1
3 3 100 11 0.994726
5 3 100 11 0.00527364
6 4 100 11 1
5 5 100 11 1
5 6 100 11 1
6 7 100 11 1
7 8 100 11 1
4 9 100 11 1
8 10 100 11 0.5
9 10 100 11 0.5
10 11 100 11 1
11 12 100 11 1
2 0 100 14 0.0119873
5 0 100 14 0.964193
11 0 100 14 0.0238196
1 1 100 14 1
2 2 100 14 1
3 3 100 14 1
11 4 100 14 1
4 5 100 14 1
6 6 100 14 1
7 7 100 14 1
8 8 100 14 1
9 9 100 14 1
10 10 100 14 1
11 11 100 14 1
11 12 100 14 1
10 13 100 14 1
12 14 100 14 0.5
13 14 100 14 0.5
14 15 100 14 1
2 0 100 15 0.986085
3 0 100 15 0.0139152
1 1 100 15 1
2 2 100 15 1
2 3 100 15 0.731813
3 3 100 15 0.268187
3 4 100 15 0.499831
4 4 100 15 0.500169
5 5 100 15 1
5 6 100 15 0.170198
6 6 100 15 0.829802
5 7 100 15 0.000556886
6 7 100 15 0.388394
7 7 100 15 0.611049
7 8 100 15 1
2 9 100 15 1
7 10 100 15 1
2 11 100 15 1
3 12 100 15 1
2 13 100 15 1
2 14 100 15 1
8 15 100 15 1
9 16 100 15 0.333333
10 16 100 15 0.333333
11 16 100 15 0.333333
4 17 100 15 2.756e-06
5 17 100 15 7.87974e-06
6 17 100 15 7.51957e-06
7 17 100 15 0.000898746
8 17 100 15 0.00210222
9 17 100 15 0.00159819
10 17 100 15 0.00169714
11 17 100 15 0.00696809
12 17 100 15 0.980547
13 17 100 15 0.00536056
14 17 100 15 0.000809421
4 18 100 15 8.97018e-07
5 18 100 15 2.4166e-06
6 18 100 15 2.51341e-06
7 18 100 15 0.000215253
8 18 100 15 0.000299338
9 18 100 15 0.000140254
10 18 100 15 0.000151785
11 18 100 15 0.000450473
12 18 100 15 0.0034033
13 18 100 15 0.496356
14 18 100 15 0.498978
15 19 100 15 1
2 0 100 16 0.912248
12 0 100 16 0.0877517
5 1 100 16 1
2 2 100 16 1
12 3 100 16 1
2 4 100 16 1
2 5 100 16 0.0608165
3 5 100 16 0.238646
4 5 100 16 0.137842
5 5 100 16 0.314477
6 5 100 16 0.193155
12 5 100 16 0.0550643
2 6 100 16 1
12 7 100 16 1
1 8 100 16 0.333329
3 8 100 16 0.333335
4 8 100 16 0.333335
2 9 100 16 1
5 10 100 16 1
12 11 100 16 1
12 12 100 16 1
6 13 100 16 1
6 14 100 16 0.000111045
7 14 100 16 0.999808
15 14 100 16 8.11824e-05
8 15 100 16 1
9 16 100 16 1
12 17 100 16 1
1 18 100 16 2.75221e-06
3 18 100 16 4.08413e-06
4 18 100 16 8.21433e-06
5 18 100 16 0.000221317
6 18 100 16 0.000223211
7 18 100 16 0.000138431
8 18 100 16 9.90423e-05
9 18 100 16 0.419837
10 18 100 16 0.422887
11 18 100 16 0.156306
13 18 100 16 0.000254375
14 18 100 16 6.51861e-06
15 18 100 16 1.19197e-05
3 19 100 16 3.13351e-06
4 19 100 16 6.3385e-06
5 19 100 16 0.000150077
6 19 100 16 0.00011809
7 19 100 16 0.000113366
8 19 100 16 2.25729e-05
9 19 100 16 0.000976413
10 19 100 16 0.000753651
11 19 100 16 0.99706
12 19 100 16 0.000109875
13 19 100 16 0.000652206
14 19 100 16 9.68939e-06
15 19 100 16 2.44295e-05
12 20 100 16 1
2 21 100 16 0.00108017
12 21 100 16 0.997731
13 21 100 16 0.000337051
16 21 100 16 0.000852031
1 22 100 16 1.80248e-05
3 22 100 16 6.09028e-06
4 22 100 16 1.0218e-05
5 22 100 16 0.00019021
6 22 100 16 0.000116925
7 22 100 16 0.000103434
8 22 100 16 1.66879e-05
9 22 100 16 0.000369806
10 22 100 16 0.000255475
11 22 100 16 0.0039477
13 22 100 16 0.99458
14 22 100 16 0.000173572
15 22 100 16 0.000212131
2 23 100 16 4.61874e-05
12 23 100 16 0.999954
2 24 100 16 0.000651988
12 24 100 16 0.997742
13 24 100 16 0.000217361
16 24 100 16 0.00138814
1 25 100 16 0.00270079
3 25 100 16 0.000433722
4 25 100 16 0.000728879
5 25 100 16 0.0163126
6 25 100 16 0.18974
7 25 100 16 0.00514772
8 25 100 16 0.000477303
9 25 100 16 0.0119004
10 25 100 16 0.00344821
11 25 100 16 0.0167646
13 25 100 16 0.555096
14 25 100 16 0.0711029
15 25 100 16 0.126147
1 26 100 16 2.84811e-05
3 26 100 16 2.8746e-06
4 26 100 16 4.43366e-06
5 26 100 16 4.78662e-05
6 26 100 16 2.69707e-05
7 26 100 16 3.10755e-05
8 26 100 16 2.77065e-06
9 26 100 16 1.81071e-05
10 26 100 16 1.26788e-05
11 26 100 16 7.24273e-05
12 26 100 16 6.64926e-07
13 26 100 16 0.0440962
14 26 100 16 0.478053
15 26 100 16 0.477602
16 27 100 16 1
4 0 100 21 0.564136
9 0 100 21 0.426176
10 0 100 21 0.00884846
16 0 100 21 0.000839171
2 1 100 21 1
1 2 100 21 1
2 3 100 21 1
3 4 100 21 1
3 5 100 21 1
4 6 100 21 1
4 7 100 21 1
5 8 100 21 0.5
6 8 100 21 0.5
4 9 100 21 1
16 10 100 21 1
8 11 100 21 0.501233
10 11 100 21 0.498767
7 12 100 21 1
9 13 100 21 1
9 14 100 21 0.25362
10 14 100 21 0.685223
16 14 100 21 0.0611576
11 15 100 21 1
4 16 100 21 1
9 17 100 21 0.25362
10 17 100 21 0.685223
16 17 100 21 0.0611576
11 18 100 21 1
12 19 100 21 0.25
13 19 100 21 0.25
14 19 100 21 0.25
15 19 100 21 0.25
15 20 100 21 1
19 21 100 21 1
16 22 100 21 1
10 23 100 21 7.05769e-06
11 23 100 21 0.000216527
12 23 100 21 9.59618e-05
13 23 100 21 0.00013837
14 23 100 21 0.000184
15 23 100 21 0.00203512
16 23 100 21 2.78944e-06
17 23 100 21 0.835397
18 23 100 21 0.158159
19 23 100 21 0.0037371
20 23 100 21 2.72216e-05
10 24 100 21 3.92904e-06
11 24 100 21 0.000121031
12 24 100 21 8.21212e-05
13 24 100 21 0.000142624
14 24 100 21 0.000201414
15 24 100 21 0.00281871
17 24 100 21 0.00154574
18 24 100 21 0.510893
19 24 100 21 0.484127
20 24 100 21 6.45015e-05
4 25 100 21 0.00409476
7 25 100 21 5.77458e-05
9 25 100 21 0.000177561
10 25 100 21 0.000342385
14 25 100 21 0.000121263
16 25 100 21 0.993874
19 25 100 21 0.000627566
21 25 100 21 0.000704895
10 26 100 21 3.58393e-06
11 26 100 21 0.000102932
12 26 100 21 5.55248e-05
13 26 100 21 0.000110407
14 26 100 21 0.000174483
15 26 100 21 0.00276028
17 26 100 21 0.000854773
18 26 100 21 0.964354
19 26 100 21 0.0312059
20 26 100 21 0.000378466
4 27 100 21 0.932343
7 27 100 21 0.00157642
8 27 100 21 4.44122e-05
9 27 100 21 5.29532e-05
14 27 100 21 8.44913e-05
16 27 100 21 0.0632331
17 27 100 21 7.71168e-05
18 27 100 21 7.62215e-05
19 27 100 21 0.0025123
19 28 100 21 1
11 29 100 21 9.23218e-06
12 29 100 21 3.71911e-06
13 29 100 21 6.48289e-06
14 29 100 21 9.55611e-06
15 29 100 21 8.21326e-05
17 29 100 21 5.31573e-05
18 29 100 21 0.00547807
19 29 100 21 0.0866519
20 29 100 21 0.907706
21 30 100 21 1
2 0 100 22 0.496643
3 0 100 22 0.496632
11 0 100 22 0.00663441
12 0 100 22 9.05224e-05
1 1 100 22 1
4 2 100 22 0.5
5 2 100 22 0.5
6 3 100 22 1
7 4 100 22 1
8 5 100 22 1
9 6 100 22 1
10 7 100 22 1
12 8 100 22 1
11 9 100 22 1
11 10 100 22 0.738369
12 10 100 22 0.261631
12 11 100 22 1
13 12 100 22 0.5
14 12 100 22 0.5
15 13 100 22 0.5
16 13 100 22 0.5
3 14 100 22 1
17 15 100 22 1
18 16 100 22 1
19 17 100 22 1
20 18 100 22 0.5
21 18 100 22 0.5
22 19 100 22 1
8 0 100 23 0.00017943
10 0 100 23 0.981361
11 0 100 23 0.0184294
12 0 100 23 2.99219e-05
12 1 100 23 1
1 2 100 23 1
2 3 100 23 1
3 4 100 23 1
3 5 100 23 1
4 6 100 23 1
5 7 100 23 1
8 8 100 23 1
6 9 100 23 0.5
7 9 100 23 0.5
9 10 100 23 1
11 11 100 23 1
12 12 100 23 1
13 13 100 23 0.5
14 13 100 23 0.5
11 14 100 23 1
15 15 100 23 1
12 16 100 23 1
12 17 100 23 1
16 18 100 23 1
10 19 100 23 1
12 20 100 23 1
16 21 100 23 0.00257423
17 21 100 23 0.997426
10 22 100 23 1
18 23 100 23 1
19 24 100 23 1
19 25 100 23 1
15 26 100 23 0.000110435
16 26 100 23 0.000135638
17 26 100 23 0.00013769
18 26 100 23 3.53227e-06
19 26 100 23 9.48343e-05
20 26 100 23 0.992866
21 26 100 23 0.00596165
22 26 100 23 0.000690566
15 27 100 23 2.68194e-05
16 27 100 23 3.60159e-05
17 27 100 23 5.16797e-05
18 27 100 23 1.20451e-06
19 27 100 23 5.30542e-06
20 27 100 23 0.00258651
21 27 100 23 0.497323
22 27 100 23 0.49997
23 28 100 23 1
1 0 100 24 3.86013e-06
2 0 100 24 0.117923
3 0 100 24 0.291435
4 0 100 24 0.145682
10 0 100 24 0.023824
14 0 100 24 0.141693
16 0 100 24 0.147307
20 0 100 24 0.132132
1 1 100 24 1
4 2 100 24 1
4 3 100 24 1
2 4 100 24 1
22 5 100 24 1
2 6 100 24 0.999264
19 6 100 24 0.000736083
2 7 100 24 0.8946
14 7 100 24 0.1054
5 8 100 24 0.998587
18 8 100 24 0.00141286
2 9 100 24 0.0635353
3 9 100 24 2.36232e-05
6 9 100 24 0.928955
14 9 100 24 0.00748559
7 10 100 24 0.333272
8 10 100 24 0.333272
9 10 100 24 0.333456
5 11 100 24 1
4 12 100 24 0.000262961
10 12 100 24 0.940956
20 12 100 24 0.0587814
10 13 100 24 1
19 14 100 24 1
2 15 100 24 0.151524
14 15 100 24 0.848476
10 16 100 24 0.000131197
11 16 100 24 0.499934
12 16 100 24 0.499934
13 17 100 24 1
14 18 100 24 0.499968
15 18 100 24 0.500032
15 19 100 24 1.19852e-05
16 19 100 24 0.999988
15 20 100 24 0.000356103
17 20 100 24 0.999644
18 21 100 24 1
1 22 100 24 0.49999
19 22 100 24 0.50001
4 23 100 24 1
15 24 100 24 0.000154835
20 24 100 24 0.999845
4 25 100 24 2.32067e-05
5 25 100 24 0.999977
4 26 100 24 2.38006e-05
5 26 100 24 0.000644237
6 26 100 24 0.133927
7 26 100 24 0.136693
8 26 100 24 0.136732
9 26 100 24 0.136678
10 26 100 24 1.01473e-05
11 26 100 24 0.13685
12 26 100 24 0.136867
13 26 100 24 0.0270792
14 26 100 24 2.31485e-06
15 26 100 24 0.00116072
16 26 100 24 1.5259e-07
17 26 100 24 0.000232686
18 26 100 24 0.000255117
19 26 100 24 0.000967957
20 26 100 24 0.0145005
21 26 100 24 0.137077
22 26 100 24 0.000269854
23 26 100 24 2.947e-05
2 27 100 24 4.85682e-06
3 27 100 24 1.46355e-05
4 27 100 24 3.90524e-05
5 27 100 24 0.000321891
6 27 100 24 0.000687777
7 27 100 24 0.000446537
8 27 100 24 0.000399512
9 27 100 24 0.000373857
10 27 100 24 2.04347e-06
11 27 100 24 0.000382767
12 27 100 24 0.000416498
13 27 100 24 0.0018978
14 27 100 24 4.53433e-06
15 27 100 24 0.302609
16 27 100 24 0.000242446
17 27 100 24 0.0631268
18 27 100 24 0.253205
19 27 100 24 0.185744
20 27 100 24 1.82025e-05
21 27 100 24 0.000790501
22 27 100 24 0.189244
23 27 100 24 2.86885e-05
4 28 100 24 4.16297e-05
5 28 100 24 0.000466987
6 28 100 24 0.000421559
7 28 100 24 0.000221643
8 28 100 24 0.000227208
9 28 100 24 0.000240749
10 28 100 24 6.872e-06
11 28 100 24 0.000239556
12 28 100 24 0.000240622
13 28 100 24 0.000709812
14 28 100 24 2.70246e-06
15 28 100 24 0.000760067
16 28 100 24 8.42921e-07
17 28 100 24 0.000576822
18 28 100 24 0.143482
19 28 100 24 0.00368733
20 28 100 24 0.000426367
21 28 100 24 0.00227995
22 28 100 24 0.00432669
23 28 100 24 0.841641
4 29 100 24 1.89131e-05
5 29 100 24 0.000228128
6 29 100 24 0.000248959
7 29 100 24 7.47322e-05
8 29 100 24 6.76872e-05
9 29 100 24 6.6859e-05
11 29 100 24 6.57468e-05
12 29 100 24 7.67486e-05
13 29 100 24 0.000229005
15 29 100 24 0.000281963
17 29 100 24 0.000204224
18 29 100 24 0.000239087
19 29 100 24 0.231694
21 29 100 24 0.00192412
22 29 100 24 1.22233e-05
23 29 100 24 4.15229e-06
24 29 100 24 0.764564
2 30 100 24 0.169766
3 30 100 24 0.0544491
10 30 100 24 0.0156233
14 30 100 24 0.465829
15 30 100 24 0.000377209
16 30 100 24 0.159154
20 30 100 24 0.134802
15 31 100 24 0.070373
19 31 100 24 0.569141
21 31 100 24 0.360486
2 32 100 24 0.00106502
3 32 100 24 0.000652255
10 32 100 24 0.0082909
14 32 100 24 0.00493572
16 32 100 24 0.00185307
20 32 100 24 0.982373
21 32 100 24 0.000468582
24 32 100 24 0.000361718
13 33 100 24 0.0101437
15 33 100 24 0.0174335
16 33 100 24 0.0316829
19 33 100 24 0.418838
21 33 100 24 0.47433
22 33 100 24 0.0246004
23 33 100 24 0.0229718
2 34 100 24 0.449115
3 34 100 24 0.000224422
10 34 100 24 1.22032e-05
14 34 100 24 0.548655
16 34 100 24 0.000422218
19 34 100 24 3.50238e-06
20 34 100 24 0.00156266
21 34 100 24 4.8466e-06
4 35 100 24 8.39269e-07
5 35 100 24 3.07094e-06
6 35 100 24 2.1722e-06
7 35 100 24 4.57968e-07
8 35 100 24 4.11107e-07
9 35 100 24 4.58429e-07
11 35 100 24 5.38714e-07
12 35 100 24 7.13682e-07
13 35 100 24 2.96192e-06
15 35 100 24 7.7655e-06
17 35 100 24 3.00874e-06
18 35 100 24 3.01095e-06
19 35 100 24 0.000916479
21 35 100 24 0.33126
22 35 100 24 0.333936
23 35 100 24 0.333862
24 36 100 24 1
2 0 100 25 0.00178468
7 0 100 25 0.0217912
12 0 100 25 0.889222
18 0 100 25 0.0872023
1 1 100 25 1
3 2 100 25 1
3 3 100 25 0.0019156
4 3 100 25 0.998084
2 4 100 25 1
5 5 100 25 1
5 6 100 25 1
18 7 100 25 1
5 8 100 25 1
6 9 100 25 1
7 10 100 25 1
8 11 100 25 1
12 12 100 25 1
9 13 100 25 1
10 14 100 25 1
11 15 100 25 1
22 16 100 25 1
13 17 100 25 1
14 18 100 25 1
15 19 100 25 1
16 20 100 25 1
17 21 100 25 1
18 22 100 25 1
19 23 100 25 1
20 24 100 25 0.5
21 24 100 25 0.5
22 25 100 25 1
23 26 100 25 1
7 27 100 25 0.00210511
14 27 100 25 0.000355298
18 27 100 25 0.990204
23 27 100 25 0.00416616
24 27 100 25 0.00316933
17 28 100 25 6.99133e-06
19 28 100 25 0.00392465
20 28 100 25 9.52113e-05
21 28 100 25 3.45348e-06
23 28 100 25 1.96891e-06
24 28 100 25 0.995968
25 29 100 25 1
2 0 100 27 0.487994
7 0 100 27 0.0180942
9 0 100 27 0.00272794
11 0 100 27 0.488456
23 0 100 27 0.00272794
5 1 100 27 1
7 2 100 27 1
6 3 100 27 1
6 4 100 27 1
2 5 100 27 0.710773
11 5 100 27 0.289227
6 6 100 27 1
6 7 100 27 1
7 8 100 27 1
8 9 100 27 1
9 10 100 27 1
9 11 100 27 1
10 12 100 27 0.333333
12 12 100 27 0.333333
13 12 100 27 0.333333
14 13 100 27 1
8 14 100 27 1
11 15 100 27 1
7 16 100 27 0.889501
11 16 100 27 0.110499
15 17 100 27 1
16 18 100 27 1
17 19 100 27 0.5
18 19 100 27 0.5
7 20 100 27 1
7 21 100 27 1
19 22 100 27 1
20 23 100 27 1
21 24 100 27 1
22 25 100 27 1
24 26 100 27 1
23 27 100 27 1
23 28 100 27 1
1 29 100 27 5.79259e-05
3 29 100 27 5.94228e-05
4 29 100 27 0.00069829
5 29 100 27 2.65926e-05
6 29 100 27 0.00125129
18 29 100 27 7.85402e-06
21 29 100 27 1.30927e-05
24 29 100 27 0.98616
25 29 100 27 0.011631
26 29 100 27 9.46309e-05
1 30 100 27 0.00259517
3 30 100 27 0.00244636
4 30 100 27 0.0611322
5 30 100 27 0.000840571
6 30 100 27 0.041789
18 30 100 27 6.49918e-05
21 30 100 27 7.18818e-05
24 30 100 27 0.773727
25 30 100 27 0.11472
26 30 100 27 0.00261246
2 31 100 27 0.0552608
4 31 100 27 7.15786e-05
5 31 100 27 0.00999041
6 31 100 27 0.000234596
7 31 100 27 0.926145
9 31 100 27 7.77537e-05
11 31 100 27 0.00652474
21 31 100 27 0.000184653
22 31 100 27 0.000563301
23 31 100 27 0.000947288
2 32 100 27 3.3465e-05
3 32 100 27 3.86592e-06
4 32 100 27 0.00112533
5 32 100 27 0.996015
6 32 100 27 0.00275447
14 32 100 27 2.53393e-06
24 32 100 27 1.97867e-05
25 32 100 27 4.19609e-05
26 32 100 27 3.29827e-06
2 33 100 27 0.953128
3 33 100 27 0.000820022
4 33 100 27 0.0021983
5 33 100 27 0.016838
6 33 100 27 0.00810823
11 33 100 27 0.0159453
14 33 100 27 6.53352e-05
21 33 100 27 6.20742e-05
23 33 100 27 0.000126105
24 33 100 27 0.00105025
25 33 100 27 0.00133823
26 33 100 27 0.000320261
1 34 100 27 0.200606
2 34 100 27 5.92085e-07
3 34 100 27 0.200603
4 34 100 27 0.200066
5 34 100 27 1.81961e-05
6 34 100 27 0.000187684
24 34 100 27 0.000254501
25 34 100 27 0.197663
26 34 100 27 0.200601
27 35 100 27 1
1 0 100 29 1.67162e-06
6 0 100 29 0.138958
8 0 100 29 0.150827
14 0 100 29 0.14924
15 0 100 29 0.111065
20 0 100 29 0.149505
22 0 100 29 0.14958
24 0 100 29 0.150824
1 1 100 29 0.999847
6 1 100 29 0.000152765
3 2 100 29 1
4 3 100 29 1
15 4 100 29 0.499953
20 4 100 29 0.500047
1 5 100 29 0.540112
6 5 100 29 0.459888
3 6 100 29 1
15 7 100 29 0.499953
20 7 100 29 0.500047
1 8 100 29 0.540112
6 8 100 29 0.459888
3 9 100 29 1
5 10 100 29 0.5
7 10 100 29 0.5
6 11 100 29 0.942437
22 11 100 29 0.0575627
9 12 100 29 1
10 13 100 29 0.333506
11 13 100 29 0.333506
12 13 100 29 0.332988
18 14 100 29 1
8 15 100 29 0.150455
14 15 100 29 0.849545
13 16 100 29 1
3 17 100 29 0.645026
12 17 100 29 0.354974
1 18 100 29 1
2 19 100 29 1
14 20 100 29 0.000127909
15 20 100 29 0.987642
20 20 100 29 0.0122297
9 21 100 29 1
16 22 100 29 1
14 23 100 29 0.184736
15 23 100 29 0.815264
8 24 100 29 0.0165389
14 24 100 29 0.964484
24 24 100 29 0.0189768
17 25 100 29 1
15 26 100 29 0.5
20 26 100 29 0.5
18 27 100 29 1
18 28 100 29 1
18 29 100 29 1
18 30 100 29 0.603588
28 30 100 29 0.396412
3 31 100 29 9.55747e-06
4 31 100 29 1.06142e-05
12 31 100 29 2.85934e-05
13 31 100 29 0.000117352
16 31 100 29 4.50563e-05
17 31 100 29 0.000118224
18 31 100 29 0.991785
19 31 100 29 0.0078114
21 31 100 29 1.19331e-05
23 31 100 29 9.1019e-06
25 31 100 29 1.13798e-05
26 31 100 29 1.88396e-05
27 31 100 29 2.32229e-05
3 32 100 29 2.15234e-05
4 32 100 29 2.6769e-05
12 32 100 29 8.85956e-05
13 32 100 29 0.000473421
16 32 100 29 0.000123244
17 32 100 29 0.000476375
18 32 100 29 0.959356
19 32 100 29 0.0390731
21 32 100 29 8.05099e-05
23 32 100 29 5.66759e-05
25 32 100 29 5.80051e-05
26 32 100 29 8.34844e-05
27 32 100 29 8.20268e-05
6 33 100 29 0.00123215
14 33 100 29 2.88608e-06
15 33 100 29 1.83276e-05
20 33 100 29 1.45018e-05
22 33 100 29 0.99873
24 33 100 29 2.28362e-06
3 34 100 29 0.00236091
4 34 100 29 0.00219852
7 34 100 29 0.000163263
10 34 100 29 0.000189771
11 34 100 29 0.000212396
12 34 100 29 0.00349308
13 34 100 29 0.0162514
16 34 100 29 0.000925307
17 34 100 29 0.00246496
18 34 100 29 0.860187
19 34 100 29 0.105988
21 34 100 29 0.00120598
23 34 100 29 0.000981062
25 34 100 29 0.000866293
26 34 100 29 0.00113312
27 34 100 29 0.00137783
12 35 100 29 0.000138886
13 35 100 29 0.000518654
16 35 100 29 0.000125381
17 35 100 29 0.000254781
18 35 100 29 0.907653
19 35 100 29 0.0870088
21 35 100 29 0.000950788
23 35 100 29 0.000842656
25 35 100 29 0.000789221
26 35 100 29 0.000926821
27 35 100 29 0.000705108
28 35 100 29 8.61986e-05
14 36 100 29 0.040198
15 36 100 29 0.0732312
20 36 100 29 0.328351
22 36 100 29 0.298743
24 36 100 29 0.166492
29 36 100 29 0.0929854
12 37 100 29 2.11058e-05
13 37 100 29 9.34803e-05
16 37 100 29 2.05285e-05
17 37 100 29 3.20194e-05
18 37 100 29 0.973912
19 37 100 29 0.0237905
21 37 100 29 0.00050129
23 37 100 29 0.000439348
25 37 100 29 0.000390411
26 37 100 29 0.000413809
27 37 100 29 0.000290849
28 37 100 29 9.45973e-05
14 38 100 29 0.00357565
15 38 100 29 0.118492
16 38 100 29 0.000124046
20 38 100 29 0.838923
22 38 100 29 0.00203811
24 38 100 29 0.0359453
28 38 100 29 0.000902194
12 39 100 29 1.27636e-05
13 39 100 29 6.62762e-05
16 39 100 29 1.24407e-05
17 39 100 29 1.59381e-05
18 39 100 29 0.968821
19 39 100 29 0.0250016
20 39 100 29 9.74034e-06
21 39 100 29 0.00143789
23 39 100 29 0.00141863
24 39 100 29 1.48817e-05
25 39 100 29 0.00111533
26 39 100 29 0.00104479
27 39 100 29 0.000736084
28 39 100 29 0.000293204
8 40 100 29 0.00141361
14 40 100 29 0.00281105
15 40 100 29 0.0137718
20 40 100 29 0.765971
22 40 100 29 0.0113411
24 40 100 29 0.204405
28 40 100 29 0.00028691
12 41 100 29 2.10792e-07
13 41 100 29 1.01802e-06
16 41 100 29 2.44257e-07
17 41 100 29 3.90766e-07
18 41 100 29 0.00040801
19 41 100 29 0.14002
20 41 100 29 4.12271e-06
21 41 100 29 0.143251
23 41 100 29 0.143254
24 41 100 29 6.69422e-06
25 41 100 29 0.143263
26 41 100 29 0.143262
27 41 100 29 0.143273
28 41 100 29 0.143256
24 42 100 29 1.52286e-06
29 42 100 29 0.999998
4 0 100 30 0.286102
12 0 100 30 0.289985
18 0 100 30 0.0781685
20 0 100 30 0.0482578
21 0 100 30 0.00749498
22 0 100 30 0.289991
3 1 100 30 0.413088
21 1 100 30 0.586912
1 2 100 30 0.99817
3 2 100 30 0.00182976
1 3 100 30 0.986642
2 3 100 30 0.000127143
4 3 100 30 0.013231
2 4 100 30 1
2 5 100 30 0.500375
3 5 100 30 0.499625
4 6 100 30 0.99994
21 6 100 30 1.79429e-05
24 6 100 30 4.23064e-05
5 7 100 30 1
6 8 100 30 0.5
7 8 100 30 0.5
8 9 100 30 1
8 10 100 30 0.333333
14 10 100 30 0.333333
15 10 100 30 0.333333
9 11 100 30 0.999989
20 11 100 30 1.1074e-05
3 12 100 30 3.75424e-05
21 12 100 30 0.999963
16 13 100 30 0.357468
17 13 100 30 0.357543
20 13 100 30 0.284989
9 14 100 30 0.00176447
10 14 100 30 0.998236
10 15 100 30 0.0235461
11 15 100 30 0.976454
12 16 100 30 0.5
13 16 100 30 0.5
13 17 100 30 0.998589
14 17 100 30 0.00141102
18 18 100 30 1
19 19 100 30 1
14 20 100 30 0.0580911
22 20 100 30 0.941909
12 21 100 30 9.89522e-06
15 21 100 30 0.499995
16 21 100 30 0.499995
14 22 100 30 1
17 23 100 30 0.268078
18 23 100 30 0.195778
23 23 100 30 0.268078
24 23 100 30 0.268067
19 24 100 30 0.500003
25 24 100 30 0.499997
16 25 100 30 0.00033495
17 25 100 30 0.000133641
20 25 100 30 0.999531
26 26 100 30 1
9 27 100 30 7.1953e-05
21 27 100 30 0.500251
23 27 100 30 0.499677
25 28 100 30 0.572435
26 28 100 30 0.427565
19 29 100 30 0.144523
21 29 100 30 0.0328146
23 29 100 30 0.822662
24 30 100 30 0.25
27 30 100 30 0.25
28 30 100 30 0.25
29 30 100 30 0.25
25 31 100 30 1
18 32 100 30 1.93011e-06
22 32 100 30 5.70104e-06
25 32 100 30 1.95612e-05
26 32 100 30 0.496245
27 32 100 30 1.96158e-05
30 32 100 30 0.503709
18 33 100 30 0.00126947
26 33 100 30 0.998617
27 33 100 30 0.000114
19 34 100 30 1.98007e-06
21 34 100 30 1.30465e-05
23 34 100 30 5.8491e-05
24 34 100 30 5.82506e-05
25 34 100 30 0.000160839
26 34 100 30 0.000614076
27 34 100 30 0.99644
28 34 100 30 0.00253938
29 34 100 30 0.000114223
18 35 100 30 0.999787
22 35 100 30 0.000213159
21 36 100 30 1.29513e-06
23 36 100 30 5.93862e-06
24 36 100 30 7.57381e-06
25 36 100 30 1.85034e-05
26 36 100 30 2.27029e-05
27 36 100 30 0.00184832
28 36 100 30 0.498426
29 36 100 30 0.49967
30 37 100 30 1
2 0 100 31 0.0206754
3 0 100 31 0.134901
9 0 100 31 0.00319091
11 0 100 31 5.5995e-06
12 0 100 31 0.135992
14 0 100 31 2.23481e-05
15 0 100 31 0.134693
16 0 100 31 0.0218303
17 0 100 31 7.65327e-06
18 0 100 31 0.132053
20 0 100 31 0.134915
21 0 100 31 0.134623
23 0 100 31 0.0121698
27 0 100 31 0.134915
29 0 100 31 6.09643e-06
1 1 100 31 0.351242
2 1 100 31 0.648695
12 1 100 31 3.79692e-05
15 1 100 31 2.45937e-05
1 2 100 31 0.333349
3 2 100 31 0.333355
4 2 100 31 0.333296
1 3 100 31 0.25
2 3 100 31 0.25
3 3 100 31 0.25
5 3 100 31 0.25
4 4 100 31 0.333333
5 4 100 31 0.333333
6 4 100 31 0.333333
7 5 100 31 0.993645
14 5 100 31 0.00635467
7 6 100 31 0.499968
8 6 100 31 0.500032
9 7 100 31 0.598775
10 7 100 31 0.401167
18 7 100 31 5.84758e-05
4 8 100 31 0.000173927
10 8 100 31 0.00484781
14 8 100 31 0.994946
30 8 100 31 3.1868e-05
11 9 100 31 0.659606
15 9 100 31 0.340394
10 10 100 31 0.499683
16 10 100 31 0.00121952
18 10 100 31 0.499098
1 11 100 31 8.66701e-05
11 11 100 31 0.999913
8 12 100 31 0.327281
11 12 100 31 0.0203498
12 12 100 31 0.324613
13 12 100 31 0.327282
14 12 100 31 0.000473744
16 13 100 31 1
15 14 100 31 0.976539
18 14 100 31 0.0129925
21 14 100 31 0.0104681
6 15 100 31 0.50615
12 15 100 31 1.0862e-05
16 15 100 31 0.492179
17 15 100 31 0.00165982
7 16 100 31 0.00472135
13 16 100 31 0.498589
14 16 100 31 0.49669
9 17 100 31 0.000102097
12 17 100 31 0.492087
16 17 100 31 0.497525
18 17 100 31 0.0102858
17 18 100 31 0.666295
19 18 100 31 0.333705
2 19 100 31 1.94729e-05
12 19 100 31 5.25298e-05
15 19 100 31 0.999928
16 20 100 31 0.173245
19 20 100 31 0.206689
20 20 100 31 0.413378
22 20 100 31 0.206689
3 21 100 31 7.382e-05
21 21 100 31 0.597428
23 21 100 31 0.402498
17 22 100 31 0.883414
21 22 100 31 0.116586
18 23 100 31 0.231291
22 23 100 31 0.231291
23 23 100 31 0.306126
24 23 100 31 0.231291
19 24 100 31 0.5
25 24 100 31 0.5
7 25 100 31 6.75995e-05
15 25 100 31 2.41858e-05
21 25 100 31 0.999908
24 26 100 31 1
25 27 100 31 0.333297
26 27 100 31 0.666703
21 28 100 31 7.69752e-06
22 28 100 31 0.499996
28 28 100 31 0.499996
29 29 100 31 1
27 30 100 31 0.5
28 30 100 31 0.5
12 31 100 31 3.80636e-06
23 31 100 31 0.249981
24 31 100 31 0.249981
25 31 100 31 0.250032
26 31 100 31 0.250001
30 32 100 31 1
19 33 100 31 1.63026e-06
21 33 100 31 3.37009e-06
22 33 100 31 0.000117641
23 33 100 31 0.000127974
24 33 100 31 8.07526e-05
25 33 100 31 8.78688e-05
26 33 100 31 0.000812112
27 33 100 31 0.000728858
28 33 100 31 2.6552e-06
29 33 100 31 0.442955
30 33 100 31 0.277275
31 33 100 31 0.277807
20 34 100 31 2.83991e-05
31 34 100 31 0.999972
19 35 100 31 1.96138e-06
21 35 100 31 5.97033e-06
22 35 100 31 0.000308243
23 35 100 31 0.000276295
24 35 100 31 0.000108505
25 35 100 31 0.000131786
26 35 100 31 0.0174875
27 35 100 31 0.981577
28 35 100 31 5.78451e-05
29 35 100 31 2.53196e-05
30 35 100 31 1.99727e-05
7 36 100 31 0.000890413
12 36 100 31 0.00511864
16 36 100 31 0.993097
20 36 100 31 0.000876744
26 36 100 31 1.74942e-05
16 37 100 31 0.992219
20 37 100 31 0.00282409
31 37 100 31 0.00495714
22 38 100 31 0.00675824
23 38 100 31 0.00757234
24 38 100 31 0.00331474
25 38 100 31 0.00422419
26 38 100 31 0.36435
27 38 100 31 0.541695
28 38 100 31 0.023755
29 38 100 31 0.0172043
30 38 100 31 0.0311267
20 39 100 31 0.379014
26 39 100 31 0.15936
27 39 100 31 0.424498
28 39 100 31 0.0124521
29 39 100 31 0.00958415
30 39 100 31 0.0150923
26 40 100 31 0.28557
27 40 100 31 0.471839
28 40 100 31 0.0901195
29 40 100 31 0.0757867
30 40 100 31 0.0766848
22 41 100 31 2.36488e-06
23 41 100 31 5.58104e-06
24 41 100 31 2.83686e-06
25 41 100 31 4.61604e-06
26 41 100 31 0.00212358
27 41 100 31 0.0652195
28 41 100 31 0.621669
29 41 100 31 0.246399
30 41 100 31 0.0645731
4 42 100 31 1.85341e-06
7 42 100 31 3.61702e-06
13 42 100 31 3.35322e-06
26 42 100 31 0.000164745
27 42 100 31 0.000455091
28 42 100 31 0.00040843
29 42 100 31 0.00490878
30 42 100 31 0.994054
31 43 100 31 1
5 0 100 33 0.000752837
11 0 100 33 0.241053
12 0 100 33 0.039227
15 0 100 33 1.09577e-05
17 0 100 33 0.241053
21 0 100 33 0.236928
29 0 100 33 0.240976
3 1 100 33 1
15 2 100 33 1
1 3 100 33 0.5
2 3 100 33 0.5
3 4 100 33 0.499665
4 4 100 33 0.500335
5 5 100 33 0.999985
29 5 100 33 1.48621e-05
5 6 100 33 1
6 7 100 33 1
7 8 100 33 1
8 9 100 33 1
8 10 100 33 1
10 11 100 33 1
9 12 100 33 1
15 13 100 33 1
10 14 100 33 1
12 15 100 33 1
13 16 100 33 0.5
14 16 100 33 0.5
15 17 100 33 1
15 18 100 33 1
16 19 100 33 1
12 20 100 33 1
18 21 100 33 1
19 22 100 33 1
21 23 100 33 0.982575
29 23 100 33 0.0174252
15 24 100 33 1
19 25 100 33 0.978566
20 25 100 33 0.0214336
10 26 100 33 0.161719
15 26 100 33 0.0284607
16 26 100 33 0.00699908
18 26 100 33 0.279145
19 26 100 33 0.354813
20 26 100 33 0.0348709
22 26 100 33 0.026485
23 26 100 33 0.0229367
24 26 100 33 0.0418439
25 26 100 33 0.0301303
31 26 100 33 0.0125964
19 27 100 33 0.978566
20 27 100 33 0.0214336
21 28 100 33 0.982575
29 28 100 33 0.0174252
20 29 100 33 0.248359
22 29 100 33 0.250547
23 29 100 33 0.250547
24 29 100 33 0.250547
25 30 100 33 1
11 31 100 33 0.000885285
12 31 100 33 0.998714
17 31 100 33 0.000401165
25 32 100 33 1
15 33 100 33 1
15 34 100 33 1
16 35 100 33 1.9772e-06
18 35 100 33 3.75571e-05
19 35 100 33 8.45435e-05
20 35 100 33 2.6791e-05
22 35 100 33 2.88872e-05
23 35 100 33 4.2632e-05
24 35 100 33 0.00299503
25 35 100 33 0.221401
26 35 100 33 0.770103
27 35 100 33 0.00391424
28 35 100 33 0.000823838
30 35 100 33 0.000521951
31 35 100 33 6.74129e-06
32 35 100 33 1.19224e-05
16 36 100 33 3.6107e-07
18 36 100 33 8.62436e-06
19 36 100 33 1.21927e-05
20 36 100 33 2.58118e-06
22 36 100 33 2.72368e-06
23 36 100 33 4.28736e-06
24 36 100 33 0.000181328
25 36 100 33 0.000424933
26 36 100 33 0.00166268
27 36 100 33 0.331704
28 36 100 33 0.333083
30 36 100 33 0.332857
31 36 100 33 2.9864e-05
32 36 100 33 2.64687e-05
24 37 100 33 8.01861e-06
25 37 100 33 8.39072e-06
26 37 100 33 1.35246e-05
27 37 100 33 1.45017e-05
28 37 100 33 1.73892e-05
30 37 100 33 0.000807699
31 37 100 33 0.998814
32 37 100 33 0.000316604
18 38 100 33 8.74343e-06
19 38 100 33 1.29456e-05
20 38 100 33 2.1338e-06
22 38 100 33 2.20838e-06
23 38 100 33 3.4942e-06
24 38 100 33 0.000108056
25 38 100 33 0.000119851
26 38 100 33 0.000150363
27 38 100 33 0.000171906
28 38 100 33 0.00017069
30 38 100 33 0.000467754
31 38 100 33 0.000237147
32 38 100 33 0.998545
33 39 100 33 1
8 0 100 35 9.76608e-06
16 0 100 35 0.332595
25 0 100 35 8.05195e-06
27 0 100 35 0.00232501
28 0 100 35 0.332468
30 0 100 35 0.332595
1 1 100 35 0.99982
3 1 100 35 0.000179898
1 2 100 35 1
2 3 100 35 1
3 4 100 35 1
4 5 100 35 1
5 6 100 35 1
16 7 100 35 1
1 8 100 35 1
6 9 100 35 1
7 10 100 35 1
8 11 100 35 1
8 12 100 35 1
9 13 100 35 1
10 14 100 35 1
11 15 100 35 1
12 16 100 35 1
13 17 100 35 0.333333
14 17 100 35 0.333333
15 17 100 35 0.333333
17 18 100 35 1
17 19 100 35 1
28 20 100 35 1
8 21 100 35 0.998072
25 21 100 35 0.00192802
18 22 100 35 1
19 23 100 35 1
20 24 100 35 1
21 25 100 35 1
21 26 100 35 1
25 27 100 35 1
21 28 100 35 1
28 29 100 35 1
22 30 100 35 1
27 31 100 35 1
27 32 100 35 1
8 33 100 35 0.0319335
25 33 100 35 0.812405
28 33 100 35 0.155662
22 34 100 35 1
22 35 100 35 1
23 36 100 35 0.5
24 36 100 35 0.5
8 37 100 35 4.04086e-05
25 37 100 35 0.999245
28 37 100 35 0.000258341
30 37 100 35 1.15209e-06
32 37 100 35 0.000455172
21 38 100 35 3.21419e-05
22 38 100 35 0.000133518
23 38 100 35 7.03363e-05
24 38 100 35 0.000157914
25 38 100 35 7.82842e-06
26 38 100 35 0.321716
27 38 100 35 0.0330261
29 38 100 35 0.321848
30 38 100 35 1.75386e-06
31 38 100 35 0.320784
32 38 100 35 0.00173881
33 38 100 35 0.0003238
34 38 100 35 0.000158836
21 39 100 35 1.68803e-05
22 39 100 35 5.65752e-05
23 39 100 35 2.09087e-05
24 39 100 35 3.59573e-05
25 39 100 35 1.27763e-06
26 39 100 35 0.000253772
27 39 100 35 0.000333193
29 39 100 35 0.000340569
31 39 100 35 0.00147363
32 39 100 35 0.331271
33 39 100 35 0.333008
34 39 100 35 0.333188
35 40 100 35 1
