2 0.240789 0.4709 0.288309 0 0 0 0 0 0 0 
3 0.398298 0.465581 0.0657908 0.0353184 0.0350113 0 0 0 0 0 
4 0.411824 0.476063 0.0468061 0.0327957 0.0325105 0 0 0 0 0 
5 0.177193 0.519098 0.274912 0.0287957 0 0 0 0 0 0 
6 0.416162 0.40765 0.118269 0 0.0289593 0 0 0.0289594 0 0 
7 0.398298 0.480965 0.0504062 0.0353184 0.0350113 0 0 0 0 0 
8 0.260458 0.555094 0.0921397 0.0923075 0 0 0 0 0 0 
9 0.286718 0.531629 0.0907436 0.0909089 0 0 0 0 0 0 
10 0.282692 0.688459 0 0.0288483 0 0 0 0 0 0 
11 0.89326 0.0799843 0.026756 0 0 0 0 0 0 0 
12 0.817174 0.135488 0.0473376 0 0 0 0 0 0 0 
13 0.124751 0.61498 0.172748 0.087521 0 0 0 0 0 0 
14 0.217429 0.470005 0.312565 0 0 0 0 0 0 0 
15 0.857134 0.103917 0.0389486 0 0 0 0 0 0 0 
16 0.124751 0.630364 0.157363 0.087521 0 0 0 0 0 0 
17 0.746469 0.235511 1.57921e-05 0.00899503 0 5.16626e-06 0.00900388 0 0 0 
18 0.361834 0.638073 9.17165e-05 0 0 0 0 0 0 0 
19 0.190617 0.528118 0.250482 0.030782 0 0 0 0 0 0 
20 0.18283 0.787291 0 0.0298786 0 0 0 0 0 0 
21 0.23273 0.470088 0.29718 0 0 0 0 0 0 0 
22 0.377157 0.62275 9.17165e-05 0 0 0 0 0 0 0 
23 0.742591 0.22359 1.69365e-05 0.00964685 0 1.38248e-05 0.0241408 0 0 0 
24 0.738804 0.241585 1.7448e-05 0.00978871 0 5.62211e-06 0.00979833 0 0 0 
25 0.41368 0.465584 0.0504062 0.0353184 0.0350113 0 0 0 0 0 
26 0.804941 0.180405 1.2842e-05 0.00731464 0 4.20114e-06 0.00732183 0 0 0 
27 0.229285 0.478036 0.292678 0 0 0 0 0 0 0 
28 0.193541 0.536252 0.238951 0.0312556 0 0 0 0 0 0 
29 0.431546 0.392266 0.118269 0 0.0289593 0 0 0.0289594 0 0 
30 0.361834 0.638073 9.17165e-05 0 0 0 0 0 0 0 
31 0.178165 0.551617 0.238962 0.0312556 0 0 0 0 0 0 
32 0.706046 0.277285 1.46163e-05 0.00832041 0 4.77879e-06 0.00832858 0 0 0 
33 0.738806 0.241584 1.71856e-05 0.00978871 0 5.62211e-06 0.00979834 0 0 0 
34 0.17831 0.551483 0.238951 0.0312556 0 0 0 0 0 0 
35 0.734921 0.245174 2.012e-05 0.00993481 0 5.70602e-06 0.00994458 0 0 0 
36 0.416165 0.407646 0.118269 0 0.0289593 0 0 0.0289593 0 0 
37 0.0485538 0.842044 0 0.109402 0 0 0 0 0 0 
38 0.819843 0.133537 0.0466203 0 0 0 0 0 0 0 
39 0.842143 0.113263 0.0445933 0 0 0 0 0 0 0 
40 0.0485502 0.826663 0 0.124786 0 0 0 0 0 0 
41 0.730891 0.248904 1.77063e-05 0.0100853 0 5.79248e-06 0.0100953 0 0 0 
42 0.389663 0.61025 8.63996e-05 0 0 0 0 0 0 0 
43 0.356426 0.643483 9.03323e-05 0 0 0 0 0 0 0 
44 0.217429 0.48539 0.29718 0 0 0 0 0 0 0 
45 0.217429 0.48539 0.29718 0 0 0 0 0 0 0 
46 0.372837 0.62707 9.17165e-05 0 0 0 0 0 0 0 
47 0.834994 0.118386 0.0466203 0 0 0 0 0 0 0 
48 0.270279 0.545273 0.0921397 0.0923075 0 0 0 0 0 0 
49 0.270403 0.545149 0.0921397 0.0923075 0 0 0 0 0 0 
50 0.832455 0.120207 0.0473376 0 0 0 0 0 0 0 
51 0 0.671794 0 0 0 0.328205 0 0 0 0 
52 0.217429 0.470005 0.312565 0 0 0 0 0 0 0 
53 0.817071 0.135591 0.0473376 0 0 0 0 0 0 0 
54 0.427213 0.404371 0.113051 0 0.0276817 0 0 0.0276817 0 0 
55 0.221717 0.481101 0.29718 0 0 0 0 0 0 0 
56 0.427258 0.396554 0.118269 0 0.0289593 0 0 0.0289594 0 0 
57 0.37351 0.626405 8.39658e-05 0 0 0 0 0 0 0 
58 0.375261 0.624651 8.76702e-05 0 0 0 0 0 0 0 
59 0.124751 0.630364 0.157363 0.087521 0 0 0 0 0 0 
60 0.260458 0.53971 0.0921397 0.107692 0 0 0 0 0 0 
61 0.431153 0.451714 0.0489016 0.0342641 0.0339662 0 0 0 0 0 
62 0.217429 0.48539 0.29718 0 0 0 0 0 0 0 
63 0.825139 0.114906 0.059955 0 0 0 0 0 0 0 
64 0.416162 0.392265 0.133654 0 0.0289593 0 0 0.0289594 0 0 
65 0.0478146 0.844441 0 0.107744 0 0 0 0 0 0 
66 0.398298 0.465581 0.0657908 0.0353184 0.0350113 0 0 0 0 0 
67 0.738806 0.241584 1.71856e-05 0.00978871 0 5.62211e-06 0.00979834 0 0 0 
68 0.401334 0.481534 0.0489016 0.0342641 0.0339662 0 0 0 0 0 
69 0.398298 0.480965 0.0504062 0.0353184 0.0350113 0 0 0 0 0 
70 0.832456 0.120207 0.0473376 0 0 0 0 0 0 0 
71 0.398298 0.480965 0.0504062 0.0353184 0.0350113 0 0 0 0 0 
72 0.361834 0.638073 9.17165e-05 0 0 0 0 0 0 0 
73 0.178165 0.551628 0.238951 0.0312556 0 0 0 0 0 0 
74 0.260508 0.555044 0.0921397 0.0923075 0 0 0 0 0 0 
75 0.124751 0.630364 0.157363 0.087521 0 0 0 0 0 0 
76 0.275839 0.539713 0.0921397 0.0923075 0 0 0 0 0 0 
77 0.23281 0.470009 0.29718 0 0 0 0 0 0 0 
78 0.217429 0.470005 0.312565 0 0 0 0 0 0 0 
79 0.726751 0.237349 4.18705e-05 0.0256012 0 5.88159e-06 0.0102506 0 0 0 
80 0.837321 0.116754 0.0459245 0 0 0 0 0 0 0 
81 0.371508 0.628401 9.03269e-05 0 0 0 0 0 0 0 
82 0 0.999999 0 0 0 0 0 0 0 0 
83 0.140068 0.615047 0.157363 0.087521 0 0 0 0 0 0 
84 0.178165 0.551628 0.238951 0.0312556 0 0 0 0 0 0 
85 0.804691 0.148688 0.0466203 0 0 0 0 0 0 0 
86 0.408733 0.47236 0.0496425 0.0347833 0.0344808 0 0 0 0 0 
87 0.124751 0.630364 0.157363 0.087521 0 0 0 0 0 0 
88 0.832383 0.120279 0.0473376 0 0 0 0 0 0 0 
89 0.431088 0.392724 0.118269 0 0.0289593 0 0 0.0289593 0 0 
90 0.138012 0.620813 0.154979 0.086195 0 0 0 0 0 0 
91 0.376398 0.623509 9.17165e-05 0 0 0 0 0 0 0 
92 0.376398 0.623509 9.17165e-05 0 0 0 0 0 0 0 
93 0.431088 0.392724 0.118269 0 0.0289593 0 0 0.0289593 0 0 
94 0.231699 0.47112 0.29718 0 0 0 0 0 0 0 
95 0.0524364 0.838161 0 0.109402 0 0 0 0 0 0 
96 0.416162 0.392265 0.118269 0 0.0289593 0 0 0.044344 0 0 
97 0.440139 0.386342 0.116477 0 0.0285206 0 0 0.0285206 0 0 
98 0.217429 0.470005 0.312565 0 0 0 0 0 0 0 
99 0.260458 0.53973 0.107504 0.0923075 0 0 0 0 0 0 
100 0.217429 0.48539 0.29718 0 0 0 0 0 0 0 
101 0.256512 0.561835 0.0907436 0.0909089 0 0 0 0 0 0 
102 0.832196 0.120466 0.0473376 0 0 0 0 0 0 0 
103 0.217689 0.48513 0.29718 0 0 0 0 0 0 0 
104 0.266079 0.697547 0 0.036374 0 0 0 0 0 0 
105 0.416162 0.40765 0.118269 0 0.0289593 0 0 0.0289594 0 0 
106 0.217429 0.470005 0.312565 0 0 0 0 0 0 0 
107 0.721958 0.260022 1.57921e-05 0.00899503 0 5.16626e-06 0.00900388 0 0 0 
108 0.178165 0.551628 0.238951 0.0312556 0 0 0 0 0 0 
109 0.260458 0.555094 0.0921397 0.0923075 0 0 0 0 0 0 
110 0.223563 0.479256 0.29718 0 0 0 0 0 0 0 
111 0.271973 0.543579 0.0921397 0.0923075 0 0 0 0 0 0 
112 0.411283 0.46798 0.0504062 0.0353184 0.0350113 0 0 0 0 0 
113 0.398298 0.465581 0.0504062 0.0354528 0.0502616 0 0 0 0 0 
114 0.21909 0.483729 0.29718 0 0 0 0 0 0 0 
115 0.429885 0.393926 0.118269 0 0.0289593 0 0 0.0289594 0 0 
116 0.260458 0.555094 0.0921397 0.0923075 0 0 0 0 0 0 
117 0.178165 0.536243 0.238951 0.0466402 0 0 0 0 0 0 
118 0.398298 0.480965 0.0504062 0.0353184 0.0350113 0 0 0 0 0 
119 0.252683 0.568375 0.0893892 0.089552 0 0 0 0 0 0 
120 0.361834 0.637992 0.000173278 0 0 0 0 0 0 0 
121 0.742131 0.237354 1.79787e-05 0.0102405 0 5.88159e-06 0.0102506 0 0 0 
122 0.262026 0.559032 0.0893892 0.089552 0 0 0 0 0 0 
123 0.124751 0.630364 0.157363 0.087521 0 0 0 0 0 0 
124 0.124751 0.61498 0.172748 0.087521 0 0 0 0 0 0 
125 0.214866 0.492404 0.29273 0 0 0 0 0 0 0 
126 0.392263 0.48883 0.0496425 0.0347833 0.0344808 0 0 0 0 0 
127 0.361834 0.638073 9.17165e-05 0 0 0 0 0 0 0 
128 0.260458 0.555094 0.0921397 0.0923075 0 0 0 0 0 0 
129 0.124751 0.630364 0.157363 0.087521 0 0 0 0 0 0 
130 0.817174 0.135488 0.0473376 0 0 0 0 0 0 0 
131 0.176683 0.546139 0.246396 0.030782 0 0 0 0 0 0 
132 0.377116 0.622792 9.17165e-05 0 0 0 0 0 0 0 
133 0.817071 0.120207 0.0627222 0 0 0 0 0 0 0 
134 0.124751 0.61499 0.172737 0.087521 0 0 0 0 0 0 
135 0.825477 0.128598 0.0459245 0 0 0 0 0 0 0 
136 0.125337 0.626743 0.160398 0.087521 0 0 0 0 0 0 
137 0.430037 0.393775 0.118269 0 0.0289593 0 0 0.0289594 0 0 
138 0.411727 0.467537 0.0504062 0.0353184 0.0350113 0 0 0 0 0 
139 0.127629 0.627486 0.157363 0.087521 0 0 0 0 0 0 
140 0.22586 0.470978 0.303161 0 0 0 0 0 0 0 
141 0.398298 0.480965 0.0504062 0.0353184 0.0350113 0 0 0 0 0 
142 0.398298 0.465581 0.0504062 0.050703 0.0350113 0 0 0 0 0 
143 0 0.999999 0 0 0 0 0 0 0 0 
144 0.817071 0.120207 0.0627222 0 0 0 0 0 0 0 
145 0.361834 0.638073 9.17432e-05 0 0 0 0 0 0 0 
146 0.260458 0.555065 0.0921692 0.0923075 0 0 0 0 0 0 
147 0.410167 0.474423 0.0481824 0.0337602 0.0334667 0 0 0 0 0 
148 0.413673 0.465591 0.0504062 0.0353184 0.0350113 0 0 0 0 0 
149 0.000242307 0.802834 0 0.196923 0 0 0 0 0 0 
150 0.431539 0.392273 0.118269 0 0.0289593 0 0 0.0289593 0 0 
151 0.124751 0.630364 0.157363 0.087521 0 0 0 0 0 0 
152 0.401334 0.481534 0.0489016 0.0342641 0.0339662 0 0 0 0 0 
153 0.167837 0.57762 0.225099 0.0294437 0 0 0 0 0 0 
154 0.117519 0.651793 0.148241 0.0824474 0 0 0 0 0 0 
155 0.217429 0.48539 0.29718 0 0 0 0 0 0 0 
156 0.361834 0.638073 9.17165e-05 0 0 0 0 0 0 0 
157 0.360577 0.639335 8.76832e-05 0 0 0 0 0 0 0 
158 0.361834 0.638073 9.17165e-05 0 0 0 0 0 0 0 
159 0.217429 0.470005 0.312565 0 0 0 0 0 0 0 
160 0.792681 0.161394 0.0459248 0 0 0 0 0 0 0 
161 0.736661 0.243436 1.74444e-05 0.00993481 0 5.70602e-06 0.00994458 0 0 0 
162 0.217429 0.48539 0.29718 0 0 0 0 0 0 0 
163 0.229285 0.462887 0.307827 0 0 0 0 0 0 0 
164 0.410252 0.474337 0.0481834 0.0337602 0.0334667 0 0 0 0 0 
165 0.398298 0.480965 0.0504062 0.0353184 0.0350113 0 0 0 0 0 
166 0.217429 0.470005 0.312565 0 0 0 0 0 0 0 
167 0.817071 0.135591 0.0473376 0 0 0 0 0 0 0 
168 0.178165 0.536243 0.254335 0.0312556 0 0 0 0 0 0 
169 0.36189 0.638018 9.17204e-05 0 0 0 0 0 0 0 
170 0.190055 0.52868 0.238414 0.0428498 0 0 0 0 0 0 
171 0.416162 0.406908 0.119011 0 0.0289593 0 0 0.0289594 0 0 
172 0.000224756 0.802851 0 0.196923 0 0 0 0 0 0 
173 0.0485502 0.842047 0 0.109402 0 0 0 0 0 0 
174 0 0.999999 0 0 0 0 0 0 0 0 
175 0.214422 0.527291 0.228409 0.0298766 0 0 0 0 0 0 
176 0.398298 0.480965 0.0504062 0.0353184 0.0350113 0 0 0 0 0 
177 0.425008 0.400932 0.117019 0 0.0285206 0 0 0.0285206 0 0 
178 0.260458 0.53971 0.0921397 0.107692 0 0 0 0 0 0 
179 0.260458 0.53971 0.0921397 0.107692 0 0 0 0 0 0 
180 0.260458 0.539803 0.107431 0.0923075 0 0 0 0 0 0 
181 0.178165 0.551628 0.238951 0.0312556 0 0 0 0 0 0 
182 0.832363 0.1203 0.0473376 0 0 0 0 0 0 0 
183 0.217429 0.48539 0.29718 0 0 0 0 0 0 0 
184 0.121969 0.640456 0.152666 0.0849085 0 0 0 0 0 0 
185 0.175466 0.558421 0.23533 0.030782 0 0 0 0 0 0 
186 0.371503 0.628406 9.03269e-05 0 0 0 0 0 0 0 
187 0.720212 0.259584 1.77063e-05 0.0100853 0 5.79248e-06 0.0100953 0 0 0 
188 0.361834 0.638073 9.17165e-05 0 0 0 0 0 0 0 
189 0.124751 0.630364 0.157363 0.087521 0 0 0 0 0 0 
190 0.398298 0.465581 0.0504062 0.0353184 0.0503959 0 0 0 0 0 
191 0.412184 0.46708 0.0504062 0.0353184 0.0350113 0 0 0 0 0 
192 0.0485502 0.842047 0 0.109402 0 0 0 0 0 0 
193 0.371503 0.628406 9.03269e-05 0 0 0 0 0 0 0 
194 0.398298 0.467631 0.0637411 0.0353184 0.0350113 0 0 0 0 0 
195 0.193917 0.531299 0.24446 0.0303232 0 0 0 0 0 0 
196 0.416162 0.392268 0.133651 0 0.0289593 0 0 0.0289594 0 0 
197 0.817071 0.120207 0.0627222 0 0 0 0 0 0 0 
198 0.366887 0.633023 8.89837e-05 0 0 0 0 0 0 0 
199 0.178165 0.550649 0.23993 0.0312556 0 0 0 0 0 0 
200 0.732021 0.247775 1.77063e-05 0.0100853 0 5.79248e-06 0.0100953 0 0 0 
201 0.17859 0.551152 0.239001 0.0312556 0 0 0 0 0 0 
202 0.398321 0.480942 0.0504062 0.0353184 0.0350113 0 0 0 0 0 
203 0.124751 0.615031 0.172696 0.0875211 0 0 0 0 0 0 
204 0 0.999999 0 0 0 0 0 0 0 0 
205 0.000224756 0.787467 0 0.212308 0 0 0 0 0 0 
206 0.178165 0.551628 0.238951 0.0312556 0 0 0 0 0 0 
207 0.217429 0.48539 0.29718 0 0 0 0 0 0 0 
208 0.416162 0.392265 0.133654 0 0.0289593 0 0 0.0289594 0 0 
209 0.175466 0.558421 0.235331 0.030782 0 0 0 0 0 0 
210 0.361834 0.638073 9.17187e-05 0 0 0 0 0 0 0 
211 0.124751 0.61498 0.157363 0.102906 0 0 0 0 0 0 
212 0.178165 0.536247 0.254332 0.0312556 0 0 0 0 0 0 
213 0.416162 0.392265 0.133654 0 0.0289593 0 0 0.0289593 0 0 
214 0.260458 0.555094 0.0921397 0.0923075 0 0 0 0 0 0 
215 0.178165 0.55159 0.238989 0.0312556 0 0 0 0 0 0 
216 0.178165 0.551628 0.238951 0.0312556 0 0 0 0 0 0 
217 0.422563 0.45853 0.0496425 0.0347833 0.0344808 0 0 0 0 0 
218 0.371504 0.628405 9.03269e-05 0 0 0 0 0 0 0 
219 0.124751 0.630364 0.157363 0.087521 0 0 0 0 0 0 
220 0.726793 0.252692 1.79787e-05 0.0102405 0 5.88159e-06 0.0102506 0 0 0 
221 0.0485502 0.842047 0 0.109402 0 0 0 0 0 0 
222 0.236273 0.70973 0 0.053997 0 0 0 0 0 0 
223 0.361834 0.638073 9.17165e-05 0 0 0 0 0 0 0 
224 0.217429 0.470009 0.312561 0 0 0 0 0 0 0 
225 0.178165 0.551628 0.238951 0.0312556 0 0 0 0 0 0 
226 0.193545 0.536247 0.238951 0.0312556 0 0 0 0 0 0 
227 0.236273 0.725115 0 0.0386124 0 0 0 0 0 0 
228 0.124751 0.61498 0.157363 0.102905 0 0 0 0 0 0 
229 0 0.999999 0 0 0 0 0 0 0 0 
230 0.425009 0.401472 0.116477 0 0.0285206 0 0 0.0285206 0 0 
231 0.416162 0.407647 0.118272 0 0.0289593 0 0 0.0289594 0 0 
232 0.217429 0.47028 0.31229 0 0 0 0 0 0 0 
233 0.124751 0.630364 0.157363 0.087521 0 0 0 0 0 0 
234 0.178165 0.536244 0.254334 0.0312556 0 0 0 0 0 0 
235 0.416265 0.466603 0.0489016 0.0342641 0.0339662 0 0 0 0 0 
236 0.217429 0.485388 0.297182 0 0 0 0 0 0 0 
237 0.217429 0.470057 0.312513 0 0 0 0 0 0 0 
238 0.260458 0.555094 0.0921397 0.0923075 0 0 0 0 0 0 
239 0.178165 0.536243 0.254336 0.0312556 0 0 0 0 0 0 
240 0 0.671794 0 0 0 0.328205 0 0 0 0 
241 0.217429 0.48539 0.29718 0 0 0 0 0 0 0 
242 0.361834 0.638073 9.17165e-05 0 0 0 0 0 0 0 
243 0.178165 0.551628 0.238951 0.0312556 0 0 0 0 0 0 
244 0.217429 0.485368 0.297202 0 0 0 0 0 0 0 
245 0.137993 0.620833 0.154979 0.086195 0 0 0 0 0 0 
246 0.124751 0.615 0.172728 0.087521 0 0 0 0 0 0 
247 0.124751 0.630364 0.157363 0.087521 0 0 0 0 0 0 
248 0.416162 0.40765 0.118269 0 0.0289593 0 0 0.0289594 0 0 
249 0.217429 0.48539 0.29718 0 0 0 0 0 0 0 
250 0.124751 0.61498 0.172748 0.087521 0 0 0 0 0 0 
251 0.398298 0.480965 0.0504062 0.0353184 0.0350113 0 0 0 0 0 
252 0.124751 0.630364 0.157363 0.087521 0 0 0 0 0 0 
253 0.178165 0.536243 0.254335 0.0312556 0 0 0 0 0 0 
254 0.000224756 0.802851 0 0.196923 0 0 0 0 0 0 
255 0.416162 0.392265 0.118269 0 0.044344 0 0 0.0289593 0 0 
256 0.178165 0.551628 0.238951 0.0312556 0 0 0 0 0 0 
257 0.178165 0.536353 0.254226 0.0312556 0 0 0 0 0 0 
258 0.140042 0.615073 0.157363 0.087521 0 0 0 0 0 0 
259 0.135426 0.619689 0.157363 0.087521 0 0 0 0 0 0 
260 0.375665 0.624242 9.17165e-05 0 0 0 0 0 0 0 
261 0.190826 0.538966 0.238951 0.0312556 0 0 0 0 0 0 
262 0.133736 0.621379 0.157363 0.087521 0 0 0 0 0 0 
263 0.124751 0.61498 0.157363 0.102906 0 0 0 0 0 0 
264 0.361834 0.638073 9.17165e-05 0 0 0 0 0 0 0 
265 0.416162 0.40765 0.118269 0 0.0289593 0 0 0.0289594 0 0 
266 0.124751 0.61498 0.172748 0.087521 0 0 0 0 0 0 
267 0.275839 0.539713 0.0921397 0.0923075 0 0 0 0 0 0 
268 0.125556 0.629559 0.157363 0.087521 0 0 0 0 0 0 
269 0.430744 0.393067 0.118269 0 0.0289593 0 0 0.0289594 0 0 
270 0 0.65641 0 0 0 0.343589 0 0 0 0 
271 0.124751 0.630364 0.157363 0.087521 0 0 0 0 0 0 
272 0.403694 0.47557 0.0504062 0.0353184 0.0350113 0 0 0 0 0 
273 0.408287 0.470976 0.0504062 0.0353184 0.0350113 0 0 0 0 0 
274 0.178165 0.536243 0.254335 0.0312556 0 0 0 0 0 0 
275 0.361834 0.638073 9.17294e-05 0 0 0 0 0 0 0 
276 0.217429 0.470005 0.312565 0 0 0 0 0 0 0 
277 0.228562 0.474257 0.29718 0 0 0 0 0 0 0 
278 0.124751 0.630364 0.157363 0.087521 0 0 0 0 0 0 
279 0.416201 0.40761 0.118269 0 0.0289593 0 0 0.0289594 0 0 
280 0.178165 0.551588 0.238991 0.0312556 0 0 0 0 0 0 
281 0.416162 0.40765 0.118269 0 0.0289593 0 0 0.0289594 0 0 
282 0.260458 0.53971 0.107524 0.0923075 0 0 0 0 0 0 
283 0.831098 0.121565 0.0473376 0 0 0 0 0 0 0 
284 0.398298 0.480965 0.0504062 0.0353184 0.0350113 0 0 0 0 0 
285 0.178165 0.551628 0.238951 0.0312556 0 0 0 0 0 0 
286 0.361834 0.638073 9.17165e-05 0 0 0 0 0 0 0 
287 0.000224756 0.802851 0 0.196923 0 0 0 0 0 0 
288 0.260458 0.555094 0.0921397 0.0923075 0 0 0 0 0 0 
289 0.236273 0.70973 0 0.053997 0 0 0 0 0 0 
290 0.741005 0.23848 1.79787e-05 0.0102405 0 5.88159e-06 0.0102506 0 0 0 
291 0.362965 0.636942 9.17165e-05 0 0 0 0 0 0 0 
292 0.178165 0.551628 0.238951 0.0312556 0 0 0 0 0 0 
293 0.0514878 0.83911 0 0.109402 0 0 0 0 0 0 
294 0.274374 0.541178 0.0921397 0.0923075 0 0 0 0 0 0 
295 0.274374 0.541178 0.0921397 0.0923075 0 0 0 0 0 0 
296 0.126205 0.62891 0.157363 0.087521 0 0 0 0 0 0 
297 0.431025 0.392787 0.118269 0 0.0289593 0 0 0.0289593 0 0 
298 0.376287 0.623621 9.17165e-05 0 0 0 0 0 0 0 
299 0.817071 0.120207 0.0627222 0 0 0 0 0 0 0 
300 0.124751 0.61498 0.157363 0.102906 0 0 0 0 0 0 
301 0.398298 0.465581 0.0504062 0.050703 0.0350113 0 0 0 0 0 
