0 3 0.36592
0 4 0.269561
0 11 1.37585e-06
0 12 0.19905
0 13 9.37201e-05
0 24 6.42497e-07
0 67 0.000641762
223 232 0.999968
136 113 0.170193
136 127 0.829776
0 137 4.86784e-05
0 146 0.159983
49 44 0.999968
0 157 4.43446e-06
0 170 0.00403616
0 198 1.09598e-06
0 202 0.000169549
0 205 1.00664e-06
0 206 9.78347e-07
272 291 0.999968
185 187 0.499984
0 295 0.000455469
98 87 0.499984
98 88 0.499984
185 245 0.499984
283 38 0.999789
11 12 0.0312546
11 13 0.00128907
11 67 0.96484
234 242 0.499964
234 247 0.500004
147 137 0.999968
11 146 0.00258506
60 52 0.333323
60 53 0.333323
60 54 0.333322
283 303 0.000179892
196 200 0.500028
196 201 0.499941
109 97 0.999968
22 25 0.999968
158 58 0.999968
245 250 4.83928e-05
245 260 0.998707
245 261 0.00121321
71 64 0.999968
256 20 0.999968
294 313 0.999968
207 212 0.999968
120 110 0.994695
120 111 0.00527347
33 24 0.999968
82 2 0.999968
169 161 0.999968
131 4 0.622616
44 42 0.999968
218 303 0.999968
131 259 0.377352
267 287 0.999968
180 183 0.5015
180 184 0.498469
93 79 0.999968
6 9 0.999968
229 240 0.999968
142 130 0.333323
142 131 0.333323
142 132 0.333323
55 49 0.999968
104 38 0.500514
278 297 0.999968
191 198 0.999968
104 138 0.499455
17 19 0.999904
17 34 6.40807e-05
240 254 0.999968
153 143 0.999968
66 59 0.499984
66 60 0.499984
289 308 0.333323
289 309 0.333323
289 310 0.333323
202 206 0.999968
115 103 0.999968
164 8 0.495519
164 41 0.00244487
28 30 0.999968
251 267 0.999968
77 69 0.999968
164 201 0.502004
300 316 0.333323
300 317 0.333323
300 318 0.333323
213 221 0.499984
213 222 0.499984
126 117 0.999968
39 4 0.999968
262 280 0.999968
175 173 0.999968
88 79 0.999968
224 233 0.499953
224 234 0.500016
137 113 0.000556869
137 127 0.388382
137 128 0.61103
50 44 0.999968
235 50 0.999968
273 291 0.999968
186 188 0.999968
99 89 0.49965
99 90 0.500319
12 13 0.999968
148 140 0.999968
61 50 0.999968
284 304 0.999968
197 203 0.499984
197 204 0.499984
110 98 0.999968
23 27 0.166677
23 28 0.166677
23 29 0.166677
23 30 0.166583
23 31 0.166677
23 32 0.166676
23 34 1.9759e-06
246 250 0.500271
246 261 0.499697
159 151 0.499984
159 152 0.499984
72 65 0.999968
295 313 0.999968
208 213 0.499984
208 214 0.499984
121 112 0.999968
257 157 0.501222
34 25 0.999968
257 275 0.498747
170 167 0.352898
170 168 0.352899
170 170 0.294172
83 69 0.645006
83 76 0.354963
219 224 0.999968
132 123 0.999968
45 43 0.999968
268 287 0.999968
181 185 0.999968
94 79 0.999968
7 10 0.999968
230 241 0.999968
143 133 0.999968
56 49 0.999968
279 298 0.999968
105 49 0.999968
192 196 0.999968
18 20 0.999968
203 11 0.499148
241 255 0.999968
154 144 0.999968
67 61 0.999968
290 311 0.999968
203 194 0.500821
252 107 0.999968
116 104 0.999968
29 37 0.999968
301 156 0.333323
165 158 0.999968
78 71 0.499984
78 72 0.499984
301 273 0.333323
301 319 0.333323
214 225 0.999968
127 118 0.999968
40 38 0.333323
40 39 0.333323
40 40 0.333323
263 281 0.333323
263 282 0.333323
263 283 0.333323
176 174 0.999968
89 79 0.999968
2 2 0.999968
225 235 0.999968
138 128 0.999968
51 45 0.999968
274 292 0.499984
274 293 0.499984
187 189 0.586552
100 91 0.999968
13 14 0.499984
13 15 0.499984
187 295 0.413416
236 248 0.99984
236 249 0.000128843
149 140 0.999968
62 55 0.999968
285 305 0.999968
198 205 0.999968
111 98 0.978535
111 99 0.0214329
247 262 0.999968
160 153 0.999968
24 156 0.000129919
73 66 0.999968
296 260 0.999968
24 250 0.999838
209 215 5.91351e-06
209 216 0.999963
122 111 0.160483
35 34 0.999789
35 36 0.000179565
122 202 0.839486
258 275 0.999968
171 162 0.0460074
171 163 0.953961
84 68 0.999968
220 226 0.999968
133 124 0.499984
133 125 0.499984
46 44 0.999968
269 287 0.999968
182 184 0.999968
95 79 0.999968
8 11 0.999968
231 241 0.000111042
231 242 0.999857
144 134 0.499984
144 135 0.499984
57 121 0.999968
280 298 0.00257415
280 299 0.997394
106 94 0.499984
106 95 0.499984
19 21 0.499984
19 22 0.499984
193 276 0.999968
242 256 0.999968
155 147 0.999968
68 62 0.999968
291 311 0.999968
204 208 0.999968
117 105 0.333323
117 106 0.333323
117 107 0.333323
166 20 0.499984
30 33 0.999968
253 268 0.499984
253 269 0.499984
166 159 0.499984
79 74 0.333495
79 75 0.333495
79 76 0.332978
264 19 0.999968
215 226 0.00243742
215 228 0.997531
128 119 0.999968
41 122 0.999968
177 198 0.034503
177 199 0.965465
3 5 0.499984
3 6 0.499984
90 145 0.999968
226 233 0.722147
226 234 0.277821
139 128 0.999968
52 46 0.499984
52 47 0.499984
237 50 0.499202
275 294 0.999968
188 190 0.999968
101 92 0.999968
14 16 0.499984
14 17 0.499984
237 249 0.500767
286 152 0.999968
199 34 0.940151
150 140 0.999968
63 161 0.50002
63 181 0.499948
199 205 0.0584568
199 206 0.00136088
112 98 0.978535
112 99 0.0214329
25 37 0.999968
161 67 0.999968
248 263 0.999968
74 69 0.999968
297 260 0.999968
210 215 0.999968
123 113 0.999968
36 26 0.999968
259 280 0.999968
172 164 0.999968
85 77 0.999968
134 13 0.499815
221 227 0.999968
134 126 0.500153
270 277 0.199994
270 278 0.199994
270 279 0.199994
270 288 0.199994
270 289 0.199994
183 182 0.999968
96 80 0.142853
96 81 0.142853
96 82 0.142853
96 83 0.142853
96 84 0.142853
96 85 0.142853
96 86 0.142853
9 13 0.999968
232 243 0.495483
232 244 0.504486
145 136 0.999968
58 50 0.999968
281 300 0.999968
194 197 0.535667
194 198 0.464302
107 146 0.999968
20 23 0.999968
243 257 0.999968
156 148 0.999968
69 63 0.999968
292 312 0.999968
205 199 0.333323
205 209 0.333323
205 210 0.333323
118 108 0.999968
31 34 0.00071193
31 35 0.999256
254 270 0.999968
167 160 0.999968
80 79 0.999968
216 223 0.999968
129 120 0.999968
42 111 0.375924
265 284 0.999968
178 175 0.333323
178 176 0.333323
178 177 0.333322
42 157 0.613113
91 79 0.999968
140 13 0.332291
4 7 0.979818
42 243 0.0109316
140 86 0.667677
227 236 0.999968
276 156 0.499984
53 48 0.999968
4 186 0.0201501
276 296 0.499984
189 191 0.999968
102 93 0.999968
15 3 0.000148878
15 4 0.99982
238 251 0.999968
151 141 0.999968
200 38 0.984949
64 56 0.499984
64 57 0.499984
287 306 0.999968
200 207 0.0150192
113 99 0.248351
113 100 0.250539
113 101 0.250539
113 102 0.250539
26 4 0.999968
249 264 0.999968
162 155 0.999968
75 70 0.999968
298 260 0.999968
211 217 0.333323
211 218 0.333323
211 219 0.333323
124 114 0.499984
124 115 0.499984
37 37 0.999968
86 3 0.999968
260 280 0.999968
173 169 0.999968
222 229 0.333323
222 230 0.333323
222 231 0.333323
135 113 0.999968
48 44 0.999968
271 290 0.999968
184 186 0.999968
97 89 0.999968
10 12 0.998973
195 4 0.348653
233 246 0.999968
195 24 0.410558
146 138 0.00191554
146 139 0.998053
59 51 0.999968
10 207 0.0009955
195 146 0.240757
282 301 0.499984
282 302 0.499984
108 96 0.999968
21 25 0.999968
244 186 0.00141097
244 258 0.998557
157 149 0.999968
293 313 0.999968
206 211 0.999968
119 109 0.999968
32 67 0.999941
255 271 0.249992
255 272 0.249992
255 273 0.249992
255 274 0.249992
168 165 0.499984
168 166 0.499984
32 156 2.76446e-05
81 112 0.999968
217 226 0.999968
130 123 0.999968
43 41 0.999968
266 285 0.499984
266 286 0.499984
179 178 0.333323
179 179 0.333323
179 180 0.333323
92 79 0.999968
5 8 0.60049
228 237 0.333319
228 238 0.333325
228 239 0.333325
141 129 0.999968
5 172 0.399478
54 73 0.999968
277 295 0.999968
190 192 0.249992
190 193 0.249992
190 194 0.249992
190 195 0.249992
103 93 0.999968
16 18 0.999968
201 11 0.00336096
239 252 0.499984
239 253 0.499984
152 142 0.999968
65 58 0.499984
65 154 0.499984
288 307 0.999968
201 207 0.996607
114 103 0.999968
27 26 0.000241959
27 36 0.999726
250 265 0.499984
250 266 0.499984
163 156 0.499969
163 157 0.499999
76 69 0.999968
212 156 0.499921
299 314 0.499984
299 315 0.499984
212 220 0.500048
125 116 0.511435
125 161 0.00176441
125 162 0.486769
261 280 0.999968
38 150 0.999968
174 171 0.999968
87 78 0.999968
