0 1 16 100 0.2741
8 1 16 100 0.00971852
14 1 16 100 0.716181
15 2 16 100 1
16 3 16 100 1
16 4 16 100 1
16 5 16 100 1
16 6 16 100 1
16 7 16 100 1
0 8 16 100 9.7775e-05
6 8 16 100 0.000330348
9 8 16 100 0.999572
7 9 16 100 8.17839e-05
9 9 16 100 0.999918
0 10 16 100 0.00568711
10 10 16 100 0.994041
12 10 16 100 0.00027163
11 11 16 100 1
0 12 16 100 0.00855612
10 12 16 100 0.000271622
12 12 16 100 0.991172
0 13 16 100 1
13 14 16 100 1
0 15 16 100 1
0 16 16 100 2.20815e-05
5 16 16 100 0.999978
2 17 16 100 1
3 18 16 100 1
0 19 16 100 1
4 20 16 100 1
4 21 16 100 1
0 22 16 100 3.07823e-05
6 22 16 100 0.999969
7 23 16 100 0.999946
9 23 16 100 5.4169e-05
0 24 16 100 0.72325
1 24 16 100 1.74215e-05
5 24 16 100 1.08141e-05
7 24 16 100 0.200569
8 24 16 100 0.0749058
14 24 16 100 0.00124688
1 1 17 100 0.5
15 1 17 100 0.5
0 2 17 100 0.0354787
2 2 17 100 0.964521
3 3 17 100 0.5
16 3 17 100 0.5
4 4 17 100 0.00241847
7 4 17 100 0.497579
16 4 17 100 0.500002
0 5 17 100 0.48784
5 5 17 100 5.6389e-05
14 5 17 100 0.0121037
16 5 17 100 0.5
6 6 17 100 0.5
16 6 17 100 0.5
0 7 17 100 0.504849
11 7 17 100 0.495151
0 8 17 100 0.0192057
4 8 17 100 0.00684474
7 8 17 100 1.08673e-05
8 8 17 100 0.973925
9 8 17 100 1.34424e-05
4 9 17 100 0.5
5 9 17 100 0.5
4 10 17 100 0.500002
6 10 17 100 0.499112
14 10 17 100 0.000886146
0 11 17 100 0.000661704
3 11 17 100 0.500001
4 11 17 100 8.75316e-05
9 11 17 100 7.20276e-06
13 11 17 100 1.1798e-05
14 11 17 100 5.00212e-05
15 11 17 100 0.499181
4 12 17 100 0.000256039
7 12 17 100 0.499744
15 12 17 100 0.5
0 13 17 100 0.495414
5 13 17 100 0.000279073
13 13 17 100 0.00430722
16 13 17 100 0.5
7 14 17 100 0.5
15 14 17 100 0.5
0 15 17 100 0.351115
9 15 17 100 0.648885
0 16 17 100 0.00342878
6 16 17 100 0.0276788
9 16 17 100 0.000280418
10 16 17 100 0.968612
10 17 17 100 0.5
11 17 17 100 0.5
12 18 17 100 1
0 19 17 100 0.5
16 19 17 100 0.5
0 20 17 100 0.0319314
13 20 17 100 0.000778937
15 20 17 100 0.500002
17 20 17 100 0.467288
0 21 17 100 0.0657905
14 21 17 100 2.00855e-05
17 21 17 100 0.934189
1 1 18 100 1
0 2 18 100 0.0200304
2 2 18 100 0.97997
0 3 18 100 0.9994
15 3 18 100 0.000599974
3 4 18 100 1
4 5 18 100 1
5 6 18 100 1
5 7 18 100 1
6 8 18 100 1
10 9 18 100 1
0 10 18 100 1
12 11 18 100 1
0 12 18 100 1
0 13 18 100 0.000108488
13 13 18 100 0.999892
13 14 18 100 1
0 15 18 100 0.00253213
14 15 18 100 0.997468
14 16 18 100 1
8 17 18 100 6.0757e-05
16 17 18 100 0.999939
17 18 18 100 1
0 19 18 100 0.00178976
18 19 18 100 0.99821
1 1 19 100 0.999277
2 1 19 100 0.000723504
2 2 19 100 1
3 3 19 100 1
0 4 19 100 0.0141268
4 4 19 100 0.98529
6 4 19 100 0.000583558
1 5 19 100 1.84036e-05
5 5 19 100 0.999982
0 6 19 100 0.021289
4 6 19 100 0.000583542
6 6 19 100 0.978127
0 7 19 100 0.971629
10 7 19 100 0.0283714
8 8 19 100 1
0 9 19 100 1
0 10 19 100 0.0870121
10 10 19 100 0.912988
12 11 19 100 1
12 12 19 100 1
12 13 19 100 1
13 14 19 100 1
14 15 19 100 1
0 16 19 100 0.980184
10 16 19 100 0.0198161
15 17 19 100 1
16 18 19 100 1
17 19 19 100 1
18 20 19 100 1
0 21 19 100 0.00191045
19 21 19 100 0.99809
1 1 21 100 1
0 2 21 100 0.00807002
2 2 21 100 0.99193
0 3 21 100 0.31524
4 3 21 100 0.684471
8 3 21 100 0.000289377
4 4 21 100 1
0 5 21 100 0.992338
3 5 21 100 0.00473899
16 5 21 100 0.00292349
6 6 21 100 1
7 7 21 100 1
9 8 21 100 1
10 9 21 100 1
11 10 21 100 1
12 11 21 100 1
13 12 21 100 1
13 13 21 100 1
0 14 21 100 0.00149363
14 14 21 100 0.998506
15 15 21 100 1
15 16 21 100 1
15 17 21 100 1
15 18 21 100 1
0 19 21 100 0.960622
18 19 21 100 0.0393776
15 20 21 100 1
0 21 21 100 0.897304
3 21 21 100 0.000108725
16 21 21 100 0.102587
19 22 21 100 1
0 23 21 100 0.999305
14 23 21 100 0.000695024
20 24 21 100 1
17 25 21 100 1
0 26 21 100 0.00328698
21 26 21 100 0.996713
18 1 25 100 1
0 2 25 100 0.991826
12 2 25 100 0.00817366
19 3 25 100 1
20 4 25 100 1
0 5 25 100 0.101124
11 5 25 100 0.898876
9 6 25 100 0.861248
10 6 25 100 0.138752
0 7 25 100 0.0182407
12 7 25 100 0.981759
8 8 25 100 1
3 9 25 100 0.00032514
13 9 25 100 0.999675
2 10 25 100 1
16 11 25 100 1
15 12 25 100 1
3 13 25 100 1
0 14 25 100 3.76629e-05
17 14 25 100 0.999962
17 15 25 100 1
0 16 25 100 0.597863
5 16 25 100 0.201068
7 16 25 100 0.201068
0 17 25 100 1
21 18 25 100 1
23 19 25 100 1
24 20 25 100 1
24 21 25 100 1
0 22 25 100 0.000806628
25 22 25 100 0.999193
1 1 27 100 1
0 2 27 100 0.00229563
2 2 27 100 0.997704
3 3 27 100 1
0 4 27 100 0.76465
4 4 27 100 8.57527e-05
5 4 27 100 0.23514
9 4 27 100 0.000108875
18 4 27 100 1.5265e-05
3 5 27 100 1
0 6 27 100 1
0 7 27 100 0.207162
4 7 27 100 0.0137144
5 7 27 100 0.779082
9 7 27 100 4.16804e-05
3 8 27 100 1
4 9 27 100 1
7 10 27 100 0.999082
11 10 27 100 0.00091796
6 11 27 100 1
0 12 27 100 1
8 13 27 100 1
12 14 27 100 1
13 15 27 100 1
0 16 27 100 1
14 17 27 100 1
14 18 27 100 1
22 19 27 100 1
0 20 27 100 1
10 21 27 100 0.00062224
15 21 27 100 0.935423
21 21 27 100 0.00639349
23 21 27 100 0.0575612
16 22 27 100 1
0 23 27 100 1
16 24 27 100 1
16 25 27 100 1
17 26 27 100 1
19 27 27 100 1
20 28 27 100 1
0 29 27 100 1
24 30 27 100 1
15 31 27 100 0.000128086
21 31 27 100 0.161542
23 31 27 100 0.202394
26 31 27 100 0.635936
26 32 27 100 1
15 33 27 100 0.000252111
21 33 27 100 0.0188893
23 33 27 100 0.045087
26 33 27 100 0.935772
25 34 27 100 1
0 35 27 100 0.00190197
27 35 27 100 0.998098
1 1 28 100 1
0 2 28 100 0.0275124
2 2 28 100 0.972488
6 3 28 100 1
7 4 28 100 1
7 5 28 100 1
5 6 28 100 0.993141
14 6 28 100 0.00685893
7 7 28 100 1
8 8 28 100 1
0 9 28 100 1
0 10 28 100 0.999651
13 10 28 100 0.000155529
25 10 28 100 0.000193681
20 11 28 100 1
9 12 28 100 0.189171
21 12 28 100 0.810829
10 13 28 100 0.604059
22 13 28 100 0.395941
10 14 28 100 0.1977
22 14 28 100 0.8023
23 15 28 100 1
24 16 28 100 0.959031
26 16 28 100 0.0409692
16 17 28 100 0.997488
27 17 28 100 0.00251245
28 18 28 100 1
9 19 28 100 0.00041129
17 19 28 100 0.999474
21 19 28 100 0.000114441
28 20 28 100 1
28 21 28 100 1
28 22 28 100 1
0 23 28 100 0.00848604
18 23 28 100 0.991514
15 24 28 100 0.000848889
19 24 28 100 0.999151
15 25 28 100 1
12 26 28 100 1
11 27 28 100 0.998942
27 27 28 100 0.00105829
3 28 28 100 1
4 29 28 100 1
1 1 29 100 0.999825
9 1 29 100 0.000127337
14 1 29 100 4.81258e-05
4 2 29 100 1
3 3 29 100 0.5
4 3 29 100 0.5
2 4 29 100 0.499973
4 4 29 100 0.500001
5 4 29 100 2.54667e-05
6 5 29 100 0.999877
10 5 29 100 0.000122555
7 6 29 100 0.5
10 6 29 100 0.5
8 7 29 100 0.499999
10 7 29 100 0.500001
8 8 29 100 0.491262
10 8 29 100 0.00873738
11 8 29 100 0.500001
0 9 29 100 0.483196
9 9 29 100 0.5
24 9 29 100 0.000186015
26 9 29 100 0.0166185
11 10 29 100 0.5
12 10 29 100 0.5
12 11 29 100 0.5
13 11 29 100 0.5
14 12 29 100 0.5
15 12 29 100 0.5
15 13 29 100 0.5
17 13 29 100 0.5
15 14 29 100 0.5
18 14 29 100 0.5
15 15 29 100 0.5
19 15 29 100 0.317665
22 15 29 100 0.182335
15 16 29 100 0.5
23 16 29 100 0.5
0 17 29 100 0.5
25 17 29 100 0.5
0 18 29 100 0.499999
15 18 29 100 0.500001
16 19 29 100 0.500001
27 19 29 100 0.499999
0 20 29 100 0.5
17 20 29 100 0.5
19 21 29 100 0.500001
21 21 29 100 0.499999
0 22 29 100 0.00584863
5 22 29 100 0.000795609
20 22 29 100 0.493356
27 22 29 100 0.5
20 23 29 100 0.5
27 23 29 100 0.5
0 24 29 100 0.502494
20 24 29 100 0.30319
21 24 29 100 0.194317
0 25 29 100 0.5
27 25 29 100 0.5
21 26 29 100 0.5
28 26 29 100 0.5
0 27 29 100 0.500011
22 27 29 100 0.499989
0 28 29 100 0.985654
24 28 29 100 7.69811e-05
26 28 29 100 0.0142686
23 29 29 100 0.5
28 29 29 100 0.5
0 30 29 100 0.00118205
24 30 29 100 0.5
29 30 29 100 0.498818
10 31 29 100 2.11832e-05
25 31 29 100 0.00434195
26 31 29 100 0.995637
27 32 29 100 1
28 33 29 100 1
0 34 29 100 0.0026279
29 34 29 100 0.997372
3 1 30 100 0.12846
6 1 30 100 0.866923
11 1 30 100 0.00457342
21 1 30 100 4.39307e-05
7 2 30 100 0.999582
22 2 30 100 0.000418319
0 3 30 100 0.21674
3 3 30 100 0.673409
6 3 30 100 0.108455
11 3 30 100 0.00139645
4 4 30 100 1
8 5 30 100 1
9 6 30 100 1
0 7 30 100 1
0 8 30 100 0.723549
10 8 30 100 0.276308
24 8 30 100 0.000142996
12 9 30 100 1
12 10 30 100 1
13 11 30 100 1
0 12 30 100 0.00271332
14 12 30 100 0.997287
15 13 30 100 1
23 14 30 100 1
25 15 30 100 1
26 16 30 100 1
28 17 30 100 1
3 18 30 100 1.79234e-05
6 18 30 100 2.60495e-05
11 18 30 100 0.00153097
21 18 30 100 0.00360281
28 18 30 100 0.994822
0 19 30 100 1.10747e-05
29 19 30 100 0.999989
7 20 30 100 0.00157808
22 20 30 100 0.998422
20 21 30 100 1
20 22 30 100 1
20 23 30 100 1
21 24 30 100 1
20 25 30 100 1
16 26 30 100 1
16 27 30 100 0.0137406
17 27 30 100 0.986259
0 28 30 100 1
18 29 30 100 1
0 30 30 100 3.16644e-05
19 30 30 100 0.999968
20 31 30 100 1
0 32 30 100 1.10745e-05
29 32 30 100 0.999989
0 33 30 100 0.0331909
30 33 30 100 0.966809
1 1 31 100 1
3 2 31 100 1
4 3 31 100 1
0 4 31 100 0.00938087
2 4 31 100 0.00182472
5 4 31 100 0.988794
0 5 31 100 0.00428635
6 5 31 100 0.252932
7 5 31 100 0.742782
9 6 31 100 1
0 7 31 100 1
10 8 31 100 1
10 9 31 100 1
0 10 31 100 1.7906e-05
11 10 31 100 0.999982
0 11 31 100 0.0472148
14 11 31 100 0.0143525
19 11 31 100 4.33642e-05
20 11 31 100 0.938389
0 12 31 100 3.36532e-05
9 12 31 100 0.999966
8 13 31 100 1
12 14 31 100 1
0 15 31 100 0.00938087
2 15 31 100 0.000108295
13 15 31 100 0.990511
15 16 31 100 1
17 17 31 100 1
18 18 31 100 1
0 19 31 100 0.00163238
19 19 31 100 0.075592
22 19 31 100 0.922776
0 20 31 100 0.999103
16 20 31 100 0.000897284
22 21 31 100 1
0 22 31 100 1
22 23 31 100 1
0 24 31 100 1
23 25 31 100 1
24 26 31 100 1
26 27 31 100 1
0 28 31 100 0.0569353
14 28 31 100 0.006885
19 28 31 100 7.08118e-05
20 28 31 100 0.936109
27 29 31 100 1
0 30 31 100 0.99779
19 30 31 100 0.00221052
29 31 31 100 1
27 32 31 100 0.992572
29 32 31 100 0.00742776
0 33 31 100 1.40792e-05
11 33 31 100 4.8598e-05
28 33 31 100 0.999937
30 34 31 100 1
0 35 31 100 0.00128296
31 35 31 100 0.998717
1 1 33 100 0.5
3 1 33 100 0.5
0 2 33 100 0.00527734
2 2 33 100 0.494723
4 2 33 100 0.5
0 3 33 100 0.5
3 3 33 100 0.5
4 4 33 100 0.5
6 4 33 100 0.5
0 5 33 100 8.25024e-06
4 5 33 100 0.000581579
6 5 33 100 0.497977
7 5 33 100 0.499419
10 5 33 100 0.00195274
17 5 33 100 6.11274e-05
1 6 33 100 0.499995
7 6 33 100 0.500005
8 7 33 100 0.499848
9 7 33 100 0.5
11 7 33 100 0.000151904
0 8 33 100 0.149746
5 8 33 100 0.000307123
9 8 33 100 0.348588
10 8 33 100 0.5
15 8 33 100 5.51168e-05
22 8 33 100 0.000310197
24 8 33 100 0.00099396
11 9 33 100 0.5
12 9 33 100 0.409889
13 9 33 100 0.0901106
0 10 33 100 0.499213
16 10 33 100 0.499999
18 10 33 100 0.000788583
0 11 33 100 0.501707
10 11 33 100 0.434832
17 11 33 100 0.0634422
32 11 33 100 1.88982e-05
0 12 33 100 0.00604457
12 12 33 100 0.493956
16 12 33 100 0.5
13 13 33 100 0.5
17 13 33 100 0.5
5 14 33 100 0.000114631
14 14 33 100 0.5
15 14 33 100 0.000291264
18 14 33 100 0.499594
14 15 33 100 0.5
19 15 33 100 0.5
16 16 33 100 0.5
20 16 33 100 0.5
0 17 33 100 0.500789
18 17 33 100 0.499211
21 18 33 100 0.5
23 18 33 100 0.5
0 19 33 100 0.460286
9 19 33 100 1.68766e-05
11 19 33 100 0.000114664
15 19 33 100 2.89555e-05
20 19 33 100 0.481828
22 19 33 100 0.000233512
24 19 33 100 0.0177896
25 19 33 100 0.0397032
0 20 33 100 0.000179108
19 20 33 100 0.499536
22 20 33 100 0.5
30 20 33 100 0.000284704
5 21 33 100 1.38098e-05
18 21 33 100 1.18332e-05
20 21 33 100 0.5
26 21 33 100 0.499974
20 22 33 100 0.5
26 22 33 100 0.5
0 23 33 100 0.483955
11 23 33 100 6.70725e-05
21 23 33 100 0.5
25 23 33 100 0.015978
24 24 33 100 0.499999
26 24 33 100 0.500001
0 25 33 100 0.500091
23 25 33 100 0.499909
0 26 33 100 0.5
27 26 33 100 0.5
22 27 33 100 0.000174872
24 27 33 100 0.499823
27 27 33 100 0.500003
26 28 33 100 0.499998
27 28 33 100 0.500002
26 29 33 100 0.5
28 29 33 100 0.5
0 30 33 100 0.500001
31 30 33 100 0.499999
29 31 33 100 0.5
31 31 33 100 0.5
0 32 33 100 0.500001
32 32 33 100 0.499999
25 33 33 100 0.5
32 33 33 100 0.5
0 34 33 100 0.50063
33 34 33 100 0.49937
31 35 33 100 1
0 36 33 100 0.000210432
19 36 33 100 0.00070432
30 36 33 100 0.999085
32 37 33 100 1
0 38 33 100 0.00144542
24 38 33 100 1.115e-05
33 38 33 100 0.998543
2 1 37 100 1
3 2 37 100 1
5 3 37 100 1
0 4 37 100 0.00118463
6 4 37 100 0.998815
0 5 37 100 0.000358287
25 5 37 100 0.999642
7 6 37 100 1
8 7 37 100 0.999856
21 7 37 100 0.000144474
0 8 37 100 0.987952
11 8 37 100 0.0040994
24 8 37 100 0.00789422
35 8 37 100 5.41867e-05
10 9 37 100 1
10 10 37 100 1
0 11 37 100 1
0 12 37 100 0.631642
11 12 37 100 0.361711
24 12 37 100 0.00657526
35 12 37 100 7.1692e-05
10 13 37 100 1
0 14 37 100 1
0 15 37 100 0.347092
11 15 37 100 0.648708
24 15 37 100 0.00414089
35 15 37 100 5.89224e-05
12 16 37 100 1
13 17 37 100 1
13 18 37 100 1
0 19 37 100 0.00426942
14 19 37 100 0.995731
9 20 37 100 0.996336
11 20 37 100 4.55553e-05
19 20 37 100 0.000192679
24 20 37 100 0.00342618
15 21 37 100 1
0 22 37 100 1
0 23 37 100 0.111294
16 23 37 100 0.888706
17 24 37 100 1
0 25 37 100 0.0007456
8 25 37 100 0.0592469
21 25 37 100 0.940008
0 26 37 100 0.00164561
14 26 37 100 1.51563e-05
18 26 37 100 0.998339
9 27 37 100 4.31857e-05
19 27 37 100 0.999957
20 28 37 100 1
0 29 37 100 1
0 30 37 100 0.999396
4 30 37 100 1.58185e-05
16 30 37 100 0.000587992
20 31 37 100 1
22 32 37 100 1
23 33 37 100 1
26 34 37 100 1
0 35 37 100 0.00299175
27 35 37 100 0.997008
28 36 37 100 0.974441
31 36 37 100 0.0255593
0 37 37 100 0.00140649
29 37 37 100 0.00261755
32 37 37 100 0.995814
33 37 37 100 0.000161964
29 38 37 100 1
30 39 37 100 1
35 40 37 100 0.0135932
36 40 37 100 0.986407
34 41 37 100 0.0228968
36 41 37 100 0.977103
33 42 37 100 1
33 43 37 100 1
0 44 37 100 7.45424e-05
32 44 37 100 0.00661551
33 44 37 100 0.99331
33 45 37 100 1
35 46 37 100 1
0 47 37 100 1
0 48 37 100 0.999967
16 48 37 100 3.33408e-05
0 49 37 100 0.000761327
32 49 37 100 0.000690136
34 49 37 100 0.998549
0 50 37 100 0.0124232
37 50 37 100 0.987577
3 1 40 100 1
0 2 40 100 0.092038
5 2 40 100 0.907393
19 2 40 100 0.000569267
2 3 40 100 0.0425935
4 3 40 100 0.955532
14 3 40 100 0.00164035
28 3 40 100 0.000234004
0 4 40 100 0.013637
3 4 40 100 0.986363
0 5 40 100 0.999554
2 5 40 100 0.000251571
14 5 40 100 0.000183013
28 5 40 100 1.18633e-05
7 6 40 100 1
0 7 40 100 1
8 8 40 100 1
0 9 40 100 0.236041
10 9 40 100 0.763594
31 9 40 100 0.00036588
9 10 40 100 1
11 11 40 100 1
11 12 40 100 1
13 13 40 100 0.000197724
16 13 40 100 0.999802
18 14 40 100 1
0 15 40 100 1
0 16 40 100 0.98335
12 16 40 100 0.000837111
15 16 40 100 0.0147041
20 16 40 100 0.00110907
18 17 40 100 1
17 18 40 100 1
17 19 40 100 1
0 20 40 100 0.0171204
5 20 40 100 0.000569293
19 20 40 100 0.98231
18 21 40 100 0.999989
34 21 40 100 1.08583e-05
6 22 40 100 0.0131003
13 22 40 100 0.0689627
24 22 40 100 0.166349
34 22 40 100 0.750973
37 22 40 100 0.000614915
25 23 40 100 1
30 24 40 100 1
32 25 40 100 1
33 26 40 100 1
35 27 40 100 1
35 28 40 100 1
35 29 40 100 1
35 30 40 100 1
36 31 40 100 1
0 32 40 100 3.0247e-05
6 32 40 100 0.99997
0 33 40 100 0.0198632
15 33 40 100 1.02127e-05
20 33 40 100 0.980127
21 34 40 100 1
0 35 40 100 1
0 36 40 100 0.994245
12 36 40 100 1.74174e-05
15 36 40 100 0.000305943
20 36 40 100 0.00543198
26 37 40 100 1
22 38 40 100 1
23 39 40 100 1
16 40 40 100 0.000158742
27 40 40 100 0.999841
29 41 40 100 1
0 42 40 100 5.4174e-05
33 42 40 100 0.999946
38 43 40 100 1
39 44 40 100 1
39 45 40 100 1
0 46 40 100 1
0 47 40 100 0.997916
15 47 40 100 0.000150869
20 47 40 100 0.00193338
39 48 40 100 1
0 49 40 100 1
0 50 40 100 0.99821
12 50 40 100 1.56163e-05
15 50 40 100 0.000274305
20 50 40 100 0.00149982
39 51 40 100 1
0 52 40 100 0.00963778
40 52 40 100 0.990362
1 1 44 100 1
2 2 44 100 1
3 3 44 100 1
0 4 44 100 0.999699
10 4 44 100 0.00030107
6 5 44 100 1
4 6 44 100 0.0104296
5 6 44 100 0.98957
8 7 44 100 1
9 8 44 100 1
0 9 44 100 0.00104334
1 9 44 100 0.213418
7 9 44 100 1.04781e-05
9 9 44 100 1.66897e-05
10 9 44 100 2.90577e-05
11 9 44 100 0.785483
0 10 44 100 1.26018e-05
7 10 44 100 0.999987
0 11 44 100 0.00154583
24 11 44 100 0.998454
25 12 44 100 1
0 13 44 100 1
0 14 44 100 1
11 15 44 100 1
0 16 44 100 1.56027e-05
36 16 44 100 0.999984
37 17 44 100 1
33 18 44 100 1
0 19 44 100 0.247419
35 19 44 100 0.752285
42 19 44 100 0.000295973
13 20 44 100 1
0 21 44 100 1
15 22 44 100 1.52159e-05
16 22 44 100 0.00675357
19 22 44 100 0.993231
0 23 44 100 0.0642151
17 23 44 100 0.935785
18 24 44 100 7.61109e-05
19 24 44 100 0.999924
14 25 44 100 1
10 26 44 100 1.08059e-05
12 26 44 100 0.002275
20 26 44 100 0.997714
21 27 44 100 1
0 28 44 100 1
23 29 44 100 1
25 30 44 100 1
25 31 44 100 1
25 32 44 100 1
26 33 44 100 0.998192
32 33 44 100 6.83314e-05
38 33 44 100 0.00173957
27 34 44 100 1
0 35 44 100 0.984924
17 35 44 100 0.0150761
0 36 44 100 1
28 37 44 100 1
0 38 44 100 1
28 39 44 100 1
28 40 44 100 1
12 41 44 100 0.00121045
29 41 44 100 0.99879
30 42 44 100 1
0 43 44 100 0.998216
17 43 44 100 0.00178382
0 44 44 100 1
31 45 44 100 1
0 46 44 100 0.992057
27 46 44 100 0.000300268
35 46 44 100 0.000720727
42 46 44 100 0.00692236
0 47 44 100 0.00419197
31 47 44 100 0.949445
32 47 44 100 1.20589e-05
33 47 44 100 0.00569805
35 47 44 100 4.0741e-05
38 47 44 100 1.17266e-05
39 47 44 100 0.0348517
42 47 44 100 0.00492751
43 47 44 100 0.000821204
0 48 44 100 3.33605e-05
26 48 44 100 6.56599e-05
32 48 44 100 0.904965
38 48 44 100 0.0949359
0 49 44 100 1
43 50 44 100 1
43 51 44 100 1
0 52 44 100 0.00237602
34 52 44 100 9.12781e-05
41 52 44 100 0.997533
40 53 44 100 1
39 54 44 100 1
0 55 44 100 0.00595175
15 55 44 100 0.00372968
42 55 44 100 0.000430773
44 55 44 100 0.989888
0 1 61 100 0.000256269
1 1 61 100 0.99949
4 1 61 100 0.000253505
4 2 61 100 0.999942
58 2 61 100 5.7517e-05
0 3 61 100 0.999985
29 3 61 100 1.49418e-05
2 4 61 100 1
0 5 61 100 0.999564
17 5 61 100 2.4526e-05
31 5 61 100 8.42509e-05
33 5 61 100 0.000231228
41 5 61 100 9.59847e-05
3 6 61 100 0.000120863
6 6 61 100 0.999879
7 7 61 100 1
8 8 61 100 1
8 9 61 100 1
10 10 61 100 1
10 11 61 100 1
0 12 61 100 0.998331
17 12 61 100 0.00022896
31 12 61 100 0.000195881
33 12 61 100 0.00122277
41 12 61 100 2.12222e-05
10 13 61 100 1
0 14 61 100 1
13 15 61 100 1
0 16 61 100 0.999965
29 16 61 100 3.45449e-05
16 17 61 100 1
0 18 61 100 0.999982
29 18 61 100 1.76789e-05
16 19 61 100 1
0 20 61 100 0.999925
29 20 61 100 7.5069e-05
0 21 61 100 0.493581
1 21 61 100 4.60678e-05
4 21 61 100 0.00121437
15 21 61 100 0.50488
19 21 61 100 1.9756e-05
58 21 61 100 0.000258985
16 22 61 100 1
0 23 61 100 0.00104613
17 23 61 100 0.998954
0 24 61 100 1
18 25 61 100 1
0 26 61 100 0.999878
29 26 61 100 0.000121551
0 27 61 100 1
18 28 61 100 1
18 29 61 100 1
0 30 61 100 0.999528
29 30 61 100 0.000472487
0 31 61 100 0.0077388
4 31 61 100 2.61849e-05
15 31 61 100 1.24221e-05
19 31 61 100 0.992223
21 32 61 100 1
0 33 61 100 0.00514995
20 33 61 100 0.000605813
23 33 61 100 0.994244
24 34 61 100 0.017211
25 34 61 100 0.0373262
26 34 61 100 0.945463
27 35 61 100 1
0 36 61 100 0.0465301
29 36 61 100 0.95347
28 37 61 100 1
30 38 61 100 1
0 39 61 100 0.956974
29 39 61 100 0.0430259
32 40 61 100 1
34 41 61 100 0.00708673
35 41 61 100 0.0153259
36 41 61 100 0.977587
40 42 61 100 1
37 43 61 100 1
0 44 61 100 0.301777
31 44 61 100 0.0164274
33 44 61 100 0.681262
41 44 61 100 0.000534013
39 45 61 100 1
39 46 61 100 1
39 47 61 100 1
0 48 61 100 0.999821
29 48 61 100 0.000179484
39 49 61 100 1
38 50 61 100 1
0 51 61 100 0.000622068
31 51 61 100 1.25521e-05
33 51 61 100 0.000533224
41 51 61 100 0.998832
42 52 61 100 1
43 53 61 100 1
0 54 61 100 0.999881
29 54 61 100 0.000119011
44 55 61 100 1
44 56 61 100 1
45 57 61 100 0.999982
54 57 61 100 1.75445e-05
47 58 61 100 1
48 59 61 100 1
49 60 61 100 1
0 61 61 100 7.45203e-05
50 61 61 100 0.999925
51 62 61 100 1
52 63 61 100 1
0 64 61 100 0.999959
29 64 61 100 4.06102e-05
53 65 61 100 1
0 66 61 100 0.999906
29 66 61 100 9.3796e-05
0 67 61 100 0.995022
4 67 61 100 3.9886e-05
15 67 61 100 0.00186117
58 67 61 100 0.00307666
55 68 61 100 1
56 69 61 100 1
0 70 61 100 0.99998
29 70 61 100 1.9537e-05
0 71 61 100 1
57 72 61 100 1
59 73 61 100 1
60 74 61 100 1
0 75 61 100 3.8821e-05
61 75 61 100 0.999961
1 1 78 100 1
2 2 78 100 1
3 3 78 100 1
0 4 78 100 1.00213e-05
64 4 78 100 0.999979
65 4 78 100 1.12483e-05
61 5 78 100 0.0372802
62 5 78 100 0.96272
37 6 78 100 0.0019423
55 6 78 100 0.982927
56 6 78 100 0.0151307
0 7 78 100 0.99994
8 7 78 100 5.96536e-05
39 8 78 100 1
40 9 78 100 1
40 10 78 100 1
40 11 78 100 1
40 12 78 100 1
14 13 78 100 1
40 14 78 100 1
35 15 78 100 0.999966
39 15 78 100 3.3707e-05
0 16 78 100 0.0366055
17 16 78 100 0.963395
19 17 78 100 1
0 18 78 100 0.00137604
20 18 78 100 0.998624
21 19 78 100 1
21 20 78 100 0.999977
65 20 78 100 2.26946e-05
16 21 78 100 0.999358
64 21 78 100 0.000642466
0 22 78 100 1
0 23 78 100 0.0156193
22 23 78 100 0.984381
23 24 78 100 1
0 25 78 100 0.0010585
24 25 78 100 0.998941
25 26 78 100 1
0 27 78 100 0.997093
22 27 78 100 0.00287526
63 27 78 100 3.16356e-05
27 28 78 100 1
28 29 78 100 1
0 30 78 100 1.61634e-05
28 30 78 100 0.999984
29 31 78 100 1
30 32 78 100 0.999979
57 32 78 100 2.09952e-05
32 33 78 100 1
31 34 78 100 1
0 35 78 100 2.66203e-05
7 35 78 100 0.946833
34 35 78 100 1.04229e-05
35 35 78 100 0.0531295
0 36 78 100 1
7 37 78 100 0.999982
67 37 78 100 1.81528e-05
0 38 78 100 0.00860375
8 38 78 100 0.991396
0 39 78 100 0.999896
22 39 78 100 7.37021e-05
63 39 78 100 3.01226e-05
9 40 78 100 1
0 41 78 100 1
13 42 78 100 1
37 43 78 100 0.0257283
38 43 78 100 0.00289787
54 43 78 100 0.971374
0 44 78 100 0.000119844
30 44 78 100 1.62966e-05
49 44 78 100 0.999805
57 44 78 100 4.68347e-05
75 44 78 100 1.24225e-05
0 45 78 100 0.999946
22 45 78 100 4.3111e-05
63 45 78 100 1.12686e-05
40 46 78 100 1
50 47 78 100 1
43 48 78 100 0.99704
51 48 78 100 0.00296038
44 49 78 100 1
0 50 78 100 0.000175419
5 50 78 100 0.734206
6 50 78 100 0.032474
12 50 78 100 0.233144
41 51 78 100 1
0 52 78 100 1
42 53 78 100 1
34 54 78 100 0.00279703
48 54 78 100 0.996773
60 54 78 100 9.92514e-05
68 54 78 100 0.000331159
47 55 78 100 0.999842
59 55 78 100 0.000158469
53 56 78 100 1
43 57 78 100 0.00296038
51 57 78 100 0.99704
52 58 78 100 1
45 59 78 100 0.0080169
75 59 78 100 0.991983
0 60 78 100 1.22512e-05
45 60 78 100 0.0276853
49 60 78 100 8.65401e-05
75 60 78 100 0.972216
0 61 78 100 0.0942588
45 61 78 100 0.0159795
74 61 78 100 0.000315373
75 61 78 100 0.889446
45 62 78 100 0.0148576
57 62 78 100 1.35484e-05
75 62 78 100 0.985129
0 63 78 100 1
0 64 78 100 0.99995
17 64 78 100 3.97479e-05
64 64 78 100 1.00556e-05
76 65 78 100 1
76 66 78 100 1
34 67 78 100 0.013544
48 67 78 100 0.000313733
60 67 78 100 0.000186652
68 67 78 100 0.985944
77 67 78 100 1.13764e-05
0 68 78 100 1.73032e-05
67 68 78 100 0.999983
11 69 78 100 0.999954
26 69 78 100 4.58392e-05
65 70 78 100 1
16 71 78 100 0.000751306
64 71 78 100 0.999249
0 72 78 100 0.0227024
10 72 78 100 0.928145
64 72 78 100 0.000574309
66 72 78 100 0.048578
66 73 78 100 1
0 74 78 100 0.999971
22 74 78 100 1.76899e-05
63 74 78 100 1.12625e-05
0 75 78 100 3.39832e-05
67 75 78 100 0.999966
5 76 78 100 0.000450212
6 76 78 100 0.000759767
12 76 78 100 0.0142843
69 76 78 100 0.984506
69 77 78 100 1
70 78 78 100 1
71 79 78 100 1
45 80 78 100 0.000347232
72 80 78 100 0.999653
73 81 78 100 1
74 82 78 100 1
0 83 78 100 1.8174e-05
45 83 78 100 0.923855
57 83 78 100 0.00921399
72 83 78 100 0.000373509
75 83 78 100 0.0665396
0 84 78 100 1
0 85 78 100 0.999929
17 85 78 100 3.66088e-05
64 85 78 100 3.47304e-05
76 86 78 100 1
76 87 78 100 1
34 88 78 100 0.000676525
60 88 78 100 2.41818e-05
68 88 78 100 0.000183072
77 88 78 100 0.999116
76 89 78 100 1
0 90 78 100 0.00218526
78 90 78 100 0.997815
