2 0 100 19 0.00662413
3 0 100 19 0.330505
10 0 100 19 0.330703
12 0 100 19 0.330703
13 0 100 19 3.58771e-05
15 0 100 19 0.000837385
19 0 100 19 0.000591877
1 1 100 19 1
2 2 100 19 1
4 3 100 19 1
5 4 100 19 1
6 5 100 19 0.5
7 5 100 19 0.5
8 6 100 19 1
10 7 100 19 1
17 8 100 19 1
8 9 100 19 1
9 10 100 19 1
10 11 100 19 0.72757
12 11 100 19 0.27243
11 12 100 19 1
13 13 100 19 0.499973
14 13 100 19 0.500027
15 14 100 19 0.499366
16 14 100 19 0.500634
3 15 100 19 1
17 16 100 19 1
18 17 100 19 1
19 18 100 19 1
2 0 100 20 0.0303517
7 0 100 20 0.00518761
8 0 100 20 0.0205562
13 0 100 20 0.530252
15 0 100 20 0.375806
16 0 100 20 0.0036699
20 0 100 20 0.0341768
20 1 100 20 1
2 2 100 20 1
11 3 100 20 1
9 4 100 20 0.999488
12 4 100 20 0.000511816
13 5 100 20 1
10 6 100 20 0.947458
16 6 100 20 0.0525425
8 7 100 20 1.08699e-05
12 7 100 20 0.499867
14 7 100 20 0.500123
8 8 100 20 1
8 9 100 20 9.01091e-05
15 9 100 20 0.99803
16 9 100 20 0.00187974
16 10 100 20 0.483797
17 10 100 20 0.516202
7 11 100 20 1
18 12 100 20 1
13 13 100 20 0.846852
20 13 100 20 0.153148
10 14 100 20 1
1 15 100 20 1
3 16 100 20 0.2
4 16 100 20 0.2
5 16 100 20 0.2
6 16 100 20 0.2
19 16 100 20 0.2
20 17 100 20 1
2 0 100 21 0.00232217
4 0 100 21 0.00230334
5 0 100 21 0.159082
6 0 100 21 0.00347112
7 0 100 21 0.321469
9 0 100 21 0.163047
10 0 100 21 0.0141871
11 0 100 21 0.000215778
16 0 100 21 0.159816
19 0 100 21 0.163047
21 0 100 21 0.0110385
1 1 100 21 0.999991
5 1 100 21 9.20506e-06
1 2 100 21 0.000364213
2 2 100 21 0.999636
3 3 100 21 1
4 4 100 21 0.493934
6 4 100 21 0.000291105
8 4 100 21 0.00682912
10 4 100 21 0.498859
11 4 100 21 8.73317e-05
5 5 100 21 0.500024
9 5 100 21 0.499976
4 6 100 21 0.000294919
6 6 100 21 0.999705
4 7 100 21 1
8 8 100 21 1
11 9 100 21 1.44053e-05
15 9 100 21 0.999986
7 10 100 21 0.0144665
10 10 100 21 0.465531
16 10 100 21 0.520003
17 11 100 21 1
11 12 100 21 0.25
12 12 100 21 0.25
13 12 100 21 0.25
18 12 100 21 0.25
11 13 100 21 2.35955e-05
14 13 100 21 0.999976
5 14 100 21 0.0236325
11 14 100 21 9.76662e-05
15 14 100 21 0.97625
21 14 100 21 1.96085e-05
11 15 100 21 0.199737
12 15 100 21 0.200066
14 15 100 21 0.200066
17 15 100 21 0.200066
20 15 100 21 0.200066
13 16 100 21 0.5
18 16 100 21 0.5
19 17 100 21 0.517012
21 17 100 21 0.482988
20 18 100 21 1
21 19 100 21 1
2 0 100 22 0.366001
5 0 100 22 0.0373166
7 0 100 22 0.00673113
14 0 100 22 1.38983e-05
16 0 100 22 0.220622
17 0 100 22 0.369018
22 0 100 22 0.00029766
5 1 100 22 1
10 2 100 22 1
9 3 100 22 0.000325035
13 3 100 22 0.999675
2 4 100 22 1
16 5 100 22 1
22 6 100 22 1
16 7 100 22 1
8 8 100 22 1
6 9 100 22 1
6 10 100 22 1
5 11 100 22 1
2 12 100 22 0.00825678
7 12 100 22 0.991743
9 13 100 22 1
5 14 100 22 1
12 15 100 22 1
11 16 100 22 1
14 17 100 22 0.499991
15 17 100 22 0.500009
1 18 100 22 1
3 19 100 22 1
4 20 100 22 1
18 21 100 22 1
2 22 100 22 1
19 23 100 22 1
2 24 100 22 7.64653e-05
3 24 100 22 0.000159739
4 24 100 22 0.000412067
5 24 100 22 4.61349e-05
6 24 100 22 1.69211e-05
7 24 100 22 7.9396e-06
8 24 100 22 2.58103e-05
9 24 100 22 6.27507e-06
10 24 100 22 2.36247e-05
11 24 100 22 1.36366e-05
12 24 100 22 6.68191e-07
13 24 100 22 1.40234e-06
14 24 100 22 7.27313e-07
15 24 100 22 2.6067e-06
18 24 100 22 0.000656959
19 24 100 22 0.00246573
20 24 100 22 0.496859
21 24 100 22 0.499224
2 25 100 22 1.99688e-06
5 25 100 22 1.98476e-06
16 25 100 22 1.26739e-06
17 25 100 22 4.75919e-06
22 25 100 22 0.99999
1 0 100 24 0.0683244
8 0 100 24 2.4372e-05
10 0 100 24 0.00141761
12 0 100 24 0.00213277
13 0 100 24 0.249268
15 0 100 24 0.249268
16 0 100 24 5.50419e-06
19 0 100 24 0.249268
22 0 100 24 7.673e-06
24 0 100 24 0.180283
24 1 100 24 1
17 2 100 24 1
18 3 100 24 1
20 4 100 24 0.5
21 4 100 24 0.5
16 5 100 24 0.999989
24 5 100 24 1.08143e-05
8 6 100 24 0.000330249
22 6 100 24 0.99967
9 7 100 24 6.81195e-05
23 7 100 24 0.832874
24 7 100 24 0.167058
1 8 100 24 0.114843
24 8 100 24 0.885157
8 9 100 24 0.499898
9 9 100 24 0.500075
23 9 100 24 2.70907e-05
10 10 100 24 0.999727
12 10 100 24 0.000273175
11 11 100 24 1
10 12 100 24 0.000273974
12 12 100 24 0.999726
14 13 100 24 1
1 14 100 24 0.998262
24 14 100 24 0.00173798
2 15 100 24 1
3 16 100 24 0.2
4 16 100 24 0.2
5 16 100 24 0.2
6 16 100 24 0.2
7 16 100 24 0.2
2 0 100 26 0.00193171
3 0 100 26 0.0754585
5 0 100 26 0.237534
14 0 100 26 0.000357528
19 0 100 26 0.229943
21 0 100 26 0.214786
23 0 100 26 0.239202
26 0 100 26 0.000786799
1 1 100 26 1
2 2 100 26 1
5 3 100 26 0.977572
21 3 100 26 0.022428
3 4 100 26 0.406342
4 4 100 26 0.593658
3 5 100 26 1
6 6 100 26 1
7 7 100 26 1
3 8 100 26 1
8 9 100 26 1
9 10 100 26 1
10 11 100 26 1
11 12 100 26 1
12 13 100 26 0.5
13 13 100 26 0.5
14 14 100 26 0.999304
23 14 100 26 0.000695579
15 15 100 26 0.2
16 15 100 26 0.2
17 15 100 26 0.2
18 15 100 26 0.2
20 15 100 26 0.2
5 16 100 26 0.0277081
21 16 100 26 0.972292
25 17 100 26 1
19 18 100 26 1
22 19 100 26 1
24 20 100 26 1
26 21 100 26 1
2 0 100 29 0.0135153
9 0 100 29 0.491244
10 0 100 29 0.491072
23 0 100 29 0.00416871
1 1 100 29 1
2 2 100 29 1
28 3 100 29 1
29 4 100 29 1
6 5 100 29 1
3 6 100 29 1
4 7 100 29 0.333333
5 7 100 29 0.333333
7 7 100 29 0.333333
8 8 100 29 1
12 9 100 29 0.997831
19 9 100 29 0.00216946
13 10 100 29 0.753417
14 10 100 29 0.246583
27 11 100 29 1
26 12 100 29 1
10 13 100 29 1
6 14 100 29 1
24 15 100 29 0.000848175
25 15 100 29 0.999152
17 16 100 29 1
19 17 100 29 1
23 18 100 29 1
24 19 100 29 1
11 20 100 29 1
12 21 100 29 0.999859
19 21 100 29 0.000141121
13 22 100 29 0.330435
14 22 100 29 0.669565
15 23 100 29 1
16 24 100 29 1
10 25 100 29 1
16 26 100 29 1
17 27 100 29 0.703622
27 27 100 29 0.296378
18 28 100 29 0.25
20 28 100 29 0.25
21 28 100 29 0.25
22 28 100 29 0.25
9 0 100 30 0.16269
18 0 100 30 0.168348
20 0 100 30 0.168348
24 0 100 30 0.168348
27 0 100 30 0.168348
28 0 100 30 0.163518
30 0 100 30 0.000397992
1 1 100 30 1
4 2 100 30 1
3 3 100 30 1
2 4 100 30 1
4 5 100 30 1
5 6 100 30 1
5 7 100 30 1
9 8 100 30 1
1 9 100 30 1
6 10 100 30 0.5
7 10 100 30 0.5
8 11 100 30 1
10 12 100 30 1
11 13 100 30 1
1 14 100 30 1
12 15 100 30 1
9 16 100 30 0.0818431
18 16 100 30 0.248196
20 16 100 30 0.248196
24 16 100 30 0.248196
27 16 100 30 0.173568
13 17 100 30 1
14 18 100 30 1
15 19 100 30 1
9 20 100 30 0.400297
18 20 100 30 0.132072
20 20 100 30 0.132072
24 20 100 30 0.132072
28 20 100 30 0.203486
21 21 100 30 1
15 22 100 30 1
16 23 100 30 1
9 24 100 30 0.707292
28 24 100 30 0.292708
17 25 100 30 1
9 26 100 30 0.538041
28 26 100 30 0.461959
19 27 100 30 0.25
22 27 100 30 0.25
23 27 100 30 0.25
25 27 100 30 0.25
26 28 100 30 0.5
29 28 100 30 0.5
30 29 100 30 1
3 0 100 33 0.0728231
7 0 100 33 0.335994
8 0 100 33 0.243108
12 0 100 33 0.000911657
19 0 100 33 3.72101e-06
28 0 100 33 0.335994
30 0 100 33 1.0639e-05
32 0 100 33 3.72098e-06
33 0 100 33 0.0111519
33 1 100 33 1
3 2 100 33 0.80886
7 2 100 33 0.0836631
8 2 100 33 0.107477
1 3 100 33 0.160197
3 3 100 33 0.839781
18 3 100 33 2.23516e-05
4 4 100 33 1
3 5 100 33 1
1 6 100 33 0.888784
3 6 100 33 0.111189
18 6 100 33 2.67064e-05
2 7 100 33 0.998424
20 7 100 33 0.00157625
5 8 100 33 1
6 9 100 33 1
8 10 100 33 1
1 11 100 33 0.609721
3 11 100 33 0.186172
18 11 100 33 0.204107
9 12 100 33 0.5
10 12 100 33 0.5
11 13 100 33 1
12 14 100 33 1
13 15 100 33 1
26 16 100 33 0.986446
27 16 100 33 0.0135543
27 17 100 33 1
29 18 100 33 1
30 19 100 33 1
21 20 100 33 0.2
22 20 100 33 0.2
23 20 100 33 0.2
25 20 100 33 0.2
31 20 100 33 0.2
1 21 100 33 4.37714e-05
18 21 100 33 0.00358974
24 21 100 33 0.996366
2 22 100 33 0.000418805
20 22 100 33 0.999581
14 23 100 33 1
8 24 100 33 1
15 25 100 33 1
16 26 100 33 1
28 27 100 33 1
17 28 100 33 0.501298
18 28 100 33 0.498702
19 29 100 33 0.499999
32 29 100 33 0.500001
33 30 100 33 1
3 0 100 34 0.112245
11 0 100 34 0.112245
17 0 100 34 0.224491
19 0 100 34 0.103307
22 0 100 34 0.00131296
23 0 100 34 0.108643
24 0 100 34 0.000559733
25 0 100 34 0.112266
26 0 100 34 0.112245
27 0 100 34 2.42045e-06
28 0 100 34 0.112245
34 0 100 34 0.000436264
1 1 100 34 0.500005
6 1 100 34 0.499995
6 2 100 34 1
1 3 100 34 1
2 4 100 34 0.499855
3 4 100 34 0.249927
4 4 100 34 0.249927
5 4 100 34 0.000290704
14 5 100 34 0.124053
21 5 100 34 0.0149449
22 5 100 34 0.861002
4 6 100 34 0.500062
5 6 100 34 0.499938
5 7 100 34 0.499709
6 7 100 34 0.500291
7 8 100 34 0.504407
8 8 100 34 0.495593
7 9 100 34 0.5
9 9 100 34 0.5
5 10 100 34 0.000240837
8 10 100 34 0.999738
31 10 100 34 2.08139e-05
10 11 100 34 0.999637
19 11 100 34 0.000229244
23 11 100 34 0.000134096
9 12 100 34 0.450483
11 12 100 34 0.549517
9 13 100 34 1
12 14 100 34 1
13 15 100 34 0.199977
14 15 100 34 0.200093
15 15 100 34 0.199977
16 15 100 34 0.199977
18 15 100 34 0.199977
10 16 100 34 0.333332
12 16 100 34 0.333334
19 16 100 34 0.333334
13 17 100 34 0.5
20 17 100 34 0.5
14 18 100 34 0.999976
21 18 100 34 2.3685e-05
15 19 100 34 0.5
21 19 100 34 0.5
16 20 100 34 0.278312
22 20 100 34 0.274614
23 20 100 34 0.278312
24 20 100 34 0.168763
18 21 100 34 0.41865
24 21 100 34 0.162701
26 21 100 34 0.418649
20 22 100 34 0.499918
27 22 100 34 0.500082
25 23 100 34 0.499954
29 23 100 34 0.500046
24 24 100 34 0.333373
27 24 100 34 0.333254
30 24 100 34 0.333374
19 25 100 34 0.686287
23 25 100 34 0.276187
31 25 100 34 0.0375264
21 26 100 34 0.200167
22 26 100 34 0.200177
28 26 100 34 0.200175
29 26 100 34 0.200177
31 26 100 34 0.199304
32 27 100 34 1
33 28 100 34 1
34 29 100 34 1
19 30 100 34 1
30 31 100 34 0.499999
31 31 100 34 0.500001
32 32 100 34 0.499999
33 32 100 34 0.500001
34 33 100 34 1
2 0 100 35 0.000189673
4 0 100 35 0.0639532
5 0 100 35 0.000354153
6 0 100 35 0.0826236
7 0 100 35 0.09974
10 0 100 35 1.47945e-06
11 0 100 35 0.00390106
12 0 100 35 0.0826263
15 0 100 35 0.000775081
16 0 100 35 0.0826236
19 0 100 35 0.000134872
20 0 100 35 0.165173
22 0 100 35 0.0826236
23 0 100 35 0.0826236
24 0 100 35 0.0826236
28 0 100 35 0.00470419
29 0 100 35 0.0826236
30 0 100 35 0.082441
33 0 100 35 1.16327e-06
35 0 100 35 0.000263151
1 1 100 35 1
2 2 100 35 0.998066
4 2 100 35 0.00182538
15 2 100 35 0.000108335
2 3 100 35 0.25
3 3 100 35 0.25
5 3 100 35 0.25
8 3 100 35 0.25
3 4 100 35 0.496574
4 4 100 35 4.25826e-05
7 4 100 35 0.00681018
9 4 100 35 0.496573
4 5 100 35 0.611046
7 5 100 35 0.388954
5 6 100 35 0.201872
11 6 100 35 0.798128
5 7 100 35 0.42643
10 7 100 35 0.57357
13 8 100 35 1
4 9 100 35 5.44347e-05
6 9 100 35 0.499971
7 9 100 35 2.08391e-05
12 9 100 35 0.499954
8 10 100 35 0.499845
9 10 100 35 0.499844
21 10 100 35 0.000311023
10 11 100 35 0.999951
33 11 100 35 4.85522e-05
14 12 100 35 1
15 13 100 35 1
11 14 100 35 0.00710083
17 14 100 35 0.494746
18 14 100 35 0.494746
28 14 100 35 0.00340632
16 15 100 35 0.516581
21 15 100 35 0.483222
31 15 100 35 6.61667e-05
33 15 100 35 0.000130236
20 16 100 35 0.000299005
22 16 100 35 0.333234
24 16 100 35 0.333234
25 16 100 35 0.333234
17 17 100 35 0.5
26 17 100 35 0.5
4 18 100 35 1.52648e-05
18 18 100 35 0.999985
11 19 100 35 4.02296e-05
19 19 100 35 0.0701275
27 19 100 35 0.927716
28 19 100 35 6.5693e-05
30 19 100 35 0.00205074
11 20 100 35 0.326453
28 20 100 35 0.673547
21 21 100 35 0.0342219
31 21 100 35 0.864671
33 21 100 35 0.101107
19 22 100 35 0.490156
21 22 100 35 0.254922
23 22 100 35 0.254922
21 23 100 35 0.0441068
25 23 100 35 0.766259
31 23 100 35 0.155086
33 23 100 35 0.0345483
26 24 100 35 0.5
30 24 100 35 0.5
34 25 100 35 1
27 26 100 35 0.279978
31 26 100 35 0.178048
32 26 100 35 0.279978
33 26 100 35 0.261996
29 27 100 35 0.334373
32 27 100 35 0.33189
35 27 100 35 0.333737
33 28 100 35 1
31 29 100 35 0.992627
32 29 100 35 0.00737302
34 30 100 35 1
35 31 100 35 1
2 0 100 38 0.00198106
5 0 100 38 3.09706e-06
8 0 100 38 0.0562131
10 0 100 38 0.187399
11 0 100 38 0.000640873
12 0 100 38 0.00226907
17 0 100 38 0.000296028
19 0 100 38 3.82479e-05
20 0 100 38 6.72355e-05
25 0 100 38 0.187695
30 0 100 38 0.187695
32 0 100 38 0.187695
34 0 100 38 0.187695
36 0 100 38 3.94972e-05
38 0 100 38 0.000271299
1 1 100 38 1
2 2 100 38 1
3 3 100 38 1
4 4 100 38 1
8 5 100 38 1
5 6 100 38 1
6 7 100 38 1
7 8 100 38 1
8 9 100 38 0.999952
19 9 100 38 4.84118e-05
5 10 100 38 0.00447071
11 10 100 38 0.995529
7 11 100 38 0.000303715
9 11 100 38 0.999696
12 12 100 38 1
13 13 100 38 1
14 14 100 38 0.5
15 14 100 38 0.5
8 15 100 38 0.655589
19 15 100 38 0.344411
16 16 100 38 1
5 17 100 38 0.000962583
11 17 100 38 0.999037
10 18 100 38 0.00157716
17 18 100 38 0.998423
20 19 100 38 0.999295
36 19 100 38 0.000704477
19 20 100 38 0.325157
21 20 100 38 0.337421
22 20 100 38 0.337421
23 21 100 38 1
8 22 100 38 0.570521
19 22 100 38 0.429479
18 23 100 38 1
8 24 100 38 0.052901
19 24 100 38 0.946802
38 24 100 38 0.000296714
33 25 100 38 1
24 26 100 38 1
26 27 100 38 0.333333
27 27 100 38 0.333333
28 27 100 38 0.333333
29 28 100 38 1
31 29 100 38 1
20 30 100 38 0.000569606
36 30 100 38 0.99943
35 31 100 38 1
11 32 100 38 3.77951e-05
37 32 100 38 0.999962
38 33 100 38 1
4 0 100 50 0.000130133
5 0 100 50 3.93581e-05
8 0 100 50 0.108528
11 0 100 50 0.109852
12 0 100 50 0.0693869
14 0 100 50 0.109852
15 0 100 50 0.0381286
19 0 100 50 0.000468999
22 0 100 50 0.109852
23 0 100 50 0.0122258
25 0 100 50 8.19052e-05
26 0 100 50 0.000180773
29 0 100 50 0.109852
30 0 100 50 0.109785
35 0 100 50 0.000328648
37 0 100 50 0.000154505
44 0 100 50 8.18859e-06
47 0 100 50 0.109852
48 0 100 50 0.109847
49 0 100 50 8.36328e-05
50 0 100 50 0.00136471
1 1 100 50 1
1 2 100 50 1
2 3 100 50 1
30 4 100 50 1
3 5 100 50 1
4 6 100 50 1
6 7 100 50 1
7 8 100 50 0.944059
25 8 100 50 0.055941
20 9 100 50 0.999957
27 9 100 50 4.3343e-05
9 10 100 50 0.333333
10 10 100 50 0.333334
13 10 100 50 0.333333
8 11 100 50 0.00404055
12 11 100 50 0.356519
15 11 100 50 0.639396
20 11 100 50 4.49009e-05
16 12 100 50 1
17 13 100 50 0.5
18 13 100 50 0.5
19 14 100 50 0.999985
26 14 100 50 1.52211e-05
21 15 100 50 1
23 16 100 50 0.999301
30 16 100 50 0.000661168
48 16 100 50 3.74899e-05
24 17 100 50 1
26 18 100 50 1
20 19 100 50 0.000192648
27 19 100 50 0.999807
28 20 100 50 0.5
31 20 100 50 0.5
7 21 100 50 0.00015367
25 21 100 50 0.999846
32 22 100 50 1
33 23 100 50 1
8 24 100 50 0.358234
12 24 100 50 0.29838
15 24 100 50 0.18791
20 24 100 50 0.155476
5 25 100 50 1
34 26 100 50 1
35 27 100 50 1
36 28 100 50 1
37 29 100 50 0.00261071
38 29 100 50 0.997389
39 30 100 50 1
36 31 100 50 1
37 32 100 50 0.992717
44 32 100 50 0.00659495
49 32 100 50 0.000687989
37 33 100 50 4.05571e-05
42 33 100 50 0.250409
43 33 100 50 0.250409
44 33 100 50 0.248733
45 33 100 50 0.250409
41 34 100 50 0.0224161
49 34 100 50 0.977584
8 35 100 50 5.34503e-05
12 35 100 50 7.07177e-05
15 35 100 50 5.81216e-05
40 35 100 50 0.0134084
46 35 100 50 0.986409
40 36 100 50 0.502369
41 36 100 50 0.497631
50 37 100 50 1
2 0 100 52 0.00888253
4 0 100 52 0.00131608
5 0 100 52 0.0964663
7 0 100 52 0.0965094
9 0 100 52 0.0227801
15 0 100 52 0.0965094
16 0 100 52 0.0949025
20 0 100 52 0.00165228
32 0 100 52 2.91912e-06
33 0 100 52 0.00191698
35 0 100 52 0.0965094
36 0 100 52 0.0959539
42 0 100 52 5.22827e-06
46 0 100 52 0.0965094
47 0 100 52 0.0963074
49 0 100 52 0.0965094
50 0 100 52 0.0963367
52 0 100 52 0.000930136
25 1 100 52 0.0812324
43 1 100 52 0.918768
3 2 100 52 0.994128
5 2 100 52 0.00587165
1 3 100 52 0.503435
4 3 100 52 0.496565
3 4 100 52 1
2 5 100 52 0.999373
20 5 100 52 0.000627001
22 6 100 52 0.0129313
32 6 100 52 0.987069
6 7 100 52 1
8 8 100 52 1
10 9 100 52 1
9 10 100 52 1
11 11 100 52 0.500001
12 11 100 52 0.499999
16 12 100 52 0.962037
36 12 100 52 0.0200167
50 12 100 52 0.0179467
13 13 100 52 0.00285891
22 13 100 52 0.997141
3 14 100 52 0.899629
5 14 100 52 0.100371
16 15 100 52 0.952004
33 15 100 52 0.000661207
36 15 100 52 0.019808
47 15 100 52 0.00976774
50 15 100 52 0.0177596
13 16 100 52 0.999841
40 16 100 52 0.000158749
18 17 100 52 0.5
19 17 100 52 0.5
14 18 100 52 0.333333
17 18 100 52 0.333335
21 18 100 52 0.333331
2 19 100 52 0.000579182
20 19 100 52 0.999421
16 20 100 52 0.00112016
33 20 100 52 0.989926
36 20 100 52 0.00548629
47 20 100 52 0.0019527
50 20 100 52 0.00151482
34 21 100 52 1
38 22 100 52 1
39 23 100 52 1
22 24 100 52 1
23 25 100 52 1
37 26 100 52 1
40 27 100 52 1
3 28 100 52 0.951749
5 28 100 52 0.0482509
41 29 100 52 1
24 30 100 52 1
9 31 100 52 1
25 32 100 52 1
26 33 100 52 0.500015
42 33 100 52 0.499985
21 34 100 52 1.44587e-05
22 34 100 52 0.999986
27 35 100 52 0.25
28 35 100 52 0.25
29 35 100 52 0.25
30 35 100 52 0.25
31 36 100 52 1
22 37 100 52 1
43 38 100 52 1
44 39 100 52 0.25
45 39 100 52 0.25
48 39 100 52 0.25
51 39 100 52 0.25
52 40 100 52 1
4 0 100 55 0.0812651
9 0 100 55 8.48122e-05
10 0 100 55 1.02439e-06
11 0 100 55 0.00012566
13 0 100 55 0.0812896
14 0 100 55 0.0812896
16 0 100 55 1.26834e-06
19 0 100 55 0.0201125
21 0 100 55 0.0812896
23 0 100 55 0.00522002
28 0 100 55 0.0812896
35 0 100 55 0.080064
36 0 100 55 0.0812896
38 0 100 55 0.0812896
43 0 100 55 0.0811446
44 0 100 55 0.0812896
46 0 100 55 0.0806439
47 0 100 55 0.000340763
48 0 100 55 2.71187e-06
49 0 100 55 0.0812896
52 0 100 55 0.000193145
55 0 100 55 0.000483814
1 1 100 55 0.824119
9 1 100 55 0.175881
2 2 100 55 1
3 3 100 55 1
6 4 100 55 1
6 5 100 55 1
5 6 100 55 1
9 7 100 55 1.04781e-05
10 7 100 55 0.99999
7 8 100 55 1
8 9 100 55 0.999983
9 9 100 55 1.66894e-05
4 10 100 55 0.883076
9 10 100 55 0.0852292
26 10 100 55 0.031695
9 11 100 55 0.439927
15 11 100 55 0.560073
26 12 100 55 0.652713
41 12 100 55 0.347287
20 13 100 55 1
25 14 100 55 1
22 15 100 55 0.00406304
55 15 100 55 0.995937
22 16 100 55 1
23 17 100 55 0.982302
35 17 100 55 0.0158256
43 17 100 55 0.00187249
24 18 100 55 1
22 19 100 55 0.498317
24 19 100 55 0.501683
26 20 100 55 1
27 21 100 55 1
28 22 100 55 1
29 23 100 55 1
11 24 100 55 1
12 25 100 55 0.25
30 25 100 55 0.25
31 25 100 55 0.25
32 25 100 55 0.25
33 26 100 55 0.999934
48 26 100 55 6.5775e-05
34 27 100 55 0.9997
46 27 100 55 0.000300178
37 28 100 55 0.333333
39 28 100 55 0.333333
40 28 100 55 0.333333
41 29 100 55 1
42 30 100 55 1
45 31 100 55 0.512966
47 31 100 55 0.487034
33 32 100 55 7.55e-05
47 32 100 55 1.33241e-05
48 32 100 55 0.999911
18 33 100 55 0.994334
47 33 100 55 0.00566576
52 34 100 55 1
19 35 100 55 0.998989
46 35 100 55 0.000957084
47 35 100 55 5.41017e-05
16 36 100 55 1
17 37 100 55 1
33 38 100 55 0.0179917
47 38 100 55 0.000121284
48 38 100 55 0.981887
47 39 100 55 0.033678
54 39 100 55 0.966322
53 40 100 55 1
52 41 100 55 1
19 42 100 55 0.0235335
46 42 100 55 0.550415
47 42 100 55 0.3918
55 42 100 55 0.0342518
47 43 100 55 0.000410434
50 43 100 55 0.499795
51 43 100 55 0.499795
55 44 100 55 1
1 0 100 75 1.29393e-05
3 0 100 75 0.0504903
5 0 100 75 0.050469
12 0 100 75 0.0504068
14 0 100 75 0.050491
16 0 100 75 0.0504891
18 0 100 75 0.0504901
20 0 100 75 0.0504872
21 0 100 75 0.0249214
23 0 100 75 5.28199e-05
24 0 100 75 0.050491
26 0 100 75 0.0504849
27 0 100 75 0.050491
30 0 100 75 0.0504672
31 0 100 75 0.000390738
33 0 100 75 0.000260025
36 0 100 75 0.00234935
39 0 100 75 0.0483186
44 0 100 75 0.015237
48 0 100 75 0.050482
51 0 100 75 3.14089e-05
54 0 100 75 0.050485
61 0 100 75 3.76261e-06
64 0 100 75 0.050489
66 0 100 75 0.0504863
67 0 100 75 0.0502391
70 0 100 75 0.05049
71 0 100 75 0.050491
75 0 100 75 1.96011e-06
1 1 100 75 0.999954
21 1 100 75 4.60893e-05
4 2 100 75 1
6 3 100 75 1
1 4 100 75 0.00025313
2 4 100 75 0.998468
21 4 100 75 0.00121258
31 4 100 75 2.61461e-05
67 4 100 75 3.98267e-05
57 5 100 75 1
6 6 100 75 1
7 7 100 75 1
8 8 100 75 0.499999
9 8 100 75 0.500001
14 9 100 75 1
10 10 100 75 0.333333
11 10 100 75 0.333333
13 10 100 75 0.333333
33 11 100 75 1
19 12 100 75 0.55161
63 12 100 75 0.44839
15 13 100 75 1
57 14 100 75 1
21 15 100 75 0.996303
31 15 100 75 2.4513e-05
67 15 100 75 0.00367268
17 16 100 75 0.333333
19 16 100 75 0.333333
22 16 100 75 0.333333
5 17 100 75 2.45456e-05
12 17 100 75 0.000229144
23 17 100 75 0.999746
25 18 100 75 0.333333
28 18 100 75 0.333333
29 18 100 75 0.333333
21 19 100 75 1.99106e-05
31 19 100 75 0.99998
33 20 100 75 1
32 21 100 75 1
57 22 100 75 1
33 23 100 75 1
34 24 100 75 1
34 25 100 75 1
34 26 100 75 1
35 27 100 75 1
37 28 100 75 1
3 29 100 75 1.49765e-05
16 29 100 75 3.46249e-05
18 29 100 75 1.77199e-05
20 29 100 75 7.52432e-05
26 29 100 75 0.000121833
30 29 100 75 0.000473584
36 29 100 75 0.955683
39 29 100 75 0.0431258
48 29 100 75 0.000179901
54 29 100 75 0.000119287
64 29 100 75 4.07044e-05
66 29 100 75 9.40137e-05
70 29 100 75 1.95823e-05
38 30 100 75 1
5 31 100 75 0.00503892
12 31 100 75 0.0117154
44 31 100 75 0.982495
51 31 100 75 0.000750721
40 32 100 75 1
5 33 100 75 0.000338424
12 33 100 75 0.00178965
44 33 100 75 0.997092
51 33 100 75 0.000780424
41 34 100 75 1
41 35 100 75 1
41 36 100 75 1
43 37 100 75 1
50 38 100 75 1
45 39 100 75 0.25
46 39 100 75 0.25
47 39 100 75 0.25
49 39 100 75 0.25
42 40 100 75 1
5 41 100 75 9.60343e-05
12 41 100 75 2.12332e-05
44 41 100 75 0.000534289
51 41 100 75 0.999348
52 42 100 75 1
53 43 100 75 1
55 44 100 75 0.5
56 44 100 75 0.5
57 45 100 75 1
62 46 100 75 1
58 47 100 75 1
59 48 100 75 1
60 49 100 75 1
61 50 100 75 1
62 51 100 75 1
63 52 100 75 1
65 53 100 75 1
57 54 100 75 1
68 55 100 75 1
69 56 100 75 1
72 57 100 75 1
2 58 100 75 0.016951
21 58 100 75 0.0763264
67 58 100 75 0.906723
73 59 100 75 1
74 60 100 75 1
75 61 100 75 1
4 0 100 90 7.60353e-07
7 0 100 90 0.0758704
16 0 100 90 0.00277745
18 0 100 90 0.000104407
22 0 100 90 0.0758751
23 0 100 90 0.00118512
25 0 100 90 8.03138e-05
27 0 100 90 0.0756545
30 0 100 90 1.2264e-06
35 0 100 90 2.01981e-06
36 0 100 90 0.0758751
38 0 100 90 0.00065281
39 0 100 90 0.0758672
41 0 100 90 0.0758749
44 0 100 90 9.09317e-06
45 0 100 90 0.0758709
50 0 100 90 1.33099e-05
52 0 100 90 0.0758751
60 0 100 90 9.29556e-07
61 0 100 90 0.00715185
63 0 100 90 0.0758751
64 0 100 90 0.0758713
68 0 100 90 1.31288e-06
72 0 100 90 0.00172254
74 0 100 90 0.0758729
75 0 100 90 2.57847e-06
83 0 100 90 1.37895e-06
84 0 100 90 0.0758751
85 0 100 90 0.0758697
90 0 100 90 0.000165807
1 1 100 90 1
2 2 100 90 1
3 3 100 90 1
42 4 100 90 1
50 5 100 90 0.999387
76 5 100 90 0.000612819
50 6 100 90 0.977139
76 6 100 90 0.0228613
35 7 100 90 0.48635
37 7 100 90 0.51365
7 8 100 90 6.01676e-05
38 8 100 90 0.99994
40 9 100 90 1
72 10 100 90 1
69 11 100 90 1
50 12 100 90 0.942269
76 12 100 90 0.057731
42 13 100 90 1
13 14 100 90 1
41 15 100 90 1
21 16 100 90 0.999249
71 16 100 90 0.00075122
16 17 100 90 0.999921
64 17 100 90 4.12549e-05
85 17 100 90 3.79968e-05
41 18 100 90 1
17 19 100 90 1
18 20 100 90 1
19 21 100 90 0.500006
20 21 100 90 0.499994
23 22 100 90 0.996952
27 22 100 90 0.00291198
39 22 100 90 7.46433e-05
45 22 100 90 4.36616e-05
74 22 100 90 1.79158e-05
24 23 100 90 1
25 24 100 90 1
26 25 100 90 1
69 26 100 90 1
28 27 100 90 1
29 28 100 90 0.500004
30 28 100 90 0.499996
31 29 100 90 1
32 30 100 90 0.999984
44 30 100 90 1.62969e-05
34 31 100 90 1
33 32 100 90 1
52 33 100 90 1
35 34 100 90 0.000612108
54 34 100 90 0.164261
67 34 100 90 0.795397
88 34 100 90 0.0397303
15 35 100 90 0.949549
35 35 100 90 0.0504507
42 36 100 90 1
6 37 100 90 0.0701941
43 37 100 90 0.929806
43 38 100 90 1
8 39 100 90 0.999966
15 39 100 90 3.37059e-05
9 40 100 90 0.166667
10 40 100 90 0.166667
11 40 100 90 0.166667
12 40 100 90 0.166667
14 40 100 90 0.166667
46 40 100 90 0.166667
51 41 100 90 1
53 42 100 90 1
48 43 100 90 0.99704
57 43 100 90 0.00296038
49 44 100 90 1
59 45 100 90 0.00809177
60 45 100 90 0.0279439
61 45 100 90 0.0161288
62 45 100 90 0.0149964
80 45 100 90 0.000350475
83 45 100 90 0.932489
52 46 100 90 1
55 47 100 90 1
54 48 100 90 0.999685
67 48 100 90 0.00031465
44 49 100 90 0.999913
60 49 100 90 8.6549e-05
47 50 100 90 1
48 51 100 90 0.00296038
57 51 100 90 0.99704
58 52 100 90 1
56 53 100 90 1
43 54 100 90 1
6 55 100 90 1
6 56 100 90 1
32 57 100 90 0.00225865
44 57 100 90 0.0050385
62 57 100 90 0.00145754
83 57 100 90 0.991245
7 58 100 90 0.430719
16 58 100 90 0.332134
74 58 100 90 0.237147
55 59 100 90 1
54 60 100 90 0.320077
67 60 100 90 0.601938
88 60 100 90 0.0779843
5 61 100 90 1
5 62 100 90 1
27 63 100 90 0.375321
39 63 100 90 0.357372
45 63 100 90 0.133689
74 63 100 90 0.133618
4 64 100 90 0.499864
21 64 100 90 0.000321158
64 64 100 90 5.02666e-06
71 64 100 90 0.499505
72 64 100 90 0.000287087
85 64 100 90 1.73612e-05
4 65 100 90 1.12477e-05
20 65 100 90 2.26939e-05
70 65 100 90 0.999966
72 66 100 90 0.0463273
73 66 100 90 0.953673
37 67 100 90 9.07655e-06
68 67 100 90 0.499999
75 67 100 90 0.499992
54 68 100 90 0.000335704
67 68 100 90 0.999479
88 68 100 90 0.000185585
76 69 100 90 0.496095
77 69 100 90 0.503905
78 70 100 90 1
79 71 100 90 1
80 72 100 90 0.999627
83 72 100 90 0.000373502
81 73 100 90 1
61 74 100 90 0.000315272
82 74 100 90 0.999685
44 75 100 90 3.18093e-06
59 75 100 90 0.254007
60 75 100 90 0.248946
61 75 100 90 0.227752
62 75 100 90 0.252254
83 75 100 90 0.0170382
65 76 100 90 0.2
66 76 100 90 0.2
86 76 100 90 0.2
87 76 100 90 0.2
89 76 100 90 0.2
67 77 100 90 1.13863e-05
88 77 100 90 0.999989
90 78 100 90 1
