2 0.65444 0.302659 0.0429014 0 0 0 0 0 0 0 
3 0.639284 0.317815 0.0429014 0 0 0 0 0 0 0 
4 0.069488 0.840393 0.0057227 0.0843956 0 0 0 0 0 0 
5 0.701072 0.266373 0.0325548 0 0 0 0 0 0 0 
6 0.412534 0.570604 0.0168616 0 0 0 0 0 0 0 
7 0.227146 0.66049 0.0992996 0 0.013064 0 0 0 0 0 
8 0.103654 0.841641 0.0182369 0 0 0.0364673 0 0 0 0 
9 0.34846 0.637086 0.0144545 0 0 0 0 0 0 0 
10 0.0815653 0.831006 0.00555197 0.0818763 0 0 0 0 0 0 
11 0.00125845 0.643277 0.195158 0.134396 0 0.025911 0 0 0 0 
12 0.690301 0.271623 0.0380758 0 0 0 0 0 0 0 
13 0.0440688 0.651536 0.21997 0.00880996 0.075615 0 0 0 0 0 
14 0.103683 0.755944 0.0530993 0.0521082 0.0175825 0 0.0175825 0 0 0 
15 0.235817 0.648559 0.10218 0 0.0134426 0 0 0 0 0 
16 0.0440688 0.651536 0.21997 0.00880996 0.075615 0 0 0 0 0 
17 0.103683 0.771329 0.0377147 0.0521082 0.0175825 0 0.0175825 0 0 0 
18 0.103709 0.771303 0.0377147 0.0521082 0.0175825 0 0.0175825 0 0 0 
19 0.0421251 0.666713 0.210461 0.00842129 0.072279 0 0 0 0 0 
20 0.0489429 0.608969 0.263205 0.0788828 0 0 0 0 0 0 
21 0.102125 0.77478 0.0371432 0.0513186 0.0173161 0 0.0173161 0 0 0 
22 0 0.815384 0 0 0 0.184615 0 0 0 0 
23 0.0434066 0.653576 0.219871 0.00867648 0.0744693 0 0 0 0 0 
24 0.100588 0.778154 0.0365888 0.0505527 0.0170576 0 0.0170576 0 0 0 
25 0.259608 0.71448 3.696e-07 0.0094548 0.0164561 0 0 0 0 0 
26 0.066953 0.846901 0.00547267 0.0806722 0 0 0 0 0 0 
27 0.0684351 0.842771 0.00567588 0.0831169 0 0 0 0 0 0 
28 0.415145 0.568497 0.0163583 0 0 0 0 0 0 0 
29 0.230697 0.646567 0.108466 0 0.0142699 0 0 0 0 0 
30 0.0441307 0.651364 0.22008 0.00880996 0.075615 0 0 0 0 0 
31 0.0440688 0.636151 0.21997 0.0089104 0.0908991 0 0 0 0 0 
32 0.629763 0.312696 0.0575407 0 0 0 0 0 0 0 
33 0.0434221 0.646054 0.228607 0.00855916 0.0733578 0 0 0 0 0 
34 0.0434011 0.642216 0.231236 0.00867648 0.0744693 0 0 0 0 0 
35 0.199873 0.77047 4.10807e-07 0.0108218 0.0188353 0 0 0 0 0 
36 0.0440688 0.651536 0.21997 0.00880996 0.075615 0 0 0 0 0 
37 0.664501 0.291938 0.0435615 0 0 0 0 0 0 0 
38 0.07126 0.627685 0.220354 0.00842129 0.072279 0 0 0 0 0 
39 0.682763 0.285415 0.0318222 0 0 0 0 0 0 0 
40 0.103685 0.771327 0.0377147 0.0521082 0.0175825 0 0.0175825 0 0 0 
41 0.103683 0.771329 0.0377147 0.0521082 0.0175825 0 0.0175825 0 0 0 
42 0.639283 0.287591 0.073126 0 0 0 0 0 0 0 
43 0.248223 0.702326 8.88326e-07 0.0141842 0.0352663 0 0 0 0 0 
44 0.0489429 0.608969 0.24782 0.0942674 0 0 0 0 0 0 
45 0.52647 0.461128 0.0124016 0 0 0 0 0 0 0 
46 0.0633528 0.614893 0.244066 0.0776876 0 0 0 0 0 0 
47 0.215706 0.661558 0.108466 0 0.0142699 0 0 0 0 0 
48 0.0901243 0.821122 0.00563634 0.0831169 0 0 0 0 0 0 
49 0.00125845 0.643277 0.195158 0.134396 0 0.025911 0 0 0 0 
50 0.103683 0.755944 0.0377147 0.0674928 0.0175825 0 0.0175825 0 0 0 
51 0.0440688 0.651536 0.21997 0.00880996 0.075615 0 0 0 0 0 
52 0.230826 0.646438 0.108466 0 0.0142699 0 0 0 0 0 
53 0.118494 0.756518 0.0377147 0.0521082 0.0175825 0 0.0175825 0 0 0 
54 0.104522 0.770489 0.0377147 0.0521082 0.0175825 0 0.0175825 0 0 0 
55 0.0991091 0.781417 0.0360509 0.0498093 0.0168068 0 0.0168068 0 0 0 
56 0.00129914 0.658616 0.195163 0.119011 0 0.025911 0 0 0 0 
57 0.102084 0.844041 0.0179606 0 0 0.0359147 0 0 0 0 
58 0 0.673065 0.244883 0 0.0820513 0 0 0 0 0 
59 0.230981 0.646282 0.108466 0 0.0142699 0 0 0 0 0 
60 0.118832 0.75618 0.0377147 0.0521082 0.0175825 0 0.0175825 0 0 0 
61 0.0444136 0.651191 0.21997 0.00880996 0.075615 0 0 0 0 0 
62 0.212448 0.666675 0.106822 0 0.0140536 0 0 0 0 0 
63 0.102084 0.844041 0.0179606 0 0 0.0359147 0 0 0 0 
64 0.215706 0.646174 0.108466 0 0.0296545 0 0 0 0 0 
65 0.102084 0.844041 0.0179606 0 0 0.0359147 0 0 0 0 
66 0.26502 0.701716 6.07655e-07 0.0121379 0.0211261 0 0 0 0 0 
67 0 0.673065 0.244883 0 0.0820513 0 0 0 0 0 
68 0.0489429 0.608969 0.263205 0.0788828 0 0 0 0 0 0 
69 0.0440688 0.651536 0.21997 0.00880996 0.075615 0 0 0 0 0 
70 0.212442 0.666681 0.106822 0 0.0140536 0 0 0 0 0 
71 0.069488 0.840393 0.0057227 0.0843956 0 0 0 0 0 0 
72 0.215706 0.661558 0.108466 0 0.0142699 0 0 0 0 0 
73 0.103683 0.771329 0.0377147 0.0521082 0.0175825 0 0.0175825 0 0 0 
74 0.0440688 0.651536 0.21997 0.00880996 0.075615 0 0 0 0 0 
75 0.103654 0.841641 0.0182369 0 0 0.0364673 0 0 0 0 
76 0.0440688 0.651536 0.21997 0.00880996 0.075615 0 0 0 0 0 
77 0.659096 0.298643 0.0422611 0 0 0 0 0 0 0 
78 0.215706 0.646384 0.12364 0 0.0142699 0 0 0 0 0 
79 0.21639 0.660874 0.108466 0 0.0142699 0 0 0 0 0 
80 0.0482013 0.630045 0.244066 0.0776876 0 0 0 0 0 0 
81 0.0684351 0.842811 0.005636 0.0831169 0 0 0 0 0 0 
82 0.102112 0.774793 0.0371432 0.0513186 0.0173161 0 0.0173161 0 0 0 
83 0.0440688 0.636151 0.235355 0.00880996 0.075615 0 0 0 0 0 
84 0.00123942 0.648681 0.207352 0.117208 0 0.0255184 0 0 0 0 
85 0.00125845 0.643277 0.195158 0.134395 0 0.025911 0 0 0 0 
86 0.103654 0.841641 0.0182369 0 0 0.0364673 0 0 0 0 
87 0.103654 0.841641 0.0182369 0 0 0.0364673 0 0 0 0 
88 0.10056 0.846368 0.0176926 0 0 0.0353787 0 0 0 0 
89 0.103654 0.841641 0.0182369 0 0 0.0364673 0 0 0 0 
90 0.103683 0.771329 0.0377147 0.0521082 0.0175825 0 0.0175825 0 0 0 
91 0.215706 0.661558 0.108466 0 0.0142699 0 0 0 0 0 
92 0.215706 0.661558 0.108466 0 0.0142699 0 0 0 0 0 
93 0.216465 0.662652 0.106829 0 0.0140536 0 0 0 0 0 
94 0.0440688 0.636152 0.235354 0.00880996 0.075615 0 0 0 0 0 
95 0 0.657681 0.244883 0 0.0974359 0 0 0 0 0 
96 0.215706 0.661558 0.108466 0 0.0142699 0 0 0 0 0 
97 0.235425 0.645503 0.105228 0 0.0138439 0 0 0 0 0 
98 0.0440688 0.636151 0.21997 0.00880996 0.0909996 0 0 0 0 0 
99 0.454204 0.530139 0.0156572 0 0 0 0 0 0 0 
100 0.215706 0.646992 0.123032 0 0.0142699 0 0 0 0 0 
101 0.215706 0.661558 0.108466 0 0.0142699 0 0 0 0 0 
102 0.10707 0.839055 0.0179606 0 0 0.0359147 0 0 0 0 
103 0.422166 0.56277 0.0150637 0 0 0 0 0 0 0 
104 0 0.673065 0.244883 0 0.0820513 0 0 0 0 0 
105 0.400237 0.583404 0.0163583 0 0 0 0 0 0 0 
106 0.650634 0.309482 0.0398848 0 0 0 0 0 0 0 
107 0.103686 0.771321 0.0377193 0.0521082 0.0175825 0 0.0175825 0 0 0 
108 0.215706 0.661558 0.108466 0 0.0142699 0 0 0 0 0 
109 0.0476723 0.635163 0.240636 0.0765281 0 0 0 0 0 0 
110 0.103654 0.841641 0.0182369 0 0 0.0364673 0 0 0 0 
111 0.111754 0.766263 0.0373139 0.0505527 0.0170576 0 0.0170576 0 0 0 
112 0.103683 0.771329 0.0377147 0.0521082 0.0175825 0 0.0175825 0 0 0 
113 0 0.673065 0.244883 0 0.0820513 0 0 0 0 0 
114 0.103654 0.826257 0.0336212 0 0 0.0364673 0 0 0 0 
115 0.00125845 0.658661 0.195158 0.119011 0 0.025911 0 0 0 0 
116 0.103683 0.771329 0.0377147 0.0521082 0.0175825 0 0.0175825 0 0 0 
117 0.115452 0.831474 0.0176954 0 0 0.0353787 0 0 0 0 
118 0.0440693 0.650718 0.220788 0.00880996 0.075615 0 0 0 0 0 
119 0.17452 0.661376 0 0.164102 0 0 0 0 0 0 
120 0.664823 0.293537 0.0416396 0 0 0 0 0 0 0 
121 0.103683 0.755944 0.0377147 0.0521082 0.0175825 0 0.0329671 0 0 0 
122 0.043402 0.656814 0.216637 0.00867648 0.0744693 0 0 0 0 0 
123 0 0.999999 0 0 0 0 0 0 0 0 
124 0.226149 0.737651 5.01427e-07 0.0132089 0.0229902 0 0 0 0 0 
125 0.412534 0.570604 0.0168616 0 0 0 0 0 0 0 
126 0.421435 0.561959 0.0166061 0 0 0 0 0 0 0 
127 0.255523 0.708278 5.08243e-07 0.0132089 0.0229902 0 0 0 0 0 
128 0.0012209 0.653842 0.204341 0.115459 0 0.0251375 0 0 0 0 
129 0.649118 0.307321 0.0435615 0 0 0 0 0 0 0 
130 0.069488 0.840393 0.0057227 0.0843956 0 0 0 0 0 0 
131 0.0697506 0.84013 0.0057227 0.0843956 0 0 0 0 0 0 
132 0.427686 0.555452 0.0168616 0 0 0 0 0 0 0 
133 0.230517 0.646747 0.108466 0 0.0142699 0 0 0 0 0 
134 0.0700615 0.839819 0.0057227 0.0843956 0 0 0 0 0 0 
135 0.0440688 0.636152 0.235354 0.00881023 0.075615 0 0 0 0 0 
136 0 0.647951 0.27124 0 0.0808081 0 0 0 0 0 
137 0.649118 0.307321 0.0435615 0 0 0 0 0 0 0 
138 0.412534 0.570599 0.0168664 0 0 0 0 0 0 0 
139 0 0.799999 0 0 0 0.2 0 0 0 0 
140 0.134135 0.821418 0.0148175 0 0 0.0296297 0 0 0 0 
141 0.103654 0.841641 0.0182369 0 0 0.0364673 0 0 0 0 
142 0.00122088 0.653649 0.204533 0.115459 0 0.0251375 0 0 0 0 
143 0.0489429 0.624351 0.247822 0.0788828 0 0 0 0 0 0 
144 0.103654 0.841641 0.0182369 0 0 0.0364673 0 0 0 0 
145 0.212511 0.666613 0.106822 0 0.0140536 0 0 0 0 0 
146 0.227589 0.651535 0.106822 0 0.0140536 0 0 0 0 0 
147 0.0440688 0.651536 0.21997 0.00880996 0.075615 0 0 0 0 0 
148 0.159562 0.676335 0 0.164102 0 0 0 0 0 0 
149 0.0440688 0.636151 0.21997 0.00883523 0.0909743 0 0 0 0 0 
150 0.0440688 0.651536 0.21997 0.00880996 0.075615 0 0 0 0 0 
151 0.0434011 0.641659 0.231794 0.00867649 0.0744693 0 0 0 0 0 
152 0.411652 0.572691 0.0156572 0 0 0 0 0 0 0 
153 0.103654 0.841641 0.0182369 0 0 0.0364673 0 0 0 0 
154 0.105818 0.769194 0.0377147 0.0521082 0.0175825 0 0.0175825 0 0 0 
155 0.228956 0.648308 0.108466 0 0.0142699 0 0 0 0 0 
156 0.0440688 0.651536 0.21997 0.00880996 0.075615 0 0 0 0 0 
157 0.212437 0.636391 0.137118 0 0.0140536 0 0 0 0 0 
158 0.209267 0.671661 0.105228 0 0.0138439 0 0 0 0 0 
159 0.00125845 0.658661 0.195158 0.119011 0 0.025911 0 0 0 0 
160 0.215706 0.661558 0.108466 0 0.0142699 0 0 0 0 0 
161 0.649118 0.307321 0.0435615 0 0 0 0 0 0 0 
162 0.00125845 0.658661 0.195158 0.119011 0 0.025911 0 0 0 0 
163 0.103683 0.755944 0.0530992 0.0521082 0.0175825 0 0.0175825 0 0 0 
164 0.103683 0.771329 0.0377147 0.0521082 0.0175825 0 0.0175825 0 0 0 
165 0.215706 0.661558 0.108466 0 0.0142699 0 0 0 0 0 
166 0.412535 0.570603 0.0168618 0 0 0 0 0 0 0 
167 0.069488 0.837307 0.00880877 0.0843956 0 0 0 0 0 0 
168 0.412534 0.570604 0.0168616 0 0 0 0 0 0 0 
169 0.103654 0.841641 0.0182369 0 0 0.0364673 0 0 0 0 
170 0 0.799999 0 0 0 0.2 0 0 0 0 
171 0.0440688 0.651524 0.219981 0.00880996 0.075615 0 0 0 0 0 
172 0.103683 0.771329 0.0377147 0.0521082 0.0175825 0 0.0175825 0 0 0 
173 0.103654 0.841641 0.0182369 0 0 0.0364673 0 0 0 0 
174 0.103683 0.755944 0.0377147 0.0674927 0.0175825 0 0.0175825 0 0 0 
175 0.412534 0.570604 0.0168616 0 0 0 0 0 0 0 
176 0.236548 0.725581 5.24569e-07 0.0138186 0.0240513 0 0 0 0 0 
177 0.412534 0.570604 0.0168616 0 0 0 0 0 0 0 
178 0.069488 0.840393 0.0057227 0.0843956 0 0 0 0 0 0 
179 0.00125845 0.658661 0.195158 0.119011 0 0.025911 0 0 0 0 
180 0.103683 0.771329 0.0377147 0.0521082 0.0175825 0 0.0175825 0 0 0 
181 0.069488 0.840393 0.0057227 0.0843956 0 0 0 0 0 0 
182 0.0434011 0.656815 0.216637 0.00867648 0.0744693 0 0 0 0 0 
183 0.102117 0.774781 0.037151 0.0513186 0.0173161 0 0.0173161 0 0 0 
184 0.126732 0.754667 0.0363872 0.0490874 0.0165632 0 0.0165632 0 0 0 
185 0.069488 0.840393 0.0057227 0.0843956 0 0 0 0 0 0 
186 0.0440688 0.636151 0.235355 0.00880996 0.075615 0 0 0 0 0 
187 0.412534 0.570604 0.0168616 0 0 0 0 0 0 0 
188 0 0.818181 0 0 0 0.181818 0 0 0 0 
189 0.103683 0.755944 0.0382739 0.0669336 0.0175825 0 0.0175825 0 0 0 
190 0.00123938 0.648682 0.198366 0.126194 0 0.0255184 0 0 0 0 
191 0.215706 0.661558 0.108466 0 0.0142699 0 0 0 0 0 
192 0 0.815384 0 0 0 0.184615 0 0 0 0 
193 0.069488 0.825008 0.0057227 0.0997802 0 0 0 0 0 0 
194 0.215706 0.661558 0.108466 0 0.0142699 0 0 0 0 0 
195 0.159562 0.676335 0 0.164102 0 0 0 0 0 0 
196 0.00125846 0.658661 0.195158 0.119011 0 0.025911 0 0 0 0 
197 0.216297 0.660966 0.108466 0 0.0142699 0 0 0 0 0 
198 0.0440688 0.637117 0.234389 0.00880996 0.075615 0 0 0 0 0 
199 0.215855 0.661409 0.108466 0 0.0142699 0 0 0 0 0 
200 0.215706 0.661558 0.108466 0 0.0142699 0 0 0 0 0 
201 0.00125845 0.658661 0.195158 0.119011 0 0.025911 0 0 0 0 
202 0.103654 0.826257 0.0182369 0 0 0.0518519 0 0 0 0 
203 0.069488 0.840393 0.0057227 0.0843956 0 0 0 0 0 0 
204 0.00125845 0.643277 0.210542 0.119011 0 0.025911 0 0 0 0 
205 0.215706 0.661558 0.108466 0 0.0142699 0 0 0 0 0 
206 0.103654 0.841641 0.0182369 0 0 0.0364673 0 0 0 0 
207 0 0.673065 0.244883 0 0.0820513 0 0 0 0 0 
208 0.00123938 0.663305 0.192729 0.117208 0 0.0255184 0 0 0 0 
209 0 0.815384 0 0 0 0.184615 0 0 0 0 
210 0.109265 0.836031 0.0182369 0 0 0.0364673 0 0 0 0 
211 0.103655 0.841641 0.0182369 0 0 0.0364673 0 0 0 0 
212 0.0538431 0.641761 0.21997 0.00880996 0.075615 0 0 0 0 0 
213 0.0440688 0.651536 0.21997 0.00880996 0.075615 0 0 0 0 0 
214 0.0489429 0.624353 0.24782 0.0788828 0 0 0 0 0 0 
215 0.0440688 0.636151 0.21997 0.00880999 0.0909995 0 0 0 0 0 
216 0.0489429 0.608969 0.263205 0.0788828 0 0 0 0 0 0 
217 0.115514 0.763229 0.0365888 0.0505527 0.0170576 0 0.0170576 0 0 0 
218 0.0489429 0.608969 0.263204 0.0788828 0 0 0 0 0 0 
219 0.0440688 0.636151 0.235355 0.00880996 0.075615 0 0 0 0 0 
220 0 0.673065 0.244883 0 0.0820513 0 0 0 0 0 
221 0.069488 0.840393 0.0057227 0.0843956 0 0 0 0 0 0 
222 0.103683 0.771329 0.0377147 0.0521082 0.0175825 0 0.0175825 0 0 0 
223 0.0489429 0.624353 0.247821 0.0788828 0 0 0 0 0 0 
224 0.215706 0.648104 0.121919 0 0.0142699 0 0 0 0 0 
225 0.0489429 0.608969 0.249009 0.0930792 0 0 0 0 0 0 
226 0.103683 0.771329 0.0377147 0.0521082 0.0175825 0 0.0175825 0 0 0 
227 0.0440688 0.651536 0.21997 0.00880996 0.075615 0 0 0 0 0 
228 0.0440688 0.636265 0.23524 0.00880997 0.075615 0 0 0 0 0 
229 0.215706 0.661444 0.10858 0 0.0142699 0 0 0 0 0 
230 0.0440688 0.651536 0.21997 0.00880996 0.075615 0 0 0 0 0 
231 0.215706 0.661558 0.108466 0 0.0142699 0 0 0 0 0 
232 0.103683 0.771329 0.0377147 0.0521082 0.0175825 0 0.0175825 0 0 0 
233 0.159562 0.676335 0 0.164102 0 0 0 0 0 0 
234 0 0.815384 0 0 0 0.184615 0 0 0 0 
235 0.069488 0.840393 0.0057227 0.0843956 0 0 0 0 0 0 
236 0.215706 0.646173 0.12385 0 0.0142699 0 0 0 0 0 
237 0.0434425 0.656768 0.216643 0.00867648 0.0744693 0 0 0 0 0 
238 0.103654 0.826257 0.0182369 0 0 0.0518519 0 0 0 0 
239 0.103683 0.771329 0.0377147 0.0521082 0.0175825 0 0.0175825 0 0 0 
240 0.069488 0.840393 0.0057227 0.0843956 0 0 0 0 0 0 
241 0.069488 0.840393 0.0057227 0.0843956 0 0 0 0 0 0 
242 0.0459836 0.655633 0.216479 0.00854698 0.0733578 0 0 0 0 0 
243 0.649118 0.30732 0.0435616 0 0 0 0 0 0 0 
244 0.0440688 0.651535 0.21997 0.00880996 0.075615 0 0 0 0 0 
245 0.227575 0.639647 0.118723 0 0.0140536 0 0 0 0 0 
246 0 0.815384 0 0 0 0.184615 0 0 0 0 
247 0.00125845 0.658661 0.195158 0.119011 0 0.025911 0 0 0 0 
248 0.227588 0.651536 0.106822 0 0.0140536 0 0 0 0 0 
249 0.00125845 0.643382 0.210437 0.119011 0 0.025911 0 0 0 0 
250 0.0489429 0.624353 0.24782 0.0788828 0 0 0 0 0 0 
251 0.103683 0.755944 0.0377147 0.0521082 0.0329671 0 0.0175825 0 0 0 
252 0.00125845 0.643277 0.195158 0.134396 0 0.025911 0 0 0 0 
253 0.649136 0.307302 0.0435615 0 0 0 0 0 0 0 
254 0.0684352 0.842811 0.005636 0.0831169 0 0 0 0 0 0 
255 0.0489429 0.609746 0.262427 0.0788828 0 0 0 0 0 0 
256 0.069488 0.840393 0.0057227 0.0843956 0 0 0 0 0 0 
257 0.0440688 0.636151 0.235342 0.0088226 0.075615 0 0 0 0 0 
258 0.069488 0.825008 0.00572271 0.0997802 0 0 0 0 0 0 
259 0.00125845 0.658661 0.195158 0.119011 0 0.025911 0 0 0 0 
260 0.412534 0.555488 0.0319773 0 0 0 0 0 0 0 
261 0.0489429 0.624353 0.24782 0.0788828 0 0 0 0 0 0 
262 0.00125845 0.658661 0.195158 0.119011 0 0.025911 0 0 0 0 
263 0.069488 0.840393 0.0057227 0.0843956 0 0 0 0 0 0 
264 0.00125845 0.643277 0.195158 0.119011 0 0.0412956 0 0 0 0 
265 0 0.815384 0 0 0 0.184615 0 0 0 0 
266 0 0.673065 0.244883 0 0.0820513 0 0 0 0 0 
267 0.412534 0.570604 0.0168616 0 0 0 0 0 0 0 
268 0.412534 0.564625 0.0228406 0 0 0 0 0 0 0 
269 0.215706 0.661558 0.108466 0 0.0142699 0 0 0 0 0 
270 0.00125845 0.658661 0.195158 0.119011 0 0.025911 0 0 0 0 
271 0.103683 0.771329 0.0377147 0.0521082 0.0175825 0 0.0175825 0 0 0 
272 0.0489429 0.624353 0.24782 0.0788828 0 0 0 0 0 0 
273 0.236548 0.710197 5.24569e-07 0.0292031 0.0240513 0 0 0 0 0 
274 0.103654 0.841641 0.0182369 0 0 0.0364673 0 0 0 0 
275 0.215836 0.661428 0.108466 0 0.0142699 0 0 0 0 0 
276 0.103683 0.771329 0.0377147 0.0521082 0.0175825 0 0.0175825 0 0 0 
277 0 0.815384 0 0 0 0.184615 0 0 0 0 
278 0.216336 0.660928 0.108466 0 0.0142699 0 0 0 0 0 
279 0.663872 0.292566 0.0435615 0 0 0 0 0 0 0 
280 0.236548 0.710197 5.24569e-07 0.0138186 0.0394359 0 0 0 0 0 
281 0.0489429 0.624353 0.24782 0.0788828 0 0 0 0 0 0 
282 0.0434282 0.656761 0.216664 0.00867648 0.0744693 0 0 0 0 0 
283 0.103654 0.841641 0.0182369 0 0 0.0364673 0 0 0 0 
284 0.00125845 0.658661 0.195158 0.119011 0 0.025911 0 0 0 0 
285 0.649118 0.291936 0.0589461 0 0 0 0 0 0 0 
286 0 0.815384 0 0 0 0.184615 0 0 0 0 
287 0 0.815384 0 0 0 0.184615 0 0 0 0 
288 0.00125845 0.65845 0.195369 0.119011 0 0.025911 0 0 0 0 
289 0.412746 0.570393 0.0168616 0 0 0 0 0 0 0 
290 0.103654 0.841641 0.0182369 0 0 0.0364673 0 0 0 0 
291 0 0.799999 0 0 0 0.2 0 0 0 0 
292 0.00125845 0.658661 0.195158 0.119011 0 0.025911 0 0 0 0 
293 0.236548 0.725581 5.24569e-07 0.0138186 0.0240513 0 0 0 0 0 
294 0.412534 0.570604 0.0168616 0 0 0 0 0 0 0 
295 0.0440688 0.636151 0.235354 0.00880996 0.075615 0 0 0 0 0 
296 0 0.815384 0 0 0 0.184615 0 0 0 0 
297 0.215706 0.646174 0.12385 0 0.0142699 0 0 0 0 0 
298 0.103683 0.771328 0.0377147 0.0521082 0.0175825 0 0.0175825 0 0 0 
299 0.103654 0.841641 0.0182369 0 0 0.0364673 0 0 0 0 
300 0.00125845 0.643316 0.210503 0.119011 0 0.025911 0 0 0 0 
301 0 0.815384 0 0 0 0.184615 0 0 0 0 
302 0.00125845 0.658643 0.195175 0.119011 0 0.025911 0 0 0 0 
303 0 0.673065 0.244883 0 0.0820513 0 0 0 0 0 
304 0.103683 0.771329 0.0377147 0.0521082 0.0175825 0 0.0175825 0 0 0 
305 0.0517155 0.621581 0.24782 0.0788828 0 0 0 0 0 0 
306 0.228318 0.648946 0.108466 0 0.0142699 0 0 0 0 0 
307 0.664494 0.291945 0.0435615 0 0 0 0 0 0 0 
308 0.0440688 0.636151 0.235355 0.00880996 0.075615 0 0 0 0 0 
309 0.069488 0.840393 0.0057227 0.0843956 0 0 0 0 0 0 
310 0.159562 0.676335 0 0.164102 0 0 0 0 0 0 
311 0.0440688 0.651536 0.21997 0.00880996 0.075615 0 0 0 0 0 
312 0.103683 0.771329 0.0377147 0.0521082 0.0175825 0 0.0175825 0 0 0 
313 0.215706 0.661553 0.108471 0 0.0142699 0 0 0 0 0 
314 0.0489429 0.608974 0.2632 0.0788828 0 0 0 0 0 0 
315 0.0434011 0.626512 0.223127 0.0173395 0.0896199 0 0 0 0 0 
316 0.00125845 0.643277 0.210542 0.119011 0 0.025911 0 0 0 0 
317 0.069488 0.825008 0.0057227 0.0997802 0 0 0 0 0 0 
318 0.00196483 0.65703 0.196083 0.119011 0 0.025911 0 0 0 0 
319 0.215706 0.661558 0.108466 0 0.0142699 0 0 0 0 0 
320 0.0440688 0.651536 0.21997 0.00880996 0.075615 0 0 0 0 0 
321 0.103654 0.841641 0.0182369 0 0 0.0364673 0 0 0 0 
322 0 0.657681 0.260267 0 0.0820513 0 0 0 0 0 
323 0.159562 0.660951 0 0.179487 0 0 0 0 0 0 
324 0.0489429 0.624353 0.24782 0.0788828 0 0 0 0 0 0 
325 0.103654 0.841641 0.0182369 0 0 0.0364673 0 0 0 0 
326 0.103655 0.841641 0.0182369 0 0 0.0364673 0 0 0 0 
327 0.00125845 0.658661 0.195158 0.119011 0 0.025911 0 0 0 0 
