0 5 0.0171263
0 6 1.14363e-05
0 8 1.38335e-05
0 9 0.110876
0 12 0.516262
0 17 0.0504496
0 20 0.158426
0 27 0.0507143
0 29 0.00130651
21 24 0.999964
0 38 6.14108e-06
0 39 0.00754204
0 44 1.59973e-06
0 56 0.0861058
42 44 0.250315
42 45 0.50063
0 69 1.78115e-07
0 82 0.000109999
42 76 0.249019
63 68 0.999964
0 95 1.41498e-06
0 101 2.43981e-07
0 107 4.36982e-07
168 52 0.999964
84 90 0.666642
84 91 0.333322
0 127 2.14727e-07
0 128 2.74118e-07
0 132 3.46888e-05
0 141 1.46597e-07
0 142 0.000760316
0 145 1.39573e-07
105 118 0.666901
126 138 0.999964
315 73 0.543474
0 195 8.31125e-05
0 200 1.64372e-06
189 131 0.337409
0 214 7.81912e-05
147 159 0.999964
0 239 2.71454e-07
0 242 1.31672e-05
0 264 1.0165e-07
189 200 0.325145
189 201 0.337409
294 172 0.999964
0 299 4.02242e-05
210 225 0.999964
231 251 0.999964
252 277 0.333321
252 278 0.333321
252 279 0.333321
105 337 0.333064
273 304 0.333321
273 305 0.333321
273 306 0.333321
315 347 0.45649
10 18 0.519189
31 29 0.248765
31 34 0.2504
31 35 0.2504
31 36 0.2504
10 69 9.63603e-05
52 57 0.999964
73 51 0.999964
157 44 0.499927
94 96 0.499997
94 107 0.499967
136 95 0.498037
10 154 0.480679
115 125 0.999964
220 91 0.999964
136 148 0.501928
157 170 0.500037
178 190 0.999964
199 214 0.999964
241 262 0.999964
262 290 0.999964
283 317 0.999964
304 339 0.999964
325 361 0.999964
20 22 0.499982
20 23 0.499982
41 43 0.999964
62 63 0.500168
167 39 0.167052
83 86 0.499983
62 95 0.499796
83 87 0.499981
188 56 0.499982
104 105 0.999964
125 134 0.999964
146 158 0.999964
167 170 0.832912
209 224 0.999964
188 235 0.499982
230 250 0.999964
251 265 0.249991
251 273 0.249991
251 274 0.249991
251 275 0.249991
272 302 0.999964
293 323 0.999964
314 334 0.499893
314 348 0.500071
9 8 0.999963
30 29 0.999276
114 6 0.499978
30 38 0.000687964
51 55 0.999964
72 50 0.999964
93 95 0.999964
9 132 1.58582e-06
114 124 0.499986
135 128 0.499983
135 145 0.499981
156 168 0.999964
177 168 0.999964
198 195 0.48378
198 215 0.516184
324 168 0.999964
219 237 0.499982
219 238 0.499982
240 261 0.999964
261 289 0.999964
282 315 0.499982
282 325 0.499982
303 338 0.999964
19 18 0.501633
40 42 0.999964
61 61 0.999964
166 39 1.08139e-05
19 101 0.498332
103 76 0.399776
82 85 0.999964
166 69 0.999953
124 133 0.999964
103 146 0.600188
145 152 0.498768
208 132 0.0171268
187 198 0.999964
208 223 0.982837
229 248 0.992591
229 249 0.00737276
145 303 0.501197
250 272 0.999964
271 301 0.999964
292 322 0.999964
313 334 0.000349608
313 346 0.999615
8 7 0.999964
29 28 0.999964
50 52 0.333321
50 53 0.333321
50 54 0.333321
71 75 0.999964
197 29 0.999964
92 94 0.999964
134 112 0.999964
113 123 0.999964
260 92 0.495575
155 165 0.999964
176 189 0.999964
218 236 0.499991
218 239 0.499973
239 260 0.999964
260 288 0.504389
281 316 0.999964
302 336 0.998802
302 337 0.00116176
323 358 0.333321
323 359 0.333321
323 360 0.333321
18 17 0.999964
102 5 0.999964
39 69 0.466594
60 61 0.999964
39 73 0.53337
81 84 0.999964
123 136 0.999964
186 112 0.499982
144 153 0.999964
291 118 0.199993
165 182 0.999964
291 148 0.199993
186 197 0.499982
270 172 0.999964
207 222 0.999964
228 247 0.501846
228 249 0.498119
249 269 0.498299
249 270 0.501665
291 280 0.199993
291 326 0.199993
291 329 0.199993
312 345 0.999964
7 5 0.999964
49 11 0.333321
28 31 0.999964
49 50 0.333322
49 51 0.333322
70 74 0.999964
91 106 0.999964
133 112 0.999964
112 122 0.999964
154 165 0.999964
175 188 0.999964
196 195 0.999964
238 194 0.199993
217 234 0.999964
238 256 0.199993
238 257 0.199993
238 258 0.199993
238 259 0.199993
280 257 0.249991
301 267 0.999964
259 287 0.999964
322 293 0.499982
280 310 0.249991
280 311 0.249991
280 312 0.249991
322 356 0.499982
17 21 0.999964
38 20 0.260561
38 40 0.739404
59 61 0.999964
122 44 0.499967
143 56 0.000112761
80 83 0.999964
101 129 0.999964
122 135 0.499998
143 155 0.999851
164 181 0.999964
185 196 0.999964
206 221 0.999964
227 246 0.999964
248 270 7.61023e-05
269 300 0.999964
248 314 0.999888
290 328 0.999964
311 344 0.999964
6 4 0.999964
48 20 0.999964
27 29 0.0013142
27 30 0.99865
111 5 0.565282
69 25 0.999964
237 17 0.999964
90 103 0.999964
300 29 0.499348
279 38 0.999964
132 113 0.999964
111 147 0.434682
153 166 0.999964
174 185 0.333321
174 186 0.333322
174 187 0.333321
195 208 0.999964
216 232 0.499982
216 233 0.499982
258 284 0.333321
258 285 0.333321
258 286 0.333321
300 335 0.500616
321 355 0.999964
16 19 0.999964
37 42 0.999964
58 60 0.999964
142 29 4.89709e-05
142 46 0.497627
79 76 0.999964
184 44 0.328164
121 114 0.166661
121 115 0.166661
121 116 0.166661
121 117 0.166661
100 127 0.486332
121 119 0.166661
100 128 0.513632
121 131 0.166661
142 152 0.00120361
142 154 0.501085
163 173 0.499982
163 174 0.499982
184 195 0.6718
205 220 0.999964
226 245 0.999964
268 245 0.720107
247 271 0.999964
268 299 0.279857
289 327 0.999964
310 343 0.999964
5 20 0.971571
26 20 0.501899
26 28 0.498066
5 39 0.0186067
47 49 0.999964
152 31 0.999964
236 2 0.499982
68 71 0.499982
68 72 0.499982
89 93 0.999964
5 132 0.00118286
278 38 0.999964
110 121 0.999964
131 113 0.999964
5 200 0.00860378
257 132 0.000410419
173 184 0.999964
194 206 0.999964
215 227 0.249991
215 229 0.249991
215 230 0.249991
215 231 0.249991
236 255 0.499982
257 282 0.499777
257 283 0.499777
299 334 0.999964
320 354 0.999964
15 17 0.999964
36 41 0.999964
99 29 0.999964
57 59 0.999964
78 81 0.503417
78 82 0.496547
183 46 0.500034
288 44 0.98641
120 130 0.999964
141 126 0.999964
162 172 0.999964
204 168 0.499982
183 193 0.49993
204 219 0.499982
225 242 0.315706
225 243 0.342129
225 244 0.342129
246 268 0.999964
267 298 0.999964
288 327 0.0135538
309 342 0.999964
4 3 0.999964
25 2 2.34568e-06
25 27 0.999962
109 20 0.333653
46 77 0.999964
67 70 0.999964
151 74 0.333394
88 105 0.999964
130 139 0.999964
151 169 0.666571
172 162 0.999964
298 135 0.999964
193 203 0.333321
193 204 0.333321
193 205 0.333321
214 226 0.999964
109 276 0.666312
235 254 0.999964
256 267 0.999964
277 309 0.999964
319 353 0.999964
14 15 0.499982
14 16 0.499982
56 12 0.999964
35 39 0.999963
245 6 0.439685
224 29 0.999964
140 63 0.999402
77 95 0.999964
245 31 0.000513844
98 108 0.249991
98 109 0.249991
98 110 0.249991
98 111 0.249991
119 113 0.0701915
119 130 0.929773
287 95 0.999964
266 124 0.999964
161 171 0.999964
182 194 0.999964
35 269 8.55442e-07
203 218 0.999964
140 269 0.000562453
245 266 0.559765
308 340 0.499981
308 341 0.499983
3 2 0.999964
45 6 5.32902e-06
24 26 0.999964
66 18 0.47648
45 29 4.42171e-05
45 39 6.87861e-06
45 56 0.426417
45 76 0.559525
66 69 0.520451
66 92 0.00303337
87 104 0.999964
318 20 0.999964
171 95 0.000722954
108 120 0.999964
129 140 0.999964
45 195 0.000102855
150 167 0.999964
255 132 0.487016
171 183 0.999241
45 242 0.0138631
192 207 0.999964
213 215 0.999964
234 253 0.999964
255 281 0.512948
276 307 0.999964
297 332 0.499982
297 333 0.499982
13 14 0.999964
34 32 0.332838
34 33 0.667126
55 58 0.999964
244 6 1.66888e-05
76 80 0.999964
97 95 0.999964
118 101 0.949515
118 127 0.0504489
307 69 0.999964
139 143 0.399986
139 144 0.399986
139 151 0.199993
160 164 0.999964
181 193 0.999964
202 210 0.199993
202 211 0.199993
202 212 0.199993
202 213 0.199993
202 217 0.199993
223 241 0.999964
244 263 0.999947
265 297 0.999964
286 321 0.999964
23 6 0.999964
44 46 0.333321
44 47 0.333322
44 48 0.333321
2 76 0.999964
107 37 0.999964
149 29 0.249683
65 62 0.999964
128 46 0.499285
275 5 0.999964
86 102 0.999964
128 132 0.500679
149 156 0.250094
149 157 0.250094
149 161 0.250094
170 176 0.199993
170 177 0.199993
170 178 0.199993
170 179 0.199993
170 180 0.199993
191 199 0.999964
212 225 0.999964
233 229 0.999964
254 280 0.999964
296 331 0.999964
317 350 0.333321
317 351 0.333321
317 352 0.333321
12 9 0.929697
33 5 0.00512894
33 9 0.236844
12 18 0.0702574
12 29 9.48521e-06
33 32 0.254946
33 37 0.503045
54 57 0.999964
243 6 1.04777e-05
75 79 0.999964
96 100 0.999964
117 127 5.20496e-06
117 137 0.999959
138 142 0.00031526
138 150 0.999649
159 163 0.999964
180 192 0.999964
201 209 0.999964
222 240 0.999964
243 264 0.999954
264 292 0.199993
264 293 0.199993
264 294 0.199993
264 295 0.199993
264 296 0.199993
306 293 0.999964
285 319 0.499982
285 320 0.499982
327 324 0.999964
43 8 0.144806
22 25 0.999964
106 44 0.999964
64 64 0.249991
64 65 0.249991
64 66 0.249991
64 67 0.249991
190 29 0.274604
85 88 0.333322
85 89 0.333323
85 92 0.333319
43 141 0.724044
43 142 0.131114
127 133 0.00125612
127 137 0.998708
148 160 0.999964
316 101 0.499981
169 175 0.999964
253 146 0.999964
190 202 0.556604
211 228 0.999964
232 252 0.999964
190 299 0.168757
274 313 0.999964
295 324 0.499981
295 330 0.499983
316 349 0.499983
11 10 0.333321
11 11 0.333322
11 13 0.333321
32 24 0.248818
95 2 0.249991
32 33 0.5029
32 38 0.248246
53 57 0.999964
74 78 0.999964
221 31 0.999964
95 97 0.249991
95 98 0.249991
95 99 0.249991
158 101 0.666643
116 126 0.999964
137 149 0.999964
242 130 0.66548
158 162 0.333321
179 191 0.999964
200 216 0.999964
263 291 0.999964
242 308 0.334484
305 293 0.999964
284 318 0.999964
326 357 0.999964
